tree
version=v2
num_class=1
num_tree_per_iteration=1
label_index=0
max_feature_idx=129
objective=regression
feature_names=av_change_abs_roll_std_100 classic_sta_lta1_mean av_change_abs_roll_std_1000 classic_sta_lta7_mean abs_trend classic_sta_lta4_mean std_last_10000 mean_change_rate_first_10000 kurt classic_sta_lta3_mean max_last_50000 classic_sta_lta8_mean autocorr_5 mean_change_rate min_roll_mean_100 Rmin_last_5000 min_roll_std_1000 stdAudioIncrease min_last_10000 max_roll_std_100 autocorr_50 Rmax_last_5000 mean_change_rate_first_50000 autocorr_500 autocorr_10000 classic_sta_lta2_mean std_roll_mean_100 max_roll_std_1000 av_change_abs_roll_mean_10 min_roll_std_100 q99_roll_mean_1000 Imean av_change_rate_roll_mean_10 std_roll_mean_1000 autocorr_100 av_change_rate_roll_std_1000 autocorr_10 Rstd__last_5000 avg_last_10000 autocorr_1000 abs_max_roll_std_1000 hmean q01_roll_std_1000 abs_max_roll_mean_10 mean_change_rate_last_50000 autocorr_5000 abs_max_roll_mean_1000 ave_roll_mean_100 max_roll_mean_100 avg_first_50000 mean_change_rate_last_10000 classic_sta_lta6_mean q99_roll_std_1000 min_last_50000 Rmean min_roll_std_10 q95_roll_std_1000 iqr abs_std max_roll_mean_10 Rmean_last_15000 q01_roll_mean_1000 mean_change_abs abs_max_roll_std_100 max_first_10000 MA_700MA_BB_high_mean q05_roll_std_100 max_first_50000 av_change_rate_roll_mean_100 std_roll_std_10 exp_Moving_average_3000_mean abs_max_roll_std_10 Hann_window_mean_50 q95_roll_mean_10 Rmin_last_15000 av_change_abs_roll_std_10 min_roll_mean_1000 max_to_min q99_roll_mean_100 min_roll_mean_10 trend q95_roll_std_100 avg_last_50000 q01_roll_std_100 std_first_10000 av_change_abs_roll_mean_1000 skew q99 Hilbert_mean Rmean_last_5000 minAudio MA_700MA_BB_low_mean q95_roll_mean_1000 av_change_rate_roll_std_10 q01_roll_mean_100 av_change_abs_roll_mean_100 q99_roll_std_10 classic_sta_lta5_mean q99_roll_mean_10 q05_roll_mean_1000 Hann_window_mean_150 ave_roll_mean_10 abs_q99 av_change_rate_roll_std_100 min_first_10000 exp_Moving_average_300_mean q001 Kalman_correction std_last_50000 abs_mean q01_roll_std_10 gmean iqr1 ave10 sum q05_roll_std_10 q05_roll_mean_10 q01_roll_mean_10 q05_roll_std_1000 q75Audio q25Audio abs_max_roll_mean_100 q01 q95 q05 q95_roll_std_10 abs_q95 ave_roll_std_10 stdAudio ave_roll_std_100
feature_infos=[-0.00044999808031888377:0.00050139426484522643] [0:1.1146118898097643] [-0.00028859269160664815:0.00034533035295970674] [0:0.99733447848836521] [-0.00069577447282736886:0.0006645023224953106] [0:0.97645873226967161] [0:50.451466111534174] [-0.12568965116518455:0.16910453660101174] [0:631.15892683450727] [0:0.97955739052546076] [0:5115] [0:0.99818155493660121] [-0.2412399859758825:0.48291697350869239] [-0.096501159712536144:0.13655475048906729] [-440.50999999999999:3.5600000000000001] [-442618.99550136545:0] [0:3.1662477990709625] [0:0.78298666666666672] [-749:0] [0:2173.9731187878388] [-0.088714748341982952:0.55470845964870197] [0:439570.45858373435] [-0.1123902064913862:0.15226135404146793] [-0.10048602539376041:0.14751454150797566] [-0.039262153376697688:0.060117222569058472] [0:1.3614629039057966] [0:15.966909976346299] [0:1499.5107317474015] [-0.00038669244616307768:0.00034335622374824997] [0:2.3446478919821931] [0:12.965] [-2.9928438986341166e-14:7.8774367769559212e-14] [0:75921.279998886937] [0:3.5770345912695567] [-0.44404260707617865:0.45475068418122472] [0:75397.328559697577] [-0.65425857193019576:0] [0:91276.583058056713] [0:5.5568] [-0.098716652647818676:0.08803794511135879] [0:1499.5107317474015] [0:4.9279681359544769] [0:3.5830520875726735] [0:4380.1000000000004] [-0.10298736150168833:0.16094230601280834] [-0.036742308581583685:0.063626192355735398] [0:73.841999999999999] [0:5.3925197963989575] [0:457.50999999999999] [0:5.5157999999999996] [-0.12993855177610242:0.17506373156509591] [0:1.1547550071184729] [0:953.24831232420559] [-4392:0] [-49.999999999999993:58.000000000000021] [0:0.69920589878719175] [0:122.7692608204763] [0:13] [0:150.43236825417767] [0:3685.0999999999999] [-180.19338904128159:187.06299496571918] [-4.641:4.742] [-0.00044000293335288895:0.00044666964446429651] [0:2173.9731187878388] [0:3479] [0:129.2238751124863] [0:3.3219654642186924] [0:3479] [0:75933.174214980085] [0:109.41231004547069] [0:5.3911399712353214] [0:3362.4702047420105] [0:5.3919520818605724] [0:34.799999999999997] [-514814.91433320154:0] [-0.00029179731412073176:0.00047896647476628162] [-48.777999999999999:4.5910000000000002] [0:2.4761906000000002] [0:34.219999999999999] [-4380.1000000000004:0] [-8.239300194143986e-06:6.5983954811821606e-06] [0:117.38549589478352] [0:5.3915800000000003] [0:2.8922746282577951] [0:436.46745261486467] [-2.0114093959731574e-05:1.1140939597315436e-05] [-4.0918262207255873:4.2194288243558846] [0:337] [0:50.671826806405754] [-317.12289320389726:467.96316717191172] [-5515:0] [-119.93997874589407:0] [0:7.226] [0:75924.928711562548] [-26.629999999999999:4.2800000000000002] [-3.8025350233489003e-05:4.3762508338892585e-05] [0:567.73378416663945] [0:1.0784949603091571] [0:251.11000000000058] [0:4.96] [0:5.3914864318308737] [0:5.3923822164663209] [0:674.0100000000092] [0:75936.77343498636] [-5515:0] [0:5.392367527999169] [-1702.0070000000001:0] [0:25.276520938497239] [0:247.19259169875261] [0:32.762073333333333] [0:1.5811388300762523] [0:9.4654179999999997] [0:89] [0:5.3939500000000002] [0:808799] [0:2.0976176963370921] [-24.5:3.2000000000000002] [-225.44999999999999:2.2000000000000002] [0:3.9441088974559517] [0:11] [-2:3] [0:457.50999999999999] [-336:0] [0:50] [-39:0] [0:76.123072854786386] [0:93] [0:26.10412483750418] [0:153.67862] [0:39.153994265819065]
tree_sizes=690 712 713 717 715 714 709 715 712 708 715 720 713 722 723 719 715 720 720 727 718 721 715 723 711 728 725 722 720 733 653 725 720 728 736 652 650 726 653 652 656 718 729 720 726 738 645 728 736 654 719 719 728 724 718 650 652 652 737 576 577 582 577 645 653 726 725 651

Tree=0
num_leaves=8
num_cat=0
split_feature=115 66 115 42 30 71 66
split_gain=10573.2 1206 908.388 226.155 173.304 128.68 111.448
threshold=1.6363916944842136 2.3699614254201156 1.6633299933145331 2.5730351700715919 4.7195000000000009 34.421071895034451 2.4841111248913679
decision_type=2 2 2 2 2 2 2
left_child=1 5 6 -3 -4 -1 -2
right_child=2 3 4 -5 -6 -7 -8
leaf_value=5.7655267604613023 5.6390311685726919 5.7656901147787032 5.6040290585239694 5.7040679446799674 5.5091632322050161 5.8629451513970761 5.5835091301672479
leaf_count=38 197 306 52 290 649 314 167
internal_value=0 2.4233 -2.16811 1.5565 -2.83362 3.89094 -0.886461
internal_count=2013 948 1065 596 701 352 364
shrinkage=1


Tree=1
num_leaves=8
num_cat=0
split_feature=115 66 66 123 66 92 8
split_gain=9542.58 1114.57 796.775 241.233 209.584 137.47 116.456
threshold=1.6363916944842862 2.3699614254201156 2.5200108200765623 10.500000000000002 2.4841111248913679 4.5470000000000015 7.6935679543013924
decision_type=2 2 2 2 2 2 2
left_child=1 6 4 -3 -2 -4 -1
right_child=2 3 5 -5 -6 -7 -8
leaf_value=0.093874730821698907 -0.018328125989379867 0.096446224196351932 -0.044489248673762048 0.030549483518795269 -0.084103551788380512 -0.1529641824490437 0.19391433794793556
leaf_count=32 192 389 31 216 328 505 320
internal_value=0 2.28156 -2.07824 1.45839 -1.19634 -2.93381 3.6964
internal_count=2013 957 1056 605 520 536 352
shrinkage=0.05


Tree=2
num_leaves=8
num_cat=0
split_feature=115 66 115 42 118 50 61
split_gain=8614.87 981.74 747.732 195.661 146.753 115.174 94.9522
threshold=1.6363916944842136 2.3699614254201156 1.6633299933145331 2.5730351700715919 2.7444630761972806 0.10520036800336786 3.7105000000000006
decision_type=2 2 2 2 2 2 2
left_child=1 5 6 -3 -4 -1 -2
right_child=2 3 4 -5 -6 -7 -8
leaf_value=0.19184122895051664 0.013567432726952523 0.098156062101038319 -0.091190303716904078 0.04083885005819772 -0.14224430398649507 0.1252788899942886 -0.051952423196131796
leaf_count=266 68 306 195 290 506 86 296
internal_value=0 2.1874 -1.95705 1.40534 -2.56085 3.51158 -0.794249
internal_count=2013 948 1065 596 701 352 364
shrinkage=0.05


Tree=3
num_leaves=8
num_cat=0
split_feature=66 66 66 125 66 123 92
split_gain=7797.17 1010.88 565.655 157.364 139.021 130.205 123.433
threshold=2.4661547380322326 2.3923066929493957 2.5200108200765623 4.6933756109215325 2.4849242412690606 10.500000000000002 4.5470000000000015
decision_type=2 2 2 2 2 2 2
left_child=1 3 4 -1 -2 -3 -4
right_child=2 5 6 -5 -6 -7 -8
leaf_value=0.17758541041994358 -0.020267745358064589 0.074675274493761476 -0.035728987967295033 0.12136498070977704 -0.076995817360606178 0.023283794379759176 -0.13851662633442643
leaf_count=253 162 246 31 245 324 247 505
internal_value=0 1.99364 -1.94302 2.99854 -1.16173 0.978548 -2.65144
internal_count=2013 991 1022 498 486 493 536
shrinkage=0.05


Tree=4
num_leaves=8
num_cat=0
split_feature=66 66 66 110 66 123 92
split_gain=7036.94 912.32 510.504 137.602 125.466 117.51 111.398
threshold=2.4661547380322326 2.3923066929493957 2.5200108200765623 1.1972189997378262 2.4849242412690606 10.500000000000002 4.5470000000000015
decision_type=2 2 2 2 2 2 2
left_child=1 3 4 -1 -2 -3 -4
right_child=2 5 6 -5 -6 -7 -8
leaf_value=0.18642157785992586 -0.019254358836024263 0.070941508243928059 -0.033942539785658164 0.12672786357081736 -0.073146026180845106 0.022119604745268945 -0.13159079540115182
leaf_count=131 162 246 31 367 324 247 505
internal_value=0 1.89396 -1.84587 2.84861 -1.10364 0.929621 -2.51886
internal_count=2013 991 1022 498 486 493 536
shrinkage=0.05


Tree=5
num_leaves=8
num_cat=0
split_feature=66 66 83 77 41 73 61
split_gain=6413.59 640.864 426.193 168.283 158.248 128.656 93.0734
threshold=2.4661547380322326 2.3923066929493957 2.3314602865534524 0.87026647500000009 3.2419735248981687 7.3500000000000005 3.6935000000000007
decision_type=2 2 2 2 2 2 2
left_child=1 3 6 -1 -4 -3 -2
right_child=2 5 4 -5 -6 -7 -8
leaf_value=-0.0033663344347256829 0.0080930202476035152 0.077455652781325046 -0.049236290643994624 0.13802140090883394 -0.1203452388012004 0.02631854140798294 -0.055356626067494932
leaf_count=22 72 245 91 485 558 247 293
internal_value=0 1.84872 -1.7213 2.63772 -2.20749 1.03566 -0.856811
internal_count=2013 999 1014 507 649 492 365
shrinkage=0.05


Tree=6
num_leaves=8
num_cat=0
split_feature=66 66 83 83 86 115 49
split_gain=5788.27 582.34 384.639 168.888 165.15 143.05 86.9274
threshold=2.4661547380322326 2.374474955040228 2.3314602865534524 2.2675132104646019 0.079825466492041017 1.6996731711977036 4.0794500000000005
decision_type=2 2 2 2 2 2 2
left_child=1 4 6 -3 -1 -4 -2
right_child=2 3 5 -5 -6 -7 -8
leaf_value=0.1058577778018976 0.045634826684922532 0.080685653838376961 -0.082129332407641767 0.027662951089865891 0.17121068305720044 -0.1291024252997747 -0.047594955450574149
leaf_count=213 27 340 335 269 177 314 338
internal_value=0 1.75629 -1.63524 1.1453 2.71036 -2.09712 -0.81397
internal_count=2013 999 1014 609 390 649 365
shrinkage=0.05


Tree=7
num_leaves=8
num_cat=0
split_feature=66 66 115 73 86 115 46
split_gain=5223.91 525.562 349.378 153.669 149.048 137.675 88.8918
threshold=2.4661547380322326 2.374474955040228 1.6633299933145331 7.3500000000000005 0.079825466492041017 1.7029386365931931 5.025500000000001
decision_type=2 2 2 2 2 2 2
left_child=1 4 6 -3 -1 -4 -2
right_child=2 3 5 -5 -6 -7 -8
leaf_value=0.10056488912250899 0.024278193805366756 0.075575213508060457 -0.082475361205945633 0.024608526981468846 0.16265014805383771 -0.13040643929623477 -0.046151485679380794
leaf_count=213 54 356 479 253 177 218 263
internal_value=0 1.66847 -1.55347 1.08804 2.57484 -1.94933 -0.68308
internal_count=2013 999 1014 609 390 697 317
shrinkage=0.05


Tree=8
num_leaves=8
num_cat=0
split_feature=66 66 118 77 61 92 73
split_gain=4714.58 478.905 326.647 147.836 112.712 109.554 99.1443
threshold=2.4661547380322326 2.3923066929493957 2.7444630761972806 0.87026647500000009 3.6985000000000006 4.5470000000000015 7.3500000000000005
decision_type=2 2 2 2 2 2 2
left_child=1 3 4 -1 -2 -4 -3
right_child=2 6 5 -5 -6 -7 -8
leaf_value=-0.01341439108364284 0.0046392811932846117 0.066646325463163 -0.0098227470512351686 0.11910559814805573 -0.056079506844906216 -0.1067046350479066 0.021755773535183057
leaf_count=22 95 245 31 485 391 497 247
internal_value=0 1.58505 -1.4758 2.2671 -0.884212 -2.02033 0.882196
internal_count=2013 999 1014 507 486 528 492
shrinkage=0.05


Tree=9
num_leaves=8
num_cat=0
split_feature=66 66 83 8 83 41 49
split_gain=4254.91 437.16 300.846 137.228 134.328 125.688 70.266
threshold=2.4661547380322326 2.374474955040228 2.3314602865534524 7.6935679543013924 2.2696949467968426 3.2419735248981687 4.0794500000000005
decision_type=2 2 2 2 2 2 2
left_child=1 3 6 -1 -3 -4 -2
right_child=2 4 5 -5 -6 -7 -8
leaf_value=0.015690251746244967 0.043835429074587651 0.068751448977707061 -0.036038103552310019 0.12533700918586807 0.02115321736034079 -0.099410639180677468 -0.039984802269761199
leaf_count=31 27 354 91 359 255 558 338
internal_value=0 1.5058 -1.40201 2.33243 0.976423 -1.8105 -0.675688
internal_count=2013 999 1014 390 609 649 365
shrinkage=0.05


Tree=10
num_leaves=8
num_cat=0
split_feature=115 115 66 77 39 49 41
split_gain=3881 365.975 341.89 147.218 100.542 94.9526 82.4701
threshold=1.636391694484119 1.6633299933176688 2.3971258030763201 0.88906470000000015 -0.0095689812507878478 4.1051600000000006 3.1995222564355403
decision_type=2 2 2 2 2 2 2
left_child=2 6 3 -1 -4 -3 -2
right_child=1 5 4 -5 -6 -7 -8
leaf_value=-0.019085251389501189 0.011142454960530526 -0.011550808278843762 -0.03370882599898007 0.10285262326247875 0.044958672293942285 -0.10018569402889835 -0.045377887770882808
leaf_count=26 76 32 46 516 347 542 428
internal_value=0 -1.35891 1.42515 1.94006 0.715015 -1.90489 -0.7371
internal_count=2013 1078 935 542 393 574 504
shrinkage=0.05


Tree=11
num_leaves=8
num_cat=0
split_feature=115 110 66 29 49 39 46
split_gain=3502.6 333.069 308.556 146.008 94.7872 90.7387 75.4236
threshold=1.636391694484119 1.2866839377082171 2.3971258030763201 1.9284551828850367 4.2451200000000009 -0.0095689812507878478 5.025500000000001
decision_type=2 2 2 2 2 2 2
left_child=2 6 3 -1 -3 -4 -2
right_child=1 4 5 -5 -6 -7 -8
leaf_value=0.1080583403843498 0.020308514857184021 -0.043195886684435553 -0.032023384251996231 0.049810565490829378 -0.095743333690329821 0.042710738238859763 -0.039246450813022762
leaf_count=394 62 102 46 148 541 347 373
internal_value=0 -1.29096 1.35389 1.84306 -1.74815 0.679265 -0.615163
internal_count=2013 1078 935 542 643 393 435
shrinkage=0.05


Tree=12
num_leaves=8
num_cat=0
split_feature=115 115 66 15 8 49 41
split_gain=3161.1 304.699 281.241 139.759 86.4576 81.0221 69.078
threshold=1.636391694484119 1.6633299933176688 2.3699614254201156 -5680.8296027837196 9.3192493108258763 4.1051600000000006 3.1995222564355403
decision_type=2 2 2 2 2 2 2
left_child=2 6 4 -4 -1 -3 -2
right_child=1 5 3 -5 -6 -7 -8
leaf_value=0.038700948007404812 0.010975602274074367 -0.0089188709855079658 0.051216596869470991 -0.029954564877612107 0.10968394302824723 -0.090794198995377065 -0.04075248053013978
leaf_count=50 76 32 524 59 302 542 428
internal_value=0 -1.22642 1.2862 0.86004 1.99202 -1.72459 -0.659044
internal_count=2013 1078 935 583 352 574 504
shrinkage=0.05


Tree=13
num_leaves=8
num_cat=0
split_feature=115 110 66 11 39 83 46
split_gain=2852.89 278.282 263.181 140.861 82.0513 80.9229 63.7857
threshold=1.636391694484119 1.2866839377082171 2.3971258030763201 0.91768284124670807 -0.0095689812507878478 2.3677014382925057 5.025500000000001
decision_type=2 2 2 2 2 2 2
left_child=2 6 3 -1 -4 -3 -2
right_child=1 5 4 -5 -6 -7 -8
leaf_value=-0.02161986067891121 0.019593317341059447 -0.065232827813462846 -0.032806585648137591 0.089853064359840584 0.038259990237752561 -0.10175752090860386 -0.035174570730500343
leaf_count=30 62 398 46 512 347 245 373
internal_value=0 -1.16509 1.22189 1.67366 0.598835 -1.58299 -0.547371
internal_count=2013 1078 935 542 393 643 435
shrinkage=0.05


Tree=14
num_leaves=8
num_cat=0
split_feature=115 115 29 39 118 49 46
split_gain=2574.73 251.718 250.751 190.506 146.374 72.7859 58.2434
threshold=1.636391694484119 1.6633299933176688 1.9284551828850367 -0.0075852309213282152 2.6234618446088898 4.1051600000000006 5.025500000000001
decision_type=2 2 2 2 2 2 2
left_child=2 6 4 -4 -1 -3 -2
right_child=1 5 3 -5 -6 -7 -8
leaf_value=0.095070265486518313 0.011415386405093847 -0.0047059548553079374 -0.067957917444328678 0.039760464152470698 0.038564793096302313 -0.082308293646459252 -0.036608629581399349
leaf_count=404 74 32 47 324 160 542 430
internal_value=0 -1.10684 1.16079 0.522284 1.58081 -1.55964 -0.59115
internal_count=2013 1078 935 371 564 574 504
shrinkage=0.05


Tree=15
num_leaves=8
num_cat=0
split_feature=66 66 0 118 37 41 97
split_gain=2141.53 376.793 154.701 130.905 105.801 94.9295 35.0417
threshold=2.4784933500591513 2.41254088724205 -4.7170880167626793e-06 2.8037724571481943 1242.8897064348309 3.1943446528005484 1.0629709267400427
decision_type=2 2 2 2 2 2 2
left_child=1 2 -1 5 -3 -2 -5
right_child=3 4 -4 6 -6 -7 -8
leaf_value=0.011794144217150682 0.0035989357365502255 -0.092565611656755212 0.079834561340149643 -0.11432721576019496 0.015291984131370015 -0.056669770960073397 -0.050252540237628499
leaf_count=99 72 24 535 119 432 706 26
internal_value=0 0.885572 1.3842 -1.18443 0.192305 -1.02184 -2.05676
internal_count=2013 1090 634 923 456 778 145
shrinkage=0.05


Tree=16
num_leaves=8
num_cat=0
split_feature=66 66 17 66 49 37 33
split_gain=1932.73 340.056 143.061 117.282 98.6743 95.4858 27.7163
threshold=2.4784933500591513 2.41254088724205 0.7167933333333335 2.5534982816186136 4.0561000000000007 1242.8897064348309 0.21189831844331125
decision_type=2 2 2 2 2 2 2
left_child=1 2 -1 4 -2 -3 -5
right_child=3 5 -4 6 -6 -7 -8
leaf_value=0.053920698172768483 0.043185111160079642 -0.087937331323822351 0.11344000533784902 -0.030708484449202107 -0.049579746085467259 0.014527384796221871 -0.090748531283146097
leaf_count=508 30 24 126 21 645 432 227
internal_value=0 0.841293 1.31499 -1.1252 -0.909137 0.18269 -1.71329
internal_count=2013 1090 634 923 675 456 248
shrinkage=0.05


Tree=17
num_leaves=8
num_cat=0
split_feature=66 66 96 118 28 49 97
split_gain=1744.29 320.483 136.212 109.761 109.552 80.4764 31.7674
threshold=2.4784933500591513 2.3699614254201156 10.93932716345898 2.8037724571481943 -1.6001066737782579e-05 4.0561000000000007 1.0629709267400427
decision_type=2 2 2 2 2 2 2
left_child=1 4 -3 5 -1 -2 -5
right_child=3 2 -4 6 -6 -7 -8
leaf_value=0.15886456150418293 0.030403891442851591 -0.04093935199153538 0.028880292259108677 -0.10432569771817252 0.069850661676269063 -0.049388017018002162 -0.043317947250146135
leaf_count=39 33 78 669 119 304 745 26
internal_value=0 0.799229 0.431798 -1.06894 1.59944 -0.920071 -1.86773
internal_count=2013 1090 747 923 343 778 145
shrinkage=0.05


Tree=18
num_leaves=8
num_cat=0
split_feature=66 125 58 20 118 41 33
split_gain=1574.22 294.614 164.781 108.451 99.0593 75.3717 29.6682
threshold=2.4784933500591513 4.6933756109215325 3.3511082012077575 0.091045929511686149 2.8037724571481943 3.1943446528005484 0.24249136468772667
decision_type=2 2 2 2 2 2 2
left_child=1 3 -3 -1 5 -2 -6
right_child=4 2 -4 -5 6 -7 -8
leaf_value=0.057496579201288624 0.0050293587083514368 -0.049001044011346889 0.030596526072799696 0.12451532063828337 -0.05935709795492046 -0.048673259011217829 -0.10613945214957982
leaf_count=142 72 71 772 105 54 706 91
internal_value=0 0.759267 0.477852 1.71973 -1.0155 -0.874067 -1.77434
internal_count=2013 1090 843 247 923 778 145
shrinkage=0.05


Tree=19
num_leaves=8
num_cat=0
split_feature=115 66 0 60 111 13 5
split_gain=1425.72 267.863 130.607 122.416 101.433 108.221 58.2676
threshold=1.6363916944868018 2.41254088724205 -4.7170880167626793e-06 12.605961971956544 4.3229360000000012 0.012360920875128863 0.81725318359326737
decision_type=2 2 2 2 2 2 2
left_child=1 2 -1 -3 6 -6 -2
right_child=4 3 -4 -5 5 -7 -8
leaf_value=0.0050313580847072478 -0.067777914210007742 -0.0045307935401288383 0.067549011661479627 0.069930499645952993 -0.063781127034190796 -0.02275486869044379 0.017758065984748741
leaf_count=99 26 366 535 65 620 217 85
internal_value=0 0.742235 1.15574 0.133977 -0.943774 -1.06289 -0.0455478
internal_count=2013 1065 634 431 948 837 111
shrinkage=0.05


Tree=20
num_leaves=8
num_cat=0
split_feature=66 83 66 44 37 49 30
split_gain=1356.45 177.468 174.359 145.38 141.192 77.1009 51.9485
threshold=2.4441023635757282 2.3677014382925057 2.3699614254201156 0.10685833713701327 1140.3466106577778 4.1864200000000009 4.7545000000000011
decision_type=2 2 2 2 2 2 2
left_child=2 5 3 -1 -4 -2 -3
right_child=1 6 4 -5 -6 -7 -8
leaf_value=0.093470279803236855 0.018414292895301648 0.0066210841848736712 -0.032569053100988919 0.0012918244898319246 0.044685571290696592 -0.025781118237800583 -0.075671065177313354
leaf_count=296 112 21 69 50 414 830 221
internal_value=0 -0.60676 1.06114 1.60299 0.672984 -0.410529 -1.3706
internal_count=2013 1184 829 346 483 942 242
shrinkage=0.05


Tree=21
num_leaves=8
num_cat=0
split_feature=66 82 13 115 83 115 30
split_gain=1224.2 164.226 205.347 162.966 160.165 69.6435 46.8835
threshold=2.4441023635757282 4.3834700000000009 0.01007528556099554 1.5238839267549735 2.3677014382925057 1.6465452046968265 4.7545000000000011
decision_type=2 2 2 2 2 2 2
left_child=1 2 -1 -3 5 -2 -6
right_child=4 3 -4 -5 6 -7 -8
leaf_value=-0.014707540720701219 0.00053472604260776781 0.12365276180017665 0.10717624523844092 0.028442912795761017 0.0062900301069021228 -0.028725495440885426 -0.071887512288816971
leaf_count=42 297 49 195 543 21 645 221
internal_value=0 1.00809 1.71153 0.726469 -0.576422 -0.390003 -1.30207
internal_count=2013 829 237 592 1184 942 242
shrinkage=0.05


Tree=22
num_leaves=8
num_cat=0
split_feature=118 29 83 82 66 88 30
split_gain=1105.42 152.574 151.076 119.2 114.751 72.2081 42.3124
threshold=2.6603242890946928 1.9172265256813079 2.3677014382925057 4.4680500000000007 2.3393644997363925 6.6809589418558337 4.7545000000000011
decision_type=2 2 2 2 2 2 2
left_child=1 3 5 -1 -3 -2 -4
right_child=2 4 6 -5 -6 -7 -8
leaf_value=0.099956849204479836 0.017143476914610829 0.11626072566836113 0.0059755281944360054 0.047466926019281375 0.015496418009830355 -0.02303152327214265 -0.068293136208659524
leaf_count=180 129 31 21 271 319 841 221
internal_value=0 0.98385 -0.53012 1.36833 0.488425 -0.353773 -1.23697
internal_count=2013 801 1212 451 350 970 242
shrinkage=0.05


Tree=23
num_leaves=8
num_cat=0
split_feature=66 82 13 7 83 49 30
split_gain=999.047 141.326 181.945 154.581 130.229 67.5576 38.1869
threshold=2.4441023635757282 4.3834700000000009 0.01007528556099554 -0.0012780291893883559 2.3677014382925057 4.1864200000000009 4.7545000000000011
decision_type=2 2 2 2 2 2 2
left_child=1 2 -1 -3 5 -2 -6
right_child=4 3 -4 -5 6 -7 -8
leaf_value=-0.016238552447231044 0.018816494955016035 -0.076221320754097363 0.09849021679829234 0.03847437590475189 0.0056767514064198455 -0.022553419538933844 -0.064878479695596583
leaf_count=42 112 31 195 561 21 830 221
internal_value=0 0.910611 1.56317 0.649367 -0.520791 -0.352694 -1.17512
internal_count=2013 829 237 592 1184 942 242
shrinkage=0.05


Tree=24
num_leaves=8
num_cat=0
split_feature=66 110 82 86 66 49 85
split_gain=901.64 135.848 122.932 120.878 119.358 79.1226 28.1474
threshold=2.4441023635757282 1.1972189997378428 4.3834700000000009 0.10303285281708389 2.5534982816186136 4.24946 -1.8624161073825523e-06
decision_type=2 2 2 2 2 2 2
left_child=1 3 -3 -1 5 -2 -6
right_child=4 2 -4 -5 6 -7 -8
leaf_value=0.054642165693290091 0.016369443751920929 0.068672598865985174 0.021606334855530183 0.15526376517246598 -0.085482842520239855 -0.023104166381593932 -0.046247764083224979
leaf_count=85 151 191 507 46 62 797 174
internal_value=0 0.865081 0.68971 1.7995 -0.494751 -0.336334 -1.13111
internal_count=2013 829 698 131 1184 948 236
shrinkage=0.05


Tree=25
num_leaves=8
num_cat=0
split_feature=115 110 46 50 118 41 33
split_gain=901.476 173.863 145.494 85.0036 63.4369 69.4058 33.9477
threshold=1.6465452046968265 1.1972189997378262 5.7165000000000008 0.026623708253815322 2.8037724571481943 3.5152918758127334 0.25538768884929541
decision_type=2 2 2 2 2 2 2
left_child=1 3 -3 -1 5 -2 -6
right_child=4 2 -4 -5 6 -7 -8
leaf_value=-0.014847768731415273 -0.040271408422716481 0.026194664447328014 -0.047111385819591484 0.096558006519467388 -0.044840672570348218 0.0014725027453279546 -0.093754667686681226
leaf_count=20 610 930 73 119 69 119 73
internal_value=0 0.562441 0.417187 1.61057 -0.788253 -0.669145 -1.39973
internal_count=2013 1142 1003 139 871 729 142
shrinkage=0.05


Tree=26
num_leaves=8
num_cat=0
split_feature=115 125 64 106 118 41 33
split_gain=813.582 162.031 145.571 113.698 57.2518 62.6387 30.6378
threshold=1.6465452046968265 4.6933756109215325 50.500000000000007 -19.000499999999999 2.8037724571481943 3.5152918758127334 0.25538768884929541
decision_type=2 2 2 2 2 2 2
left_child=1 2 -1 -3 5 -2 -6
right_child=4 3 -4 -5 6 -7 -8
leaf_value=0.047458158422940884 -0.038257838017459904 0.021239953600762144 0.16417324715604387 -0.048005070514045657 -0.042598639774149745 0.0013988769374506064 -0.089066933667006562
leaf_count=244 610 804 30 64 69 119 73
internal_value=0 0.534318 1.20474 0.322687 -0.748841 -0.635688 -1.32975
internal_count=2013 1142 274 868 871 729 142
shrinkage=0.05


Tree=27
num_leaves=8
num_cat=0
split_feature=115 29 46 110 8 118 3
split_gain=734.258 156.222 118.848 103.613 55.3913 52.8057 13.519
threshold=1.6465452046968265 1.9561867668162591 5.7095000000000011 1.1972189997378586 213.16271918551726 2.7915175208800203 0.98733057063540908
decision_type=2 2 2 2 2 2 2
left_child=1 3 -3 -1 5 -2 -6
right_child=4 2 -4 -5 6 -7 -8
leaf_value=0.074734473139149687 -0.025894427764822071 0.0045303297304162835 -0.10363528560847045 0.028399830535221712 -0.064591674139169428 -0.057945257214014424 -0.11481963027091253
leaf_count=146 653 273 28 695 37 160 21
internal_value=0 0.507603 -0.110632 0.728873 -0.711399 -0.644042 -1.65555
internal_count=2013 1142 301 841 871 813 58
shrinkage=0.05


Tree=28
num_leaves=8
num_cat=0
split_feature=115 29 46 110 36 41 48
split_gain=662.668 140.991 107.261 93.5105 50.1711 59.141 56.51
threshold=1.6465452046968265 1.9561867668162591 5.7095000000000011 1.1972189997378586 -0.45153853127080373 3.1995222564355403 8.2600000000000016
decision_type=2 2 2 2 2 2 2
left_child=1 3 -3 -1 5 -2 -6
right_child=4 2 -4 -5 6 -7 -8
leaf_value=0.070997749892867182 0.026019239940214902 0.0043038132076830549 -0.098453521059959068 0.026979839032978195 0.020446916902437808 -0.03070246911966152 -0.060196602570633188
leaf_count=146 50 273 28 695 24 568 229
internal_value=0 0.482222 -0.1051 0.692429 -0.675829 -0.522267 -1.05093
internal_count=2013 1142 301 841 871 618 253
shrinkage=0.05


Tree=29
num_leaves=8
num_cat=0
split_feature=115 29 46 86 22 24 16
split_gain=598.058 127.244 96.8026 89.8224 50.4518 56.0921 35.4345
threshold=1.6465452046968265 1.9561867668162591 5.7095000000000011 0.2493218178097466 0.025997975599005536 -0.0046399579346662169 2.5277443485232278
decision_type=2 2 2 2 2 2 2
left_child=1 3 -3 -1 5 -2 -6
right_child=4 2 -4 -5 6 -7 -8
leaf_value=0.023882727721821546 -0.011318485833138055 0.0040886219638662461 -0.093530845302822338 0.062532994980277617 0.038969424558117201 -0.043810658495278425 -0.021473953053667977
leaf_count=645 171 273 28 196 38 595 67
internal_value=0 0.458111 -0.0998452 0.657808 -0.642037 -0.731144 0.00801586
internal_count=2013 1142 301 841 871 766 105
shrinkage=0.05


Tree=30
num_leaves=7
num_cat=0
split_feature=118 33 118 13 65 16
split_gain=633.376 105.775 120.562 85.4799 81.7979 74.4212
threshold=2.6603242890946928 0.19728945440905379 2.5722541653408135 0.012360920875128863 17.099474869977595 2.5277443485232278
decision_type=2 2 2 2 2 2
left_child=1 -1 -3 4 -2 -5
right_child=3 2 -4 5 -6 -7
leaf_value=-0.058004438749824964 0.022882635735591211 0.074866407046861511 0.027175006864838633 0.019797906876859055 -0.036844852454653992 -0.024033241674648292
leaf_count=30 62 170 601 179 760 211
internal_value=0 0.682131 0.753812 -0.463871 -0.646797 -0.0783174
internal_count=2013 801 771 1212 822 390
shrinkage=0.05


Tree=31
num_leaves=8
num_cat=0
split_feature=118 5 33 83 32 34 95
split_gain=571.622 104.033 104.227 78.3315 63.0463 59.2347 50.403
threshold=2.6603242890946928 0.86313506088428971 0.19728945440905379 2.3305394528765833 75106.448410416066 -0.13482956593784004 3.8025350233489027e-06
decision_type=2 2 2 2 2 2 2
left_child=1 2 -1 6 -3 -5 -2
right_child=3 4 -4 5 -6 -7 -8
leaf_value=-0.058087215878601585 -0.014840484926394627 -0.10871310670685488 0.040207889148527493 0.018327596557198785 0.015328453108668328 -0.037733930245761028 0.025601586503207041
leaf_count=28 449 20 732 51 21 619 93
internal_value=0 0.648024 0.73173 -0.440677 -0.903592 -0.669331 -0.158023
internal_count=2013 801 760 1212 41 670 542
shrinkage=0.05


Tree=32
num_leaves=8
num_cat=0
split_feature=118 49 5 75 13 36 92
split_gain=515.889 99.4531 98.1714 74.8288 73.8026 72.6929 69.5504
threshold=2.6603242890946928 4.9735600000000009 0.86313506088428971 8.0787441985307768e-07 0.012360920875128863 -0.43423115223261494 4.8045
decision_type=2 2 2 2 2 2 2
left_child=1 2 -1 -3 6 -6 -2
right_child=4 3 -4 -5 5 -7 -8
leaf_value=0.039108908972694839 -0.014272270084159015 -0.11099285305965514 -0.041368314307183032 0.024143386092036964 0.012954754657518592 -0.032190114914851291 -0.043385192037834225
leaf_count=720 394 21 40 20 252 138 428
internal_value=0 0.615623 0.697465 -0.901455 -0.418643 -0.0603917 -0.588616
internal_count=2013 801 760 41 1212 390 822
shrinkage=0.05


Tree=33
num_leaves=8
num_cat=0
split_feature=118 12 51 86 34 13 61
split_gain=465.589 91.0326 313.413 97.4428 68.9172 69.3914 62.9136
threshold=2.6603242890946928 -0.16037957703510322 0.99043526094250312 -0.48848118216942832 -0.14283635910632478 0.015964735951093479 3.8235000000000006
decision_type=2 2 2 2 2 2 2
left_child=1 2 -1 -3 6 -6 -2
right_child=4 3 -4 -5 5 -7 -8
leaf_value=-0.19232615421293306 0.10262498267227785 -0.069304820387200872 0.043994824104803681 0.037537060659823505 -0.030413664348928324 -0.002567100702744819 -0.0011867341688937612
leaf_count=20 20 22 47 712 832 306 54
internal_value=0 0.584842 -0.530975 0.686694 -0.397711 -0.458518 0.53741
internal_count=2013 801 67 734 1212 1138 74
shrinkage=0.05


Tree=34
num_leaves=8
num_cat=0
split_feature=110 30 85 22 11 28 34
split_gain=424.858 98.3951 135.965 89.2766 86.434 66.7054 58.7334
threshold=1.2516655570351585 5.4155000000000006 1.3489932885906044e-06 0.031985686294248132 0.91602215858767722 -2.0001333422228334e-06 -0.11139494612865382
decision_type=2 2 2 2 2 2 2
left_child=1 4 -3 6 -1 -5 -2
right_child=3 2 -4 5 -6 -7 -8
leaf_value=-0.059932022055853976 0.0044345340563151509 -0.084103023042766067 0.067782892628937316 -0.018651739012711915 0.038682881099605604 0.036962684457246056 -0.028803266088474638
leaf_count=23 156 41 23 100 655 117 898
internal_value=0 0.594869 -0.59038 -0.357421 0.706751 0.226678 -0.477676
internal_count=2013 742 64 1271 678 217 1054
shrinkage=0.05


Tree=35
num_leaves=7
num_cat=0
split_feature=110 37 20 0 5 13
split_gain=361.418 125.167 121.407 117.374 113.136 89.732
threshold=1.2516655570351585 1256.0113910751204 0.11474950628928415 -2.2898600650104225e-06 0.85361928908276197 0.012360920875128863
decision_type=2 2 2 2 2 2
left_child=2 -2 3 -1 -4 -3
right_child=1 5 4 -5 -6 -7
leaf_value=-0.027126351460773392 -0.13129062038724837 -0.023399645331535272 0.065298409479514416 0.028453818523428511 -0.022327082309612011 0.004851434989605454
leaf_count=136 23 808 257 315 43 431
internal_value=0 -0.314352 0.561795 0.23387 1.05478 -0.271444
internal_count=2013 1262 751 451 300 1239
shrinkage=0.05


Tree=36
num_leaves=7
num_cat=0
split_feature=110 37 20 0 5 110
split_gain=326.18 112.963 109.57 105.93 102.105 83.6709
threshold=1.2516655570351585 1256.0113910751204 0.11474950628928415 -2.2898600650104225e-06 0.85361928908276197 1.2866839377035142
decision_type=2 2 2 2 2 2
left_child=2 -2 3 -1 -4 -3
right_child=1 5 4 -5 -6 -7
leaf_value=-0.025770034011100718 -0.12472609003762836 0.0052180332147169009 0.062033488197027475 0.027031127498281883 -0.02121072790996973 -0.022215085024381864
leaf_count=136 23 421 257 315 43 818
internal_value=0 -0.298635 0.533705 0.222177 1.00204 -0.257872
internal_count=2013 1262 751 451 300 1239
shrinkage=0.05


Tree=37
num_leaves=8
num_cat=0
split_feature=13 105 24 115 92 33 18
split_gain=302.132 120.355 156.652 133.759 79.859 72.9379 25.3284
threshold=0.012360920875128863 4.3268970300087535 0.0011692868614502532 1.5634719199407823 4.9945000000000013 0.29754618484736434 -91.499999999999986
decision_type=2 2 2 2 2 2 2
left_child=4 2 -2 -3 5 -1 -6
right_child=1 3 -4 -5 6 -7 -8
leaf_value=-0.017701294405372998 0.10558771716896445 0.047717146645413669 -0.01020979567066483 0.0026108203047930868 -0.09034438556326288 0.064712201950273343 -0.042720700965087482
leaf_count=652 80 205 46 829 35 28 138
internal_value=0 0.343513 1.26625 0.231071 -0.440488 -0.286156 -1.04711
internal_count=2013 1160 126 1034 853 680 173
shrinkage=0.05


Tree=38
num_leaves=7
num_cat=0
split_feature=13 16 86 37 41 33
split_gain=272.674 134.001 89.9015 72.8521 100.019 53.2965
threshold=0.012360920875128863 2.5277443485232278 -0.40276775567207029 1261.5887420907668 3.2349097162206992 0.23623217988408107
decision_type=2 2 2 2 2 2
left_child=3 2 -2 -1 -5 -3
right_child=1 5 -4 4 -6 -7
leaf_value=-0.11289789311233021 -0.05350090914538929 -0.041563950629349339 0.028209845771908416 0.0094451074992589982 -0.029317260835941675 0.0052731728854660811
leaf_count=21 35 114 881 230 602 130
internal_value=0 0.326337 0.501754 -0.418464 -0.372034 -0.332195
internal_count=2013 1160 916 853 832 244
shrinkage=0.05


Tree=39
num_leaves=7
num_cat=0
split_feature=13 16 20 35 99 33
split_gain=246.088 120.935 88.5157 70.7406 73.5257 48.1001
threshold=0.012360920875128863 2.5277443485232278 0.11544932272698621 74160.428037091784 3.9255000000000004 0.23623217988408107
decision_type=2 2 2 2 2 2
left_child=3 2 -2 -1 -5 -3
right_child=1 5 -4 4 -6 -7
leaf_value=-0.10450257721046607 0.0088570122929584032 -0.039485753417676808 0.039964273032339508 0.0016919293324649037 -0.029024438841605483 0.0050095145117778047
leaf_count=24 475 114 441 313 516 130
internal_value=0 0.31002 0.476666 -0.39754 -0.348541 -0.315585
internal_count=2013 1160 916 853 829 244
shrinkage=0.05


Tree=40
num_leaves=7
num_cat=0
split_feature=118 29 49 12 15 110
split_gain=273.275 141.915 88.4932 73.8577 40.6275 45.9835
threshold=2.6707729259430857 1.919043322264155 4.9303000000000017 -0.16854772166342699 -6431.8619982152204 1.3165611772087635
decision_type=2 2 2 2 2 2
left_child=1 2 -1 -3 5 -2
right_child=4 3 -4 -5 -6 -7
leaf_value=0.043719593873789216 -0.0089764654072323116 -0.096699916385114201 -0.041127071236119132 0.0020688899871880036 -0.088018887192010883 -0.030223437094112644
leaf_count=447 756 20 33 353 20 384
internal_value=0 0.398166 0.757728 -0.0645405 -0.347455 -0.322667
internal_count=2013 853 480 373 1160 1140
shrinkage=0.05


Tree=41
num_leaves=8
num_cat=0
split_feature=118 29 6 95 4 49 25
split_gain=246.63 128.078 84.5694 67.0386 50.6359 51.5857 16.0047
threshold=2.6707729259430857 1.919043322264155 2.6869741245056775 2.8018679119412958e-06 9.6081407150936894e-06 4.24946 0.42781103383097724
decision_type=2 2 2 2 2 2 2
left_child=1 2 -1 -3 5 -2 -6
right_child=4 3 -4 -5 6 -7 -8
leaf_value=-0.055489346377241115 0.01335713755249256 0.0075684182539632258 0.040806877388827718 -0.045318463076526927 -0.087114917017195537 -0.017860311975790116 -0.039583078399300579
leaf_count=24 155 298 456 75 23 905 77
internal_value=0 0.378258 0.719841 -0.0613135 -0.330082 -0.26591 -1.01031
internal_count=2013 853 480 373 1160 1060 100
shrinkage=0.05


Tree=42
num_leaves=8
num_cat=0
split_feature=123 12 69 49 31 48 32
split_gain=222.605 132.254 189.161 119.768 48.3127 70.272 50.1469
threshold=10.500000000000002 -0.16651717882582659 2.7937292554607236 3.9244600000000007 -4.9719043696920066e-16 10.085000000000003 75014.188531232823
decision_type=2 2 2 2 2 2 2
left_child=1 2 -1 -3 5 -2 -6
right_child=4 3 -4 -5 6 -7 -8
leaf_value=-0.13298685055924581 0.033971544958789041 -0.091392026007885041 0.055000213740150565 0.029872065474793538 -0.010633969243793064 -0.012043600591997404 -0.035864491697986556
leaf_count=32 108 21 23 670 452 358 349
internal_value=0 0.404946 -1.08748 0.523735 -0.283598 -0.0275829 -0.432541
internal_count=2013 746 55 691 1267 466 801
shrinkage=0.05


Tree=43
num_leaves=8
num_cat=0
split_feature=118 29 12 34 4 49 6
split_gain=202.895 113.96 84.0419 62.7676 44.0509 45.9471 14.5608
threshold=2.6707729259430857 1.919043322264155 -0.035517457883984992 1.0000000180025095e-35 9.6081407150936894e-06 4.24946 8.7997855056500587
decision_type=2 2 2 2 2 2 2
left_child=1 2 -1 -3 5 -2 -6
right_child=4 3 -4 -5 6 -7 -8
leaf_value=0.039917603524406056 0.013183930350407477 -0.014032126996175363 -0.032587583261457359 0.036643720645602645 -0.0260135344356177 -0.016278051880396677 -0.064294840323014399
leaf_count=436 155 296 44 77 46 905 54
internal_value=0 0.343219 0.665426 -0.0714179 -0.299253 -0.239399 -0.933709
internal_count=2013 853 480 373 1160 1060 100
shrinkage=0.05


Tree=44
num_leaves=8
num_cat=0
split_feature=118 30 29 0 36 128 46
split_gain=183.113 106.966 96.7374 81.5902 40.8607 74.2551 61.5588
threshold=2.6707729259430857 5.4155000000000006 1.919043322264155 -3.3436170871419652e-06 -0.42908123908698775 5.258261000000001 5.0835000000000008
decision_type=2 2 2 2 2 2 2
left_child=1 2 -1 -3 5 -2 -6
right_child=4 3 -4 -5 6 -7 -8
leaf_value=0.037225827427358707 0.058299434863221956 -0.12455150016716549 0.001686452676241278 -0.0080967144794621554 0.020053468478169849 -0.012236361221662613 -0.043194744203658118
leaf_count=440 39 21 339 53 47 862 212
internal_value=0 0.326058 0.435201 -0.822894 -0.28429 -0.183664 -0.634345
internal_count=2013 853 779 74 1160 901 259
shrinkage=0.05


Tree=45
num_leaves=8
num_cat=0
split_feature=110 86 0 24 36 45 51
split_gain=173.056 96.0241 80.6217 42.5448 39.3325 54.8669 25.161
threshold=1.2866839377035142 -0.20722045871218295 -1.69613228427808e-07 0.00054270266098750827 -0.44870749152570133 -0.014551390275050502 1.0667849731696297
decision_type=2 2 2 2 2 2 2
left_child=1 3 -3 -1 5 -2 -6
right_child=4 2 -4 -5 6 -7 -8
leaf_value=-0.0018960802629590036 0.06436391606306037 0.0039040506253823961 0.031443281281621653 -0.063687077336586448 -0.042625562125535983 -0.012760551912011975 -0.0008015812850660748
leaf_count=60 24 516 548 52 179 589 45
internal_value=0 0.269046 0.361756 -0.611695 -0.325861 -0.19482 -0.684468
internal_count=2013 1176 1064 112 837 613 224
shrinkage=0.05


Tree=46
num_leaves=7
num_cat=0
split_feature=110 17 109 12 89 3
split_gain=156.183 90.517 104.407 101.084 33.9611 32.5735
threshold=1.2866839377035142 0.7167933333333335 4.941603333333334 -0.16037957703510322 72.743731928587991 0.9885320185957911
decision_type=2 2 2 2 2 2
left_child=1 3 -3 -1 5 -2
right_child=4 2 -4 -5 -6 -7
leaf_value=-0.054806346292533573 -0.010325480928354034 0.10847748838008403 0.023467148371184104 0.010683958909556188 0.039686000926627052 -0.031696411670660077
leaf_count=63 545 47 156 910 27 265
internal_value=0 0.255594 0.862987 0.128872 -0.309568 -0.346344
internal_count=2013 1176 203 973 837 810
shrinkage=0.05


Tree=47
num_leaves=8
num_cat=0
split_feature=37 12 37 45 98 83 5
split_gain=145.92 88.6055 112.712 89.186 46.7939 74.2543 37.9066
threshold=1930.6336084587235 -0.13775096808484852 1016.3969985374239 0.0022355380878216328 13.905000000000294 2.3327921450308415 0.82857264884790194
decision_type=2 2 2 2 2 2 2
left_child=1 2 -1 -3 6 -6 -2
right_child=4 3 -4 -5 5 -7 -8
leaf_value=-0.10353029417494933 -0.063233544227558294 0.033848693354328045 -0.00056425623981434011 0.0006949634325841593 0.018277529099656974 -0.018038230271821915 -0.017318370164785948
leaf_count=30 77 519 233 333 193 520 108
internal_value=0 0.261193 -0.246189 0.417814 -0.280438 -0.16416 -0.72858
internal_count=2013 1115 263 852 898 713 185
shrinkage=0.05


Tree=48
num_leaves=8
num_cat=0
split_feature=110 86 17 24 36 45 17
split_gain=133.072 85.5706 77.8013 39.4704 34.4497 49.8102 25.4411
threshold=1.2866839377035142 -0.20722045871218295 0.7167933333333335 -0.0043497399877998151 -0.44870749152570133 -0.014551390275050502 0.70301000000000013
decision_type=2 2 2 2 2 2 2
left_child=1 3 -3 -1 5 -2 -6
right_child=4 2 -4 -5 6 -7 -8
leaf_value=0.028592717323614205 0.062430876307189465 0.0098268805824877348 0.045056702136866633 -0.044885059295410527 -0.039302183335032111 -0.011053672562621525 0.0034824958201064623
leaf_count=23 24 873 191 89 181 589 43
internal_value=0 0.235503 0.323021 -0.595917 -0.28617 -0.163533 -0.621781
internal_count=2013 1176 1064 112 837 613 224
shrinkage=0.05


Tree=49
num_leaves=7
num_cat=0
split_feature=83 17 60 5 15 31
split_gain=124.617 97.2389 88.3826 65.9709 41.8335 40.2916
threshold=2.3314602865534524 0.71034666666666679 -4.5696314556122664 0.80224350057737648 -8082.403947311439 -1.061077152068416e-15
decision_type=2 2 2 2 2 2
left_child=1 2 -1 -3 5 -2
right_child=4 3 -4 -5 -6 -7
leaf_value=0.021903327316851229 0.0050346167544361026 -0.047362212286047312 -0.0084709140690885747 0.040645825326806162 -0.086478152942089812 -0.022791162173807
leaf_count=370 183 23 679 287 21 450
internal_value=0 0.190265 0.0448519 0.682324 -0.341001 -0.294935
internal_count=2013 1359 1049 310 654 633
shrinkage=0.05


Tree=50
num_leaves=8
num_cat=0
split_feature=66 41 20 30 46 84 49
split_gain=221.24 110.043 153.395 103.098 62.7591 50.7774 30.5541
threshold=2.3923066929493957 3.226875106841852 0.078514880813409127 4.9355000000000002 5.8805000000000005 2.940970398485661 4.9934300000000009
decision_type=2 2 2 2 2 2 2
left_child=1 2 -1 -3 5 -2 -6
right_child=4 3 -4 -5 6 -7 -8
leaf_value=0.012752713580187914 0.046145770108948159 -0.085646441206336021 0.11204490866284909 0.021812359717175319 -0.043379535935194481 -0.0062432872323047988 0.010032098472584039
leaf_count=74 48 24 82 319 164 1270 32
internal_value=0 0.602566 1.2989 0.285868 -0.165221 -0.0867068 -0.693185
internal_count=2013 499 156 343 1514 1318 196
shrinkage=0.05


Tree=51
num_leaves=8
num_cat=0
split_feature=88 12 69 20 96 50 86
split_gain=206.618 117.858 144.47 70.942 39.6053 55.44 38.8828
threshold=6.616334316421586 -0.16485976803606772 2.5850311329564808 0.11474950628928415 14.897911704648187 0.045250231345693344 0.12599415176198894
decision_type=2 2 2 2 2 2 2
left_child=1 2 -1 -3 6 -6 -2
right_child=4 3 -4 -5 5 -7 -8
leaf_value=-0.13187732952301975 -0.021303678570049153 0.013636567298856331 0.030221474336992418 0.045365907848257614 -0.014658261044743838 0.014020050922751099 -0.10869760997593403
leaf_count=27 35 433 28 297 969 204 20
internal_value=0 0.424556 -0.987086 0.530913 -0.232302 -0.193415 -1.06167
internal_count=2013 785 55 730 1228 1173 55
shrinkage=0.05


Tree=52
num_leaves=8
num_cat=0
split_feature=66 61 20 60 46 12 49
split_gain=187.264 99.8112 113.308 96.3552 55.0895 45.7535 27.5534
threshold=2.3923066929493957 3.9145000000000003 0.077460353209124699 -10.362788214704723 5.8805000000000005 -0.16854772166342699 4.9934300000000009
decision_type=2 2 2 2 2 2 2
left_child=1 2 -1 -3 5 -2 -6
right_child=4 3 -4 -5 6 -7 -8
leaf_value=0.011804161486881119 -0.055292475480763686 0.081081377776203362 0.088773337322043955 -0.001327607985019344 -0.040635947962561286 -0.0022541209651866334 0.010085137770511211
leaf_count=84 42 41 111 263 164 1276 32
internal_value=0 0.55393 1.11235 0.195735 -0.152445 -0.0788853 -0.647099
internal_count=2013 499 195 304 1514 1318 196
shrinkage=0.05


Tree=53
num_leaves=8
num_cat=0
split_feature=88 12 58 97 104 7 35
split_gain=172.48 104.628 130.247 66.4781 36.5146 45.9009 37.5243
threshold=6.616334316421586 -0.16485976803606772 4.0333138619786331 1.0069283229030093 -122.49999999999999 0.024419802360300873 74317.785316431182
decision_type=2 2 2 2 2 2 2
left_child=1 2 -1 -3 6 -6 -2
right_child=4 3 -4 -5 5 -7 -8
leaf_value=-0.10528481140865811 0.082224753432819861 0.0011164871613598534 0.054666085513308649 0.034173396645577676 -0.020125594927168599 0.00070658872970823922 0.0014165594242513181
leaf_count=35 20 216 20 514 748 409 51
internal_value=0 0.387634 -0.942417 0.487843 -0.212512 -0.255228 0.483589
internal_count=2013 785 55 730 1228 1157 71
shrinkage=0.05


Tree=54
num_leaves=8
num_cat=0
split_feature=125 97 90 87 88 9 15
split_gain=162.248 138.652 98.3279 74.1311 91.3935 73.768 60.8688
threshold=4.6933756109215325 1.0069283229030093 -71.499999999999986 13.500000000000002 6.616334316421586 0.95366469053856007 -6060.7632694196864
decision_type=2 2 2 2 2 2 2
left_child=1 5 -3 6 -5 -1 -2
right_child=3 2 -4 4 -6 -7 -8
leaf_value=0.072207165970688769 -0.011408614331767673 0.05622077135826057 0.17820681576461841 0.01552196747121313 -0.010094299718632564 -0.0034084012802261458 -0.13328923195600512
leaf_count=42 21 53 24 486 1228 139 20
internal_value=0 0.760899 1.88485 -0.0884044 -0.0566175 0.282755 -1.41725
internal_count=2013 258 77 1755 1714 181 41
shrinkage=0.05


Tree=55
num_leaves=7
num_cat=0
split_feature=115 128 24 43 118 2
split_gain=79.4687 134.969 154.857 107.901 80.8455 80.4587
threshold=1.5634719199401144 3.8486019500000004 0.0041408150837644103 26.950000000000003 2.5973868434300438 -4.4318501235218365e-07
decision_type=2 2 2 2 2 2
left_child=3 2 -2 -1 -3 -5
right_child=1 4 -4 5 -6 -7
leaf_value=-0.061272600903025554 -0.022817565914657383 0.04734378701484785 -0.169891698718071 0.080343816707531615 -0.0035631665278340729 0.01632440595979422
leaf_count=31 63 82 25 75 1595 142
internal_value=0 -0.0848256 -1.292 0.51971 -0.0214795 0.769019
internal_count=2013 1765 88 248 1677 217
shrinkage=0.05


Tree=56
num_leaves=7
num_cat=0
split_feature=115 106 24 43 90 118
split_gain=71.7205 118.724 145.973 97.3806 78.1055 63.874
threshold=1.5634719199401144 -19.000499999999999 0.0041408150837644103 26.950000000000003 -72.499999999999986 2.5973868434300438
decision_type=2 2 2 2 2 2
left_child=3 5 -3 -1 -5 -2
right_child=1 2 -4 4 -6 -7
leaf_value=-0.058208971458577341 0.038968693854366528 -0.0210061166021559 -0.16591324702991794 0.0052601318072097811 0.06530624496528005 -0.003452853643352453
leaf_count=31 94 63 24 104 113 1584
internal_value=0 -0.0805843 -1.21961 0.493724 0.730568 -0.0215288
internal_count=2013 1765 87 248 217 1678
shrinkage=0.05


Tree=57
num_leaves=7
num_cat=0
split_feature=115 128 24 59 91 41
split_gain=64.7277 114.15 129.75 87.8859 71.8313 65.7867
threshold=1.5634719199401144 3.8486019500000004 0.0041408150837644103 26.950000000000003 -5.4138465364768473 3.2169696695658039
decision_type=2 2 2 2 2 2
left_child=3 2 -2 -1 -5 -3
right_child=1 5 -4 4 -6 -7
leaf_value=-0.055298520378287766 -0.021090760957154019 0.021944542966853338 -0.15571526849269868 -0.018564467489415284 0.05023800716014757 -0.0052051642347439179
leaf_count=31 63 265 25 49 168 1412
internal_value=0 -0.0765551 -1.18673 0.469038 0.694039 -0.0182992
internal_count=2013 1765 88 248 217 1677
shrinkage=0.05


Tree=58
num_leaves=8
num_cat=0
split_feature=18 24 28 43 11 4 59
split_gain=60.8832 81.8747 74.8865 67.1799 50.0112 49.7405 49.1671
threshold=-72.499999999999986 0.0060391151694301872 -8.6672444829657717e-06 26.950000000000003 0.94777712672210412 1.0813651861813945e-05 65.90000000000002
decision_type=2 2 2 2 2 2 2
left_child=4 3 -3 -2 6 -6 -1
right_child=1 2 -4 -5 5 -7 -8
leaf_value=-0.10835645361380145 -0.063497173015639424 0.021766125541683792 -0.036837401857671606 0.0097774515820635843 0.019536847334889935 -0.051169729458563254 -0.02841552341116434
leaf_count=22 32 74 207 1391 101 33 153
internal_value=0 0.0651863 -0.428089 0.162593 -0.417268 0.0424807 -0.769305
internal_count=2013 1704 281 1423 309 134 175
shrinkage=0.05


Tree=59
num_leaves=6
num_cat=0
split_feature=66 98 33 12 59
split_gain=60.5372 97.0444 78.9289 68.5419 67.1518
threshold=2.3699614254201156 9.0050000000002921 0.20303625983917167 -0.18571845952949073 75.350000000000009
decision_type=2 2 2 2 2
left_child=2 -2 -1 -3 -4
right_child=1 3 4 -5 -6
leaf_value=-0.065297101122828632 -0.096690112990992408 -0.08668781739349167 0.036258481816968079 -0.001563927646206112 -0.021989987912725231
leaf_count=26 28 24 262 1612 61
internal_value=0 -0.0878471 0.370235 -0.0562538 0.50516
internal_count=2013 1664 349 1636 323
shrinkage=0.05


Tree=60
num_leaves=6
num_cat=0
split_feature=110 12 39 77 97
split_gain=101.798 106.145 103.185 73.7952 72.696
threshold=1.197218999737909 -0.18571845952949073 0.0078994076653522548 1.4257353000000001 1.0060996645923914
decision_type=2 2 2 2 2
left_child=2 -2 3 -1 -3
right_child=1 4 -4 -5 -6
leaf_value=0.039029058601175039 -0.093577351281419405 -0.044060451455879959 -0.041222214585903923 0.13311798319650384 0.00064667717066367808
leaf_count=105 32 96 33 26 1721
internal_value=0 -0.0661044 0.755949 1.15406 -0.0343079
internal_count=2013 1849 164 131 1817
shrinkage=0.05


Tree=61
num_leaves=6
num_cat=0
split_feature=110 12 39 24 97
split_gain=91.8723 95.7958 93.1246 68.2774 65.6082
threshold=1.197218999737909 -0.18571845952949073 0.0078994076653522548 5.9453952671928156e-05 1.0060996645923914
decision_type=2 2 2 2 2
left_child=2 -2 3 -1 -3
right_child=1 4 -4 -5 -6
leaf_value=0.017315813201287437 -0.088898483616503654 -0.041857429928616817 -0.039161102586623392 0.089562743650201504 0.00061434335853901244
leaf_count=63 32 96 33 68 1721
internal_value=0 -0.0627991 0.718152 1.09636 -0.0325925
internal_count=2013 1849 164 131 1817
shrinkage=0.05


Tree=62
num_leaves=6
num_cat=0
split_feature=115 12 125 3 113
split_gain=83.3696 76.3004 72.3409 73.807 61.4677
threshold=1.5491933384827463 -0.18571845952949073 4.422480416857443 0.99363085407800666 4.3267583333333341
decision_type=2 2 2 2 2
left_child=2 -2 3 -1 -3
right_child=1 4 -4 -5 -6
leaf_value=-0.045894312343614942 -0.077073550402351171 0.015901175792558335 0.095449762541408606 0.042211607513548459 -0.0063151438072424756
leaf_count=34 34 398 38 79 1430
internal_value=0 -0.0571696 0.715417 0.314037 -0.0295622
internal_count=2013 1862 151 113 1828
shrinkage=0.05


Tree=63
num_leaves=7
num_cat=0
split_feature=13 113 3 24 37 67
split_gain=82.2762 128.878 100.506 71.47 64.181 57.5177
threshold=0.012360920875128863 4.3267583333333341 0.99198329443004152 -0.0084428448794361451 1283.240253980797 54.500000000000007
decision_type=2 2 2 2 2 2
left_child=4 2 -2 -3 -1 -6
right_child=1 3 -4 -5 5 -7
leaf_value=-0.10016741945641115 0.1086010328019565 0.051547005699747905 0.019369878564985135 -0.00080353319429253285 0.034548275575370477 -0.013414219286393867
leaf_count=20 53 70 78 950 68 774
internal_value=0 0.175702 1.10942 0.055783 -0.232869 -0.190815
internal_count=2013 1151 131 1020 862 842
shrinkage=0.05


Tree=64
num_leaves=7
num_cat=0
split_feature=125 39 54 97 75 7
split_gain=76.6778 88.3407 91.0347 82.5032 113.75 66.795
threshold=4.5515564694081494 0.011004837633888404 6.0000000000000036 1.0069283229030093 2.0904388830712173e-06 0.025450275705365358
decision_type=2 2 2 2 2 2
left_child=1 2 -1 4 -2 -5
right_child=3 -3 -4 5 -6 -7
leaf_value=0.058689209602616893 -0.09550318964398824 -0.067601600493348776 -0.030267894423256322 -0.0094803152744698631 0.038036346233085445 0.010326473823632895
leaf_count=143 52 21 36 993 23 745
internal_value=0 0.588328 0.815968 -0.0641154 -1.09102 -0.0198013
internal_count=2013 200 179 1813 75 1738
shrinkage=0.05


Tree=65
num_leaves=8
num_cat=0
split_feature=13 92 78 46 49 92 36
split_gain=78.5913 133.801 111.868 80.214 50.5011 63.6105 52.4031
threshold=0.012360920875128863 4.706500000000001 5.1050000000000013 5.0945000000000009 4.1948900000000009 4.4450000000000012 -0.43245680051001673
decision_type=2 2 2 2 2 2 2
left_child=4 2 -2 -3 5 -1 -6
right_child=1 3 -4 -5 6 -7 -8
leaf_value=-0.028843544154870705 0.0071514801931430094 -0.046450501670440042 0.099475631353930699 0.0072544741893581987 -0.0097005761283689255 0.033776358100354731 -0.043998054804689921
leaf_count=61 61 75 71 953 530 121 141
internal_value=0 0.188426 1.13621 0.0667262 -0.211431 0.255767 -0.338153
internal_count=2013 1160 132 1028 853 182 671
shrinkage=0.05


Tree=66
num_leaves=8
num_cat=0
split_feature=13 92 89 46 53 90 28
split_gain=70.9287 121.167 108.371 54.4608 39.4291 56.5842 24.8753
threshold=0.012360920875128863 4.7245000000000008 8.1965818628932556 5.0945000000000009 -40.499999999999993 -70.499999999999986 -5.3336889125942045e-06
decision_type=2 2 2 2 2 2 2
left_child=4 2 -2 -3 5 -1 -6
right_child=1 3 -4 -5 6 -7 -8
leaf_value=-0.0097884714983833988 0.022156646720380809 -0.04070074835708782 0.11518504540233508 0.0059424509739015524 -0.011679419910623915 0.065197186974378735 -0.08313405194705159
leaf_count=777 98 67 46 949 21 26 29
internal_value=0 0.179005 1.03748 0.0573314 -0.20086 -0.147211 -1.06246
internal_count=2013 1160 144 1016 853 803 50
shrinkage=0.05


Tree=67
num_leaves=7
num_cat=0
split_feature=13 113 107 112 35 35
split_gain=64.0131 96.3989 178.682 61.7521 49.0163 51.2658
threshold=0.012360920875128863 4.3267583333333341 2.4172359577040985 9.5000000000000018 74160.428037091784 74266.877673871641
decision_type=2 2 2 2 2 2
left_child=4 2 -2 -3 -1 -6
right_child=1 3 -4 -5 5 -7
leaf_value=-0.083204776311123926 0.010403218839415595 0.045427978658117353 0.13529282718351701 -0.00032453975424178387 0.044311878788802363 -0.010562171326131435
leaf_count=22 95 80 41 944 45 786
internal_value=0 0.170055 0.961075 0.0649975 -0.190817 -0.151813
internal_count=2013 1160 136 1024 853 831
shrinkage=0.05


end of trees

feature importances:
q05_roll_std_100=47
q05_roll_std_10=29
q05_roll_std_1000=21
avg_first_50000=19
q01_roll_std_10=17
mean_change_rate=14
autocorr_5=13
abs_max_roll_mean_1000=13
q01_roll_std_100=13
hmean=12
autocorr_10000=10
min_roll_std_100=10
std_roll_mean_1000=10
Rstd__last_5000=9
skew=9
q95_roll_mean_1000=9
q99_roll_mean_1000=8
classic_sta_lta4_mean=7
autocorr_50=7
autocorr_1000=7
classic_sta_lta5_mean=7
av_change_abs_roll_std_100=6
autocorr_10=6
q95_roll_std_10=6
stdAudioIncrease=5
q01_roll_mean_1000=5
classic_sta_lta7_mean=4
kurt=4
Rmin_last_5000=4
min_roll_std_1000=4
av_change_abs_roll_mean_10=4
autocorr_100=4
av_change_rate_roll_std_1000=4
max_to_min=4
avg_last_50000=4
Hilbert_mean=4
q95=4
abs_trend=3
mean_change_rate_first_10000=3
classic_sta_lta8_mean=3
abs_max_roll_mean_10=3
autocorr_5000=3
mean_change_rate_last_10000=3
max_roll_mean_10=3
Rmean_last_15000=3
q95_roll_mean_10=3
minAudio=3
ave10=3
stdAudio=3
std_last_10000=2
min_last_10000=2
mean_change_rate_first_50000=2
Imean=2
av_change_rate_roll_mean_10=2
q01_roll_std_1000=2
max_roll_mean_100=2
classic_sta_lta6_mean=2
abs_std=2
std_roll_std_10=2
av_change_abs_roll_std_10=2
av_change_abs_roll_mean_1000=2
Rmean_last_5000=2
av_change_abs_roll_mean_100=2
q99_roll_std_10=2
q99_roll_mean_10=2
q001=2
av_change_abs_roll_std_1000=1
classic_sta_lta3_mean=1
classic_sta_lta2_mean=1
mean_change_rate_last_50000=1
min_last_50000=1
Rmean=1
max_first_10000=1
MA_700MA_BB_high_mean=1
max_first_50000=1
abs_max_roll_std_10=1
q99_roll_mean_100=1
std_first_10000=1
q99=1
MA_700MA_BB_low_mean=1
q05_roll_mean_1000=1
min_first_10000=1
exp_Moving_average_300_mean=1
Kalman_correction=1
abs_mean=1
gmean=1
iqr1=1

parameters:
[boosting: gbdt]
[objective: regression]
[metric: l1,l2]
[tree_learner: serial]
[device_type: cpu]
[data: ]
[valid: ]
[num_iterations: 100]
[learning_rate: 0.05]
[num_leaves: 31]
[num_threads: 0]
[max_depth: 3]
[min_data_in_leaf: 20]
[min_sum_hessian_in_leaf: 0.001]
[bagging_fraction: 0.8]
[bagging_freq: 5]
[bagging_seed: 3]
[feature_fraction: 0.9]
[feature_fraction_seed: 2]
[early_stopping_round: 0]
[max_delta_step: 0]
[lambda_l1: 0]
[lambda_l2: 0]
[min_gain_to_split: 0]
[drop_rate: 0.1]
[max_drop: 50]
[skip_drop: 0.5]
[xgboost_dart_mode: 0]
[uniform_drop: 0]
[drop_seed: 4]
[top_rate: 0.2]
[other_rate: 0.1]
[min_data_per_group: 100]
[max_cat_threshold: 32]
[cat_l2: 10]
[cat_smooth: 10]
[max_cat_to_onehot: 4]
[top_k: 20]
[monotone_constraints: ]
[feature_contri: ]
[forcedsplits_filename: ]
[refit_decay_rate: 0.9]
[verbosity: 0]
[max_bin: 255]
[min_data_in_bin: 3]
[bin_construct_sample_cnt: 200000]
[histogram_pool_size: -1]
[data_random_seed: 1]
[output_model: LightGBM_model.txt]
[snapshot_freq: -1]
[input_model: ]
[output_result: LightGBM_predict_result.txt]
[initscore_filename: ]
[valid_data_initscores: ]
[pre_partition: 0]
[enable_bundle: 1]
[max_conflict_rate: 0]
[is_enable_sparse: 1]
[sparse_threshold: 0.8]
[use_missing: 1]
[zero_as_missing: 0]
[two_round: 0]
[save_binary: 0]
[enable_load_from_binary_file: 1]
[header: 0]
[label_column: ]
[weight_column: ]
[group_column: ]
[ignore_column: ]
[categorical_feature: ]
[predict_raw_score: 0]
[predict_leaf_index: 0]
[predict_contrib: 0]
[num_iteration_predict: -1]
[pred_early_stop: 0]
[pred_early_stop_freq: 10]
[pred_early_stop_margin: 10]
[convert_model_language: ]
[convert_model: gbdt_prediction.cpp]
[num_class: 1]
[is_unbalance: 0]
[scale_pos_weight: 1]
[sigmoid: 1]
[boost_from_average: 1]
[reg_sqrt: 0]
[alpha: 0.9]
[fair_c: 1]
[poisson_max_delta_step: 0.7]
[tweedie_variance_power: 1.5]
[max_position: 20]
[label_gain: ]
[metric_freq: 1]
[is_provide_training_metric: 0]
[eval_at: ]
[num_machines: 1]
[local_listen_port: 12400]
[time_out: 120]
[machine_list_filename: ]
[machines: ]
[gpu_platform_id: -1]
[gpu_device_id: -1]
[gpu_use_dp: 0]

end of parameters

pandas_categorical:[]
