tree
version=v2
num_class=1
num_tree_per_iteration=1
label_index=0
max_feature_idx=171
objective=regression
feature_names=q01_roll_std_100 min_roll_std_100 q01_roll_std_10 min_roll_std_10 hmean gmean Hilbert_mean q01_roll_std_1000 min_roll_std_1000 max_roll_std_1000 mean_change_abs iqr iqr1 ave10 mean_change_rate_first_50000 sum q05_roll_std_10 q05_roll_mean_10 q05_roll_std_100 q01_roll_mean_10 q05_roll_std_1000 mean_change_rate_last_10000 mean_change_rate_last_50000 mean_change_rate_first_10000 q99 max_roll_std_100 q75Audio q25Audio abs_max_roll_mean_100 skew q01 abs_max_roll_mean_10 abs_std q95 q05 min_roll_mean_10 abs_trend q95_roll_mean_10 q95_roll_std_10 abs_q95 ave_roll_std_10 stdAudio ave_roll_mean_10 ave_roll_std_100 ave_roll_std_1000 abs_mean std_roll_std_10 av_change_rate_roll_std_10 q95_roll_std_100 std_roll_std_100 av_change_rate_roll_std_100 minAudio max_first_10000 maxAudio max_roll_mean_10 std_roll_mean_10 std_first_10000 av_change_rate_roll_mean_10 mean_change_rate std_roll_std_1000 av_change_rate_roll_std_1000 q95_roll_std_1000 min_first_50000 min_first_10000 min_last_10000 std_first_50000 q95_roll_mean_100 max_roll_mean_100 q05_roll_mean_100 std_roll_mean_100 av_change_rate_roll_mean_100 avg_last_10000 min_roll_mean_100 max_first_50000 ave_roll_mean_100 max_last_50000 std_last_50000 max_last_10000 max_roll_std_10 std_roll_mean_1000 av_change_rate_roll_mean_1000 max_roll_mean_1000 q01_roll_mean_100 min_last_50000 mad ave_roll_mean_1000 q95_roll_mean_1000 max_to_min_diff stdAudioIncrease min_roll_mean_1000 q05_roll_mean_1000 count_big abs_max_roll_std_1000 abs_max_roll_std_10 abs_max_roll_std_100 meanAudio avg_last_50000 avg_first_50000 std_last_10000 q99_roll_mean_10 av_change_abs_roll_mean_1000 av_change_abs_roll_std_1000 av_change_abs_roll_mean_100 av_change_abs_roll_mean_10 av_change_abs_roll_std_100 av_change_abs_roll_std_10 q99_roll_mean_1000 avg_first_10000 kurt q01_roll_mean_1000 abs_q99 q99_roll_mean_100 trend q99_roll_std_10 modeAudio q99_roll_std_1000 medianAudio max_to_min abs_q01 q99_roll_std_100 abs_q05 Hann_window_mean_50 Hann_window_mean_150 Hann_window_mean_1500 Hann_window_mean_15000 classic_sta_lta1_mean classic_sta_lta2_mean classic_sta_lta3_mean classic_sta_lta4_mean classic_sta_lta5_mean classic_sta_lta6_mean classic_sta_lta7_mean classic_sta_lta8_mean autocorr_1 autocorr_5 autocorr_10 autocorr_50 autocorr_100 autocorr_500 autocorr_1000 autocorr_5000 autocorr_10000 abs_max_roll_mean_1000 Kalman_correction exp_Moving_average_300_mean exp_Moving_average_3000_mean exp_Moving_average_30000_mean MA_700MA_std_mean MA_700MA_BB_high_mean MA_700MA_BB_low_mean MA_400MA_std_mean MA_400MA_BB_high_mean MA_400MA_BB_low_mean MA_1000MA_std_mean q999 q001 Rmean Rstd Rmax Rmin Imean Istd Imax Imin Rmean_last_5000 Rstd__last_5000 Rmax_last_5000 Rmin_last_5000 Rmean_last_15000 Rstd_last_15000 Rmax_last_15000 Rmin_last_15000
feature_infos=[0:2.7247277688133651] [0:2.285218200132721] [0:1.56347191994115] [0:0.69920589878028683] [0:4.6978001442665533] [0:8.5022409999999997] [0:45.844805900704223] [0:3.1754412964868104] [0:2.8725268337143879] [0:1499.5107317474015] [-0.00086000573337155582:0.00061333742224948162] [0:11] [0:84] [0:5.3939500000000002] [-0.10139994734142647:0.14539626654341714] [0:808799] [0:2.0682789409983808] [-22.600000000000001:3.2000000000000002] [0:3.0184617127117392] [-199.05999999999997:2.2000000000000002] [0:3.5298695413545298] [-0.12993855177610242:0.17506373156509591] [-0.10298736150168833:0.16094230601280834] [-0.12568965116518455:0.15935917102525082] [0:279] [0:2330.9913223885032] [0:10] [-1:3] [0:494.37] [-4.0918262207255873:4.1084690798019885] [-260:0] [0:4380.1000000000004] [0:146.40703933933278] [0:47] [-37:0] [-4380.1000000000004:0] [-0.00069577447282736886:0.0006645023224953106] [0:32.100000000000001] [0:76.123072854786386] [0:93] [0:24.184913283561393] [0:149.30172999999999] [0:5.3923822164663209] [0:35.065146120357035] [0:37.78346457284416] [0:29.840546666666668] [0:108.42412794244831] [0:75924.928711562548] [0:117.38549589478352] [0:145.27588650160646] [0:75936.77343498636] [-5515:0] [0:3479] [0:5115] [0:3685.0999999999999] [0:105.81099031988629] [0:436.46745261486467] [0:75921.279998886937] [-0.096501159712536144:0.14276451945282165] [0:145.04074685771903] [0:75390.298653790902] [0:122.7692608204763] [-5515:0] [-5515:0] [-749:0] [0:257.2780212666969] [0:8.4700000000000006] [0:494.37] [0:4.6799999999999997] [0:15.150584232699199] [0:75933.174214980085] [0:5.5568] [-440.50999999999999:3.5600000000000001] [0:4281] [0:5.3925197963989575] [0:5115] [0:240.31665916647029] [0:547] [0:3362.4702047420105] [0:3.2334344171125933] [0:75387.916821997671] [0:67.405000000000001] [-24.030000000000001:4.3099999999999996] [-4392:0] [0:28.580635739728478] [0:5.3925303387225583] [0:7.226] [-2036:1036] [0:0.77817999999999998] [-39.768999999999998:4.54] [0:4.9689999999999994] [0:1808] [0:1499.5107317474015] [0:3362.4702047420105] [0:2330.9913223885032] [0:5.3919934999999999] [0:5.4859599999999995] [0:5.5157999999999996] [0:59.822654466253326] [0:210.61000000000058] [-2.0114093959731574e-05:1.5785234899328862e-05] [-0.00043899603017062141:0.00054616711306101321] [-3.0820547031354235e-05:4.3762508338892585e-05] [-0.00044069604640309363:0.00034335622374824997] [-0.00045353238754379082:0.00050139426484522643] [-0.00041954624275433695:0.00047896647476628162] [0:12.965] [0:5.5354000000000001] [0:630.14621225910264] [-4.641:4.8780000000000001] [0:600] [0:33.509999999999998] [-6.8594094367493064e-06:6.6411666847396223e-06] [0:498.48413875794586] [0:6] [0:981.88165275608367] [0:5] [0:2.4761906000000002] none [0:895.09618528350927] [0:1] [0:5.3919520818605724] [0:5.3914864318308737] [0:5.3843482565412053] [0:5.3107105679209869] [0:1.1146118898097643] [0:1.2302991128655421] [0:0.97955739052546076] [0:0.97645873226967161] [0:1.0783479022308846] [0:1.1615400102911058] [0:0.99594385772077121] [0:0.99818155493660121] [0:0.97068665069093996] [-0.23359512118349399:0.48291697350869239] [-0.65425857193019576:0] [-0.088714748341982952:0.55470845964870197] [-0.44204380224377721:0.45475068418122472] [-0.13143743274742986:0.14751454150797566] [-0.098716652647818676:0.072693322193793694] [-0.036742308581583685:0.063626192355735398] [-0.039262153376697688:0.051483673046719719] [0:67.405000000000001] [0:22.678665415406559] [0:5.392367527999169] [0:5.3911399712353214] [0:5.4042483199718987] [0:36.961692688632581] [0:115.79066039383156] [-106.12276936270601:0] [0:36.123690982452175] [0:113.27665527529035] [-103.97598458281374:0] [0:37.783464572844146] [0:1790] [-1726.0020000000002:0] [-84:78] [0:40934.937516747217] [0:808799] [-493691.9009096704:0] [-2.2312936683495843e-14:7.8774367769559212e-14] [0:40903.92358319676] [0:525406.23294527153] [-525406.23294527153:0] [-747.91838644715665:467.96316717191172] [0:91276.583058056713] [0:435731.27006912936] [-442618.99550136545:0] [-262.30364765969944:198.32409473556169] [0:91119.630418549394] [0:512913.0184476226] [-493691.9009096704:0]
tree_sizes=694 708 707 712 710 712 715 712 711 713 722 705 721 717 727 716 720 719 721 720 722 721 726 728 655 714 646 725 727 726 644 720 652 646 650 724 722 652 730 728 575 643 643 647 655 731 722 717 724 719 719 729 724 719 723 502 422 422 501 497 654 648 577 645 727 736

Tree=0
num_leaves=8
num_cat=0
split_feature=18 18 18 18 147 71 117
split_gain=10113.4 1350.98 525.308 345.168 159.196 150.379 144.928
threshold=2.4462607986915588 2.4930408190104099 2.3745600330827288 2.570019446896143 4.6227831123459762 4.3332000000000006 1.3926311000000002
decision_type=2 2 2 2 2 2 2
left_child=2 4 6 -3 -2 -4 -1
right_child=1 3 5 -5 -6 -7 -8
leaf_value=5.8792091801841009 5.7209752400681371 5.6038449847628566 5.8684022988605111 5.523007305918795 5.647446987841132 5.7991463566521118 5.9570630948172578
leaf_count=311 279 631 101 167 100 350 74
internal_value=0 -1.86855 2.68008 -2.60688 -0.313946 1.94768 3.53803
internal_count=2013 1177 836 798 379 451 385
shrinkage=1


Tree=1
num_leaves=8
num_cat=0
split_feature=16 20 16 16 2 170 18
split_gain=9488.26 815.134 767.291 209.739 166.909 152.709 145.989
threshold=1.6363916944843997 2.6316916233553385 1.6865480854202428 1.6465452046969991 1.1972189997378753 15036.876029754936 2.570019446896143
decision_type=2 2 2 2 2 2 2
left_child=1 4 3 -2 -1 -3 -4
right_child=2 5 6 -5 -6 -7 -8
leaf_value=0.19507931124320943 -0.0098156319335609889 0.13429571034788501 -0.12778586062425099 -0.07999685900141075 0.13456247576399818 0.040777312197732868 -0.1845514012853724
leaf_count=152 147 51 352 386 455 303 167
internal_value=0 2.291 -2.05556 -1.21282 2.99433 1.08501 -2.92103
internal_count=2013 961 1052 533 607 354 519
shrinkage=0.05


Tree=2
num_leaves=8
num_cat=0
split_feature=16 20 16 90 0 170 18
split_gain=8563.16 735.658 692.48 208.034 161.288 137.82 131.755
threshold=1.6363916944843997 2.6316916233553385 1.6865480854202428 3.8435000000000001 2.2158975653674422 15036.876029754936 2.570019446896143
decision_type=2 2 2 2 2 2 2
left_child=1 4 3 -2 -1 -3 -4
right_child=2 5 6 -5 -6 -7 -8
leaf_value=0.16891213380095926 0.016723222640575842 0.12758092592452086 -0.12139657018494539 -0.070736113578393628 0.11733384523778015 0.038738446593862462 -0.17532382960135709
leaf_count=293 80 51 352 453 314 303 167
internal_value=0 2.17645 -1.95278 -1.15218 2.84462 1.03076 -2.77498
internal_count=2013 961 1052 533 607 354 519
shrinkage=0.05


Tree=3
num_leaves=8
num_cat=0
split_feature=16 20 16 16 96 97 170
split_gain=7728.25 663.931 630.511 197.341 160.993 151.488 124.382
threshold=1.6363916944843997 2.6316916233553385 1.6633299933145218 1.7029386365932029 4.3978500000000009 4.2338900000000006 15036.876029754936
decision_type=2 2 2 2 2 2 2
left_child=1 4 5 -4 -1 -2 -3
right_child=2 6 3 -5 -6 -7 -8
leaf_value=0.17401027231401689 0.043888642401577034 0.12120187915131159 -0.1018614922244036 -0.15867821622471509 0.11806985444212177 -0.050978882529736883 0.036801524826927917
leaf_count=185 49 51 481 224 422 298 303
internal_value=0 2.06763 -1.85514 -2.39828 2.70238 -0.751652 0.979218
internal_count=2013 961 1052 705 607 347 354
shrinkage=0.05


Tree=4
num_leaves=8
num_cat=0
split_feature=18 18 18 18 53 71 14
split_gain=6771.6 925.328 366.9 261.921 141.596 130.411 108.565
threshold=2.4462607986915588 2.485340847327759 2.3745600330827288 2.5602536959189646 48.500000000000007 4.3332000000000006 -0.01206262910125634
decision_type=2 2 2 2 2 2 2
left_child=2 6 4 -3 -1 -4 -2
right_child=1 3 5 -5 -6 -7 -8
leaf_value=0.051086360805978386 0.072909055811512039 -0.087622584366141357 0.12909393712398734 -0.1519207461670255 0.15523694315084649 0.064599837177832214 -0.01434899497156342
leaf_count=36 41 654 101 209 349 350 273
internal_value=0 -1.52905 2.19295 -2.06388 2.90996 1.58086 -0.0591086
internal_count=2013 1177 836 863 385 451 314
shrinkage=0.05


Tree=5
num_leaves=8
num_cat=0
split_feature=16 16 18 18 117 18 16
split_gain=6667.24 708.39 657.494 171.038 142.272 141.854 83.6525
threshold=1.6363916944832688 1.6633299933145218 2.3714420451988256 2.4303427035222342 1.3966885500000001 2.570019446896143 1.6465452046969991
decision_type=2 2 2 2 2 2 2
left_child=2 6 4 -4 -1 -3 -2
right_child=1 5 3 -5 -6 -7 -8
leaf_value=0.13671776039274505 -0.0068711141876589797 -0.09998959560821119 0.085500364067611523 0.025997116622747854 0.21400384798645977 -0.15317578053364725 -0.052891097672065679
leaf_count=289 208 543 367 180 75 163 188
internal_value=0 -1.64491 2.01141 1.3184 3.05284 -2.24538 -0.57438
internal_count=2013 1102 911 547 364 706 396
shrinkage=0.05


Tree=6
num_leaves=8
num_cat=0
split_feature=18 2 18 18 140 18 18
split_gain=5914.49 783.937 469.554 161.261 153.915 112.449 95.3644
threshold=2.4462607986915588 1.286683937708389 2.3704834744940828 2.485340847327759 0.006260356786260227 2.570019446896143 2.4303427035222342
decision_type=2 2 2 2 2 2 2
left_child=2 3 4 -2 -1 -3 -4
right_child=1 5 6 -5 -6 -7 -8
leaf_value=0.15844411281015355 -0.0034825456452213239 -0.097194605087264421 0.081648049091753425 -0.05791360652130776 0.060453222137268475 -0.14552685693912437 0.027106085065387045
leaf_count=311 303 468 374 247 46 162 102
internal_value=0 -1.43089 2.04942 -0.558541 2.91636 -2.19246 1.39921
internal_count=2013 1180 833 550 357 630 476
shrinkage=0.05


Tree=7
num_leaves=8
num_cat=0
split_feature=16 16 16 7 31 16 66
split_gain=5446.39 581.843 540.612 180.216 175.198 118.586 79.1878
threshold=1.6363916944832688 1.6633299933145218 1.5634719199409883 2.5733973408456996 27.250000000000004 1.7029386365932029 4.8450000000000006
decision_type=2 2 2 2 2 2 2
left_child=2 6 4 -4 -1 -3 -2
right_child=1 5 3 -5 -6 -7 -8
leaf_value=0.048556555773278602 0.055232913585911904 -0.08775846967626931 0.087942498211574918 0.033740185351233999 0.16397440490259441 -0.13200301957041535 -0.031992653758788951
leaf_count=38 28 486 364 265 244 220 368
internal_value=0 -1.48672 1.81794 1.30214 2.96843 -2.03091 -0.516504
internal_count=2013 1102 911 629 282 706 396
shrinkage=0.05


Tree=8
num_leaves=8
num_cat=0
split_feature=16 16 20 53 16 7 146
split_gain=4915.36 525.113 489.666 145.802 107.024 92.9457 73.4707
threshold=1.6363916944832688 1.6633299933145218 2.604784232524131 48.500000000000007 1.7029386365932029 2.5733973408456996 4.2530908123358433
decision_type=2 2 2 2 2 2 2
left_child=2 6 3 -1 -3 -4 -2
right_child=1 4 5 -5 -6 -7 -8
leaf_value=0.035829168462716957 0.029092058417471974 -0.08337054753907451 0.076019612264565453 0.13501133436185925 -0.1254028689150106 0.032053176097501565 -0.033183283376257561
leaf_count=41 55 486 220 385 220 265 341
internal_value=0 -1.41238 1.72704 2.50931 -1.92937 1.03993 -0.490679
internal_count=2013 1102 911 426 706 485 396
shrinkage=0.05


Tree=9
num_leaves=8
num_cat=0
split_feature=16 20 20 16 163 4 4
split_gain=4446.06 663.813 230.446 180.033 119.104 89.4799 84.186
threshold=1.6363916944860688 2.6316916233553385 2.7443502786237568 1.5634719199409883 -16409.501650551105 3.2919043655450859 3.2193766078585511
decision_type=2 2 2 2 2 2 2
left_child=1 3 6 -1 -3 -4 -2
right_child=2 4 5 -5 -6 -7 -8
leaf_value=0.13489353373755722 0.0053261971424317699 0.014817572531883675 -0.05870693888936547 0.080177844980690402 0.089005033872903344 -0.11041220226008626 -0.059258172154599401
leaf_count=282 58 383 105 322 63 412 388
internal_value=0 1.43123 -1.54387 2.11448 0.505939 -1.99822 -1.01719
internal_count=2013 1050 963 604 446 517 446
shrinkage=0.05


Tree=10
num_leaves=8
num_cat=0
split_feature=16 18 18 4 166 88 160
split_gain=3844.29 412.132 283.956 165.281 144.195 97.5471 80.4955
threshold=1.6363916944832688 2.4903855528858139 2.3704834744940828 3.1995759716595011 4230.7090524548921 0.70579000000000014 4.7293724492192274e-16
decision_type=2 2 2 2 2 2 2
left_child=2 6 4 -3 -1 -4 -2
right_child=1 3 5 -5 -6 -7 -8
leaf_value=-0.016396628284738177 0.0093823933678186741 -0.0088110671680368177 0.038415183364401299 -0.08862761238372574 0.11877700355969173 0.082604434999592483 -0.045570910302922131
leaf_count=21 174 71 376 750 326 187 108
internal_value=0 -1.27625 1.5004 -1.6345 2.21193 1.06185 -0.233271
internal_count=2013 1103 910 821 347 563 282
shrinkage=0.05


Tree=11
num_leaves=8
num_cat=0
split_feature=18 18 4 117 85 97 111
split_gain=3452.87 509.562 174.465 158.369 141.401 74.1849 59.7666
threshold=2.4790027306989235 2.4303427035222342 3.2081092800672453 1.3926311000000002 4.9092256763377442 4.18771 5.2150000000000007
decision_type=2 2 2 2 2 2 2
left_child=1 3 6 -1 -4 -3 -2
right_child=2 5 4 -5 -6 -7 -8
leaf_value=0.072676482400542808 -0.060322899765828081 0.077783461209190524 -0.085903496785170369 0.13400186772050801 -0.010128132220524461 0.0040664054518704537 0.022906234584923493
leaf_count=593 34 38 759 128 67 335 59
internal_value=0 1.18039 -1.44894 1.67127 -1.59514 0.231529 -0.150432
internal_count=2013 1094 919 721 826 373 93
shrinkage=0.05


Tree=12
num_leaves=8
num_cat=0
split_feature=16 7 66 20 88 139 13
split_gain=3144.64 486.547 154.032 137.308 122.336 116.718 60.3142
threshold=1.6465452046969991 2.5733973408456996 5.2150000000000007 2.7582232133726428 0.69983000000000006 -0.0087481239031336859 4.9129458333333345
decision_type=2 2 2 2 2 2 2
left_child=1 2 -1 4 -2 -3 -5
right_child=3 5 -4 6 -6 -7 -8
leaf_value=0.10448464137325474 -0.06993262061419396 -0.046873297620004452 0.055640274465148312 -0.096997986499540889 -0.016066531295506045 0.025875893466574748 -0.023398919651905697
leaf_count=364 325 64 290 386 156 398 30
internal_value=0 1.10156 1.65652 -1.4131 -1.04925 0.315962 -1.83381
internal_count=2013 1116 654 897 481 462 416
shrinkage=0.05


Tree=13
num_leaves=8
num_cat=0
split_feature=16 18 20 117 4 31 139
split_gain=2854.66 310.035 229.965 185.142 126.446 74.7047 74.6587
threshold=1.6363916944832688 2.4930408190104099 2.5726208189058286 1.3926311000000002 3.2193766078585511 57.750000000000007 0.0077716861560137704
decision_type=2 2 2 2 2 2 2
left_child=2 5 6 -4 -3 -2 -1
right_child=1 4 3 -5 -6 -7 -8
leaf_value=0.13101755208046786 0.050524199554106086 -0.015280154801047083 0.042370446190261507 0.11525933914956187 -0.078517644692349342 -0.021982855510572323 0.044364354037679736
leaf_count=145 41 89 634 101 707 266 30
internal_value=0 -1.09969 1.29302 1.04773 -1.42894 -0.24599 2.32325
internal_count=2013 1103 910 735 796 307 175
shrinkage=0.05


Tree=14
num_leaves=8
num_cat=0
split_feature=16 16 18 152 106 88 160
split_gain=2576.33 282.782 213.084 135.159 87.4576 85.4003 81.8057
threshold=1.6363916944832688 1.6633299933145218 2.3704834744940828 -4.9400664806616623 4.7355000000000009 0.70579000000000014 9.0949470177292845e-16
decision_type=2 2 2 2 2 2 2
left_child=2 6 3 -1 -3 -4 -2
right_child=1 4 5 -5 -6 -7 -8
leaf_value=0.12011186303181812 -0.0054483851711093281 -0.017204897270760321 0.028690557424109083 0.057303442625750711 -0.077286890748812245 0.070037091610377994 -0.05626422624077855
leaf_count=193 297 67 376 154 631 187 108
internal_value=0 -1.0447 1.22837 1.84474 -1.43039 0.848476 -0.379986
internal_count=2013 1103 910 347 698 563 405
shrinkage=0.05


Tree=15
num_leaves=8
num_cat=0
split_feature=16 7 117 5 90 107 109
split_gain=2361.65 413.235 180.594 158.49 125.279 105.994 67.4494
threshold=1.6465452046968376 2.5733973408456996 1.3926311000000002 4.4783025000000007 4.3415000000000008 4.0624000000000011 3.5325000000000002
decision_type=2 2 2 2 2 2 2
left_child=1 2 -1 6 -5 -3 -2
right_child=3 5 -4 4 -6 -7 -8
leaf_value=0.062938078978138828 0.027019975023965043 0.11057802404348667 0.13197947595106518 -0.087679820910582906 -0.037173091140370269 0.0065386486938362161 -0.039299297112518471
leaf_count=537 45 26 115 442 170 419 259
internal_value=0 0.995262 1.50231 -1.17984 -1.473 0.252347 -0.589646
internal_count=2013 1097 652 916 612 445 304
shrinkage=0.05


Tree=16
num_leaves=8
num_cat=0
split_feature=18 7 117 16 107 146 4
split_gain=2140.99 321.546 163.984 152.458 100.842 82.9808 63.4451
threshold=2.4752818427571825 2.5733973408456996 1.3926311000000002 1.6996731711977113 4.0690000000000008 4.3985960021507982 3.2593958123996702
decision_type=2 2 2 2 2 2 2
left_child=1 2 -1 5 -3 -2 -5
right_child=3 4 -4 6 -6 -7 -8
leaf_value=0.059601510208752262 -0.014270717137795244 0.11352256889610242 0.12538050249704849 -0.013126437671598979 0.0077945745921130967 -0.052493693031190995 -0.087030308176377788
leaf_count=538 222 24 115 32 374 394 314
internal_value=0 0.991895 1.42372 -1.07273 0.283403 -0.774371 -1.60391
internal_count=2013 1051 653 962 398 616 346
shrinkage=0.05


Tree=17
num_leaves=8
num_cat=0
split_feature=16 7 117 16 88 107 4
split_gain=1935.44 332.778 147.05 115.423 113.137 87.2685 57.2592
threshold=1.6465452046968376 2.5733973408456996 1.3926311000000002 1.6996731711977113 0.70006666666666673 4.0624000000000011 3.2593958123996702
decision_type=2 2 2 2 2 2 2
left_child=1 2 -1 4 -2 -3 -5
right_child=3 5 -4 6 -6 -7 -8
leaf_value=0.056811099785841396 -0.055390113843715505 0.10060177634541806 0.11911147729554417 -0.012470116291660817 -0.0081975644347087248 0.0061989418437664442 -0.082678792429872902
leaf_count=537 379 26 115 32 191 419 314
internal_value=0 0.900973 1.35599 -1.0681 -0.791529 0.234292 -1.52371
internal_count=2013 1097 652 916 570 445 346
shrinkage=0.05


Tree=18
num_leaves=8
num_cat=0
split_feature=18 0 20 78 146 109 145
split_gain=1751.42 271.911 130.708 101.139 89.2327 80.5482 48.3144
threshold=2.4752818427571825 2.2183805158092089 2.7582232133726428 63.614114375236021 4.9648028646931097 3.6885000000000003 4.2005502910154044
decision_type=2 2 2 2 2 2 2
left_child=1 3 5 -1 -3 -2 -4
right_child=2 4 6 -5 -6 -7 -8
leaf_value=0.058453150746834916 0.012085076490010338 0.031747343531678476 -0.018022133906682333 0.11580380786498407 -0.060854843796955216 -0.040528046850824041 -0.074470015119846231
leaf_count=172 87 713 42 139 27 444 389
internal_value=0 0.897116 -0.970246 1.68172 0.567372 -0.638156 -1.37939
internal_count=2013 1051 962 311 740 531 431
shrinkage=0.05


Tree=19
num_leaves=8
num_cat=0
split_feature=16 7 117 5 68 107 157
split_gain=1585.49 279.963 122.435 113.593 107.14 80.2545 55.3894
threshold=1.6465452046968376 2.5720440135281883 1.3926311000000002 4.4783025000000007 4.0950000000000006 4.0624000000000011 2388.2756744929516
decision_type=2 2 2 2 2 2 2
left_child=1 2 -1 6 -5 -3 -2
right_child=3 5 -4 4 -6 -7 -8
leaf_value=0.052157692315037335 -0.04788060123456344 0.093203969219965599 0.10976124409270208 -0.07129203448294813 -0.019244396491980769 0.0058662405235409606 -0.004782177474618233
leaf_count=523 131 28 112 488 124 434 173
internal_value=0 0.815449 1.24635 -0.966736 -1.21493 0.223189 -0.467084
internal_count=2013 1097 635 916 612 462 304
shrinkage=0.05


Tree=20
num_leaves=8
num_cat=0
split_feature=20 7 134 20 154 109 61
split_gain=1529.36 143.423 170.082 135.715 123.225 94.3025 79.1453
threshold=2.6891517308142117 2.5151867055970025 -0.17542475853821438 2.7573346540280843 22.000499999994648 3.6830000000000003 11.132380973938018
decision_type=2 2 2 2 2 2 2
left_child=1 4 -3 5 -1 -2 -5
right_child=3 2 -4 6 -6 -7 -8
leaf_value=0.014797678874896431 0.020571079716253816 -0.094384261282781767 0.040649611654126602 -0.13604319163731168 0.11587192294057132 -0.035248185125281016 -0.057494784937867555
leaf_count=41 89 24 822 35 114 505 383
internal_value=0 0.898399 0.736377 -0.844892 1.78272 -0.537694 -1.28144
internal_count=2013 1001 846 1012 155 594 418
shrinkage=0.05


Tree=21
num_leaves=8
num_cat=0
split_feature=20 26 86 20 8 10 61
split_gain=1380.25 142.243 130.01 122.483 89.9555 86.3407 71.4287
threshold=2.6891517308142117 6.5000000000000009 4.4175000000000013 2.7573346540280843 2.4173310641156251 -3.6666911112740746e-05 11.132380973938018
decision_type=2 2 2 2 2 2 2
left_child=1 2 -1 5 -3 -2 -5
right_child=3 4 -4 6 -6 -7 -8
leaf_value=-0.021691995924886534 0.016326070483773946 0.10579768137351886 0.081867276010767806 -0.12924103349447252 0.025650788108337555 -0.034220104275471945 -0.054620045510074489
leaf_count=34 102 37 279 35 651 492 383
internal_value=0 0.853479 1.41236 -0.802647 0.59922 -0.510809 -1.21736
internal_count=2013 1001 313 1012 688 594 418
shrinkage=0.05


Tree=22
num_leaves=8
num_cat=0
split_feature=20 26 168 20 140 157 61
split_gain=1245.68 128.374 128.386 110.541 83.2386 78.2738 64.4644
threshold=2.6891517308142117 6.5000000000000009 -2.9986023554919958 2.7573346540280843 0.0034713614235924359 2186.6335755907094 11.132380973938018
decision_type=2 2 2 2 2 2 2
left_child=1 2 -1 5 -3 -2 -5
right_child=3 4 -4 6 -6 -7 -8
leaf_value=0.11028584503979832 0.049397884751670063 0.039990428682595933 0.043349213311048157 -0.12277898290327618 0.0022242547137041888 -0.028735729776885172 -0.051889043044561503
leaf_count=111 34 478 202 35 210 560 383
internal_value=0 0.810805 1.34174 -0.762515 0.569259 -0.485269 -1.1565
internal_count=2013 1001 313 1012 688 594 418
shrinkage=0.05


Tree=23
num_leaves=8
num_cat=0
split_feature=20 20 125 4 58 171 139
split_gain=1124.22 122.68 155.812 105.51 98.0867 80.8527 74.6036
threshold=2.6891517308142117 2.6316916233553385 0.94244317223747121 3.2169696695658039 0.012193783133499001 -15316.126838166967 -0.0026606889740168603
decision_type=2 2 2 2 2 2 2
left_child=1 2 -1 6 -5 -3 -2
right_child=3 5 -4 4 -6 -7 -8
leaf_value=0.029483450881417933 0.061988255863146081 0.007663650325826399 0.080357532732254502 -0.052796244278420883 -0.015919964080159037 0.073019458841193804 -0.020128878014271753
leaf_count=331 41 339 276 634 252 55 85
internal_value=0 0.770265 1.05231 -0.724389 -0.846155 0.335738 0.131836
internal_count=2013 1001 607 1012 886 394 126
shrinkage=0.05


Tree=24
num_leaves=7
num_cat=0
split_feature=16 89 26 4 88 139
split_gain=1016.17 154.595 185.212 86.4837 75.6756 68.7586
threshold=1.6465452046969991 3.1295000000000002 6.5000000000000009 3.2452509254122952 0.69983000000000006 -0.0080931953373326784
decision_type=2 2 2 2 2 2
left_child=1 -1 -3 5 -5 -2
right_child=3 2 -4 4 -6 -7
leaf_value=-0.095475533151108294 0.077291720457698998 0.068065593247107856 0.022475446935979811 -0.056069421405515185 -0.022631306087576034 -0.017843942426213431
leaf_count=23 23 312 779 515 252 109
internal_value=0 0.656174 0.710263 -0.772995 -0.901665 -0.0253455
internal_count=2013 1114 1091 899 767 132
shrinkage=0.05


Tree=25
num_leaves=8
num_cat=0
split_feature=18 0 117 130 4 109 107
split_gain=865.22 164.05 124.164 173.381 122.953 103.55 66.442
threshold=2.4274316129392823 2.3526473375642221 1.3926311000000002 0.97457545872557561 3.1995759716595011 3.6885000000000003 4.1199500000000002
decision_type=2 2 2 2 2 2 2
left_child=2 5 3 -1 -4 -2 -3
right_child=1 6 4 -5 -6 -7 -8
leaf_value=-0.040430196879237004 0.029472273562942415 0.016365736041750227 0.18215937876541699 0.045172163567251913 0.06374772579068004 -0.018642058645552441 -0.055611251347274064
leaf_count=67 131 35 28 505 101 764 382
internal_value=0 -0.473359 0.90277 0.702906 1.78899 -0.231993 -0.9914
internal_count=2013 1312 701 572 129 895 417
shrinkage=0.05


Tree=26
num_leaves=7
num_cat=0
split_feature=18 0 58 96 109 107
split_gain=781.06 144.813 118.974 175.217 97.0916 59.9639
threshold=2.4303427035222342 2.3526473375642221 0.0062066073787392954 4.383020000000001 3.6885000000000003 4.1199500000000002
decision_type=2 2 2 2 2 2
left_child=2 4 -1 -4 -2 -3
right_child=1 5 3 -5 -6 -7
leaf_value=-0.072181614668277855 0.02874683652997248 0.015547449290752411 0.090712974278301189 0.031792816106407523 -0.01819960949361166 -0.052830688352513748
leaf_count=22 129 35 166 526 753 382
internal_value=0 -0.456245 0.845753 0.918537 -0.226666 -0.94183
internal_count=2013 1299 714 692 882 417
shrinkage=0.05


Tree=27
num_leaves=8
num_cat=0
split_feature=18 16 117 130 4 88 146
split_gain=705.604 137.708 111.965 156.532 107.873 83.439 74.5818
threshold=2.4274316129392823 1.6465452046969991 1.3926311000000002 0.97457545872557561 3.1995759716595011 0.71123666666666685 4.2463430680719956
decision_type=2 2 2 2 2 2 2
left_child=2 6 3 -1 -4 -3 -2
right_child=1 5 4 -5 -6 -7 -8
leaf_value=-0.040536318123062604 0.061484534332218267 -0.039186257520253384 0.16967929293002404 0.040800252901344092 0.058766519792820562 0.00039294539795567591 -0.0049321654599980783
leaf_count=67 48 748 28 505 101 162 354
internal_value=0 -0.427475 0.815253 0.625461 1.65681 -0.642806 0.0599637
internal_count=2013 1312 701 572 129 910 402
shrinkage=0.05


Tree=28
num_leaves=8
num_cat=0
split_feature=18 0 18 130 109 112 107
split_gain=636.807 127.639 106.608 143.753 81.0044 67.0469 53.9767
threshold=2.4274316129392823 2.3526473375642221 2.3376475267840271 0.9883967376057522 3.6885000000000003 -8.2080741781425749e-07 4.1199500000000002
decision_type=2 2 2 2 2 2 2
left_child=2 4 5 -4 -2 -1 -3
right_child=1 6 3 -5 -6 -7 -8
leaf_value=0.12279203368349766 0.026666553521827431 0.016277055570057462 -0.002888429969939035 0.048917794432228719 -0.015888721063606323 0.049911777979622672 -0.048597658447359318
leaf_count=53 131 35 215 355 764 78 382
internal_value=0 -0.406102 0.774491 0.587537 -0.193199 1.58795 -0.863051
internal_count=2013 1312 701 570 895 131 417
shrinkage=0.05


Tree=29
num_leaves=8
num_cat=0
split_feature=20 7 21 88 103 88 127
split_gain=584.391 145.899 103.014 85.8063 81.906 88.4489 83.5879
threshold=2.6938753617047975 2.5169514374566604 0.12186570388453373 0.71877666666666673 -1.0000666711114057e-05 0.7082966666666668 0.95574571964263499
decision_type=2 2 2 2 2 2 2
left_child=1 2 -1 -3 5 -2 -6
right_child=4 3 -4 -5 6 -7 -8
leaf_value=0.090292492080626535 -0.0203441426340666 0.01107841643036561 -0.014150526990124491 0.051440503665749329 -0.049811543254474094 0.045549073679880668 -0.01311595385557651
leaf_count=127 223 723 29 161 446 66 238
internal_value=0 0.525931 1.41754 0.368589 -0.552272 -0.105917 -0.740864
internal_count=2013 1040 156 884 973 289 684
shrinkage=0.05


Tree=30
num_leaves=7
num_cat=0
split_feature=16 141 2 117 90 0
split_gain=668.565 165.01 122.171 89.4692 58.5285 50.1695
threshold=1.6193277068643186 -0.008559123901343885 1.3165611772085868 1.3622235500000002 3.6815000000000002 2.3298458786327063
decision_type=2 2 2 2 2 2
left_child=1 -1 4 -3 -2 -4
right_child=2 3 5 -5 -6 -7
leaf_value=0.1486679312773049 0.050023085805209914 0.023623750266727125 0.032866378724575041 0.068312462484464057 -0.014257435879797081 -0.048284922496087151
leaf_count=32 37 560 20 140 825 399
internal_value=0 0.752744 -0.445275 0.65123 -0.229966 -0.888227
internal_count=2013 732 1281 700 862 419
shrinkage=0.05


Tree=31
num_leaves=8
num_cat=0
split_feature=16 141 1 1 20 109 36
split_gain=604.624 107.953 102.213 77.2031 75.0641 69.247 25.6129
threshold=1.6363916944839971 -0.0087513235444195044 1.9917760208354569 1.9126109894400138 2.7913310493770012 3.5325000000000002 -1.6987184987421691e-05
decision_type=2 2 2 2 2 2 2
left_child=1 3 -3 -1 5 -2 -6
right_child=4 2 -4 -5 6 -7 -8
leaf_value=0.17113216106187215 0.036852096890409788 0.030100860317614966 -0.028768353421746953 0.040117983649606295 -0.10515801012516023 -0.023240552995107994 -0.047026926266346324
leaf_count=22 51 822 81 23 21 799 194
internal_value=0 0.571736 0.496405 2.08339 -0.526221 -0.3927 -1.0541
internal_count=2013 948 903 45 1065 850 215
shrinkage=0.05


Tree=32
num_leaves=7
num_cat=0
split_feature=16 141 2 53 160 0
split_gain=551.806 137.484 101.796 94.3121 55.0617 44.0051
threshold=1.6193277068643186 -0.008559123901343885 1.3165611772085868 48.500000000000007 3.6379788070917132e-17 2.3298458786327063
decision_type=2 2 2 2 2 2
left_child=1 -1 4 -3 -2 -4
right_child=2 3 5 -5 -6 -7
leaf_value=0.13554386179894209 0.0015550427370100888 -0.047039368474169785 0.031934393197298051 0.033960043880726237 -0.023758060432608981 -0.044067928815297877
leaf_count=32 455 38 20 662 407 399
internal_value=0 0.68392 -0.404472 0.591259 -0.207935 -0.808803
internal_count=2013 732 1281 700 862 419
shrinkage=0.05


Tree=33
num_leaves=7
num_cat=0
split_feature=16 2 134 53 97 20
split_gain=499.338 106.591 127.77 102.411 62.7104 60.3476
threshold=1.6363916944843997 1.1972189997378753 -0.13809930757081548 48.500000000000007 4.0319700000000003 2.7913310493770012
decision_type=2 2 2 2 2 2
left_child=1 3 -3 -1 -2 -6
right_child=4 2 -4 -5 5 -7
leaf_value=-0.040713400514796383 0.039299452304840089 -0.019155416853059937 0.028535324085519533 0.081013249374896762 -0.02062355993017365 -0.050735367094806583
leaf_count=20 37 179 652 127 787 211
internal_value=0 0.504103 0.365252 1.28904 -0.492402 -0.539798
internal_count=2013 978 831 147 1035 998
shrinkage=0.05


Tree=34
num_leaves=7
num_cat=0
split_feature=16 141 100 2 127 13
split_gain=456.686 124.423 86.4549 84.2121 55.5784 31.3623
threshold=1.6193277068643186 -0.008559123901343885 -7.9530201342281908e-07 1.3165611772085868 0.94559773546338477 4.9129458333333345
decision_type=2 2 2 2 2 2
left_child=1 -1 -3 4 -2 -5
right_child=3 2 -4 5 -6 -7
leaf_value=0.12752605264540762 0.024818714921219419 0.049150023453595836 0.012948390265952471 -0.04007950200088678 -0.014159820284058603 0.019978302958137965
leaf_count=32 104 266 434 396 758 23
internal_value=0 0.62225 0.5341 -0.3679 -0.189141 -0.735655
internal_count=2013 732 700 1281 862 419
shrinkage=0.05


Tree=35
num_leaves=8
num_cat=0
split_feature=16 0 79 165 90 103 8
split_gain=404.571 105.475 105.819 101.826 67.8124 54.6868 37.4671
threshold=1.6465452046969991 2.2152250944257639 0.2028833724165503 1027.7067948976553 4.541500000000001 -1.0000666711114057e-05 2.5501373813620121
decision_type=2 2 2 2 2 2 2
left_child=1 2 -1 -3 5 -2 -6
right_child=4 3 -4 -5 6 -7 -8
leaf_value=-0.063870872445404528 -0.0092757778100293273 -0.094891782494431198 0.055547521991684334 0.014118077269613781 0.074697728216648107 -0.036813881453882973 -0.011030423244497238
leaf_count=20 260 22 256 816 25 588 26
internal_value=0 0.401714 0.93788 0.225125 -0.500058 -0.567412 0.619864
internal_count=2013 1114 276 838 899 848 51
shrinkage=0.05


Tree=36
num_leaves=8
num_cat=0
split_feature=16 77 8 23 90 146 8
split_gain=365.125 102.12 87.4496 76.9897 61.2007 50.4625 33.8141
threshold=1.6465452046969991 63.500000000000007 2.514911485472251 0.017671075483211694 4.541500000000001 4.3953571664398714 2.5501373813620121
decision_type=2 2 2 2 2 2 2
left_child=1 2 -1 -3 5 -2 -6
right_child=4 3 -4 -5 6 -7 -8
leaf_value=0.033019253630670264 -0.0098992205252513982 -0.068960818201303495 -0.0049158862429229842 0.0052600938891028542 0.070962841644883159 -0.035676069281693985 -0.010478902472039829
leaf_count=758 287 50 190 116 25 561 26
internal_value=0 0.381628 0.508324 -0.341912 -0.475055 -0.539041 0.58887
internal_count=2013 1114 948 166 899 848 51
shrinkage=0.05


Tree=37
num_leaves=7
num_cat=0
split_feature=16 89 66 90 103 8
split_gain=329.526 98.0873 120.726 55.2337 49.4087 30.5172
threshold=1.6465452046969991 3.1295000000000002 4.9450000000000012 4.541500000000001 -1.0000666711114057e-05 2.5501373813620121
decision_type=2 2 2 2 2 2
left_child=1 -1 -3 4 -2 -5
right_child=3 2 -4 5 -6 -7
leaf_value=-0.077848426367227858 -0.0074544948787213516 0.057828772864821888 0.013005232103558726 0.067414699465036393 -0.033629957543583874 -0.0099549569834310285
leaf_count=26 260 180 908 25 588 26
internal_value=0 0.362547 0.408418 -0.451302 -0.512089 0.559427
internal_count=2013 1114 1088 899 848 51
shrinkage=0.05


Tree=38
num_leaves=8
num_cat=0
split_feature=16 77 168 23 68 146 139
split_gain=297.397 90.7774 84.0407 69.3524 49.8937 53.178 25.7195
threshold=1.6465452046969991 63.500000000000007 -4.3711410065548089 0.017671075483211694 4.1350000000000007 4.3985960021507982 0.0081064130145338791
decision_type=2 2 2 2 2 2 2
left_child=1 2 -1 -3 5 -2 -6
right_child=4 3 -4 -5 6 -7 -8
leaf_value=0.04550730157069454 -0.0084293965307273427 -0.066113390266895292 0.013261314478515444 0.0043301083821931791 -0.0054443169747052413 -0.035091008034002273 0.050643130171022593
leaf_count=292 294 50 656 116 60 514 31
internal_value=0 0.34442 0.463872 -0.337756 -0.428737 -0.507798 0.273248
internal_count=2013 1114 948 166 899 808 91
shrinkage=0.05


Tree=39
num_leaves=8
num_cat=0
split_feature=7 130 47 6 20 125 102
split_gain=268.839 104.563 200.403 91.8968 73.6253 64.175 34.6213
threshold=2.5733973408456996 0.97359267461019716 74913.680276954823 5.6916388841022263 2.7573346540280843 0.96544647937093597 1.3342228152101489e-07
decision_type=2 2 2 2 2 2 2
left_child=1 2 -1 -3 5 -2 -6
right_child=4 3 -4 -5 6 -7 -8
leaf_value=-0.13816438013756718 0.0042524532379437426 0.089230667795477947 0.029193946754313867 0.026522640414876328 -0.015804483906659127 -0.023820360976873137 -0.044247038508457889
leaf_count=27 629 66 53 509 216 301 212
internal_value=0 0.525377 -0.54579 0.674409 -0.254629 -0.0966696 -0.597857
internal_count=2013 655 80 575 1358 930 428
shrinkage=0.05


Tree=40
num_leaves=6
num_cat=0
split_feature=7 79 130 134 11
split_gain=215.825 109.762 102.486 84.4024 85.9955
threshold=2.5733973408456996 0.30159497192157642 0.97359267461019716 -0.17072119949900369 4.5000000000000009
decision_type=2 2 2 2 2
left_child=1 2 -1 -2 -5
right_child=3 -3 -4 4 -6
leaf_value=-0.037072003782550628 -0.087189403941502444 0.13186778710647062 0.025453963418114109 0.02168970968197571 -0.015703147499708862
leaf_count=74 37 22 573 178 1129
internal_value=0 0.440744 0.366052 -0.254376 -0.212212
internal_count=2013 669 647 1344 1307
shrinkage=0.05


Tree=41
num_leaves=7
num_cat=0
split_feature=58 7 96 165 157 38
split_gain=196.28 146.665 123.197 78.9795 119.515 51.9872
threshold=0.012752948417714918 2.5107727853643502 4.383020000000001 1282.8561257254078 2183.419336726789 4.6031383927056426
decision_type=2 2 2 2 2 2
left_child=3 5 -3 -1 -5 -2
right_child=1 2 -4 4 -6 -7
leaf_value=-0.11250266527587718 0.047913647937494218 0.048245127531792359 -0.00065963878184556967 0.04807039498718399 -0.021988156410299445 0.12828206312484466
leaf_count=22 89 151 875 66 784 26
internal_value=0 0.250788 0.130757 -0.379384 -0.330966 1.32168
internal_count=2013 1141 1026 872 850 115
shrinkage=0.05


Tree=42
num_leaves=7
num_cat=0
split_feature=7 73 17 111 134 6
split_gain=178.51 105.506 209.33 103.333 75.6256 78.3755
threshold=2.5733973408456996 40.500000000000007 2.1500000000000008 5.245000000000001 -0.17072119949900369 6.3809192512219894
decision_type=2 2 2 2 2 2
left_child=1 2 -1 -3 -2 -6
right_child=4 3 -4 -5 5 -7
leaf_value=-0.11783985083824711 -0.082051345806669548 0.07882958481448793 0.01655248312401723 0.020530659250317301 0.044396032768418081 -0.012341759146782342
leaf_count=38 37 93 122 416 64 1243
internal_value=0 0.400998 -0.307314 0.623651 -0.231181 -0.191269
internal_count=2013 669 160 509 1344 1307
shrinkage=0.05


Tree=43
num_leaves=7
num_cat=0
split_feature=58 7 86 69 157 134
split_gain=166.323 128.268 83.5162 71.3972 107.115 48.4335
threshold=0.012752948417714918 2.5107727853643502 4.7285000000000013 0.39373490993923521 2183.419336726789 -0.11803535534292343
decision_type=2 2 2 2 2 2
left_child=3 5 -3 -1 -5 -2
right_child=1 2 -4 4 -6 -7
leaf_value=-0.11082238210365176 0.11069425455161504 0.047976776219619981 0.0011081522984339087 0.045434127308066882 -0.020429012716249535 0.040174135409761225
leaf_count=20 35 106 920 67 785 80
internal_value=0 0.231258 0.119007 -0.348833 -0.304993 1.23274
internal_count=2013 1141 1026 872 852 115
shrinkage=0.05


Tree=44
num_leaves=7
num_cat=0
split_feature=16 89 7 135 18 156
split_gain=151.276 106.861 105.9 64.8917 39.353 24.5637
threshold=1.6465452046992237 3.1295000000000002 2.5107727853643502 -0.43131245528962475 2.570019446896143 4.8627650054792575e-15
decision_type=2 2 2 2 2 2
left_child=1 -1 -3 4 -2 -5
right_child=3 2 -4 5 -6 -7
leaf_value=-0.084570524381505779 -0.0051789056582247058 0.057944293426157069 0.0076290276263737029 -0.0042634321451187132 -0.03531165828257251 -0.05907827294099012
leaf_count=29 533 116 1062 25 136 112
internal_value=0 0.204988 0.251673 -0.354494 -0.226091 -0.981511
internal_count=2013 1207 1178 806 669 137
shrinkage=0.05


Tree=45
num_leaves=8
num_cat=0
split_feature=20 141 117 135 2 139 69
split_gain=164.701 78.9187 78.5807 56.8244 66.2149 46.3688 38.7188
threshold=2.702790979462518 -0.008559123901343885 1.3345771500000001 -0.49256962422376355 1.2866839377099224 0.0067832202881103424 0.43668464027610349
decision_type=2 2 2 2 2 2 2
left_child=1 6 -3 4 -2 -5 -1
right_child=3 2 -4 5 -6 -7 -8
leaf_value=0.10116785732615326 0.037336001580516844 0.002560199672363411 0.036511746877543279 -0.035971225996746313 -0.012799466003722261 -0.004256714260309419 0.020169792607426643
leaf_count=36 87 837 214 377 271 166 25
internal_value=0 0.253645 0.189465 -0.321602 -0.0123141 -0.525516 1.35944
internal_count=2013 1112 1051 901 358 543 61
shrinkage=0.05


Tree=46
num_leaves=8
num_cat=0
split_feature=20 96 89 75 106 5 53
split_gain=148.643 78.0691 159.242 109.437 52.3246 59.3181 54.0489
threshold=2.702790979462518 4.383020000000001 3.6470000000000007 30.500000000000004 4.900500000000001 4.6934713000000006 94.500000000000014
decision_type=2 2 2 2 2 2 2
left_child=1 2 -1 -3 6 -6 -2
right_child=4 3 -4 -5 5 -7 -8
leaf_value=0.016245201805487591 0.077049807151374605 0.084824180603027349 0.11006999832711049 2.9506986390169656e-05 -0.034722531188763242 -0.0035596826715161081 -0.0033232555053402469
leaf_count=235 23 40 56 781 400 247 231
internal_value=0 0.240963 0.686017 0.0832159 -0.305522 -0.456515 0.0790924
internal_count=2013 1112 291 821 901 647 254
shrinkage=0.05


Tree=47
num_leaves=8
num_cat=0
split_feature=7 62 8 5 125 98 48
split_gain=135.04 91.1204 174.849 103.965 74.2841 64.936 33.0837
threshold=2.5610303347997734 -20.499999999999996 2.4563287691607836 4.2558298500000005 0.91826838064156269 7.591822333592722 10.158794764713186
decision_type=2 2 2 2 2 2 2
left_child=1 3 -3 -1 6 -6 -2
right_child=4 2 -4 -5 5 -7 -8
leaf_value=0.050722747571442441 -0.10568638300895693 0.023924424089491369 -0.15713964588940144 0.0033744614317286412 -3.5564707134229448e-05 -0.026285659465016861 -0.031626113112035552
leaf_count=253 25 40 20 214 1125 298 38
internal_value=0 0.431468 -0.728605 0.580513 -0.1577 -0.110655 -1.2203
internal_count=2013 527 60 467 1486 1423 63
shrinkage=0.05


Tree=48
num_leaves=8
num_cat=0
split_feature=20 141 117 135 138 71 60
split_gain=126.191 70.3459 69.306 51.456 60.9323 51.3872 35.0852
threshold=2.702790979462518 -0.008559123901343885 1.3345771500000001 -0.49256962422376355 0.030860954483655705 4.0020000000000016 74475.241995490258
decision_type=2 2 2 2 2 2 2
left_child=1 6 -3 4 -2 -5 -1
right_child=3 2 -4 5 -6 -7 -8
leaf_value=0.1120458726649699 -0.0045052586847402227 0.0015824561926960198 0.033467516336137447 0.049362766872281617 0.083277787268161776 -0.02700881062255156 0.033803629875183108
leaf_count=23 337 837 214 23 21 520 38
internal_value=0 0.222089 0.161495 -0.281436 0.0128805 -0.475478 1.2661
internal_count=2013 1112 1051 901 358 543 61
shrinkage=0.05


Tree=49
num_leaves=8
num_cat=0
split_feature=14 168 88 165 125 2 148
split_gain=118.2 143.15 109.232 101.945 95.0078 128.281 56.9844
threshold=0.037171276373568748 13.386096906322193 0.71877666666666673 1162.6696622132879 0.91826838064156269 1.2292725943037 18.284683068551477
decision_type=2 2 2 2 2 2 2
left_child=4 2 -2 -3 6 -6 -1
right_child=1 3 -4 -5 5 -7 -8
leaf_value=-0.13418214165351608 0.014772845401793071 -0.13523702044849811 0.070634142832400701 -0.011982561551755476 0.11621594727039337 -0.0084495080898159981 -0.034431619228931461
leaf_count=22 552 23 104 62 21 1188 41
internal_value=0 0.314364 0.472578 -0.906675 -0.188069 -0.125682 -1.3853
internal_count=2013 741 656 85 1272 1209 63
shrinkage=0.05


Tree=50
num_leaves=8
num_cat=0
split_feature=58 66 87 88 98 146 117
split_gain=154.983 143.819 128.045 54.0778 52.6444 51.4272 17.7504
threshold=0.012193783133499001 4.9450000000000012 16.500000000000004 0.71877666666666673 10.32980877468799 4.201974602506465 1.1056120000000003
decision_type=2 2 2 2 2 2 2
left_child=4 2 -2 -3 5 -1 -6
right_child=1 3 -4 -5 6 -7 -8
leaf_value=0.015417100095736056 0.030996019292522121 0.0016298847664306981 0.1494285117947694 0.033198141903755321 -0.072231809336844144 -0.017518845306693624 -0.027342707603238526
leaf_count=145 74 862 33 161 49 649 40
internal_value=0 0.24734 1.35044 0.131962 -0.311831 -0.230082 -1.04114
internal_count=2013 1130 107 1023 883 794 89
shrinkage=0.05


Tree=51
num_leaves=8
num_cat=0
split_feature=58 96 168 134 109 19 47
split_gain=139.872 130.182 99.5629 80.936 48.8115 66.7963 57.5822
threshold=0.012193783133499001 4.3699700000000012 0.4742316250163548 -0.15426223380160145 3.8935000000000004 -4.9049999999999949 74719.355425101152
decision_type=2 2 2 2 2 2 2
left_child=4 2 -2 -3 6 -6 -1
right_child=1 3 -4 -5 5 -7 -8
leaf_value=-0.081504199686848244 0.089451984907018722 -0.04053107239099013 0.012902085851114917 0.0092765210528259878 -0.019102569959385501 -0.076360176539137251 -0.0023224088539509982
leaf_count=24 87 90 83 870 266 63 530
internal_value=0 0.234973 1.04155 0.0921412 -0.296239 -0.601336 -0.115053
internal_count=2013 1130 170 960 883 329 554
shrinkage=0.05


Tree=52
num_leaves=8
num_cat=0
split_feature=58 66 146 134 98 146 117
split_gain=126.235 121.394 119.531 66.149 47.8226 44.5166 16.0494
threshold=0.012193783133499001 4.9450000000000012 4.3030368616445331 -0.15300558603891615 10.32980877468799 4.201974602506465 1.1056120000000003
decision_type=2 2 2 2 2 2 2
left_child=4 2 -2 -3 5 -1 -6
right_child=1 3 -4 -5 6 -7 -8
leaf_value=0.014871581840360987 0.031893334924070919 -0.032137610962686754 0.15511110682900137 0.010115324822494902 -0.068010548753093703 -0.015771664011841768 -0.025326425842940811
leaf_count=145 81 103 26 920 49 649 40
internal_value=0 0.223224 1.23668 0.117222 -0.281427 -0.203512 -0.976533
internal_count=2013 1130 107 1023 883 794 89
shrinkage=0.05


Tree=53
num_leaves=8
num_cat=0
split_feature=58 111 87 111 60 47 65
split_gain=113.927 111.626 133.876 71.9368 43.4054 114.453 43.1451
threshold=0.012193783133499001 5.245000000000001 16.500000000000004 5.2750000000000012 74330.337874841352 74730.58202155694 4.2751523656802934
decision_type=2 2 2 2 2 2 2
left_child=4 2 -2 -3 5 -1 -6
right_child=1 3 -4 -5 6 -7 -8
leaf_value=-0.057060350105166441 0.018332457216456533 -0.082251570859681003 0.12944852441731022 0.0072001674968624604 0.028412593695077495 0.044589065300921604 -0.021061966263441104
leaf_count=40 80 23 41 986 47 90 706
internal_value=0 0.212063 1.11967 0.103223 -0.267356 0.266246 -0.359478
internal_count=2013 1130 121 1009 883 130 753
shrinkage=0.05


Tree=54
num_leaves=8
num_cat=0
split_feature=22 111 87 111 88 146 168
split_gain=102.997 96.8155 90.0042 74.1541 51.3094 48.165 38.7963
threshold=0.014685833623805459 5.245000000000001 16.500000000000004 5.2750000000000012 0.71316666666666684 4.201974602506465 -4.0629560063513326
decision_type=2 2 2 2 2 2 2
left_child=4 2 -2 -3 5 -1 -6
right_child=1 3 -4 -5 6 -7 -8
leaf_value=0.010104896169569758 0.022383297525055999 -0.087544151945483123 0.11561267329618717 0.0074497301331952611 0.049972771566647756 -0.022698476288961791 -0.0043870455156383888
leaf_count=135 77 21 39 946 52 654 89
internal_value=0 0.211291 1.07455 0.107736 -0.242419 -0.341715 0.313211
internal_count=2013 1083 116 967 930 789 141
shrinkage=0.05


Tree=55
num_leaves=5
num_cat=0
split_feature=134 16 81 88
split_gain=93.9473 77.3508 77.7609 36.9876
threshold=-0.18814019742173893 1.6633299933165295 4.8360000000000012 0.71024000000000009
decision_type=2 2 2 2
left_child=-1 2 -2 -3
right_child=1 3 -4 -5
leaf_value=-0.084681072796229273 -0.042488513099403505 -0.018790937660251868 0.011271830543974803 0.011484879850537429
leaf_count=32 71 506 1278 126
internal_value=0 0.0335951 0.168847 -0.255099
internal_count=2013 1981 1349 632
shrinkage=0.05


Tree=56
num_leaves=4
num_cat=0
split_feature=134 80 5
split_gain=84.7874 75.7754 76.956
threshold=-0.18814019742173893 74143.416075717294 4.2721593500000017
decision_type=2 2 2
left_child=-1 -2 -3
right_child=1 2 -4
leaf_value=-0.08044702009210597 -0.083200843560581036 0.019333443255888497 -0.0032012158711062777
leaf_count=32 26 514 1441
internal_value=0 0.0319154 0.05447
internal_count=2013 1981 1955
shrinkage=0.05


Tree=57
num_leaves=4
num_cat=0
split_feature=134 80 1
split_gain=76.5207 68.3873 71.179
threshold=-0.18814019742173893 74143.416075717294 1.912003538465034
decision_type=2 2 2
left_child=-1 -2 -3
right_child=1 2 -4
leaf_value=-0.076424666843377065 -0.07904080115975097 0.016703543750201558 -0.003860697908283263
leaf_count=32 26 613 1342
internal_value=0 0.0303196 0.0517465
internal_count=2013 1981 1955
shrinkage=0.05


Tree=58
num_leaves=5
num_cat=0
split_feature=134 16 130 71
split_gain=69.0599 64.0944 75.0982 35.8866
threshold=-0.18814019742173893 1.6633299933165295 0.97457545872557561 4.0020000000000016
decision_type=2 2 2 2
left_child=-1 2 -2 -3
right_child=1 3 -4 -5
leaf_value=-0.072603435115888723 -0.035024451140391953 0.041672675957282385 0.010861483638874254 -0.014359260393676746
leaf_count=32 96 30 1253 602
internal_value=0 0.0288036 0.151921 -0.23399
internal_count=2013 1981 1349 632
shrinkage=0.05


Tree=59
num_leaves=5
num_cat=0
split_feature=80 20 165 0
split_gain=65.4051 72.2232 86.9636 34.9848
threshold=74143.416075717294 2.5624617476194156 960.1822627770747 2.1816498231889576
decision_type=2 2 2 2
left_child=-1 3 -3 -2
right_child=1 2 -4 -5
leaf_value=-0.074296267028769555 0.0055304151682837588 -0.077778958736194503 0.00068458383398776231 0.067548516869418707
leaf_count=29 37 36 1852 59
internal_value=0 0.0267923 -0.0162309 0.872914
internal_count=2013 1984 1888 96
shrinkage=0.05


Tree=60
num_leaves=7
num_cat=0
split_feature=20 22 134 104 52 14
split_gain=97.3725 95.2676 88.9153 71.5816 53.4686 33.0586
threshold=2.5726208189058286 0.10772188992315888 -0.18814019742173893 4.6388486602049248e-08 16.500000000000004 0.092557093907469745
decision_type=2 2 2 2 2 2
left_child=3 2 -2 4 -1 -5
right_child=1 -3 -4 5 -6 -7
leaf_value=-0.044362566804873854 -0.096796358594050017 -0.10359288990173653 8.2812951195981456e-05 0.051138083421521721 0.035054536890099519 0.12380302079642813
leaf_count=31 24 23 1799 45 67 24
internal_value=0 -0.0493691 -0.0238522 0.748012 0.198656 1.52826
internal_count=2013 1846 1823 167 98 69
shrinkage=0.05


Tree=61
num_leaves=7
num_cat=0
split_feature=14 96 3 73 35 3
split_gain=90.2279 86.0705 101.729 86.0249 76.566 59.9619
threshold=0.046549677005126112 4.4887200000000007 0.5676462121963004 35.500000000000007 -34.04999999999999 0.42163702135409781
decision_type=2 2 2 2 2 2
left_child=3 2 -2 -1 -5 -3
right_child=1 5 -4 4 -6 -7
leaf_value=-0.096383563944926642 0.063902807308582041 0.068554801360837053 -0.051811654391613872 -0.0070912419477213622 0.051141071477431368 0.00048089907041137971
leaf_count=26 139 35 22 1305 59 427
internal_value=0 0.33218 0.961818 -0.125795 -0.0914479 0.11276
internal_count=2013 623 161 1390 1364 462
shrinkage=0.05


Tree=62
num_leaves=6
num_cat=0
split_feature=20 62 162 139 79
split_gain=83.8904 88.412 96.2406 67.3295 79.4418
threshold=2.5726208189058286 -19.499999999999996 10730.242696685744 0.0089334628883375785 0.20856015091366994
decision_type=2 2 2 2 2
left_child=3 2 -2 4 -1
right_child=1 -3 -4 -5 -6
leaf_value=-0.044352150745689871 0.1006254761763241 -0.093862840590568694 -0.0023056802213686669 -0.040970471367239955 0.063156574292749665
leaf_count=20 23 26 1797 25 122
internal_value=0 -0.0462552 -0.020098 0.693868 0.96029
internal_count=2013 1846 1820 167 142
shrinkage=0.05


Tree=63
num_leaves=7
num_cat=0
split_feature=14 130 2 3 148 70
split_gain=78.1791 85.4548 81.5912 76.834 67.9325 36.0498
threshold=0.046549677005126112 0.97179284328237692 1.1972189997399856 0.42163702135409781 13.656223107300113 74944.960734580032
decision_type=2 2 2 2 2 2
left_child=1 -1 -3 5 -5 -2
right_child=3 2 -4 4 -6 -7
leaf_value=-0.10363760965622285 0.035199060345677512 0.089073102147844821 -0.0059019503891329563 0.062111073253458528 0.0045959468936363898 0.12113380636210028
leaf_count=22 26 23 1345 57 517 23
internal_value=0 -0.117546 -0.086103 0.308754 0.206148 1.51072
internal_count=2013 1390 1368 623 574 49
shrinkage=0.05


Tree=64
num_leaves=8
num_cat=0
split_feature=14 3 109 73 135 90 18
split_gain=70.9137 76.9187 58.0242 57.6096 56.5536 55.9937 37.792
threshold=0.031118279673910818 0.42163702135409781 3.8935000000000004 59.500000000000007 -0.44380306509094158 3.4670000000000001 2.3714420451988256
decision_type=2 2 2 2 2 2 2
left_child=2 6 5 -3 -4 -1 -2
right_child=1 3 4 -5 -6 -7 -8
leaf_value=-0.067535958408067628 0.10595631173501413 -0.0065734619361059081 -0.0087005793249073371 0.020209574355121475 -0.044137893904263349 0.0060837950712429876 0.025910878438374092
leaf_count=27 30 383 364 422 163 595 29
internal_value=0 0.230114 -0.149088 0.149337 -0.393225 0.0577616 1.33224
internal_count=2013 864 1149 805 527 622 59
shrinkage=0.05


Tree=65
num_leaves=8
num_cat=0
split_feature=141 88 52 2 112 156 69
split_gain=77.5091 70.3838 86.0797 63.672 57.7367 49.1997 36.0013
threshold=0.0080834948332662339 0.71316666666666684 25.500000000000004 1.1972189997378753 -1.0982915467154804e-06 5.0000000000000044 0.38878502296084977
decision_type=2 2 2 2 2 2 2
left_child=1 3 -3 -1 5 -2 -6
right_child=4 2 -4 -5 6 -7 -8
leaf_value=0.036291570721512977 -0.029482104784498614 0.074516424547348706 0.012343691907239298 -0.0030956849438160956 -0.10776653598994018 0.059784937213207115 -0.035351155368391861
leaf_count=111 33 70 272 1357 20 29 121
internal_value=0 0.0928304 0.501382 -0.00234987 -0.558814 0.245437 -0.912457
internal_count=2013 1810 342 1468 203 62 141
shrinkage=0.05


end of trees

feature importances:
q05_roll_std_10=44
q05_roll_std_100=33
q05_roll_std_1000=27
q01_roll_std_1000=16
max_to_min=15
stdAudioIncrease=13
autocorr_5=12
hmean=11
q01_roll_std_10=10
exp_Moving_average_30000_mean=10
q01_roll_std_100=9
q01_roll_mean_1000=9
mean_change_rate=8
q05_roll_mean_1000=7
avg_first_10000=7
classic_sta_lta6_mean=7
autocorr_1000=7
autocorr_10000=7
min_roll_std_1000=6
mean_change_rate_first_50000=6
avg_last_50000=6
q99_roll_mean_100=6
gmean=5
maxAudio=5
q95_roll_mean_100=5
Rmean_last_15000=5
min_roll_std_10=4
avg_last_10000=4
min_roll_mean_1000=4
classic_sta_lta1_mean=4
autocorr_10=4
Rstd=4
Rstd__last_5000=4
min_roll_std_100=3
q75Audio=3
av_change_rate_roll_std_10=3
q95_roll_std_1000=3
std_roll_mean_100=3
max_first_50000=3
std_roll_mean_1000=3
av_change_rate_roll_mean_1000=3
max_to_min_diff=3
avg_first_50000=3
std_last_10000=3
av_change_abs_roll_mean_10=3
Imean=3
Rmax_last_15000=3
Hilbert_mean=2
ave10=2
mean_change_rate_last_50000=2
mean_change_rate_first_10000=2
abs_max_roll_mean_10=2
max_first_10000=2
av_change_rate_roll_std_1000=2
min_first_50000=2
q05_roll_mean_100=2
max_last_10000=2
q95_roll_mean_1000=2
q99_roll_mean_1000=2
trend=2
classic_sta_lta3_mean=2
autocorr_5000=2
MA_700MA_BB_high_mean=2
Rmean=2
mean_change_abs=1
iqr=1
q05_roll_mean_10=1
q01_roll_mean_10=1
mean_change_rate_last_10000=1
min_roll_mean_10=1
abs_trend=1
q95_roll_std_10=1
q95_roll_std_100=1
std_first_50000=1
av_change_rate_roll_mean_100=1
max_last_50000=1
max_roll_std_10=1
max_roll_mean_1000=1
ave_roll_mean_1000=1
av_change_abs_roll_mean_1000=1
av_change_abs_roll_mean_100=1
av_change_abs_roll_std_100=1
autocorr_500=1
exp_Moving_average_3000_mean=1
MA_700MA_std_mean=1
MA_400MA_BB_low_mean=1
q999=1
Imax=1
Imin=1
Rmax_last_5000=1
Rmin_last_15000=1

parameters:
[boosting: gbdt]
[objective: regression]
[metric: l2,l1]
[tree_learner: serial]
[device_type: cpu]
[data: ]
[valid: ]
[num_iterations: 100]
[learning_rate: 0.05]
[num_leaves: 31]
[num_threads: 0]
[max_depth: 3]
[min_data_in_leaf: 20]
[min_sum_hessian_in_leaf: 0.001]
[bagging_fraction: 0.8]
[bagging_freq: 5]
[bagging_seed: 3]
[feature_fraction: 0.9]
[feature_fraction_seed: 2]
[early_stopping_round: 0]
[max_delta_step: 0]
[lambda_l1: 0]
[lambda_l2: 0]
[min_gain_to_split: 0]
[drop_rate: 0.1]
[max_drop: 50]
[skip_drop: 0.5]
[xgboost_dart_mode: 0]
[uniform_drop: 0]
[drop_seed: 4]
[top_rate: 0.2]
[other_rate: 0.1]
[min_data_per_group: 100]
[max_cat_threshold: 32]
[cat_l2: 10]
[cat_smooth: 10]
[max_cat_to_onehot: 4]
[top_k: 20]
[monotone_constraints: ]
[feature_contri: ]
[forcedsplits_filename: ]
[refit_decay_rate: 0.9]
[verbosity: 0]
[max_bin: 255]
[min_data_in_bin: 3]
[bin_construct_sample_cnt: 200000]
[histogram_pool_size: -1]
[data_random_seed: 1]
[output_model: LightGBM_model.txt]
[snapshot_freq: -1]
[input_model: ]
[output_result: LightGBM_predict_result.txt]
[initscore_filename: ]
[valid_data_initscores: ]
[pre_partition: 0]
[enable_bundle: 1]
[max_conflict_rate: 0]
[is_enable_sparse: 1]
[sparse_threshold: 0.8]
[use_missing: 1]
[zero_as_missing: 0]
[two_round: 0]
[save_binary: 0]
[enable_load_from_binary_file: 1]
[header: 0]
[label_column: ]
[weight_column: ]
[group_column: ]
[ignore_column: ]
[categorical_feature: ]
[predict_raw_score: 0]
[predict_leaf_index: 0]
[predict_contrib: 0]
[num_iteration_predict: -1]
[pred_early_stop: 0]
[pred_early_stop_freq: 10]
[pred_early_stop_margin: 10]
[convert_model_language: ]
[convert_model: gbdt_prediction.cpp]
[num_class: 1]
[is_unbalance: 0]
[scale_pos_weight: 1]
[sigmoid: 1]
[boost_from_average: 1]
[reg_sqrt: 0]
[alpha: 0.9]
[fair_c: 1]
[poisson_max_delta_step: 0.7]
[tweedie_variance_power: 1.5]
[max_position: 20]
[label_gain: ]
[metric_freq: 1]
[is_provide_training_metric: 0]
[eval_at: ]
[num_machines: 1]
[local_listen_port: 12400]
[time_out: 120]
[machine_list_filename: ]
[machines: ]
[gpu_platform_id: -1]
[gpu_device_id: -1]
[gpu_use_dp: 0]

end of parameters

pandas_categorical:[]
