tree
version=v2
num_class=1
num_tree_per_iteration=1
label_index=0
max_feature_idx=142
objective=regression
feature_names=q01_roll_std_100 min_roll_std_100 q01_roll_std_10 min_roll_std_10 hmean gmean Hilbert_mean q01_roll_std_1000 min_roll_std_1000 max_roll_std_1000 mean_change_abs iqr iqr1 ave10 mean_change_rate_first_50000 sum q05_roll_std_10 q05_roll_mean_10 q05_roll_std_100 q01_roll_mean_10 q05_roll_std_1000 mean_change_rate_last_10000 mean_change_rate_last_50000 mean_change_rate_first_10000 q99 max_roll_std_100 q75Audio q25Audio abs_max_roll_mean_100 skew q01 abs_max_roll_mean_10 abs_std q95 q05 min_roll_mean_10 abs_trend q95_roll_mean_10 q95_roll_std_10 abs_q95 ave_roll_std_10 stdAudio ave_roll_mean_10 ave_roll_std_100 ave_roll_std_1000 abs_mean std_roll_std_10 av_change_rate_roll_std_10 q95_roll_std_100 std_roll_std_100 av_change_rate_roll_std_100 minAudio max_first_10000 maxAudio max_roll_mean_10 std_roll_mean_10 std_first_10000 av_change_rate_roll_mean_10 mean_change_rate std_roll_std_1000 av_change_rate_roll_std_1000 q95_roll_std_1000 min_first_50000 min_first_10000 min_last_10000 std_first_50000 q95_roll_mean_100 max_roll_mean_100 q05_roll_mean_100 std_roll_mean_100 av_change_rate_roll_mean_100 avg_last_10000 min_roll_mean_100 max_first_50000 ave_roll_mean_100 max_last_50000 std_last_50000 max_last_10000 max_roll_std_10 std_roll_mean_1000 av_change_rate_roll_mean_1000 max_roll_mean_1000 q01_roll_mean_100 min_last_50000 mad ave_roll_mean_1000 q95_roll_mean_1000 max_to_min_diff stdAudioIncrease min_roll_mean_1000 q05_roll_mean_1000 count_big abs_max_roll_std_1000 abs_max_roll_std_10 abs_max_roll_std_100 meanAudio avg_last_50000 avg_first_50000 std_last_10000 q99_roll_mean_10 av_change_abs_roll_mean_1000 av_change_abs_roll_std_1000 av_change_abs_roll_mean_100 av_change_abs_roll_mean_10 av_change_abs_roll_std_100 av_change_abs_roll_std_10 q99_roll_mean_1000 avg_first_10000 kurt q01_roll_mean_1000 abs_q99 q99_roll_mean_100 trend q99_roll_std_10 modeAudio q99_roll_std_1000 medianAudio max_to_min abs_q01 q99_roll_std_100 abs_q05 Hann_window_mean_50 Hann_window_mean_150 Hann_window_mean_1500 Hann_window_mean_15000 classic_sta_lta1_mean classic_sta_lta2_mean classic_sta_lta3_mean classic_sta_lta4_mean classic_sta_lta5_mean classic_sta_lta6_mean classic_sta_lta7_mean classic_sta_lta8_mean autocorr_1 autocorr_5 autocorr_10 autocorr_50 autocorr_100 autocorr_500 autocorr_1000 autocorr_5000 autocorr_10000 abs_max_roll_mean_1000
feature_infos=[2.1564092863137225:2.8922746282577951] [1.5896127474527595:2.3446478919821931] [1.173787790777125:1.5811388300762523] [0:0.69920589878719175] [2.808187044609483:4.6978001442665533] [3.5825385999999999:8.5022409999999997] [5.2415348333391645:44.236483563830966] [2.4676142567508617:3.5830520875726735] [2.3495566425213967:3.1662477990709625] [5.2154218069706131:1319.3048202776374] [-0.00086000573337155582:0.00048666991113274094] [3:11] [9:82] [3.5898666666666665:5.2825916666666668] [-0.10139994734142647:0.14539626654341714] [207622:795132] [1.5055453054179335:2.0976176963370921] [-23.199999999999999:3.2000000000000002] [2.3001097909675363:3.3219654642186924] [-176.5:1.8999999999999999] [2.5269961831608474:3.9441088974559517] [-0.13450542413890712:0.17138692553337526] [-0.12138340097115838:0.16094230601280834] [-0.12061458111762373:0.17580883963915803] [11:248] [10.010923326975675:2286.8340229419468] [6:10] [-1:3] [5.6100000000000003:398.24000000000001] [-3.3766192288580013:4.2194288243558846] [-239.00999999999999:-2] [17.100000000000001:4135.8999999999996] [2.5890852183163084:140.10575142957018] [9:45] [-37:0] [-3418.6999999999998:-6.4000000000000004] [-0.00044649147455139924:0.00060724187656387802] [5.7000000000000002:30.850000000000001] [3.8815804341358815:60.664376347915862] [9:77.049999999988358] [2.6016066627852523:22.320983594265453] [2.8863790000000003:142.97276000000002] [3.5965044813355478:5.301612105459661] [2.7798130067340172:34.047977202831824] [2.8130889342708145:36.615911684189783] [4.1477066666666671:28.832626666666666] [0.87392868552173986:101.32586738339144] [22760.625151912885:75880.530209080302] [3.3042824982562697:88.20639020349482] [0.61453812787205098:139.043953697142] [22666.935073186229:75936.241146842862] [-4482:-16] [13:1597] [30:5444] [17.100000000000001:4135.8999999999996] [1.1901030472097085:103.70551728492384] [2.619534912215455:143.40957267460732] [22757.964557269526:75867.944181273808] [-0.096501159712536144:0.14276451945282165] [0.44320040487404921:138.7521015153192] [22209.016092182377:75397.328559697577] [3.428372461932621:99.564768940690129] [-4482:-7] [-1869:-4] [-2592:-4] [2.6819279287013469:193.8941412213953] [4.2599999999999998:8.2300000000000004] [5.6100000000000003:398.24000000000001] [0.17999999999999999:4.6399999999999997] [0.3365529160040725:15.150584232699199] [22665.474270634804:75924.755259640631] [3.3631000000000002:5.5812999999999997] [-357.20999999999998:3.23] [17:3449] [3.5965006237450048:5.3009570316408823] [17:5444] [2.7071704444745084:247.19259169875261] [13:2030] [14.523544103741806:3121.166699595949] [0.16959270725536413:3.2334344171125933] [22209.174352479571:75397.291861625708] [4.258:66.063999999999993] [-24.030000000000001:4.3600000000000003] [-3704:-7] [2.2281416604445821:27.515952596266626] [3.5960773216287145:5.300388064509634] [3.9730000000000003:7.226] [-1033:1740] [0.42807827616534738:0.77817999999999998] [-42.788000000000004:4.6269999999999998] [1.8730000000000002:4.9199999999999999] [0:1684] [5.2154218069706131:1319.3048202776374] [14.523544103741806:3121.166699595949] [10.010923326975675:2286.8340229419468] [3.5963132000000004:5.3008800000000003] [3.4218999999999999:5.4449199999999998] [3.4480599999999999:5.4849600000000001] [2.6203623394254056:277.80284855245156] [7:189.22000000000114] [-1.640939597315438e-05:1.5785234899328862e-05] [-0.00043899603017062141:0.00054616711306101321] [-5.5370246831220726e-05:4.3762508338892585e-05] [-0.00074738315887725858:0.00040469364624308332] [-0.00045353238754379082:0.00063078538269458753] [-0.00037840513439309914:0.00055023140163027687] [4.1269999999999998:12.965] [3.3955000000000002:5.4256000000000002] [0.99424744457449965:631.15892683450727] [-4.641:4.7679999999999998] [11:566] [4.5199999999999996:33.509999999999998] [-8.239300194143986e-06:9.5287343273578634e-06] [5.2873013490394714:427.97635960147215] [3:5] [4.9163084818885245:951.52930676760423] [4:5] [0.51063829999999999:2.3452382000000003] none [5.3340435133227215:948.97502729220594] [0:1] [3.5962325411876925:5.3009801138174382] [3.595887780420417:5.3002367450581378] [3.5909446752622274:5.2929771650258246] [3.5421185359415732:5.2201089693341478] [0.79537139351946329:1.1229264331263005] [0:1.3614629039057966] [0.85078181227039007:0.97799612578183059] [0.46177994256079569:0.95137909336644555] [0:1.0813394125717235] [0.89192471016597963:1.1547550071184729] [0:0.99594385772077121] [0.78573122964120579:0.99258859092963436] [0.43801450293317667:0.97068665069093996] [-0.24123998597588259:0.48291697350869228] [-0.64179140125033241:-0.10243222354717882] [-0.04837902091919221:0.55470845964870197] [-0.44404260707617865:0.45475068418122472] [-0.096900526163612763:0.14751454150797566] [-0.050834229443356138:0.08803794511135879] [-0.067029633808116662:0.063626192355735398] [-0.038956617667028397:0.060117222569058472] [4.258:66.063999999999993]
tree_sizes=4831 4955 4972 4961 4954 4945 4975 4961 4970 4997 5014 5023 4999 4980 4981 5002 5036 4978 5016 5020

Tree=0
num_leaves=64
num_cat=0
split_feature=18 18 18 18 18 134 5 20 0 38 45 107 52 137 68 117 45 66 62 109 106 135 83 57 13 86 29 8 132 7 101 53 109 88 63 61 139 71 2 1 105 139 29 101 103 126 2 106 138 71 140 137 68 29 79 18 8 1 79 8 134 114 82
split_gain=9730.27 1134.63 882.947 212.693 210.284 203.655 141.24 138.97 129.173 122.488 157.212 124.806 140.048 110.697 104.791 91.1203 76.4665 95.8215 74.6543 73.2718 70.6364 67.5051 83.7051 66.7382 63.2984 65.3723 62.2651 54.5063 54.1073 53.4526 52.4844 50.5719 56.8528 49.8264 78.8593 73.5789 65.6296 60.8853 49.0196 48.8524 47.7068 46.9537 46.6384 45.025 43.2925 42.8778 43.9567 42.6168 41.7526 39.5251 58.2414 39.175 44.4597 36.9766 35.9343 35.6925 32.8676 34.9905 30.9946 29.9861 26.6121 24.7161 40.8652
threshold=2.461286104925192 2.3695778014398665 2.5192190520068061 2.4180299185230023 2.4818838554934288 -0.16129882330367695 4.3228183000000007 2.5660577048064259 2.370078633141492 4.9988887654043399 4.6209966666666675 4.4202500000000002 36.500000000000007 -0.0083474272533979165 3.4450000000000007 1.1597406000000003 4.7271600000000005 4.9750000000000005 -43.499999999999993 3.6305000000000005 5.2945000000000002 -0.44265715189812865 -80.499999999999986 74866.872470228467 4.7827458333333341 4.7555000000000005 0.12243906818499217 2.4879776994268767 0.92970964695371927 2.6679797794456062 7.9873081122100576e-07 106.50000000000001 3.7085000000000004 0.69400333333333342 -39.499999999999993 7.1443714067346518 0.0031672905463237754 4.8338500000000009 1.269295517642717 1.9305884380603437 -2.4128276643870127e-06 0.0054011438566242687 -0.033075376270627795 6.6180620207550145e-07 -4.0002666844457328e-06 0.29861166459068711 1.3165611772064334 5.0385000000000009 -0.0043312794431875695 4.6441000000000008 -0.00036366386489235963 -0.0070333900398879016 3.8750000000000004 0.041415648948630333 0.231620079993239 2.45482415178 2.5045579069991217 1.9675010975842147 0.21091330343578127 2.538014778364444 -0.088001062166587526 4.5000000000000009 3.7050000000000005
decision_type=2 2 2 2 2 2 2 2 2 2 2 2 2 2 2 2 2 2 2 2 2 2 2 2 2 2 2 2 2 2 2 2 2 2 2 2 2 2 2 2 2 2 2 2 2 2 2 2 2 2 2 2 2 2 2 2 2 2 2 2 2 2 2
left_child=1 7 4 5 19 -3 31 28 14 10 -9 -12 13 -13 -4 23 -7 -18 -11 -2 21 22 42 -5 25 29 27 -25 -1 -16 38 -6 -33 37 36 -36 -35 49 54 40 -17 51 -8 -41 -32 46 -27 -44 -24 50 -19 52 -30 -22 -21 56 -29 -58 -10 -60 -40 -37 -63
right_child=2 3 8 15 6 16 20 9 58 18 11 12 -14 -15 24 39 17 33 -20 30 53 -23 48 26 -26 45 -28 55 41 -31 44 32 -34 34 35 61 -38 -39 60 43 -42 -43 47 -45 -46 -47 -48 -49 -50 -51 -52 -53 -54 -55 -56 -57 57 -59 59 -61 -62 62 -64
leaf_value=5.9409003848845297 5.7206671816218178 5.6044914532062338 5.6197561804543552 5.7373903708862874 5.6714774389733575 5.6671073594278054 5.4738140589675499 5.8787346768232549 5.5276061636223925 5.8240793358835568 5.6795983333812448 5.6934726414662693 5.8828684990790432 5.8227179096156885 5.4895980213894973 5.8185326606049665 5.8386606590168135 5.6589351630225311 5.952570934297098 5.7084646525945217 5.5411124312892088 5.4803079220070972 5.5440292453067386 5.7352269972760626 5.567566021666992 5.5699564219831306 5.5969696640177293 5.6195425876515364 5.9655241781487591 5.5865243145025119 5.5221944135441907 5.6245247547130033 5.522100655437959 5.6570416436261635 5.8647571521160389 5.7291796358949973 5.7740742029115095 5.6490440361659688 5.5632127981308717 5.6581816862578265 5.7226849352200224 5.8102899947351174 5.5920797715650608 5.7512964028134475 5.6122906771316661 5.4625572620083718 5.4864355417504438 5.505492247145825 5.6317868636427493 5.8053551721680439 5.779601439248351 5.8356133024254797 5.8645851890260507 5.6267917119419284 5.6269718418610744 5.5941214025035038 5.7323635287077916 5.6455878585591446 5.5210189294829499 5.4568365241940926 5.6419033281874329 5.8352706397786269 5.7448658083691724
leaf_count=24 20 23 23 28 29 21 36 37 20 26 34 37 29 30 25 20 39 20 20 31 20 50 23 26 39 23 37 22 20 33 20 42 20 23 28 25 25 21 22 37 37 35 27 20 40 102 50 30 33 20 20 29 24 34 24 20 26 21 20 202 21 25 25
internal_value=0 2.29329 -2.10984 1.47246 -1.18372 2.04339 -1.64028 3.74224 -3.0101 3.24261 2.84462 2.32699 2.9101 2.11547 -2.56589 0.860743 2.26906 2.41151 4.6875 -0.301374 -2.02457 -2.29982 -1.96243 0.417696 -2.7392 -2.93656 0.156355 0.519393 4.54846 -2.01649 -0.529642 -0.571863 -1.08171 2.16771 2.50713 3.00046 1.44852 1.53496 -0.0786701 1.56029 2.21491 4.24665 -2.54404 0.90567 -1.26623 -3.2415 -2.65639 -1.98125 -0.99653 2.04788 1.47397 4.70321 5.29793 -1.01023 0.546682 0.147287 0.488232 0.960428 -3.55161 -3.65903 -0.87854 2.48404 2.88996
internal_count=2013 954 1059 609 522 315 344 345 537 213 167 130 96 67 295 294 292 271 46 178 253 199 149 180 272 233 152 115 132 58 158 91 62 232 151 103 48 81 98 114 57 108 93 57 60 175 73 57 56 60 40 73 44 54 55 89 69 47 242 222 43 75 50
shrinkage=1


Tree=1
num_leaves=64
num_cat=0
split_feature=18 18 18 18 18 134 5 20 117 130 0 56 73 68 117 31 1 109 113 106 135 83 135 43 7 13 104 101 66 113 100 7 56 56 138 131 98 59 131 87 139 53 109 10 131 1 21 137 136 109 63 25 53 20 134 6 28 134 71 126 21 83 72
split_gain=8781.57 1024.01 796.86 191.955 189.781 183.798 127.469 125.42 116.809 157.544 116.579 116.442 113.993 94.5737 82.2361 73.3237 71.3129 66.1278 65.8314 63.7494 61.051 64.1985 60.5061 65.1991 60.3433 57.1268 55.3404 50.958 50.6099 55.784 61.5471 62.1458 50.4578 52.799 61.7523 62.6809 49.8759 70.6722 76.4781 46.8472 46.8147 45.6411 51.3097 44.4047 48.7059 44.0893 44.7032 42.5513 41.9122 40.6292 37.9888 37.4287 68.6825 35.7099 35.0709 42.1514 33.9962 33.3317 30.1695 30.0144 33.2691 29.2103 28.6397
threshold=2.461286104925192 2.3695778014398665 2.5192190520068061 2.4180299185230023 2.4818838554934288 -0.16129882330367695 4.3228183000000007 2.5660577048064259 1.4773460500000002 0.97329334626453712 2.370078633141492 3.1296164185061017 35.500000000000007 3.4450000000000007 1.1597406000000003 65.450000000000017 1.8870906442592059 3.6305000000000005 10.930639736196722 5.2945000000000002 -0.46147778623539654 -80.499999999999986 -0.4160357514545715 4.1610237579324254 2.5448331325923594 4.7827458333333341 -6.8190893283283581e-06 -1.572321334001493e-06 5.1750000000000007 20.047069442507258 -9.1610738255033445e-07 2.6735157913019973 6.230822130905679 3.1861068783931121 -0.011199694337293625 0.99234724705834965 4.1406016399570689 1.4522687639287895 0.99345598481059627 20.500000000000004 0.0038427009966168907 106.50000000000001 3.7085000000000004 -1.0000066667111113e-05 0.98982171241202255 1.9305884380603437 0.029430639762086302 -0.031198661940245519 0.094816756417702777 3.9035000000000006 -22.499999999999996 52.942012388582889 124.50000000000001 2.7380471871910554 -0.11933116236077766 6.4783619148779854 12.095000000000001 -0.11284493503241567 4.5226000000000015 0.29861166459068711 0.0024827738705827758 -57.499999999999993 -1.9149999999999998
decision_type=2 2 2 2 2 2 2 2 2 2 2 2 2 2 2 2 2 2 2 2 2 2 2 2 2 2 2 2 2 2 2 2 2 2 2 2 2 2 2 2 2 2 2 2 2 2 2 2 2 2 2 2 2 2 2 2 2 2 2 2 2 2 2
left_child=1 7 4 5 17 -3 41 36 9 -9 13 12 -11 -4 22 -14 24 -2 -18 20 21 39 23 51 -7 28 57 -13 29 -15 -31 -32 33 -20 -35 48 37 40 -39 58 -1 -6 -43 56 -45 46 -16 -47 -36 -29 -26 -5 -53 -22 -24 -56 -28 -19 -8 60 -30 -23 -21
right_child=2 3 10 14 6 16 19 8 -10 11 -12 27 15 25 45 -17 18 26 32 62 53 61 54 -25 50 -27 43 49 59 30 31 -33 -34 34 35 -37 -38 38 -40 -41 -42 42 -44 44 -46 47 -48 -49 -50 -51 -52 52 -54 -55 55 -57 -58 -59 -60 -61 -62 -63 -64
leaf_value=0.2257520813494921 0.071342283636331563 -0.039024653949815302 -0.024523163983679337 0.019086277329673371 0.024612029462025085 0.20324557421108086 -0.17978100299835206 0.025763637457902618 0.25120741614588987 0.02579845953732729 -0.16870142962352552 0.13705155061823981 0.19529187480608623 -0.16811720598489047 0.14296999435984728 0.07940722842301641 0.031406768507676555 -0.018450026408853858 0.065526469912085883 -0.083074356402669636 -0.16046724402242238 0.0058028160372660276 -0.072150736976237528 -0.02069817157762666 0.062202498245806925 -0.07410381386677424 -0.12648635608228773 0.28124109567566352 -0.17669285779649563 -0.1537499684840441 -0.1070092980678265 0.0086361686388651531 0.037886774539947515 0.19951925116280717 0.02769957824864171 0.17407705121570163 0.14539074472018651 0.22101495972701479 0.33838432301645693 -0.055958005875193832 0.12967621925331296 -0.019993018837911741 -0.11729591302573682 -0.058777381781790705 0.02350222966234599 0.011257629214811165 0.053286193870007992 0.10177840130403637 0.11793681022620971 0.19352032939593 0.14726690279585974 0.15694678683172575 0.042893946853776774 -0.08517959010565565 0.059766229316592215 -0.039484009867453061 -0.038586304810914129 0.070736103504896161 -0.10210288155078889 -0.17953246062314965 -0.095153924925573952 -0.078628896698355683 -0.010198170892321147
leaf_count=32 20 23 23 30 29 30 25 26 27 24 242 21 39 32 33 21 37 22 38 28 63 21 21 31 21 39 22 22 22 24 26 21 24 27 22 27 21 35 23 24 21 42 20 37 35 37 24 20 31 33 35 22 33 21 20 23 22 20 25 79 29 20 26
internal_value=0 2.17863 -2.00435 1.39884 -1.12453 1.94122 -1.55826 3.55513 3.08048 2.79833 -2.8596 3.16933 2.35788 -2.43759 0.817706 3.09464 2.1556 -0.286305 1.8363 -1.92334 -2.18483 -1.71144 0.396811 0.827461 2.92046 -2.60224 -0.50316 4.0662 -2.78973 -2.26614 -1.77208 -1.10676 2.10081 2.32311 2.68272 2.24138 4.32104 4.5884 5.35116 -2.26759 3.75369 -0.543269 -1.02762 -0.859273 -0.375607 1.48228 2.10417 0.860386 1.6096 4.57217 2.30736 1.28022 1.7703 -2.83291 -0.383742 0.133578 -1.65073 0.480391 -2.81884 -3.20458 -2.60655 -0.707668 -0.959716
internal_count=2013 954 1059 609 522 315 344 345 213 186 537 160 84 295 294 60 292 178 206 253 199 115 180 116 86 272 158 76 233 103 71 47 169 145 107 80 132 111 58 74 53 91 62 116 72 114 57 57 53 55 56 85 55 84 64 43 44 42 50 130 51 41 54
shrinkage=0.05


Tree=2
num_leaves=64
num_cat=0
split_feature=16 18 18 18 18 134 20 5 117 130 20 0 103 36 68 2 45 90 112 20 135 106 135 83 104 136 45 3 25 9 13 86 0 69 127 78 126 86 77 3 14 57 136 71 104 87 20 139 61 138 106 126 1 29 29 0 8 129 75 119 137 128 104
split_gain=8033.04 873.122 730.848 171.498 144.917 165.878 113.192 109.947 105.42 144.19 116.637 105.212 89.8157 130.703 85.3528 79.4715 68.479 74.2947 64.9951 62.8293 58.3432 57.5338 56.9526 69.8734 55.633 55.4856 86.5734 58.916 54.0904 87.2386 51.5569 53.8487 51.4738 50.5231 49.9874 48.2509 48.2457 52.5566 48.0372 47.5212 58.778 46.6822 47.1771 46.5948 41.1477 40.2567 38.4952 39.4185 38.1535 37.3888 37.1131 35.6109 46.4761 33.5695 33.4593 32.4796 27.4238 27.2096 26.0979 33.6624 26.5891 25.4065 23.6983
threshold=1.6363916944839403 2.3695778014398665 2.5192190520068061 2.4818838554934288 2.4180299185230023 -0.16129882330367695 2.5660577048064259 4.3228183000000007 1.4773460500000002 0.97616572744003749 2.576547416943948 2.370078633141492 -8.0005333688911064e-06 1.2384573040550394e-06 3.4450000000000007 1.264911064067924 4.7271600000000005 3.9075000000000002 -2.3666167058829597e-06 2.6718413566157735 -0.36234141868288811 5.2945000000000002 -0.44265715189812865 -80.499999999999986 -1.0342074192666955e-05 0.11481323205485416 5.5492633333333341 0.51639777949422438 52.942012388582889 32.189893820467923 4.7827458333333341 4.7555000000000005 2.3548788812703418 0.37558769758659 0.95724603730219637 78.619541080223044 0.23869623133475953 4.8295000000000003 44.500000000000007 0.42163702135574793 0.070999537570250057 74959.243656595252 0.042404335613065364 4.8856500000000009 2.5727484637116823e-06 18.500000000000004 2.614008136008132 -0.00060047078439667216 10.620088243549514 -0.0043312794431875695 5.0755000000000008 0.29798629975581564 1.9792866789771149 0.034114458789058014 0.041415648948630333 2.1906596905626068 2.5364860056488951 1.0598299869246193 100.50000000000001 24.586061040380518 -0.010916062372638877 0.83132534205696806 7.9129113226072105e-07
decision_type=2 2 2 2 2 2 2 2 2 2 2 2 2 2 2 2 2 2 2 2 2 2 2 2 2 2 2 2 2 2 2 2 2 2 2 2 2 2 2 2 2 2 2 2 2 2 2 2 2 2 2 2 2 2 2 2 2 2 2 2 2 2 2
left_child=1 6 3 19 5 -3 39 35 9 10 -8 14 -11 20 -4 18 -7 -18 -6 -2 -14 22 23 45 -21 27 28 53 34 -30 31 32 -16 -19 62 -5 -35 -38 50 -1 -41 -42 -43 46 -40 -9 -39 -48 -37 -25 -26 52 -33 -20 -23 -44 -13 58 59 -58 -61 -22 -27
right_child=2 4 11 7 15 16 8 21 -10 12 -12 56 13 -15 30 -17 17 33 25 24 61 54 -24 49 38 26 -28 -29 29 -31 -32 51 -34 36 -36 48 37 43 44 40 41 42 55 -45 -46 -47 47 -49 -50 -51 -52 -53 -54 -55 -56 -57 57 -59 -60 60 -62 -63 -64
leaf_value=0.27624303221702579 0.052142182018222488 -0.037073423843020981 -0.023297003253727504 0.023729342645064239 -0.040588586397755609 0.015408623910376005 0.13432077889641125 -0.13868017629643933 0.23864704238043891 0.22287842883513523 -0.023246735528759336 -0.10418895602226258 0.11163966208696366 0.061930054082320288 -0.13471893288435474 0.12609077206311317 0.18475790045641621 0.16198422290256312 -0.065145276551661288 0.033929323678215349 0.25440596371889113 -0.096902914531528953 -0.14995438604056835 -0.093096900277811548 -0.1054677352309227 0.05097402017563582 -0.031379584371600121 0.067154283761497471 0.18150051190302924 0.05730831683162721 -0.070398625812660418 -0.065832399404965922 -0.040287945336765718 0.15841737228135269 0.11204060949385167 -0.10351500355679055 0.027852511602853028 0.077615783959627149 -0.048380291297593539 0.12983395978808404 0.27418685374052626 0.25355399847030641 0.1164555848354385 0.045936109084222056 0.031268474315443349 -0.069434851902769879 0.092564083399871988 0.1692334532737732 -0.020133242186378034 -0.010051857747814873 -0.032624060003196495 -0.16498650212843832 -0.149801837336272 0.01306722896064029 -0.015400425695321142 0.20548689186573033 -0.20272657600316135 -0.12103464461863041 -0.18765102672365916 -0.15502108474438256 -0.083465465940535069 0.17470888771116733 -0.023444943835493177
leaf_count=20 29 23 23 31 26 21 24 61 27 39 23 20 21 39 31 26 29 29 23 30 20 20 50 23 36 23 21 31 26 31 39 26 27 24 20 23 35 50 34 28 23 20 21 36 31 32 30 38 34 33 34 104 45 34 34 20 22 30 113 37 20 20 20
internal_value=0 2.1113 -1.89247 -1.06524 1.37843 1.84416 3.37737 -1.49229 2.92646 2.65842 1.14427 -2.71662 3.1704 2.6684 -2.31571 0.856349 2.04782 2.18263 0.686536 -0.314604 3.58253 -1.82717 -2.07558 -1.76568 -0.553186 0.85665 1.24552 0.233574 1.57331 2.27915 -2.47213 -2.65025 -1.81519 2.00138 0.934703 -0.529492 1.83278 1.66319 -0.826913 4.10498 3.85143 4.26969 3.81193 1.91458 -0.207879 -2.29708 2.2184 2.70817 -1.07557 -0.883193 -1.40173 -2.92701 -2.38105 -0.369844 -0.911731 3.19771 -3.20533 -3.30637 -3.44475 -3.00382 -2.59828 4.29115 0.327211
internal_count=2013 941 1072 535 596 315 345 341 213 186 47 537 139 100 295 281 292 271 255 194 61 253 199 149 165 229 141 88 120 57 272 233 58 242 63 88 213 189 135 132 112 84 61 154 65 93 118 68 57 56 70 175 71 57 54 41 242 222 192 79 57 40 43
shrinkage=0.05


Tree=3
num_leaves=64
num_cat=0
split_feature=16 18 18 18 7 5 18 2 130 98 1 6 38 142 29 64 16 100 129 14 68 105 2 130 3 106 135 128 56 71 83 78 2 36 53 83 131 100 7 36 51 131 47 36 29 42 87 43 109 112 2 44 101 7 7 127 104 112 97 128 29 83 28
split_gain=7249.82 787.993 659.59 154.777 131.062 99.3354 97.3126 91.314 110.603 139.052 89.0425 87.5729 89.6523 82.3827 80.0134 77.7383 76.4072 74.5302 91.2439 83.6236 71.5737 66.7549 64.4936 54.1027 58.5865 53.7061 59.6306 53.6328 75.7785 57.7453 53.368 52.985 46.5892 54.8284 42.759 47.4476 41.7783 50.359 45.0622 40.2826 69.1563 53.521 56.4165 40.0418 39.8716 39.814 39.3757 39.3219 38.7176 38.5907 49.9915 37.6817 37.6673 37.3856 57.3459 37.3334 34.2458 32.9162 32.7731 31.0795 30.197 29.1268 27.9276
threshold=1.6363916944839403 2.3695778014398665 2.5192190520068061 2.4818838554934288 2.569869593013645 4.331944700000002 2.5635163665594853 1.197218999737498 0.97616572744003749 3.0352809048991367 2.000277758489164 5.6801877458137335 4.9988887654043399 5.0885000000000007 0.13490320532075203 -16.499999999999996 1.5491933384830014 -3.6912751677852599e-07 1.0104053882959778 0.075479092653518348 3.4450000000000007 4.6186884459898695e-07 1.264911064067924 0.99364239568265045 0.4714045207920895 5.2945000000000002 -0.46147778623539654 0.81686078625625258 4.1817018019274679 4.7293000000000012 -80.499999999999986 78.619541080223044 1.2692955176448222 -1.9407327271973681e-06 131.50000000000003 -44.499999999999993 0.98857742865760667 -1.1409395973154339e-06 2.6799077232993738 2.2626344356561126e-07 -75.499999999999986 0.98900277359710631 75000.656859679511 -4.2298636437435521e-06 0.14983850096409149 4.7039619133481345 20.500000000000004 4.8441459604042025 3.7085000000000004 1.7755021867455737e-07 1.3165611772088697 3.0136465112783326 -1.1214279030626941e-06 2.5920798361397117 2.583480185647383 0.95654837537277138 1.6031699278120791e-06 -5.0686671646697078e-07 4.2309800000000006 0.82372856464164934 0.041415648948630333 -57.499999999999993 10.035000000000002
decision_type=2 2 2 2 2 2 2 2 2 2 2 2 2 2 2 2 2 2 2 2 2 2 2 2 2 2 2 2 2 2 2 2 2 2 2 2 2 2 2 2 2 2 2 2 2 2 2 2 2 2 2 2 2 2 2 2 2 2 2 2 2 2 2
left_child=1 7 3 23 17 31 20 14 9 -9 22 -10 13 -13 51 -14 44 18 -3 27 -4 -18 39 -2 57 26 30 -19 29 52 46 -5 33 -26 35 -20 37 -22 49 41 53 -6 43 -43 -15 62 -7 -40 -33 50 -39 -1 -29 54 -41 -35 -12 -25 -8 -51 -27 -32 -38
right_child=2 4 6 5 10 25 58 8 11 -11 56 12 15 16 -16 -17 21 19 34 -21 36 -23 -24 24 32 60 -28 28 -30 -31 61 48 -34 55 -36 -37 45 38 47 40 -42 42 -44 -45 -46 -47 -48 -49 -50 59 -52 -53 -54 -55 -56 -57 -58 -59 -60 -61 -62 -63 -64
leaf_value=0.21931160905144434 -0.09282590828835964 0.047103319397817062 -0.033991040866105604 0.024073912302088558 0.09203972401080171 -0.12702438101476551 -0.11208908286306166 0.015715440036728978 0.23698274620941709 0.16093224519315888 0.019292772271566921 0.036735198087990285 0.15242409801908904 0.15273644616526943 0.27793304045098249 0.27968555284397945 0.030638572648167613 -0.017769069993949456 0.089624644696919456 0.14169567222706975 -0.1416438547918549 0.15115980776371782 0.13897834837968862 -0.10385089613497259 0.084824227107067912 -0.092057769466191541 -0.1320823188382769 0.12203206721693279 0.13243578442883105 -0.028617989301512187 0.013006536448374391 -0.026403038855642082 -0.03722389279738874 -0.035374511778354649 0.20053203704732436 0.18567629329860214 -0.12142926653226216 -0.014763643331825733 -0.10227959275245667 0.037952801825789112 0.15152139649504709 0.051468806341290474 0.071426216339071591 -0.030759196993159623 0.24328702434897426 -0.10067588387417697 -0.047721575087179308 -0.0082188244238495835 -0.11160598680377008 -0.088208582756730422 -0.1217981990116338 0.13115797128390383 0.036864638407840523 0.011172520982412001 0.14192035769422848 0.0404210248556355 -0.064745809239420027 -0.015222449803894218 -0.16856218672295412 -0.15953468442672777 -0.014630404180463623 -0.072326345723122354 -0.19101746211881224
leaf_count=22 20 30 26 33 27 49 31 32 35 34 27 21 28 31 27 21 20 23 36 32 77 27 21 20 30 20 82 20 31 22 20 40 37 32 27 20 21 20 20 36 21 20 30 57 20 31 23 25 20 24 24 27 37 36 21 33 22 22 150 42 34 20 46
internal_value=0 2.00574 -1.79785 -1.01198 1.30951 -1.41767 -2.58079 3.2085 2.93504 1.81048 0.871056 3.30067 3.00088 2.53212 4.1764 4.13929 2.91728 1.81105 2.43672 1.38256 -2.27725 1.99748 1.0969 -0.298874 -0.119834 -1.74819 -1.9937 1.03336 1.32374 0.803807 -1.51932 -0.536302 0.207478 0.578239 2.97696 2.47858 -2.40311 -2.17186 -1.84348 0.954415 1.39137 0.582681 0.265213 -0.188025 3.76493 -2.95057 -2.03383 -1.00047 -1.09608 -2.18834 -1.46292 3.41474 1.33496 1.02126 1.52513 0.062126 -0.368777 -1.14853 -3.1778 -2.67196 -0.866144 -0.593198 -3.38412
internal_count=2013 941 1072 535 596 341 537 345 269 66 318 203 168 119 76 49 98 278 113 165 356 47 269 194 174 248 194 133 110 79 112 93 132 95 83 56 330 232 155 248 114 134 107 77 51 98 72 45 60 110 44 49 57 93 57 65 49 42 181 66 54 40 67
shrinkage=0.05


Tree=4
num_leaves=64
num_cat=0
split_feature=18 18 18 2 18 134 109 20 117 130 65 0 101 68 1 21 7 6 88 54 117 101 58 57 35 36 29 18 64 28 13 86 0 81 3 107 14 86 21 124 89 8 61 35 128 105 21 1 79 14 1 21 71 15 107 97 18 88 96 0 79 8 141
split_gain=6463.87 754.178 583.955 139.471 131.378 121.857 120.992 107.681 94.5121 115.607 94.9767 88.7972 77.0302 70.5369 69.0311 68.833 70.0701 68.123 87.6405 67.8433 67.7077 62.236 57.7045 56.3079 55.7726 54.1819 52.778 49.7491 45.4519 53.0594 44.9346 47.0419 44.9944 44.8775 80.2476 44.7207 51.5668 50.1465 51.5431 60.4286 56.1225 44.4485 43.3401 41.5601 41.0044 38.4919 51.5647 62.3533 36.5654 36.516 32.8762 30.2215 46.7638 28.661 44.7353 37.145 28.4631 27.7581 27.723 27.4099 26.2883 26.0958 23.8718
threshold=2.461286104925192 2.3729855631113694 2.5192190520068061 1.2649110640685757 2.4180299185230023 -0.16129882330367695 3.6925000000000003 2.5660577048064259 1.4773460500000002 0.97329334626453712 3.0846445895616212 2.370078633141492 1.3048895820394699e-06 3.4450000000000007 1.9028819162863027 0.090847398485666656 2.5415855595784591 5.6965607742798197 0.72614666666666683 69.050000000000011 1.1597406000000003 -1.4226962072666281e-05 0.040862932458934645 74866.872470228467 -35.649999999999999 7.1833352305414696e-06 0.12243906818499217 2.3897719767814829 -29.499999999999996 11.225000000000003 4.7827458333333341 4.7555000000000005 2.3548788812703418 5.1765000000000017 0.47140452079076073 4.246150000000001 -0.013963868995258999 4.7515000000000009 -0.01545438815547946 4.4453257957991781 3.6505000000000005 2.4879776994268767 4.5289129515342514 -63.749999999999993 0.83198552208139387 8.1014166087415462e-06 0.032672490137599222 1.9325364072707358 0.231620079993239 0.049808747796442079 1.9866981897033273 0.0099809847904248818 4.6097500000000009 691430.50000000012 4.4232000000000005 4.7853900000000005 2.4011676433868989 0.69053000000000009 4.6632500000000006 2.211334438749589 0.21091330343578127 2.4764875308543641 0.0017634278799628564
decision_type=2 2 2 2 2 2 2 2 2 2 2 2 2 2 2 2 2 2 2 2 2 2 2 2 2 2 2 2 2 2 2 2 2 2 2 2 2 2 2 2 2 2 2 2 2 2 2 2 2 2 2 2 2 2 2 2 2 2 2 2 2 2 2
left_child=1 7 3 12 5 -3 43 33 9 -9 -11 13 21 -4 27 16 -16 -12 19 24 23 -2 25 -6 59 35 41 44 56 49 31 32 -15 34 -1 -8 -37 -38 -39 57 -41 -25 -35 62 -7 46 47 -22 -23 -30 58 -33 -53 54 -43 -55 -18 -40 -42 -19 -13 -29 -5
right_child=2 4 11 6 20 14 22 8 -10 10 17 60 -14 30 15 -17 28 18 -20 -21 45 48 -24 26 -26 -27 -28 61 29 -31 -32 51 -34 42 -36 36 37 38 39 40 50 53 -44 -45 -46 -47 -48 -49 -50 -51 -52 52 -54 55 -56 -57 -58 -59 -60 -61 -62 -63 -64
leaf_value=0.30001128882169725 -0.033306201957166194 -0.034042350699504217 -0.020093045318904129 0.0086001239878975826 0.080868832101779323 0.21124195144935087 -0.015261644237872327 0.023316805623471739 0.21565580961427522 0.040178748220205313 0.22648083386213883 -0.090131677938625226 -0.054360068830497127 -0.12167090228007688 -0.00026006385684013367 0.0035000066212829088 0.097502677053213124 0.2152616480534727 0.22167609805322211 0.050309732047220071 0.17199035435914994 0.11833930576050825 -0.00058136496406335097 0.077933107760663214 0.08980906081922127 -0.12960506772453137 -0.048233260194192065 0.06391835018225453 0.052515675649856743 0.19517252683639527 -0.061608611123684126 -0.14850238545035774 -0.033383126970794465 0.21718211264713952 0.17627612356782746 -0.14531783449649813 -0.0043112020223186566 -0.12972815816219038 -0.15025644397735596 0.024987702740525659 0.0023158295157675941 0.024793160155415536 0.1345057036456031 0.054897981946882994 0.11470606860450723 0.011507040083121796 0.03581507967130558 0.061226702709164887 0.02492718454450369 0.1382491689313341 -0.096776288247755957 -0.046208543669093743 -0.13583497048117396 0.083206722326576721 -0.070776010754828658 -0.013158412892371416 0.017476404793560506 -0.071227577179670334 -0.069263071314461772 0.13633431365544146 -0.14998218071403671 0.12789844706654549 -0.063438247575465109
leaf_count=20 20 21 23 23 28 22 33 28 28 24 23 20 34 31 20 31 25 22 23 30 24 22 26 26 33 44 37 34 23 20 39 110 27 23 38 25 26 39 25 22 24 25 51 23 22 26 37 27 20 27 42 22 43 20 24 20 20 20 31 22 222 30 23
internal_value=0 1.86916 -1.71962 -0.966445 1.16923 1.64072 -1.21182 2.99863 2.58981 2.35443 2.65311 -2.45175 0.122425 -2.08344 1.81865 1.41379 1.72236 2.94323 2.66256 2.28189 0.696147 0.785769 -1.44612 0.314236 2.77891 -1.5588 0.0741844 2.44093 2.02281 2.52687 -2.22563 -2.39192 -1.61143 3.72026 4.37887 -1.40038 -1.54267 -1.39379 -1.56126 -1.31554 -0.94226 0.408423 3.20405 0.000399056 3.25948 1.29916 1.61501 2.26702 1.47715 1.97624 -1.26932 -2.6506 -2.11 0.072398 -0.440325 0.700483 1.23871 -2.30265 -0.760573 3.51596 -2.90072 1.87818 -0.548381
internal_count=2013 954 1059 522 589 295 426 365 233 205 177 537 96 295 274 166 135 153 130 107 294 62 357 180 77 331 152 108 115 70 272 233 58 132 58 287 254 229 203 164 119 115 74 69 44 114 88 51 42 50 97 175 65 89 49 40 45 45 55 44 242 64 46
shrinkage=0.05


Tree=5
num_leaves=64
num_cat=0
split_feature=16 20 16 7 0 86 106 81 107 16 81 134 19 97 117 87 107 0 79 138 128 86 139 1 138 19 82 88 83 109 8 63 72 129 127 128 73 66 101 97 77 131 2 79 56 40 75 54 127 7 20 16 103 8 8 126 51 112 72 0 16 139 16
split_gain=6071.33 667.207 553.414 246.815 147.006 135.94 111.324 123.89 105.511 97.2156 93.9335 89.2426 171.572 111.483 103.495 87.923 86.4278 79.1153 88.3596 70.9585 66.7735 65.138 63.6308 61.565 59.131 58.7152 83.7658 58.4123 76.9251 56.9342 54.7806 54.2898 53.6287 55.2775 55.6941 52.7661 52.5463 49.793 57.122 53.1409 57.9696 55.9409 60.1815 47.7851 45.4875 43.148 42.7656 41.1965 43.3142 40.8937 40.3787 36.9124 67.7448 36.15 33.2676 32.4817 32.4802 32.212 32.1386 27.3809 25.549 24.2826 22.6507
threshold=1.6363916944840797 2.6236300107872528 1.6499158227696504 2.5168340135717933 2.3809004308220172 4.9715000000000007 4.8435000000000006 4.8205000000000018 4.0879000000000012 1.646545204696886 5.0835000000000008 -0.11054583671882003 0.8500000000000002 4.4483200000000007 1.3933879500000004 7.5000000000000009 4.3266500000000017 2.2936891901496375 0.26253498302472533 -0.018831845392496108 0.83808291303276861 4.9945000000000013 1.0000000180025095e-35 1.9095718489925058 -0.031796565376005635 -5.1499999999999995 3.6250000000000004 0.69295333333333342 -52.499999999999993 3.6975000000000002 2.5287277355559175 -8.4999999999999982 1.3050000000000004 1.0290655475200781 0.95804716666268841 0.83393755518093438 130.50000000000003 5.4850000000000012 -1.7881943955992497e-06 4.5565900000000008 117.50000000000001 0.98831038236825475 1.2866839377082024 0.26490402522567585 2.767615395393157 3.9039424150378097 132.50000000000003 60.050000000000004 0.95505868074845024 2.685600013921706 2.6855142872430067 1.595131481867603 -1.0806891232433682e-19 2.4235406018480048 2.5717086114823027 0.32351275893383025 -115.49999999999999 1.0403336444906799e-07 -9.1049999999999986 2.3469516011591498 1.7029386365923673 0.0021846880330082777 1.6865480854231076
decision_type=2 2 2 2 2 2 2 2 2 2 2 2 2 2 2 2 2 2 2 2 2 2 2 2 2 2 2 2 2 2 2 2 2 2 2 2 2 2 2 2 2 2 2 2 2 2 2 2 2 2 2 2 2 2 2 2 2 2 2 2 2 2 2
left_child=1 3 9 5 8 27 7 -5 22 25 -8 12 13 -12 23 -15 -9 18 19 24 61 -17 -4 47 -3 -2 43 31 -29 -11 -19 -1 33 34 36 -25 51 39 -39 40 41 45 -43 50 -7 -10 54 -13 -49 58 -27 55 -53 -46 -31 -21 -44 -28 -47 -60 -41 -20 -40
right_child=2 17 4 6 -6 44 10 16 37 29 11 14 -14 15 -16 21 -18 30 20 32 -22 -23 -24 35 -26 26 57 28 -30 46 -32 -33 -34 -35 -36 -37 -38 38 62 60 -42 42 56 -45 53 49 -48 48 -50 -51 -52 52 -54 -55 -56 -57 -58 -59 59 -61 -62 -63 -64
leaf_value=0.23217287944710774 0.054242088684711511 0.044835706669837244 0.033666654924551648 0.076224999308586117 -0.14866444863859685 0.18207058686277142 0.013852748589124532 0.28568640320815825 -0.011301343280960012 0.0081068289900819469 0.013510848267469556 0.18440993348757428 -0.059441416934132574 0.18725318106689626 0.22020459362754116 0.025687189924763515 0.14553407080132852 0.038757723424997594 0.10676425620913506 0.044773184484802192 0.029814511127769949 0.12907635090538325 -0.076395281185877739 0.11561190809892573 -0.072717115866101315 -0.0081342467566996451 -0.0025088930768626082 0.18192391991615298 0.30938811845563613 -0.094318152722772414 -0.049089376692261016 0.12230771427804775 -0.0094863361120224015 -0.015705114146694541 0.14446530264356863 0.0045659516239538794 0.13536808820441368 -0.12451348422716063 -0.066706872257319361 -0.12195487246995072 -0.15381970380743346 -0.050878766054908431 -0.1804720937244354 0.017946154170710108 0.14324703380465506 -0.048400022909045222 -0.010797897602121036 0.15165077068198185 0.053777895644307142 -0.023581022493397961 -0.091809130314251655 0.08747834081628493 -0.01116459244740722 0.050366980391977872 -0.029348544433712959 0.13105017188936471 -0.10919798630656619 0.08506691578243461 -0.069958062383035827 -0.12915351816586085 -0.17817197640736898 0.18068028626847082 0.0028562130928039553
leaf_count=23 37 20 24 25 155 23 32 22 27 30 30 30 20 35 27 25 22 36 25 24 20 39 29 23 23 21 21 20 29 93 35 22 30 20 23 20 20 24 22 128 36 24 31 23 20 30 27 26 20 26 46 28 46 22 25 20 33 21 30 56 24 20 25
internal_value=0 1.86612 -1.61374 2.57049 -2.10993 3.62291 2.14793 3.30217 -1.87475 -0.569433 1.90437 2.0809 1.53645 1.95897 2.63653 2.47071 4.3122 0.86375 1.07624 0.809998 2.11662 1.7738 -0.531118 2.23549 -0.360828 -0.0284736 -0.340539 4.3918 5.14724 -1.09184 -0.0909437 3.56922 1.0486 1.25385 1.44863 1.27925 1.20851 -2.01276 -1.23506 -2.13684 -1.88794 -1.72147 -2.36801 -0.884728 2.51097 -1.3848 -1.35129 2.77652 2.18195 -1.60513 -1.31165 0.954472 0.523195 1.89191 -1.61107 1.6798 -2.87443 0.82558 -1.8592 -2.17008 -2.61663 2.79232 -0.594105
internal_count=2013 945 1068 555 724 159 396 69 569 344 327 295 149 129 146 99 44 390 319 254 65 64 53 119 43 169 132 94 49 175 71 45 211 181 161 43 138 516 71 445 293 257 88 90 65 169 145 76 46 142 67 118 74 42 118 44 64 42 116 86 152 45 47
shrinkage=0.05


Tree=6
num_leaves=64
num_cat=0
split_feature=18 18 16 18 86 0 20 129 115 134 1 107 16 109 140 1 1 48 55 73 104 134 8 68 103 3 18 75 77 103 29 139 72 23 62 102 139 10 90 56 117 103 87 139 135 48 58 14 1 99 7 71 71 141 20 29 140 131 72 65 28 9 59
split_gain=5536.81 619.275 480.247 165.848 134.804 128.602 126.669 141.34 162.645 120.593 113.154 94.5177 85.5306 84.1498 73.9473 69.8497 63.2462 95.4719 57.8196 57.0354 55.0644 54.8837 54.8432 54.7526 52.0412 50.0239 51.8253 49.515 48.8458 48.1736 47.708 46.5216 46.4731 45.1778 70.1814 44.1192 40.971 40.6538 40.6097 40.0798 47.8584 53.0244 40.0633 52.358 62.6689 39.2126 38.1356 36.8152 34.0478 32.7297 35.5835 31.9647 31.9442 30.7911 30.1562 31.19 43.4971 40.2978 35.1362 29.15 28.6608 29.7532 27.7621
threshold=2.461286104925192 2.3695778014398665 1.663329993312286 2.4180299185230023 4.7245000000000008 2.3809004308220172 2.5643653148307624 1.007223830019137 15.798699333778595 -0.15967929915207579 1.9208452452440652 4.0879000000000012 1.646545204696886 4.0845000000000011 0.001965364792006995 1.9028819162863027 1.9473239850794364 6.3825676073514268 1.8016250078734013 139.50000000000003 -8.6474313463367993e-06 -0.10606108441156271 2.5254487500593314 3.4750000000000005 6.6671111407427457e-06 0.51639777949413646 2.5176848989695451 132.50000000000003 24.500000000000004 2.6668444562970459e-06 0.10729259659437203 1.0000000180025095e-35 -0.16499999999999998 0.01723483267568977 -76.499999999999986 4.1360907271514385e-06 -0.011345450053133402 1.0000000180025095e-35 3.8875000000000006 2.9533417200791852 1.1536426500000003 -4.0002666844456362e-06 -5.4999999999999991 -0.001440618064014218 -0.39630451776512954 4.1143594650572739 0.012791362316598174 0.014773702513027233 1.9675010975842147 14.705000000000291 2.650878090687379 4.8735500000000007 4.439750000000001 0.0014373732576193653 2.7319952044661258 0.25196567773475448 0.00012369361457413062 0.98775609338624581 -1.0249999999999997 4.6073865920328823 10.035000000000002 31.95539141517369 2.6182089556663204
decision_type=2 2 2 2 2 2 2 2 2 2 2 2 2 2 2 2 2 2 2 2 2 2 2 2 2 2 2 2 2 2 2 2 2 2 2 2 2 2 2 2 2 2 2 2 2 2 2 2 2 2 2 2 2 2 2 2 2 2 2 2 2 2 2
left_child=1 4 12 9 14 11 37 10 28 -3 13 31 22 -8 18 42 17 -17 -1 20 -5 29 33 -14 48 26 30 49 -9 -18 -13 -4 -19 -2 -35 38 -28 45 -27 -22 47 -42 -11 -44 -45 -6 -38 -41 -24 50 60 62 -46 -43 -40 56 57 -56 -58 -23 -25 -62 -49
right_child=2 3 5 19 6 -7 7 8 -10 15 -12 25 23 -15 -16 16 21 32 -20 -21 39 59 24 27 -26 35 36 -29 -30 -31 -32 -33 -34 34 -36 -37 46 -39 54 40 41 53 43 44 52 -47 -48 51 -50 -51 -52 -53 -54 -55 55 -57 58 -59 -60 -61 61 -63 -64
leaf_value=0.29277993988990786 -0.014246967121174462 -0.022200489342212679 0.028116000832422924 0.082948184276328371 0.24745527827739716 -0.14123122559439752 0.026482397736981512 0.25728171628130519 0.06308145906244006 0.059683929756283761 -0.035613002330064779 -0.11072311157360673 0.020793698812750255 0.14937998517105977 0.14127342869046955 -0.025376010189453763 0.094780595475234666 0.043233536832849501 0.18163876668973403 0.098856225277164159 0.082136131674051288 0.020850336839529603 0.039344403161002059 -0.12101557813895246 -0.073744303198764113 -0.025298625004032384 -0.057574086433107213 -0.0083988058296116924 0.15725154163889016 0.19799773067235948 -0.030164476462146816 -0.068653037509432552 0.13641153049209845 0.12595899864321664 -0.001830237087878314 -0.023786112340167167 -0.1389377000098537 0.1352852255292237 -0.13893594949534446 0.036914662308325727 0.085954207362550689 -0.026886085979640484 0.081095888695563195 0.23056571703581585 0.082604455321349884 0.16055267541496843 -0.076737286201838797 -0.094746634420007469 -0.043776261179961945 -0.12968987772862117 -0.017768398487683516 0.026654771603643896 0.16376981059848161 0.050458258847621354 0.00813514105975628 -0.12984268486499786 -0.14131337696952481 -0.083491126634180554 -0.055756181123710814 0.10224450172179125 -0.022316579033549017 -0.10038658071147361 -0.02463099846499972
leaf_count=25 38 25 23 34 25 155 26 23 35 22 25 40 22 30 31 33 26 32 22 28 20 22 28 30 40 23 22 33 26 20 34 27 23 21 22 32 164 40 33 28 33 31 32 21 22 27 29 20 22 24 29 20 27 22 24 30 28 24 21 22 26 23 48
internal_value=0 1.78023 -1.54272 1.18113 2.87291 -2.01945 2.52344 1.99921 2.90806 1.66666 1.0567 -1.79418 -0.598595 1.84641 4.02437 1.84139 1.43999 0.837166 4.81513 0.622079 0.473871 2.02941 -0.0874523 -1.066 -0.624713 -1.92427 -2.19601 -1.26359 4.08409 2.79315 -1.47419 -0.482786 1.64398 0.509503 1.21157 -1.55901 -2.44445 3.46363 -1.74844 0.29237 0.158672 0.723977 2.41759 2.68157 3.16599 4.04666 -2.59183 -0.260434 0.0554262 -1.53749 -1.30275 -0.57821 2.54656 0.104382 -1.92705 -1.70574 -1.43014 -0.75356 -2.09292 1.23095 -1.65053 -1.17923 -0.905065
internal_count=2013 946 1067 611 335 709 257 165 84 327 81 554 358 56 78 302 178 88 47 284 256 90 171 187 90 504 289 165 49 46 74 50 55 81 43 215 215 92 183 222 202 86 124 102 70 52 193 116 50 132 108 88 49 53 160 127 97 48 49 44 79 49 68
shrinkage=0.05


Tree=7
num_leaves=64
num_cat=0
split_feature=18 18 16 18 86 0 20 129 115 1 69 75 107 16 14 0 38 69 2 140 64 14 55 8 68 52 28 9 29 103 89 3 18 75 77 21 139 7 109 102 57 101 20 81 65 139 90 104 138 58 61 71 35 21 10 99 7 20 127 93 129 28 9
split_gain=4996.97 558.895 433.423 149.678 121.66 116.063 114.319 127.56 146.787 102.122 94.5669 133.874 85.3022 77.1914 77.0565 69.2118 107.13 68.7118 67.8113 66.7375 61.5927 53.7162 52.1822 49.496 49.4142 48.9736 76.0512 76.1397 47.2053 46.9672 46.5883 45.1466 46.7723 44.6873 44.0833 43.1661 41.9857 41.1087 42.5221 39.8176 39.0109 45.5078 38.6966 55.2896 38.611 36.9764 36.6502 36.5746 36.3992 34.4174 33.4469 34.7767 32.3832 30.8582 30.1535 29.5386 32.1141 27.216 28.8892 32.1921 26.7623 25.8664 26.8522
threshold=2.461286104925192 2.3695778014398665 1.663329993312286 2.4180299185230023 4.7245000000000008 2.3809004308220172 2.5643653148307624 1.007223830019137 15.798699333778595 1.9208452452440652 0.39848338901209607 38.500000000000007 4.0879000000000012 1.646545204696886 0.087791468162586497 2.2350513500329612 5.8461763382384433 0.37672368140684159 1.2472191289245449 0.001965364792006995 -48.499999999999993 0.053616410413618067 1.8016250078734013 2.5254487500593314 3.4750000000000005 22.500000000000004 10.455000000000002 34.050931000581819 0.049479375441663871 6.6671111407427457e-06 3.5985000000000005 0.51639777949413646 2.5176848989695451 132.50000000000003 24.500000000000004 0.013503345891593124 1.0000000180025095e-35 2.6125747926124832 3.9385000000000003 4.1360907271514385e-06 75056.332442164028 2.247931999523576e-07 2.6236300107872528 5.2605000000000013 6.7322951940072118 -0.011345450053133402 3.8875000000000006 2.6972016121768856e-06 -0.0028086590160672936 0.012791362316598174 8.9573448064580443 4.3954500000000012 -48.149999999999999 0.018314033796244369 -1.0000000180025095e-35 14.705000000000291 2.650878090687379 2.7319952044661258 0.9505180621006063 90.951909861456897 1.0372553819102845 10.035000000000002 31.95539141517369
decision_type=2 2 2 2 2 2 2 2 2 2 2 2 2 2 2 2 2 2 2 2 2 2 2 2 2 2 2 2 2 2 2 2 2 2 2 2 2 2 2 2 2 2 2 2 2 2 2 2 2 2 2 2 2 2 2 2 2 2 2 2 2 2 2
left_child=1 4 13 10 19 12 40 9 34 14 11 -3 36 23 -8 28 18 -13 -17 22 -18 25 -1 37 -15 47 50 -28 -12 53 -22 32 35 55 -9 -14 -4 38 -2 46 41 54 43 -19 -29 -34 -33 -5 -32 -47 51 -27 -23 -25 -6 56 61 -48 60 -60 -59 -26 -63
right_child=2 3 5 21 6 -7 7 8 -10 -11 15 17 31 24 -16 16 20 42 -20 -21 30 52 -24 29 33 26 27 44 -30 -31 48 39 45 -35 -36 -37 -38 -39 -40 -41 -42 -43 -44 -45 -46 49 57 -49 -50 -51 -52 -53 -54 -55 -56 -57 -58 58 59 -61 -62 62 -64
leaf_value=0.27814094519615173 -0.046403149218746914 -0.06878666693256015 0.026710199953421304 0.050544423719539371 0.24958290135860445 -0.13416966467855437 0.014790726581122727 0.24441762819238333 0.059927385432778729 -0.033832353860139851 -0.010430250325007365 0.12693184078005809 -0.097301248974185822 0.019754013893279163 0.13488378883065547 0.11359388263175084 0.0067440864408300043 0.027218339400632043 0.21657867765787878 0.13420975679351438 0.042152901738882066 -0.040479946033538959 0.1725568289529871 -0.029439153075218202 -0.11496479944636424 0.074240620806813248 0.11378831594300115 -0.020395472642310241 0.095706030057573874 -0.070057088052853947 0.09267438699025661 -0.024033695038246074 -0.05469538244334135 -0.0079788648382280811 0.14938896699593618 -0.016561188101768494 -0.065220384982724991 0.069438885392681254 0.046112789634777156 -0.022596807777881624 0.10812901605082595 0.12771859243512154 -0.010182546886305016 0.12984068670443125 0.071264100901316851 -0.13199081517892278 -0.13198915218765087 0.13575669124722481 0.18400612391531468 -0.072900422122971764 -0.035987527116032487 -0.015910199349341188 0.038122660703957083 0.050740592498332265 0.16721457161009312 -0.12320538361867268 -0.016879978923705116 -0.15377837277594067 -0.020367926384868295 -0.086833235515015469 -0.079109298331396918 -0.021200750338343476 -0.095367251109817752
leaf_count=25 27 21 23 34 25 155 22 23 35 25 20 35 49 22 34 31 21 35 33 31 20 38 22 30 30 20 38 27 22 40 24 23 22 33 26 25 27 31 23 32 23 24 24 21 20 164 33 20 20 29 44 23 20 20 20 24 29 21 29 49 28 26 23
internal_value=0 1.69121 -1.46559 1.12207 2.72926 -1.91848 2.39727 1.89925 2.76266 1.00386 1.58333 0.946031 -1.70447 -0.568665 1.75409 2.03711 2.35671 1.37001 3.33391 3.82315 1.62094 0.590975 4.57437 -0.0830797 -1.0127 0.811295 0.550464 1.22319 0.903299 -0.593477 2.10855 -1.82806 -2.08621 -1.20041 3.87989 -1.40048 -0.458646 0.484028 -0.0769163 -1.48106 3.29045 3.66641 0.858729 1.31403 0.372172 -2.32222 -1.66102 1.64209 2.68378 -2.46224 -0.106798 0.520408 -0.267512 0.0526549 4.2595 -1.46061 -1.23762 -1.83069 -1.62046 -1.24244 -2.22221 -1.568 -1.12027
internal_count=2013 946 1067 611 335 709 257 165 84 81 327 136 554 358 56 191 149 115 64 78 85 284 47 171 187 226 172 85 42 90 64 504 289 165 49 74 50 81 50 215 92 69 80 56 47 215 183 54 44 193 87 43 58 50 45 132 108 160 127 78 49 79 49
shrinkage=0.05


Tree=8
num_leaves=64
num_cat=0
split_feature=18 18 16 18 81 134 16 96 117 73 96 0 106 29 38 48 1 140 66 131 5 1 129 6 69 131 63 129 141 16 21 70 27 81 0 78 21 136 111 14 52 45 111 5 32 136 87 139 135 45 7 105 140 128 48 6 1 127 76 71 51 56 70
split_gain=4509.76 504.403 391.336 135.085 115.787 107.277 106.349 87.6103 87.4414 85.9096 118.209 80.7997 80.1621 78.5915 68.118 84.6865 61.6585 58.7117 58.5234 68.4029 56.6665 54.9026 86.5482 53.53 51.0161 50.9724 50.2346 49.1966 47.8553 47.519 50.1557 45.0299 43.9971 43.7004 43.592 40.5847 40.4964 40.3296 40.3246 39.1049 61.998 36.6269 36.4487 49.2674 35.2207 34.8819 33.7759 45.6729 52.7534 33.3858 32.3868 37.7272 32.3608 31.0466 50.9732 32.4918 29.1931 29.3874 28.4346 28.2655 22.5499 22.4239 20.6036
threshold=2.461286104925192 2.3695778014398665 1.6633299933166785 2.4180299185230023 5.701500000000002 -0.15967929915207579 1.646545204696886 4.2570200000000007 1.5663490500000001 38.500000000000007 4.5422700000000011 2.3809004308220172 4.9305000000000012 -0.12811134528080373 4.6773686809763335 5.6762436052292022 1.9028819162863027 -0.00036366386489235963 5.4850000000000012 0.98851012099784241 4.5323157000000007 1.9473239850794364 1.0118025939181055 6.0867992334381311 0.37765297990507635 0.98592309493943986 -90.499999999999986 1.0068400701128659 0.0044619570322806468 1.6465452046953424 0.018314033796244369 74877.405552688346 2.5000000000000004 5.4365000000000014 2.2453093602440526 89.656751563808584 -0.011877071254712825 0.1700903784272548 6.1350000000000007 0.053616410413618067 22.500000000000004 4.9769866666666678 5.3350000000000009 4.3004073000000007 4.7553338957150579 0.10111546096383996 -5.4999999999999991 -0.001440618064014218 -0.39630451776512954 5.231510000000001 2.5187282489186331 -3.1621660808102573e-07 -0.004566336364493064 0.80434495957746488 13.139897805911072 7.7224749411748297 1.9299735696704328 0.95971285815636376 6.1539011277980009 4.439750000000001 -129.49999999999997 3.4506747384271979 74892.034521501962
decision_type=2 2 2 2 2 2 2 2 2 2 2 2 2 2 2 2 2 2 2 2 2 2 2 2 2 2 2 2 2 2 2 2 2 2 2 2 2 2 2 2 2 2 2 2 2 2 2 2 2 2 2 2 2 2 2 2 2 2 2 2 2 2 2
left_child=1 4 6 5 7 -3 28 24 9 10 -9 18 13 -8 27 -16 46 52 19 20 25 22 -18 -23 -1 -4 -5 50 29 30 44 -32 56 -25 -24 -19 -22 58 -20 40 49 -42 -43 -44 -2 -45 -7 -48 -49 -28 51 -11 -15 -38 55 -55 60 62 -27 -50 -14 -41 -58
right_child=2 3 11 26 -6 16 12 8 -10 14 -12 -13 32 17 15 -17 21 35 38 -21 36 23 34 33 -26 37 39 -29 -30 -31 31 -33 -34 -35 -36 -37 53 -39 -40 61 41 42 43 45 -46 -47 47 48 59 -51 -52 -53 -54 54 -56 -57 57 -59 -60 -61 -62 -63 -64
leaf_value=0.24523646235466004 0.00048568326703928136 -0.024328325986862184 -0.0017630547065945234 0.09890972379109135 0.012981099002063274 0.054327276128936897 -0.10713422231376171 -0.011745644571991372 0.20838447191885542 0.20332703681095787 0.13228509649634362 -0.12746118091287151 -0.012274641122507014 0.00012798801233822649 0.034074456110829487 0.14447198995438063 -0.05206098513943809 0.0096738672070205214 0.0059717473884423576 -0.12940541362291888 -0.1251922895678152 0.16419067673035898 0.023332186858875281 0.03078670306131244 0.14878268187608698 -0.082216777040490088 0.044135397564499607 0.20608203287635529 -0.056086426824331286 0.073318682936951526 -0.029144506427374758 0.061185949134665567 -0.0059557160023938523 0.10983106744372183 0.10400264903026468 -0.091054375059902673 -0.12940309657291935 -0.11216661786954654 -0.077609019023516496 -0.054340618537654255 0.075116787241263833 -0.053288687892596831 0.070453699021750402 -0.059162217985084725 -0.081048192198459934 0.016781949196700698 0.073150542541407057 0.21156041803104536 0.074771703517233779 0.1236419427127618 0.086395443067885935 0.11276452172061671 0.08588775122030215 -0.053741284779139933 -0.016303103066542569 -0.14069135243242437 -0.11358544948244734 -0.14634639610621064 6.4145276943842564e-05 0.15112062182139469 -0.080875470519065865 0.010078866971390588 -0.066128835561826374
leaf_count=26 27 25 34 23 20 22 20 28 28 23 29 155 23 22 32 38 21 20 27 95 78 20 33 34 29 21 31 35 35 24 22 37 22 36 34 20 22 38 31 22 22 22 31 21 26 54 32 21 22 23 24 23 22 21 34 22 35 22 21 27 25 35 66
internal_value=0 1.60665 -1.39231 1.06597 2.5928 1.50416 -0.707163 2.74094 2.49838 2.29691 1.23066 -1.92762 -1.06887 -0.361144 2.6442 1.88009 1.66896 0.0630324 -1.71061 -1.85134 -1.61082 1.29183 0.730175 1.841 3.88758 -1.06096 0.561426 3.15361 -0.0789257 0.189443 -0.0841855 0.550068 -1.45024 1.42876 1.28539 -0.813805 -1.96497 -1.49688 -0.774015 0.436577 0.641183 0.310414 0.105552 0.348657 -0.790241 -0.0896484 2.21033 2.45271 2.90514 1.55999 2.6696 3.16092 0.860157 -1.54039 -1.24106 -1.96455 -1.6215 -1.87961 -0.821526 2.33683 -0.960085 -0.295696 -1.65148
internal_count=2013 946 1067 611 335 327 468 315 260 232 57 599 297 104 175 70 302 84 444 386 291 178 88 90 55 114 284 105 171 136 112 59 193 70 67 40 177 80 58 261 204 150 128 106 53 75 124 102 70 54 70 46 44 99 77 43 171 123 42 49 48 57 101
shrinkage=0.05


Tree=9
num_leaves=64
num_cat=0
split_feature=18 18 16 18 81 0 134 96 117 137 20 69 73 107 58 105 16 139 115 1 73 104 60 3 69 139 79 7 128 84 131 60 3 139 23 52 104 125 29 1 3 3 131 136 140 29 20 52 14 129 134 18 131 105 60 98 103 56 2 56 7 102 129
split_gain=4070.06 455.224 354.286 121.914 104.498 97.3173 96.8172 79.0683 78.9159 79.9486 91.0882 168.902 84.5804 75.1135 63.4083 61.3801 57.4734 55.8677 50.3762 47.6122 47.349 47.453 47.1766 47.3171 46.042 45.8733 45.2334 46.3512 44.66 41.2119 44.4445 41.0495 39.6418 49.1283 43.2158 39.0796 47.7436 38.022 36.8408 35.7572 40.3926 35.5739 36.0605 41.1946 34.9295 34.877 33.7986 31.295 33.6098 31.207 31.3041 30.0267 32.9665 28.7604 26.8279 44.3837 24.9424 24.8581 24.3686 23.3004 21.5917 22.0569 20.8151
threshold=2.461286104925192 2.3695778014398665 1.6499158227696504 2.4180299185230023 5.701500000000002 2.3809004308220172 -0.15967929915207579 4.2570200000000007 1.5663490500000001 0.012608248992766611 2.5643653148307624 0.39045354936563142 39.500000000000007 4.0879000000000012 0.078379178212122605 6.9677113629186349e-06 1.646545204696886 -0.0013235535233357646 14.078273630327224 1.8982980149425774 139.50000000000003 -8.6474313463367993e-06 74640.077999878762 0.48304589153960548 0.37765297990507635 1.0000000180025095e-35 0.23773592587330084 2.5602448783675906 0.83591625712765694 3.3902270694666528 0.99071298355810267 74489.939923968806 0.51639777949413646 -0.011065795436321834 0.023991305334033115 22.500000000000004 4.2218781102605827e-06 0.9410745620431944 1.0000000180025095e-35 1.9157771292823063 0.51639777949131516 0.51639777949708077 0.98775609338624581 0.18361126948825104 -0.00051048351868927041 0.24477223392530126 2.7576249736642087 43.500000000000007 0.059325630149754768 1.0240299575269536 -0.055367542313123685 2.5269456949948168 0.98831038236825475 4.6186884459898695e-07 74476.534725257705 5.8057557969368219 8.6672444829655786e-06 2.7986508652038742 1.3165611772083816 4.3881189050339877 2.5638948021620682 1.0000000180025095e-35 1.0295268668841244
decision_type=2 2 2 2 2 2 2 2 2 2 2 2 2 2 2 2 2 2 2 2 2 2 2 2 2 2 2 2 2 2 2 2 2 2 2 2 2 2 2 2 2 2 2 2 2 2 2 2 2 2 2 2 2 2 2 2 2 2 2 2 2 2 2
left_child=1 4 16 6 7 13 -3 24 9 10 44 12 -12 25 -14 17 22 18 -8 47 21 -5 23 38 -1 -4 -21 -28 -13 30 -25 -17 33 -15 51 36 -23 -11 -2 40 -18 -34 43 46 -9 62 -43 48 -19 -41 54 52 -35 -44 -51 -56 -36 -46 -45 -40 61 -20 -37
right_child=2 3 5 20 -6 -7 15 8 -10 37 11 28 14 32 -16 31 39 19 60 26 -22 35 -24 29 -26 -27 27 -29 -30 -31 -32 -33 41 34 56 45 -38 -39 59 49 -42 42 53 58 57 -47 -48 -49 -50 50 -52 -53 -54 -55 55 -57 -58 -59 -60 -61 -62 -63 -64
leaf_value=0.23297464240055821 -0.074456724151968953 -0.02311190849542618 0.03141949760417144 0.074922996627933836 0.012332044914364815 -0.12108812235415943 -0.0087855679530869507 0.095640201613306997 0.19796524745013033 0.22069041863083841 -0.067142869691763613 0.17388136146530031 -0.0022445959039032459 -0.03756235180532231 0.1152736079222946 0.17767432214071355 0.046975160613656045 0.18434250767653187 0.01159092587945254 0.025126201715320352 0.088399312784895309 0.014677848426125399 -0.072095616500486029 -0.047003047106166679 0.1413435472239708 -0.062031384146419066 0.043705181265249853 0.14231571818773564 0.083031500441332673 0.069954211225635138 0.053918746635317809 0.083119003457779242 -0.022100491125724819 -0.053346096811017367 -0.043101676677664125 -0.0048592163115862832 0.10890705571509898 0.12734494902348767 0.042340370169840755 -0.11476416904479265 -0.053514342810958626 -0.067172713205218323 -0.068183774063363664 -0.046671933663033308 0.13073164165019988 0.04273333432552006 0.017033079904145921 0.069758926748874642 0.098783676834269016 -0.066719980142079291 -0.090662234276533138 -0.12770984629464766 -0.12055324767086957 -0.12645316086295577 0.045053945121948019 -0.04984828750935516 -0.10882105432789435 0.20861975256176224 -0.1184867690006892 -0.031451246029008992 0.10519847006577512 0.082466213710029573 -0.060472203604876998
leaf_count=26 24 25 24 34 20 155 34 25 28 20 21 31 24 34 22 24 20 24 23 40 28 41 22 24 29 29 22 26 24 38 20 22 38 36 42 106 20 24 20 20 20 22 40 21 20 35 26 21 22 32 30 126 37 45 22 28 22 21 27 23 23 21 20
internal_value=0 1.52632 -1.32269 1.01267 2.46316 -1.71931 1.42895 2.60389 2.37346 2.18207 1.89807 1.3861 0.320044 -1.52796 1.0792 1.58551 -0.485517 1.39441 0.815691 1.77151 0.533355 0.398317 -0.0749795 0.12685 3.6932 -0.39428 1.2879 1.94238 2.68476 0.636235 -0.0225901 2.64904 -1.6444 -1.88241 -2.02865 0.229827 0.911453 3.39549 -0.496577 -0.893667 -0.0653918 -1.32162 -1.50629 -1.08629 2.84444 -0.0284291 -0.431225 2.40669 2.86846 -1.14466 -0.939191 -2.25853 -1.7482 -1.98065 -0.619416 -0.161826 -1.31385 3.41251 -1.74136 0.0574087 1.31879 0.908355 -0.273733
internal_count=2013 946 1067 611 335 724 327 315 260 232 188 122 67 569 46 302 343 256 101 155 284 256 171 149 55 53 88 48 55 82 44 46 516 297 263 222 61 44 67 172 40 219 181 96 66 161 48 67 46 132 112 199 73 85 82 50 64 41 48 43 67 44 126
shrinkage=0.05


Tree=10
num_leaves=64
num_cat=0
split_feature=18 20 20 6 101 100 134 83 90 1 6 36 101 126 102 92 40 57 98 50 68 140 102 27 36 1 134 98 62 18 137 22 139 98 15 23 64 36 65 14 140 130 14 56 88 83 69 139 76 89 88 112 132 112 77 10 130 109 98 111 45 136 58
split_gain=3828.27 533.26 184.929 120.473 128.187 92.8436 92.8922 135.77 79.4513 73.6656 71.7173 82.1694 66.2862 64.4621 63.726 72.7636 96.7591 63.0181 64.2284 62.667 62.2266 59.91 57.4126 52.5751 60.0379 51.2603 48.9793 48.1634 51.028 47.9073 46.4503 45.1512 44.5975 43.3593 43.3551 55.7487 42.6103 53.6029 44.1047 46.3276 41.417 40.8173 67.0684 36.4385 56.5564 39.0009 43.4409 59.015 34.3126 40.0339 32.6947 32.3023 42.6406 32.7099 32.3836 39.5783 29.523 26.3249 26.323 24.882 26.4222 24.7789 23.9126
threshold=2.47563888295281 2.6184697552404597 2.756046223728704 5.6801877458137335 -5.9667164396854817e-07 -1.6577181208053711e-06 -0.12703687207051476 -46.499999999999993 3.8365000000000005 1.9177796505017684 6.2637693650573203 -2.9033756214623749e-06 2.247931999523576e-07 0.33745184378431098 -3.0020013342228143e-06 24.406942304333619 3.3610145766520501 74998.97216888181 4.2304136812997042 75009.549857906255 3.3450000000000002 -0.0017158679455438303 2.6017344896597803e-06 2.5000000000000004 3.6278751877167948e-06 1.9028819162863027 -0.13487728292727177 3.2128819268580826 -40.499999999999993 2.3320342688046352 -0.013765655348646787 0.029137051241172628 -0.0054202434600450012 4.7758714567975877 650738.00000000012 -0.014257595492497884 -72.499999999999986 1.2767866951678585e-06 5.8325211700214048 -0.012504492873612846 0.006709016872736384 1.0038598272483978 0.070999537570250057 3.313719031818573 0.68791666666666684 -46.499999999999993 0.43330877469662937 0.0026246229534469694 6.6988503352504036 3.7035000000000005 0.70507000000000009 5.4440530580197355e-07 0.92180422230522063 1.3396664498373181e-06 71.500000000000014 1.0000000180025095e-35 1.0545964359831859 3.9205000000000005 9.6932546803273745 5.5750000000000011 5.6704733333333328 0.16355124628966719 -0.027239313180483452
decision_type=2 2 2 2 2 2 2 2 2 2 2 2 2 2 2 2 2 2 2 2 2 2 2 2 2 2 2 2 2 2 2 2 2 2 2 2 2 2 2 2 2 2 2 2 2 2 2 2 2 2 2 2 2 2 2 2 2 2 2 2 2 2 2
left_child=1 3 8 13 5 50 7 -7 32 40 11 -6 30 29 33 17 -17 26 -19 -15 -4 -12 48 24 34 -23 -16 28 -8 -1 -13 -24 -2 -11 35 -10 -36 38 -38 -40 43 42 -14 44 -3 46 47 -45 49 -18 -5 54 53 -53 61 -56 59 -48 -57 -26 -61 -22 -34
right_child=2 9 20 4 10 6 27 -9 23 14 21 12 41 19 15 16 22 18 -20 -21 51 25 31 -25 56 -27 -28 -29 -30 -31 -32 -33 62 -35 36 -37 37 -39 39 -41 -42 -43 -44 45 -46 -47 57 -49 -50 -51 -52 52 -54 -55 55 58 -58 -59 -60 60 -62 -63 -64
leaf_value=0.058320269822364761 0.054155289134624501 0.030521672684699297 -0.012247135383742197 0.080907437408512292 0.20869187265634537 0.058378595998510724 0.13352821541895324 -0.11801309131085874 -0.064598760350296894 0.093027923507615934 0.13658562816679479 0.20817710735179762 0.030124305594616974 0.25796251391822639 -0.11830167909237473 0.088999795913696292 -0.050890306212628883 0.085931596867740156 -0.036583250437093817 0.13567339137196541 -0.098914467252917207 0.088318876475095759 0.10352493483573198 0.0071007418411749394 -0.11671821928272647 -0.023529029318264554 -0.026207872613200119 0.018463404149268614 0.038304898468777542 0.15985706740847003 0.11030266764150426 -0.0014466871817906699 -0.05138792932964862 0.01008747867666758 -0.11548683030996472 0.042087822049856193 -0.10153278292793977 -0.00064495703539787196 -0.11690942287445068 -0.033183101521510827 0.10396207852555173 0.15276450920104981 0.11407643086773145 0.027403949340805412 0.14287912785297349 -0.021506381201158678 -0.024414300614886961 0.14607626684010031 -0.079982971795834606 0.03641029282248226 0.16923721211031081 0.0064215521072037516 -0.097876727864030733 -0.082924836661134455 -0.12263536892439192 -0.012705829029991515 -0.12869845469330632 0.04484649157042013 -0.092856141626834865 -0.012879031949809619 -0.090451366114227674 -0.13941051011993774 0.015571786314249041
leaf_count=21 22 24 21 22 27 24 34 20 24 40 20 27 39 22 22 45 24 20 23 20 59 20 20 27 24 21 42 33 24 26 22 21 40 26 32 25 57 39 20 95 35 25 61 22 21 28 23 20 20 29 20 20 129 21 38 21 43 34 20 21 23 105 20
internal_value=0 1.31915 -1.44394 2.03343 1.81835 1.16092 0.756947 -0.435989 -1.03687 0.619457 2.2625 2.55072 2.29886 3.0943 0.327543 0.109311 0.538362 -0.528252 0.408008 3.99459 -1.92417 1.31278 0.0482439 -1.2089 -1.2994 0.620618 -1.1573 1.33375 1.88251 2.28979 3.28467 0.99518 -0.134796 1.20709 -1.06143 -0.203337 -1.23446 -1.07138 -1.31139 -0.954884 1.08765 1.91242 1.6267 0.885868 1.6591 0.611887 0.906599 1.67829 -0.483597 -0.0624411 2.45938 -2.00955 -1.67519 -0.786825 -2.24347 -1.71749 -1.92543 0.337983 -1.03607 -1.51532 -1.06856 -2.49684 -0.58136
internal_count=2013 1067 946 528 439 177 135 44 512 539 262 201 174 89 332 266 159 107 43 42 434 61 114 430 403 41 64 91 58 47 49 41 82 66 292 49 243 211 172 115 207 125 100 172 45 127 99 42 73 53 42 413 170 41 243 79 111 57 41 68 44 164 60
shrinkage=0.05


Tree=11
num_leaves=64
num_cat=0
split_feature=18 20 20 2 87 134 113 100 90 28 100 1 102 92 40 6 88 100 141 68 105 51 125 104 54 75 134 61 27 36 98 137 88 139 140 82 72 103 1 75 98 7 89 46 112 132 16 125 29 130 135 107 107 141 105 7 29 23 134 132 100 61 89
split_gain=3455.02 481.292 166.898 119.721 106.015 100.355 196.954 102.049 71.7048 67.3689 64.6681 64.5765 68.1688 75.6384 82.7777 60.8833 61.704 62.5108 58.3796 56.1595 54.7535 62.2535 67.5983 53.6512 52.8159 50.8891 48.7422 48.2943 47.449 54.1842 42.9642 41.982 41.5305 40.2492 39.9626 39.5234 60.6226 49.7759 38.973 36.4399 47.0627 38.8615 35.9183 35.1134 29.3162 35.1151 28.7661 28.5551 27.5024 26.6445 26.4116 32.3259 35.7565 26.0071 24.7726 23.4101 23.3806 22.5776 22.4781 22.447 22.0424 21.8251 38.5688
threshold=2.47563888295281 2.6236300107872528 2.756046223728704 1.1972189997378491 12.500000000000002 -0.13111161042624189 10.339111271256012 1.1845637583892611e-06 3.8365000000000005 8.4850000000000012 -1.2583892617449661e-06 1.9177796505017684 -3.0020013342228143e-06 24.406942304333619 3.3610145766520501 6.5828193081623647 0.72910000000000008 3.3791946308724841e-06 0.00081068699392223534 3.3450000000000002 1.8644838765874206e-06 -60.499999999999993 0.951583847487253 9.458347688485155e-07 46.650000000000013 128.50000000000003 -0.12226819600512231 11.82603441710871 2.5000000000000004 3.6278751877167948e-06 4.7758714567975877 -0.013765655348646787 0.68127666666666686 -0.0054202434600450012 0.006709016872736384 3.3650000000000007 -1.3549999999999998 -6.667111140742661e-06 1.8929694486000821 63.500000000000007 5.467421983722649 2.590082242619276 3.7575000000000003 3.4408859174321784 5.9922505247107658e-07 0.92180422230522063 1.646545204696044 0.93712719448764659 0.11341819702018678 1.0545964359831859 -0.42637310433898618 4.8694000000000015 4.6983000000000006 0.0035750084562981041 -2.5382804290119478e-06 2.650878090687379 0.18280277806711609 -0.039884336685166978 -0.13022884782083025 0.93459495472399101 2.9865771812080382e-07 12.903832511268535 3.5145000000000004
decision_type=2 2 2 2 2 2 2 2 2 2 2 2 2 2 2 2 2 2 2 2 2 2 2 2 2 2 2 2 2 2 2 2 2 2 2 2 2 2 2 2 2 2 2 2 2 2 2 2 2 2 2 2 2 2 2 2 2 2 2 2 2 2 2
left_child=1 3 8 4 10 6 -5 9 33 -8 -1 34 30 23 -15 16 17 20 -12 -4 21 22 38 47 -22 27 -25 43 29 35 -13 -23 -6 -2 39 36 37 -10 -7 59 41 -41 -26 48 57 -46 -37 -14 -16 55 51 52 53 -48 -39 60 61 -21 -59 -3 -31 -47 -63
right_child=2 11 19 5 32 15 7 -9 28 -11 18 12 13 14 25 -17 -18 -19 -20 44 24 31 -24 26 42 -27 -28 -29 -30 49 -32 -33 -34 -35 -36 46 -38 54 -40 40 -42 -43 -44 -45 45 56 50 -49 -50 -51 -52 -53 -54 -55 -56 -57 -58 58 -60 -61 -62 62 -64
leaf_value=0.15172206525016449 0.051447524477473722 -0.022540488909801534 -0.011634777876592818 -0.090345544918723736 0.12616951620349517 0.075177698122958353 0.18439760946092154 -0.001982766059066715 -0.00015362360898186179 0.071709967846982178 -0.0081993459817022076 0.092560707937735021 0.045239751856951491 0.088271770329447469 0.069581986821833114 0.01560249955139377 0.17239360664971173 0.16594296517195528 0.10284194411902592 -0.13324542237540424 0.16725408566417174 0.060515080951154238 0.019759591013193134 -0.13164098562672735 0.046686519323182962 -0.05691909601704942 -0.021252750381827355 0.089830959364771854 0.0067457042910434584 -0.051802780656144021 0.0095831044304829378 -0.036675210199318825 0.20522906615034395 -0.027614623323703808 0.098763975224324646 -0.0092823327891528619 0.036098020789878713 -0.037942275156577429 0.15336597789188519 0.12147366424255512 0.015499964714246361 0.038374155770983027 0.12677385491718138 -0.045564428448677065 -0.037574868749540587 -0.1088272421331755 -0.077751196126143146 -0.02645814556901048 -0.012344147190451623 -0.12226353339677634 -0.11600285496177346 -0.0064611289472807018 -0.11840847816783935 -0.014937857280556972 -0.10470453274972512 -0.028088485697905227 -0.11929044683153432 -0.047703805714845664 -0.10372515135166938 0.038658653581214536 -0.1210578024180399 -0.094375832132601117 -0.0032711037567683629
leaf_count=29 22 29 21 23 26 30 21 29 34 36 20 39 21 38 21 22 28 27 29 59 32 25 25 20 28 27 20 20 27 20 26 20 46 60 35 20 28 24 34 34 38 24 28 25 39 29 45 41 20 43 29 21 32 26 33 21 48 20 171 31 27 26 21
internal_value=0 1.2532 -1.37174 1.89465 2.65858 1.61379 0.792378 1.48754 -0.985028 2.26453 1.85086 0.549993 0.273947 0.0392676 0.488657 1.91324 2.04041 1.88214 1.15038 -1.82796 1.7074 1.30495 1.78961 -0.626005 2.32023 0.0592976 -1.52894 0.435313 -1.14845 -1.23443 1.18739 0.346388 3.5336 -0.128057 1.00959 -1.00836 -0.564763 -0.960679 2.3343 0.792927 1.17502 1.74175 1.7346 0.0227964 -1.90907 -1.57912 -1.31349 -0.0434675 0.59236 -1.82915 -1.46092 -1.25999 -1.49054 -1.09498 -1.53188 -1.43955 -1.83942 -2.1242 -1.95718 0.181581 -1.83175 -1.49433 -1.07339
internal_count=2013 1067 946 558 150 408 109 86 512 57 78 509 318 253 151 299 277 249 49 434 222 134 89 102 88 113 40 86 430 403 65 45 72 82 191 292 119 91 64 156 96 58 56 66 413 163 173 62 41 111 153 124 103 71 57 68 124 250 191 60 47 76 47
shrinkage=0.05


Tree=12
num_leaves=64
num_cat=0
split_feature=18 20 18 6 101 100 103 134 90 137 18 55 13 90 79 35 115 81 68 29 1 105 13 71 57 106 130 27 102 125 100 104 15 140 88 7 90 59 18 61 40 65 117 113 14 7 36 117 60 97 23 46 88 43 77 130 125 117 36 108 8 66 79
split_gain=3118.15 436.88 154.324 105.096 112.423 80.8309 85.2747 88.3394 66.1901 65.5623 79.0605 70.6061 64.0917 63.8521 58.302 57.4869 57.1647 71.4086 66.6679 63.9952 57.1438 71.6216 54.1972 49.7734 49.5801 47.0341 49.3255 43.8649 43.4788 65.5435 51.8013 63.3008 47.7521 43.453 41.5827 41.2759 47.8934 41.1494 40.4117 42.5494 43.8151 39.827 35.7767 41.235 39.9891 33.7529 33.0384 38.2687 37.2009 32.3868 30.7275 30.6762 29.0033 26.7941 26.3747 26.1969 26.0131 31.8225 28.2166 22.7393 18.2037 17.8632 15.1536
threshold=2.47563888295281 2.6184697552404597 2.5224246764161715 5.6801877458137335 -5.9667164396854817e-07 -1.6577181208053711e-06 4.6669777985199703e-06 -0.11560875993818308 3.8835000000000002 -0.018002340894989543 2.4180299185230023 2.2419400150878324 4.0901208333333345 3.8875000000000006 0.24449912177535282 -40.949999999999996 16.48025082086744 5.2275000000000009 3.9250000000000003 0.091291593537345866 1.8673159012775968 5.8832027331343448e-07 4.4144208333333337 5.0349000000000013 75001.802736144135 4.8275000000000015 1.0322009534748211 2.5000000000000004 -3.0020013342228143e-06 0.94831498485239252 -2.9865771812080668e-07 -8.0817322882931559e-06 691430.50000000012 0.0057147893855866846 0.70098666666666676 2.6595639245661231 4.065500000000001 4.0072362660583307 2.5704419303244888 11.82603441710871 3.9039424150378097 4.1937540018500998 1.4085462000000002 10.777161868845935 0.11264688842504458 2.6996820695237229 -1.8709020996387057e-06 1.1861267000000002 74365.354491923063 4.2189300000000012 0.031321965425417465 2.7275221763186246 0.70507000000000009 3.9456538345566323 42.500000000000007 1.0175035721194883 0.95121784131229303 0.90152985000000008 -2.4547871441091031e-06 31.179851167872609 2.5767400117657058 5.3650000000000011 0.2221864927707107
decision_type=2 2 2 2 2 2 2 2 2 2 2 2 2 2 2 2 2 2 2 2 2 2 2 2 2 2 2 2 2 2 2 2 2 2 2 2 2 2 2 2 2 2 2 2 2 2 2 2 2 2 2 2 2 2 2 2 2 2 2 2 2 2 2
left_child=1 3 13 20 5 52 7 -7 -6 10 14 -11 -4 25 41 -8 17 24 -19 -18 -1 -22 -13 38 -10 26 -2 35 29 -12 32 -32 -30 37 -9 46 -37 -33 39 60 -41 -3 43 44 -20 49 48 62 -15 -42 -24 -16 -5 -52 -50 -49 58 -58 -51 -40 -14 -59 -48
right_child=2 9 12 4 8 6 15 34 16 11 28 22 23 27 51 -17 19 18 42 -21 21 -23 50 -25 -26 -27 -28 -29 30 -31 31 33 -34 -35 -36 36 -38 -39 59 40 45 -43 -44 -45 -46 -47 47 55 54 56 53 -53 -54 -55 -56 -57 57 61 -60 -61 -62 -63 -64
leaf_value=0.20549873307347299 -0.074009366179334707 0.096610296797007333 -0.0026325487997382879 0.071985655785961597 0.18774168860344662 -0.05635805074377237 0.036467631161212925 0.0071202995887558384 0.12217406591489202 -0.067708686726788689 0.12712949251290412 0.066815060804723408 -0.13688401939347386 -0.090050997666042798 0.16624172776937485 0.14447389308850028 -0.020784770324826243 0.21056654382319678 0.031217635667015766 0.090765723420514005 0.17266462904090685 0.066670468800208146 -0.038043226517344778 -0.010798729033697219 0.024994717868311065 0.057577888667583468 0.014169111818607364 0.014343685365241507 -0.055950347117613999 0.019209045226521351 0.093129633728301894 -0.022087047025561333 0.026726648620059412 0.073660578920195494 0.1015161643922329 0.039350114965980704 -0.061802137851715094 0.058420112374283018 -0.062832390268643706 -0.010704957611031003 -0.026925961326130413 0.010758156049996616 0.17009968960827049 0.13944908597817024 0.12181528643483208 -0.027972479561964671 -0.073682369178403984 -0.082595578527876315 -0.044118152301886988 -0.095217876881361019 0.056289389991649875 0.082396831895069536 0.15517971839755773 -0.011343600612599404 0.02945848419552758 -0.017709397811974798 -0.04402553588151932 -0.1241183706398668 -0.025302350990198275 -0.11893709187590801 -0.08583722783913536 -0.081377505291910734 -0.11143021442528284
leaf_count=25 29 22 24 22 21 37 28 28 21 30 24 39 40 23 20 22 20 21 29 36 30 34 38 21 35 23 35 23 40 34 33 65 31 24 20 22 25 21 21 27 22 35 22 36 21 30 46 28 29 31 27 24 20 32 21 35 20 87 27 129 31 34 63
internal_value=0 1.19054 -1.30316 1.83705 1.63617 1.02048 0.64355 0.0339868 2.05211 0.557219 0.789884 0.034422 -1.65036 -0.833307 1.54541 1.67981 1.90374 2.17169 2.58104 1.01853 2.82791 2.3271 0.34073 -1.7241 1.22874 -0.0749566 -0.515735 -1.04276 0.50934 1.27732 0.301197 0.647874 -0.397039 0.283458 0.929038 -1.14749 -0.289085 -0.0485664 -1.78757 -1.601 -1.42454 0.877881 2.26404 1.97293 1.38537 -1.55475 -1.31216 -1.5514 -0.748485 -1.68986 -0.0595514 2.41016 2.23204 0.392142 -0.264319 -0.930954 -1.81714 -2.04903 -1.25342 -2.22165 -2.29192 -2.24217 -1.91
internal_count=2013 1067 946 528 439 177 135 85 262 539 373 166 544 402 101 50 241 185 129 56 89 64 136 520 56 87 64 315 272 58 214 143 71 110 48 292 47 86 499 349 278 57 108 86 50 251 245 172 73 221 97 44 42 59 50 63 199 141 58 150 71 121 109
shrinkage=0.05


Tree=13
num_leaves=64
num_cat=0
split_feature=18 20 18 2 134 113 87 14 9 137 18 55 5 13 106 106 86 100 133 66 83 59 79 141 6 102 11 23 50 102 125 100 61 62 88 1 61 45 47 28 42 65 87 87 135 89 70 3 46 50 1 83 20 79 2 109 21 139 29 140 21 101 32
split_gain=2814.13 394.284 139.277 95.6078 100.783 187.85 92.8476 66.3299 74.7763 59.1699 71.3521 63.722 58.6375 57.8428 56.9069 96.2218 66.5647 56.8413 55.1401 64.1798 72.0462 61.5886 52.6175 51.4751 49.203 47.7785 42.6154 40.9942 40.0482 42.007 57.3769 54.3802 47.7141 39.9085 37.3648 37.0098 36.6346 55.437 41.6313 44.2735 36.3702 35.9439 32.7455 31.1707 30.6564 29.9647 29.2831 28.3918 27.6853 27.25 45.7703 35.4768 35.1287 29.4224 26.9378 26.617 21.6809 27.3772 21.2625 21.1813 19.9434 18.18 17.8127
threshold=2.47563888295281 2.6184697552404597 2.5224246764161715 1.1972189997378491 -0.13111161042624189 10.712647993813809 12.500000000000002 0.069439941137636782 20.659110636317518 -0.018002340894989543 2.4180299185230023 2.2419400150878324 4.270829850000001 4.0901208333333345 4.924500000000001 4.6775000000000011 4.690500000000001 -1.2583892617449661e-06 0.72978657174661643 5.285000000000001 -33.499999999999993 1.6553181461469417 0.24449912177535282 0.00081068699392223534 6.5455033267331197 -1.1340893929286227e-06 4.5000000000000009 -0.066006899980758288 75126.244712768661 -3.0020013342228143e-06 0.94879364683969547 -2.9865771812080668e-07 11.408395870658866 -58.499999999999993 0.68127666666666686 1.9168972189275841 11.82603441710871 5.6779600000000015 74786.938439708872 10.485000000000001 4.6093842359541588 4.1937540018500998 18.500000000000004 14.500000000000002 -0.42409174391322457 3.5365000000000006 74965.163881479704 0.51639777949064181 2.7275221763186246 75008.544771381552 1.9611247030325505 -83.499999999999986 2.7250438278704685 0.26596685296981537 1.2649110640669352 4.2870000000000017 0.053591987506310848 -0.012386853759460458 0.094217571138451181 0.0015934601226831439 0.047279757235798116 -6.3088479891207405e-07 3.9960348223112239
decision_type=2 2 2 2 2 2 2 2 2 2 2 2 2 2 2 2 2 2 2 2 2 2 2 2 2 2 2 2 2 2 2 2 2 2 2 2 2 2 2 2 2 2 2 2 2 2 2 2 2 2 2 2 2 2 2 2 2 2 2 2 2 2 2
left_child=1 3 12 6 5 -5 17 8 -7 10 22 -11 33 -4 15 -6 -17 -1 19 20 21 -16 41 -19 62 -20 -14 -15 29 30 -12 40 35 43 -8 54 -29 45 -39 -40 -31 -3 60 -2 49 -38 -37 -21 -24 50 52 -51 -28 58 -33 56 57 -41 -52 -27 -26 -36 -13
right_child=2 9 13 4 14 7 34 -9 -10 11 28 24 26 27 18 16 -18 23 25 47 -22 -23 48 -25 42 59 44 36 -30 31 -32 32 -34 -35 61 46 37 38 39 55 -42 -43 -44 -45 -46 -47 -48 -49 -50 51 53 -53 -54 -55 -56 -57 -58 -59 -60 -61 -62 -63 -64
leaf_value=0.13872282158198029 0.076359865500126037 0.091779780011116113 -0.002500920246044795 -0.08759982332587242 0.044383623245172206 0.10077066901139915 0.11406906431254288 0.12235121195040205 -0.030134809948503972 -0.064323251085976765 0.13155916475436905 0.028972063823179767 0.023154306784272195 -0.1275057860174113 0.03213084425224224 0.22509523605306947 0.11337733710805575 -0.01130566418170929 0.091791789442300806 0.10167108997702599 -0.00093862339854240424 0.13725263471347524 0.15792964197695258 0.092962714612227063 -0.054675184526751124 -0.032706311307847506 -0.037011155911854339 -0.1093899163438963 -0.036111643835902214 -0.051368270188363069 0.025250566800435387 0.025175570785999298 0.10716788949710983 -0.052336993068456655 0.15321944605326282 -0.024045882418396929 0.026126950196921829 -0.014666527944306533 -0.017492411502947412 -0.047602961853146553 0.024612310076398511 0.010220248619360585 0.033927900572972639 -0.010858957436867059 -0.086051917225122454 -0.05527826731021588 0.046139538676842402 0.18112174347043039 0.078276989655569201 -0.086892564950081019 -0.093441377263516201 -0.0168056320771575 0.034348350533229467 0.00060789048671722418 0.10302803644910455 -0.045618137559204394 -0.044365383755593076 -0.10274431182285854 -0.043844040269230278 0.040062738936394456 0.0041036103265704935 0.21662752444927513 0.093351724885758908
leaf_count=29 21 22 24 25 25 20 26 34 24 30 22 22 20 45 22 24 30 20 25 22 26 38 20 29 31 20 35 76 25 36 30 25 21 20 20 42 20 24 24 25 28 35 35 20 55 26 23 23 24 65 40 25 34 20 20 33 21 226 47 20 27 26 21
internal_value=0 1.13101 -1.238 1.7452 1.47714 0.633422 2.4207 1.39798 0.587354 0.529358 0.75039 0.0327009 -0.791642 -1.56784 1.79315 2.50967 3.26059 1.66481 1.50434 1.87796 1.37165 1.97416 1.46814 1.00808 0.323693 0.751361 -0.953175 -1.63789 0.483873 0.605948 1.40455 0.392989 0.7621 0.111357 3.23958 0.498406 -1.55147 -1.43027 -1.56483 -1.65758 -0.362535 0.833987 -0.0853025 0.676282 -1.04142 -0.397694 0.0157792 2.84558 2.28965 -0.900893 -0.672013 -1.34848 -0.03697 -1.08153 1.19553 -1.76048 -1.86338 -1.94504 -1.33295 0.0735643 -0.546253 3.78118 1.20827
internal_count=2013 1067 946 528 378 103 150 78 44 539 373 166 402 544 275 79 54 78 196 131 86 60 101 49 136 65 341 520 272 247 52 195 131 61 72 110 475 399 353 329 64 57 93 41 321 46 65 45 44 266 176 90 69 107 45 305 272 251 87 40 58 46 43
shrinkage=0.05


Tree=14
num_leaves=64
num_cat=0
split_feature=18 20 16 18 134 129 39 42 37 131 96 28 125 88 29 1 5 139 97 71 96 134 97 140 100 2 79 104 60 5 58 131 3 2 0 7 86 142 0 22 22 73 126 69 28 22 88 63 68 20 97 52 83 133 18 62 62 48 18 21 119 19 127
split_gain=2539.75 355.841 127.291 89.4605 80.3833 182.653 70.8864 66.5474 66.3691 85.3751 79.5114 79.2627 66.1178 61.3699 56.9661 54.272 52.562 52.0365 52.0303 51.4283 50.3952 49.2834 48.5435 47.5408 42.4588 41.6462 47.8287 40.7733 40.2225 39.8317 39.8071 61.3345 39.736 38.8048 38.6274 38.2624 34.6719 53.048 42.2905 33.6367 42.3637 33.1471 41.6471 30.8674 47.3157 46.5009 36.5653 35.7125 41.8437 30.3133 29.2704 32.8885 29.2017 29.0014 26.7303 26.6416 28.7306 30.3386 29.9286 26.0082 30.6409 25.8925 25.6663
threshold=2.47563888295281 2.6184697552404597 1.6865480854227486 2.3383279876392336 -0.13111161042624189 1.0077848915415559 9.5000000000000018 4.338268637218234 6.6500000000000012 0.99283065677643434 4.4418300000000004 10.055000000000001 0.94858265415094933 0.68747666666666685 0.0057235938594471618 1.9177796505017684 4.6929045000000009 0.0086598122688416098 4.5088400000000002 5.0349000000000013 4.5457600000000005 -0.15827653458859514 4.1717000000000004 0.0017173115015242865 6.4765100671140826e-07 1.2516655570351281 0.25602866987602485 1.0000000180025095e-35 74479.04120440183 4.270829850000001 -0.018008522801671211 0.98770666799819562 0.51639777949426602 1.2516655570344688 2.3799562851197105 2.5433336433052349 4.7635000000000005 5.0400000000000009 2.3072021623739403 0.021830030977117668 0.033560327079716165 47.500000000000007 0.26090901471655475 0.43330877469662937 10.815000000000003 0.019556902775391575 0.71774666666666675 -15.499999999999998 4.0150000000000006 2.7167293051789021 4.371760000000001 42.500000000000007 -80.499999999999986 0.82960723042652351 2.413158373031655 -71.499999999999986 -78.499999999999986 9.8076732481527706 2.5192190520068061 0.01871532411098906 28.908380149701944 -0.54999999999999993 0.95547780204358757
decision_type=2 2 2 2 2 2 2 2 2 2 2 2 2 2 2 2 2 2 2 2 2 2 2 2 2 2 2 2 2 2 2 2 2 2 2 2 2 2 2 2 2 2 2 2 2 2 2 2 2 2 2 2 2 2 2 2 2 2 2 2 2 2 2
left_child=1 3 7 14 5 -5 13 24 9 -8 35 20 -13 -6 62 43 41 23 -7 22 -12 -17 -4 -16 30 26 33 -25 -22 -26 31 -2 59 54 50 -10 37 -27 39 -38 -41 -9 53 44 45 -3 -45 48 -47 -18 -34 -52 -53 -43 -23 56 57 -44 -59 -24 -61 -20 -1
right_child=2 15 19 4 6 18 8 16 10 -11 11 12 -14 -15 17 21 49 -19 61 -21 28 25 32 27 29 36 -28 -29 -30 -31 -32 -33 34 -35 -36 -37 38 -39 -40 40 -42 42 55 46 -46 47 -48 -49 -50 -51 51 52 -54 -55 -56 -57 -58 58 -60 60 -62 -63 -64
leaf_value=0.10977098607413827 0.037806035965681078 0.11436961159110069 -0.03218299890769289 -0.095610059035772632 0.20115433391183615 0.019957300764508547 0.094741827533358636 -0.00050067598709747907 0.098513025688854131 -0.040804677778998245 0.032963343150913718 0.076476876785357806 -0.028497573435306553 0.083053952624852018 0.20623767281572025 -0.05489071617461741 0.034674567605058354 0.06654142601415515 0.066251658216457482 -0.00031949026244027277 0.07376014240086079 0.030780787293895568 -0.11026548945542539 0.080084311286918827 0.0049061711281538009 -0.002653391402343224 0.088932849990355001 0.17324595373609794 0.14956299797410058 -0.07932581782806665 0.060716115469755284 -0.07966844566166402 -0.0074612352354773166 0.079105271697044385 -0.095502950087012289 0.19176531571217559 -0.064737543079160881 0.10319605644792318 0.05417365956565609 0.056006049838933085 -0.023536685471023833 0.013069032177329062 -0.1253599186738332 0.0088286904696762182 0.1310848898121289 -0.053638574872165924 0.081919922747395263 0.071923522642572166 0.048640076711308211 -0.039661620045080781 -0.11125652580349535 -0.018482391776418999 -0.091950517307434768 -0.06235461411997676 -0.039037192763330848 -0.097303183701108492 -0.0076121875217982707 -0.032350986118012286 -0.095041695993859324 -0.11639133706688881 -0.03594523344574304 0.14387103014049077 0.033316206907772504
leaf_count=21 25 20 47 22 22 32 21 21 22 26 23 30 30 22 30 25 24 20 22 21 30 29 165 24 25 29 37 23 42 32 29 20 29 20 84 22 31 20 23 22 70 25 21 77 21 20 22 27 20 32 27 38 21 26 26 85 21 47 32 20 29 21 23
internal_value=0 1.07446 -1.1761 1.65794 1.40948 0.621452 1.67306 -0.803021 1.46396 0.395173 1.71639 1.37961 0.479793 2.84208 2.33987 0.50289 -1.03994 2.76797 1.36466 -1.53676 1.94792 0.252331 -1.60663 3.14125 -0.198965 0.362278 0.848267 2.51348 2.35957 -0.847639 0.300689 -0.288097 -1.71622 0.389275 -1.39456 2.90278 0.0831455 0.811009 -0.161138 -0.39387 -0.0903119 -1.21799 -1.31669 0.904752 1.27447 0.949278 0.501424 0.54984 -0.049985 -0.156065 -1.01802 -1.31098 -0.892641 -0.507645 -0.0444815 -1.51699 -1.21558 -1.43888 -1.15489 -2.01533 -1.37561 2.08318 1.39612
internal_count=2013 1067 946 528 387 97 290 465 246 47 199 155 60 44 141 539 334 97 75 481 95 332 460 77 131 307 112 47 72 57 74 45 413 75 199 44 195 49 146 123 92 278 257 207 108 87 99 67 40 56 115 86 59 51 55 206 121 100 79 214 49 43 44
shrinkage=0.05


Tree=15
num_leaves=64
num_cat=0
split_feature=18 16 16 106 14 134 130 71 90 89 81 105 87 126 111 71 81 117 18 131 28 19 69 2 115 107 62 69 71 137 36 90 117 112 104 89 48 60 22 2 79 14 140 79 65 62 1 117 131 22 139 90 65 117 103 8 132 7 106 63 130 20 71
split_gain=2197.83 281.367 118.649 109.73 101.421 104.092 111.374 99.7393 98.3134 85.5865 70.4757 63.8424 59.9133 66.7627 59.8319 57.85 57.5114 51.3987 49.5939 49.9499 44.9471 50.2085 44.1899 42.9605 46.2773 56.6395 49.1716 41.5492 41.2576 51.0676 39.219 38.1284 37.9062 37.6961 40.2811 37.5909 36.8162 36.6584 52.3182 45.6949 36.25 39.9837 38.2925 38.0724 36.0396 49.5311 35.6498 34.8057 31.5203 30.6165 56.2617 41.9419 26.5658 25.5071 25.4668 24.9584 42.8869 22.2213 21.269 21.2416 20.5504 20.1838 19.6242
threshold=2.47563888295281 1.5811388300841904 1.6865480854208161 4.8480000000000008 0.075479092653518348 -0.15631957160232005 0.97558612589796234 4.2789500000000009 4.065500000000001 3.6300000000000003 5.7055000000000016 6.9677113629186349e-06 15.500000000000002 0.34928156593337156 5.3950000000000005 5.0238500000000004 5.6275000000000004 1.5548862500000002 2.485737091666842 0.98662444002400485 10.635000000000003 -5.1499999999999995 0.5292983353471562 1.2692955176444276 23.062890753170162 4.0827500000000008 -66.499999999999986 0.42869625776936299 4.5722500000000013 -0.018512421201171862 -2.9683652996874814e-06 3.9670000000000005 1.1254139000000001 6.5664198225140234e-08 2.3951191274744301e-06 3.6345000000000005 7.7396460639417226 74535.442004529104 -0.043317455147116289 1.3374935098541738 0.22325061849488972 0.086765000362245034 -0.00036366386489235963 0.2447286724217336 4.2267985544807756 -68.499999999999986 1.9627593439912761 1.0979887500000001 0.98408018085139626 0.05065658785857069 0.0051465231177102461 4.1845000000000008 6.5943705463118549 1.0643682000000003 -6.6671111407425686e-06 2.5564328359029465 0.93417446125627512 2.5958404972296774 5.3115000000000014 -48.499999999999993 1.0288095369201813 2.6516909632215522 4.5046500000000007
decision_type=2 2 2 2 2 2 2 2 2 2 2 2 2 2 2 2 2 2 2 2 2 2 2 2 2 2 2 2 2 2 2 2 2 2 2 2 2 2 2 2 2 2 2 2 2 2 2 2 2 2 2 2 2 2 2 2 2 2 2 2 2 2 2
left_child=1 3 14 9 5 -5 -7 -8 -6 12 17 35 13 -1 20 37 23 30 62 22 27 -22 -20 24 25 -3 31 -2 32 44 -10 -26 36 34 -34 -9 -27 38 -4 47 41 -32 -42 -44 -30 -46 61 48 -40 -37 51 -51 -49 54 -50 58 59 -38 -21 -57 -58 -18 -16
right_child=2 16 15 4 8 6 7 11 10 -11 -12 -13 -14 -15 18 -17 46 -19 19 55 21 -23 -24 -25 26 28 -28 -29 29 -31 40 -33 33 -35 -36 49 57 -39 39 -41 42 -43 43 -45 45 -47 -48 52 53 50 -52 -53 -54 -55 -56 56 60 -59 -60 -61 -62 -63 -64
leaf_value=0.024656090864704716 -0.02284049767514934 0.10598230972886086 0.0040968902707099915 -0.071970796622335909 0.17777823346853258 -0.046385848235890821 0.15515736546553671 -0.032008044868707661 0.13633410199121995 0.20803787513148217 -0.0058968513906002048 0.11450054058638802 0.15825437502245662 0.12866584023253785 -0.040143705498088489 0.0053926635047663813 -0.030867616583903631 0.15526446016844025 0.036913082852959633 -0.0897256221013287 0.0056845684570294847 -0.098838124871253971 -0.059119388461112976 -0.039326616596769205 0.053355119064217443 -0.079242888696136937 0.014753565847873688 0.065855369644780323 0.12185731790959836 -0.0042537141502613117 -0.023439346458762885 0.14874286075884646 0.017334755908121311 -0.022674326174731915 0.10085172023285519 -0.0066547257420809377 0.031109061837196351 -0.093360268979559888 0.0044678304716944698 -0.12318177070166614 0.12636564424371019 0.064307811458569938 0.096743390468820453 0.014699761859642772 0.09034617229575112 0.0023302497511560271 -0.060527923330664639 -0.046139126502812898 -0.039302856384499651 0.13926037763771804 -0.0045765880070140824 0.045702454268932345 -0.098522440672275571 -0.011122594530815664 -0.094503599933038154 -0.044944113396829175 -0.049027225018843365 -0.031415351082881293 -0.038362501144409179 0.017000932294875384 -0.11586642019126728 0.031837278898720719 0.020821120138421204
leaf_count=36 23 20 25 20 25 27 25 20 22 21 25 28 27 27 22 23 21 22 25 104 27 20 23 22 20 21 25 31 20 42 20 22 42 29 22 23 27 185 25 37 34 37 31 26 31 33 30 34 37 23 23 25 84 23 48 31 23 30 25 25 23 33 33
internal_value=0 0.971655 -1.12078 1.45128 1.23424 0.732728 0.95666 1.26132 1.67773 2.34293 1.46138 0.937054 1.91877 1.38463 -0.735237 -1.44269 0.416656 1.66703 -0.93918 -1.11027 -0.0608107 -0.775863 -0.18205 0.572487 0.650348 0.49075 1.40546 0.56155 0.38106 0.815257 1.4809 2.0664 0.0611258 0.49231 0.920874 0.604749 -0.452979 -1.5143 -1.30571 -1.42617 1.29571 0.670387 1.6874 1.1864 1.26542 0.899259 -0.33653 -1.27324 -0.922482 0.869623 1.19445 1.81065 -1.66858 -1.1567 -1.4095 -1.30315 -0.93349 -0.0359705 -1.59543 -0.345802 -1.64894 0.149041 -0.0712962
internal_count=2013 1057 956 567 456 214 194 167 242 111 217 142 90 63 435 521 490 192 334 279 101 47 48 406 384 317 67 54 297 126 170 42 171 93 64 114 78 498 313 288 148 57 91 57 84 64 84 251 133 94 71 48 118 108 85 231 102 57 129 56 46 54 55
shrinkage=0.05


Tree=16
num_leaves=64
num_cat=0
split_feature=18 16 16 106 88 111 12 134 75 89 96 62 111 81 37 62 18 101 16 25 100 101 7 130 104 107 79 58 36 35 97 112 35 141 97 92 65 73 112 137 20 104 8 79 47 23 63 140 61 132 104 139 65 83 135 89 7 2 69 104 103 23 141
split_gain=1983.54 253.934 107.08 99.0313 92.8612 106.458 80.6032 80.9853 86.5072 77.2418 57.8043 55.2251 53.9983 51.9548 46.155 45.7478 44.7585 41.822 42.7483 53.6188 58.9316 44.247 41.4476 49.7121 41.4323 41.3957 43.5707 39.983 39.2419 58.6196 45.6475 39.2396 37.5579 48.7728 36.3481 36.247 35.9637 35.597 35.6799 35.5791 35.3952 34.8436 33.6871 31.7227 31.4924 30.6497 30.3213 29.7053 30.6068 29.2974 28.786 28.3926 27.2352 26.8142 28.0678 25.2629 24.5541 23.2938 22.3991 21.9305 21.5411 29.7653 39.1309
threshold=2.47563888295281 1.5811388300841904 1.6865480854208161 4.8480000000000008 0.71819333333333346 5.2650000000000006 9.5000000000000018 -0.13111161042624189 60.500000000000007 3.6300000000000003 4.4124900000000009 -30.499999999999996 5.3950000000000005 5.6225000000000014 6.6500000000000012 -62.499999999999993 2.485737091666842 5.6299154603546224e-05 1.6363916944839403 52.172228289472208 1.7684563758389238e-06 -1.9075307024844421e-05 2.6601327609435148 1.03195764532933 -1.2260352467027046e-07 4.6441000000000008 0.21831130005690089 0.011217616723295422 -2.9683652996874814e-06 -49.54999999999999 4.5904800000000003 4.4100427557516105e-08 -47.04999999999999 0.0033606362684534623 4.2504300000000006 33.661678800264163 4.0394915264136735 76.500000000000014 1.2688072107230616e-06 -0.03753912955949916 2.6032333402197767 -1.2452293283890654e-06 2.5438897134061853 0.25160146790545052 74936.068720470168 -0.075284561490332511 -33.499999999999993 -0.0040345639824501426 12.427753715767976 0.93599472542115414 -2.7257331581605374e-07 0.0047942155394029348 3.5112959090766123 -96.499999999999986 -0.44579123677102656 3.6195000000000004 2.5905695417057326 1.2866839377080448 0.4717894431234767 6.9220862985998882e-07 -1.0000666711113913e-05 -0.039884336685166978 0.0026544045585504476
decision_type=2 2 2 2 2 2 2 2 2 2 2 2 2 2 2 2 2 2 2 2 2 2 2 2 2 2 2 2 2 2 2 2 2 2 2 2 2 2 2 2 2 2 2 2 2 2 2 2 2 2 2 2 2 2 2 2 2 2 2 2 2 2 2
left_child=1 3 12 9 5 -5 24 8 -8 11 -6 15 22 17 -9 -1 -14 18 19 20 32 -21 23 31 -7 26 -20 34 -16 30 -30 -2 33 -3 37 44 -34 -4 -39 -31 59 -41 58 -28 -23 -36 56 48 -44 -46 -29 -38 -43 -49 57 -37 -15 -55 -18 -12 61 -47 -63
right_child=2 13 27 4 10 6 7 14 -10 -11 40 -13 16 46 28 -17 42 -19 25 21 -22 35 -24 -25 -26 -27 43 50 29 39 -32 -33 36 -35 45 55 51 38 -40 41 -42 52 47 -45 49 60 -48 53 -50 -51 -52 -53 -54 54 -56 -57 -58 -59 -60 -61 -62 62 -64
leaf_value=0.12325865637511016 -0.0050732367578893902 0.013740750650564829 -0.099158914422705066 -0.038223695619539783 0.17909344762563706 0.072378032543929299 -0.077918220758438114 -0.0082714983950490546 0.045387486616770431 0.19763598108575459 0.078111270482007125 0.14387134174467064 -0.0033865693888880995 -0.022030487805604935 0.11922173790633679 0.029833836603517596 -0.095246678372395463 -0.041284278070642833 0.044177441942420875 -0.0029619257804006337 0.079285165097783605 0.15421608150936664 0.056096627822388778 0.023962405020637172 0.15828574319928887 0.05795429369004873 -0.071075045119505381 -0.07355693749019078 0.066656096895726824 0.12054713168314526 -0.021929013333988914 -0.10083397270544717 0.082434491227780071 -0.089276682548224934 -0.13994308978319167 0.079440374235096201 -0.026301074338455993 0.019228643620455708 -0.05775972094167682 0.018002422836919628 0.033486103204389411 0.13067036343738436 -0.044757616649503298 0.0069197216833179649 0.036029299002672946 -0.097657759578244116 -0.041799480689223859 -0.0872912702875005 0.036812275777692381 0.11859457411549308 0.0013273432850837708 0.050608734861016275 0.049143104869428848 -0.051494405566093832 -0.07801078589489828 0.0035888032012042549 0.056318262182176115 0.014593272777274253 -0.051490645918805727 0.14775325166061523 -0.085299769622757093 -0.018549529981932471 -0.08594376713037491
leaf_count=20 20 27 21 33 20 32 25 23 33 21 26 32 55 20 30 38 58 21 22 20 34 20 23 35 25 26 32 21 26 35 33 23 21 20 20 23 30 27 34 30 24 20 23 22 21 37 48 36 23 22 33 20 21 24 26 21 20 30 59 20 237 56 35
internal_value=0 0.923073 -1.06474 1.37872 1.17253 0.94875 1.11853 0.894947 -0.155231 2.22578 2.08255 1.82283 -0.698475 0.395823 1.17435 1.24099 -0.892221 0.548173 0.623898 0.82643 0.425714 1.30603 -0.0577702 -0.405631 2.20114 0.0699113 -0.302701 -1.37055 1.33238 1.1411 0.34217 -1.12588 0.0914802 -0.601929 -1.46476 1.56122 0.550498 -0.860243 -0.473658 1.58578 1.65418 1.17901 -1.05475 -0.785988 2.04762 -1.59351 -0.300141 -0.759454 -0.0794534 1.56544 -0.555886 0.089257 1.77825 -1.02911 -0.706587 0.86477 0.342878 -0.295581 -1.46363 2.16781 -1.52746 -1.1969 -0.889408
internal_count=2013 1057 956 567 456 366 333 276 58 111 90 90 435 490 218 58 334 402 381 279 152 127 101 78 57 102 76 521 195 165 59 43 118 47 467 107 71 82 61 106 70 71 279 54 63 385 88 162 46 43 54 50 41 116 80 44 40 54 117 46 365 128 91
shrinkage=0.05


Tree=17
num_leaves=64
num_cat=0
split_feature=16 16 106 8 45 105 96 4 56 52 130 49 72 28 125 0 88 70 126 73 35 88 14 138 7 5 72 41 63 21 21 8 140 87 18 63 138 62 113 132 13 62 127 79 56 106 101 111 77 8 135 108 128 130 134 66 107 2 137 129 130 4 0
split_gain=1791.16 258.151 89.3757 90.4583 117.759 87.6946 89.2865 81.0724 71.1886 75.8742 84.3093 76.0195 70.6929 85.1131 59.0843 57.9709 53.6978 51.2718 50.5813 57.7755 50.5407 65.6178 48.5977 47.5356 47.2951 45.4489 42.7692 42.1802 41.6479 41.0204 40.625 39.5374 39.4671 41.9933 45.2552 36.6762 31.9976 37.1048 32.6728 35.4663 31.996 30.024 35.3613 35.0821 39.0578 37.0411 29.9258 29.5811 29.0113 28.171 27.4445 36.0258 26.5227 24.9632 23.6571 22.309 22.2007 21.676 20.6344 19.7946 19.4712 16.0381 14.8729
threshold=1.646545204696886 1.5811388300841904 4.8480000000000008 2.4265035378756301 4.6863900000000003 6.9677113629186349e-06 4.391560000000001 3.2820764064134833 2.767615395393157 16.500000000000004 0.98814233121458794 3.0277055878504466 1.425 7.4350000000000014 0.94209693961735252 2.3283388073748652 0.69258333333333344 74965.163881479704 0.30288249671618245 126.50000000000001 -48.54999999999999 0.68609000000000009 0.071653243958010399 0.012150304912305338 2.5366753283422656 4.5362229500000009 1.2350000000000001 4.4525138500000008 -18.499999999999996 -0.01377842283840614 0.071616105389303866 2.4604860274817697 0.010482546294706597 51.500000000000007 2.4766281201050169 -139.49999999999997 -0.014833705335269511 -115.49999999999999 17.876707251029458 0.9356260137946103 4.679120833333335 -47.499999999999993 0.95330918714617552 0.21798984280678574 3.4744475607952929 5.1015000000000006 2.1342568372676087e-06 5.8650000000000011 27.500000000000004 2.5517561518629779 -0.44914154299836773 26.391306776736631 0.80929224719796256 0.9850019605590401 -0.10888926470047762 5.0050000000000008 4.2197500000000003 1.316561177215279 -0.035228460499380811 1.0272142486755838 1.0273304482296834 3.1988348940205831 2.3746132061425804
decision_type=2 2 2 2 2 2 2 2 2 2 2 2 2 2 2 2 2 2 2 2 2 2 2 2 2 2 2 2 2 2 2 2 2 2 2 2 2 2 2 2 2 2 2 2 2 2 2 2 2 2 2 2 2 2 2 2 2 2 2 2 2 2 2
left_child=1 2 12 30 -5 6 -6 20 -8 -10 16 22 13 -1 -15 47 31 -7 19 23 21 55 -12 25 -18 -17 27 -3 -13 46 -4 -11 33 34 36 -21 38 59 39 -29 -27 43 -43 -39 -45 54 -23 49 -28 -9 51 -20 -37 -32 -46 60 -53 -54 -36 -38 -2 -62 -58
right_child=7 26 3 4 5 17 8 15 9 10 11 28 -14 14 -16 18 24 -19 50 35 -22 29 -24 -25 -26 40 48 32 -30 -31 53 -33 -34 -35 58 52 37 41 -40 -41 -42 42 -44 44 45 -47 -48 -49 -50 -51 -52 56 57 -55 -56 -57 62 -59 -60 -61 61 -63 -64
leaf_value=-0.0080698436312377463 -0.11664362818650578 0.082093878697465983 0.057377121202421916 -0.073177332077175389 0.11007186527340077 0.16247029785687728 0.10861288255453111 -0.060660544260368723 -0.073280969597399243 0.07606918335811276 0.045573103427886966 0.050462888211011893 0.17129067000622553 0.16983917377889157 0.069781665338410279 0.01568499468266964 -0.099163567613471643 0.069586141369281679 -0.019179948911603011 -0.015822632451142585 0.050352729652076961 0.047659232648643288 0.1309780828654766 0.029337589545496579 0.007073589749634266 -0.092616643206920576 0.016191592414397746 -0.021823945036157966 -0.046339930230751641 -0.048870602681168496 0.15301365901316916 -0.015669690527526352 0.076433897294380049 0.068328123347777311 -0.0050043803157991378 -0.12123875468969346 0.035899967754570147 0.05223910606676533 -0.056265247899487059 0.061800145251410345 -0.024665888597567878 0.090076940793257509 0.014403100135295013 -0.056948173691829043 -0.060736898569898168 0.039549618276456998 -0.02157173929391084 0.0071862313501899035 -0.063908161595463753 -0.00046590090944216805 -0.10676400280231005 -0.030447734537578763 -0.033586940459477216 0.082988737057894474 0.0091113384399149153 -0.022366439518721207 -0.074094055499514852 -0.095049657486379155 -0.067680078434447441 0.10325170457363129 -0.027006667442619803 -0.088871687907852576 -0.10229402204119675
leaf_count=20 23 27 33 20 39 24 25 77 20 23 31 25 30 25 36 24 22 39 28 21 20 37 36 29 20 41 20 32 20 35 35 24 27 33 29 38 24 31 27 21 30 26 38 30 22 48 27 36 26 26 77 21 26 20 27 23 127 32 24 20 20 22 74
internal_value=0 0.84032 1.30978 1.1139 0.8961 1.03171 0.795695 -1.05428 0.572833 0.391903 0.576731 1.15406 2.11449 1.62882 2.21578 -1.21543 -0.1498 2.09941 -1.35708 -1.00948 -0.503865 -0.665461 1.82925 -0.533876 -0.971489 -0.875962 0.339971 0.427202 0.148788 -0.106973 2.0247 0.584476 0.35575 0.282442 0.192778 -1.51354 0.324588 0.491361 -0.229931 0.226203 -1.2781 0.325087 0.902912 0.0910308 -0.141775 0.166634 0.369048 -0.636586 -0.581644 -0.909316 -1.61327 -1.45249 -1.7754 2.551 -0.444982 -1.29376 -1.58731 -1.34995 -0.667717 1.33029 -1.59327 -1.18824 -1.68952
internal_count=2013 1099 567 456 368 348 285 914 246 221 201 112 111 81 61 707 89 63 568 241 207 187 67 124 42 95 532 486 45 99 88 47 459 432 399 117 346 266 80 53 71 222 64 158 127 97 64 139 46 103 327 250 96 55 49 88 222 58 53 44 65 42 201
shrinkage=0.05


Tree=18
num_leaves=64
num_cat=0
split_feature=18 16 88 106 134 88 99 4 72 20 117 1 28 35 88 1 72 16 1 81 77 36 22 115 20 8 106 0 137 3 86 14 1 96 21 103 7 112 103 104 40 127 109 22 126 72 73 63 104 36 64 50 128 7 137 29 60 105 18 140 115 137 103
split_gain=1617.71 257.275 85.7891 84.7358 94.5406 137.834 106.957 75.386 66.076 57.2785 56.3343 55.7562 53.6603 48.5676 54.6858 60.4952 42.0321 44.8181 45.195 46.0966 44.8085 41.548 41.3605 52.6245 57.9623 57.2218 55.4734 50.7997 47.9195 40.8248 40.0105 37.051 37.7784 36.9271 34.8627 31.7882 35.7915 49.8091 30.878 32.1521 31.0402 30.792 29.0365 28.9851 28.2343 36.2663 42.6488 26.8095 26.4896 25.7898 27.973 21.7393 30.0046 21.3095 19.9149 25.0617 23.046 20.5964 26.1585 19.0846 18.2285 17.8708 17.3771
threshold=2.485737091666842 1.5811388300841904 0.71819333333333346 4.823500000000001 -0.13153959251532144 0.69424000000000008 9.4500000000000011 3.2820764064134833 1.425 2.6032333402197767 1.5548862500000002 1.9666666666662802 7.8650000000000011 -49.249999999999993 0.68609000000000009 1.9299735696704328 1.2550000000000001 1.6363916944839403 1.8372547588194952 5.5915000000000008 62.500000000000007 6.1103014278271234e-06 0.042968349498328957 18.515844425996793 2.6107554545460432 2.4524609175205532 5.2125000000000012 2.2105120737085557 0.012608248992766611 0.4714045207920895 4.5805000000000016 0.0065445408084632657 1.8982980149425774 4.527940000000001 0.0024827738705827758 8.6672444829655786e-06 2.6135794990388379 -1.1756022489411391e-06 -1.0000666711114082e-05 1.1630883100403568e-05 4.1108558196256952 0.95475618937794082 4.0505000000000004 0.076111901899526282 0.30288249671618245 -5.1599999999999993 101.50000000000001 -30.499999999999996 1.7823267149374421e-06 2.0249996756455571e-06 -24.499999999999996 75077.485920706953 0.83749304345011522 2.6011447390843254 -0.13253781539934198 -0.095070179757282366 74772.791369422441 3.2597095096519689e-06 2.5269456949948168 -0.0006998789275977469 20.820817955291059 -0.013765655348646787 -1.3334222281486091e-06
decision_type=2 2 2 2 2 2 2 2 2 2 2 2 2 2 2 2 2 2 2 2 2 2 2 2 2 2 2 2 2 2 2 2 2 2 2 2 2 2 2 2 2 2 2 2 2 2 2 2 2 2 2 2 2 2 2 2 2 2 2 2 2 2 2
left_child=1 2 3 8 5 -5 -7 13 12 33 22 16 -1 14 51 -16 17 18 -3 20 31 35 -6 24 25 28 27 -27 43 -19 -17 -20 -33 -4 54 36 37 -13 39 40 -36 -34 -39 -24 45 -40 -47 -37 53 -46 -51 52 -2 -31 -9 -56 57 58 -57 -48 -55 -45 -32
right_child=7 11 9 4 10 6 -8 34 -10 -11 -12 21 -14 -15 15 30 -18 29 19 -21 -22 -23 23 -25 -26 26 -28 -29 -30 48 62 32 41 -35 38 47 -38 42 44 -41 -42 -43 -44 61 49 46 59 -49 -50 50 -52 -53 -54 60 55 56 -58 -59 -60 -61 -62 -63 -64
