tree
version=v2
num_class=1
num_tree_per_iteration=1
label_index=0
max_feature_idx=129
objective=regression
feature_names=av_change_abs_roll_std_100 classic_sta_lta1_mean av_change_abs_roll_std_1000 classic_sta_lta7_mean abs_trend classic_sta_lta4_mean std_last_10000 mean_change_rate_first_10000 kurt classic_sta_lta3_mean max_last_50000 classic_sta_lta8_mean autocorr_5 mean_change_rate min_roll_mean_100 Rmin_last_5000 min_roll_std_1000 stdAudioIncrease min_last_10000 max_roll_std_100 autocorr_50 Rmax_last_5000 mean_change_rate_first_50000 autocorr_500 autocorr_10000 classic_sta_lta2_mean std_roll_mean_100 max_roll_std_1000 av_change_abs_roll_mean_10 min_roll_std_100 q99_roll_mean_1000 Imean av_change_rate_roll_mean_10 std_roll_mean_1000 autocorr_100 av_change_rate_roll_std_1000 autocorr_10 Rstd__last_5000 avg_last_10000 autocorr_1000 abs_max_roll_std_1000 hmean q01_roll_std_1000 abs_max_roll_mean_10 mean_change_rate_last_50000 autocorr_5000 abs_max_roll_mean_1000 ave_roll_mean_100 max_roll_mean_100 avg_first_50000 mean_change_rate_last_10000 classic_sta_lta6_mean q99_roll_std_1000 min_last_50000 Rmean min_roll_std_10 q95_roll_std_1000 iqr abs_std max_roll_mean_10 Rmean_last_15000 q01_roll_mean_1000 mean_change_abs abs_max_roll_std_100 max_first_10000 MA_700MA_BB_high_mean q05_roll_std_100 max_first_50000 av_change_rate_roll_mean_100 std_roll_std_10 exp_Moving_average_3000_mean abs_max_roll_std_10 Hann_window_mean_50 q95_roll_mean_10 Rmin_last_15000 av_change_abs_roll_std_10 min_roll_mean_1000 max_to_min q99_roll_mean_100 min_roll_mean_10 trend q95_roll_std_100 avg_last_50000 q01_roll_std_100 std_first_10000 av_change_abs_roll_mean_1000 skew q99 Hilbert_mean Rmean_last_5000 minAudio MA_700MA_BB_low_mean q95_roll_mean_1000 av_change_rate_roll_std_10 q01_roll_mean_100 av_change_abs_roll_mean_100 q99_roll_std_10 classic_sta_lta5_mean q99_roll_mean_10 q05_roll_mean_1000 Hann_window_mean_150 ave_roll_mean_10 abs_q99 av_change_rate_roll_std_100 min_first_10000 exp_Moving_average_300_mean q001 Kalman_correction std_last_50000 abs_mean q01_roll_std_10 gmean iqr1 ave10 sum q05_roll_std_10 q05_roll_mean_10 q01_roll_mean_10 q05_roll_std_1000 q75Audio q25Audio abs_max_roll_mean_100 q01 q95 q05 q95_roll_std_10 abs_q95 ave_roll_std_10 stdAudio ave_roll_std_100
feature_infos=[-0.00045353238754379082:0.00063078538269458753] [0:1.1229264331263005] [-0.00043899603017062141:0.0003382371510771906] [0:0.99733447848836521] [-0.00069577447282736886:0.0006645023224953106] [0:0.97645873226967161] [0:277.80284855245156] [-0.12061458111762373:0.1642646151129841] [0:631.15892683450727] [0:0.97837911866299876] [0:5444] [0:0.99818155493660121] [-0.2412399859758825:0.37736068656992383] [-0.096501159712536144:0.14276451945282165] [-440.50999999999999:3.5600000000000001] [-442618.99550136545:0] [0:2.8725268337143879] [0:0.78298666666666672] [-2592:0] [0:2330.9913223885032] [-0.088714748341982952:0.48499411813432408] [0:439570.45858373435] [-0.099737127301640166:0.14539626654341714] [-0.13143743274742986:0.12921841518340224] [-0.039262153376697688:0.051483673046719719] [0:1.3614629039057966] [0:15.966909976346299] [0:1499.5107317474015] [-0.00074738315887725858:0.00040469364624308332] [0:2.2107176946737259] [0:12.965] [-2.9928438986341166e-14:7.8774367769559212e-14] [0:75867.944181273808] [0:3.5770345912695567] [-0.39293979960659758:0.24737261881510186] [0:75397.328559697577] [-0.65425857193019576:0] [0:91276.583058056713] [0:5.5812999999999997] [-0.098716652647818676:0.08803794511135879] [0:1499.5107317474015] [0:4.9279681359544769] [0:3.094442530500733] [0:4380.1000000000004] [-0.12138340097115838:0.14999979365021374] [-0.067029633808116662:0.063626192355735398] [0:73.841999999999999] [0:5.3699138097811225] [0:494.37] [0:5.4849600000000001] [-0.13450542413890712:0.17138692553337526] [0:1.1615400102911058] [0:981.88165275608367] [-4392:0] [-106:74.000000000000014] [0:0.69920589878719175] [0:122.7692608204763] [0:13] [0:150.43236825417767] [0:4135.8999999999996] [-282.4743705510578:222.33834814737281] [-4.641:4.8780000000000001] [-0.00078667191114607446:0.00074000493336622247] [0:2330.9913223885032] [0:3479] [0:129.2238751124863] [0:2.9696103881678901] [0:4281] [0:75924.755259640631] [0:109.41231004547069] [0:5.3688231482350419] [0:3362.4702047420105] [0:5.3695710346345429] [0:34.799999999999997] [-514814.91433320154:0] [-0.000526060371849054:0.00055023140163027687] [-48.777999999999999:4.6269999999999998] [0:2.3452382000000003] [0:34.219999999999999] [-4380.1000000000004:0] [-6.8594094367493064e-06:6.6411666847396223e-06] [0:117.38549589478352] [0:5.4859599999999995] [0:2.632719529333913] [0:436.46745261486467] [-2.0114093959731574e-05:1.1140939597315436e-05] [-3.3766192288580013:4.2194288243558846] [0:337] [0:50.671826806405754] [-754.31490491109957:532.36592136057743] [-5515:0] [-119.93997874589407:0] [0:7.226] [0:75880.530209080302] [-26.629999999999999:4.3600000000000003] [-5.5370246831220726e-05:3.8625750500333555e-05] [0:567.73378416663945] [0:1.0845520805293922] [0:251.11000000000058] [0:4.9689999999999994] [0:5.3690363042059497] [0:5.3698135321452645] [0:674.0100000000092] [0:75936.241146842862] [-5515:0] [0:5.3700464561348369] [-1726.0020000000002:0] [0:25.276520938497239] [0:247.19259169875261] [0:32.762073333333333] [0:1.56347191994115] [0:9.4654179999999997] [0:89] [0:5.349966666666667] [0:805482] [0:2.0682789409983808] [-24.5:3.2000000000000002] [-225.44999999999999:2.2000000000000002] [0:3.4102589147841602] [0:11] [-2:3] [0:494.37] [-336:0] [0:50] [-39:0] [0:76.123072854786386] [0:93] [0:26.10412483750418] [0:153.67862] [0:39.153994265819065]
tree_sizes=695 712 718 717 720 713 716 714 714 717 720 717 716 715 721 723 725 724 727 718 717 723 726 648 730 725 723 723 719 729 719 723 716 736 654 718 709 725 575 715 646 570 570 575 648 648 653 577 651 647 724 721 650 651 504 727 646 647 728 652 574 650 578 501 656 500 502 725 501 504 650 653 660 724 732 653 663 425 653 424 727 729 729 656

Tree=0
num_leaves=8
num_cat=0
split_feature=115 118 66 66 66 118 42
split_gain=10565.3 972.549 946.145 229.232 174.492 124.091 109.672
threshold=1.6363916944841754 2.6244224293037983 2.5180860932948144 2.3698868400298529 2.4820975110398344 2.8068609632954584 2.5739275636412913
decision_type=2 2 2 2 2 2 2
left_child=1 3 4 -1 -2 -4 -3
right_child=2 6 5 -5 -6 -7 -8
leaf_value=5.8479470408286591 5.6407405409915485 5.7610364023987684 5.5204537756839152 5.7838024430932098 5.5786469987849543 5.4684500454331282 5.7012031329458512
leaf_count=330 173 106 399 241 327 161 276
internal_value=0 2.39508 -2.19334 3.22135 -1.19349 -3.08607 1.16
internal_count=2013 953 1060 571 500 560 382
shrinkage=1


Tree=1
num_leaves=8
num_cat=0
split_feature=115 66 66 66 66 27 30
split_gain=9536.44 879.569 831.857 241.162 167.669 152.355 118.043
threshold=1.6363916944840156 2.5180860932948144 2.3698868400298529 2.4183640851790895 2.4820975110398344 9.053552755431884 4.7245000000000008
decision_type=2 2 2 2 2 2 2
left_child=2 4 5 -4 -2 -1 -3
right_child=1 6 3 -5 -6 -7 -8
leaf_value=0.057423811157544462 -0.017119954936000523 -0.070746924448758366 0.10748337483314792 0.044226689588597795 -0.077101058478749138 0.18824849738161159 -0.15353655548871553
leaf_count=24 181 47 351 264 327 306 513
internal_value=0 -2.06742 2.29386 1.60659 -1.1146 3.57468 -2.93176
internal_count=2013 1068 945 615 508 330 560
shrinkage=0.05


Tree=2
num_leaves=8
num_cat=0
split_feature=115 118 66 83 66 115 37
split_gain=8606.94 801.984 770.331 183.331 141.874 113.214 112.149
threshold=1.6363916944841754 2.6244224293037983 2.5180860932948144 2.2159887301822843 2.4820975110398344 1.6865480854230737 1177.3463887998421
decision_type=2 2 2 2 2 2 2
left_child=1 3 4 -1 -2 -4 -3
right_child=2 6 5 -5 -6 -7 -8
leaf_value=0.17468926337339896 -0.017256196502682276 -0.057582054083997559 -0.095980312919416347 0.11800663737540847 -0.073246006174326306 -0.15093703642487527 0.058706324038664916
leaf_count=278 173 22 119 293 327 441 360
internal_value=0 2.16174 -1.97965 2.91207 -1.07747 -2.78517 1.04018
internal_count=2013 953 1060 571 500 560 382
shrinkage=0.05


Tree=3
num_leaves=8
num_cat=0
split_feature=115 66 118 66 66 46 118
split_gain=7770.86 715.678 698.511 169.255 135.971 129.382 107.475
threshold=1.6363916944840156 2.5180860932948144 2.6244224293037983 2.3698868400298529 2.4820975110398344 5.6895000000000016 2.8068609632954584
decision_type=2 2 2 2 2 2 2
left_child=2 4 3 -1 -2 -4 -3
right_child=1 6 5 -5 -6 -7 -8
leaf_value=0.16158670344347645 -0.015569020407878954 -0.11838168606452673 0.060307147638085173 0.10646876456888386 -0.069583706020104164 -0.037030703902832772 -0.16677859805940842
leaf_count=330 181 399 336 241 327 38 161
internal_value=0 -1.86625 2.07066 2.76647 -1.00677 1.00834 -2.64592
internal_count=2013 1068 945 571 508 374 560
shrinkage=0.05


Tree=4
num_leaves=8
num_cat=0
split_feature=115 115 118 61 83 108 13
split_gain=7013.2 653.258 630.407 163.003 152.845 105.179 77.3099
threshold=1.6363916944840156 1.6865480854230737 2.6244224293037983 3.7655000000000007 2.2159887301822843 3.5281084415305481 0.012916696737275727
decision_type=2 2 2 2 2 2 2
left_child=2 3 4 -2 -1 -4 -3
right_child=1 6 5 -5 -6 -7 -8
leaf_value=0.15796469029746013 -0.0081543194672271408 -0.13947026355561082 -0.063657521046698098 -0.068889371812392838 0.1062091163106091 0.054198823177839743 -0.069839510905810379
leaf_count=278 146 424 20 454 293 354 44
internal_value=0 -1.77293 1.96713 -1.08221 2.62814 0.957927 -2.65848
internal_count=2013 1068 945 600 571 374 468
shrinkage=0.05


Tree=5
num_leaves=8
num_cat=0
split_feature=118 115 83 115 65 109 83
split_gain=6560 666.95 507.851 190.416 154.806 143.73 123.222
threshold=2.6694511545375277 1.6865480854201846 2.2179251383199476 1.6363916944841754 13.181996194288054 4.7200533333333343 2.3698442176995407
decision_type=2 2 2 2 2 2 2
left_child=2 3 4 -2 -1 -4 -3
right_child=1 6 5 -5 -6 -7 -8
leaf_value=0.02124687723815441 0.018761174542865217 -0.096421315035786076 -0.018444206526404935 -0.055573073423753283 0.16518525333397172 0.082235630334065668 -0.14432690654689237
leaf_count=20 104 281 38 502 283 528 257
internal_value=0 -1.57575 2.06886 -0.856321 3.11369 1.50952 -2.38611
internal_count=2013 1144 869 606 303 566 538
shrinkage=0.05


Tree=6
num_leaves=8
num_cat=0
split_feature=66 66 118 42 12 61 70
split_gain=5923.38 619.855 433.073 210.215 155.053 124.915 83.5706
threshold=2.4618298195866672 2.3698868400298529 2.7585185198608086 2.5739275636412913 -0.15318197482629756 3.7655000000000007 4.1483068113918096
decision_type=2 2 2 2 2 2 2
left_child=1 4 5 -3 -1 -2 -4
right_child=2 3 6 -5 -6 -7 -8
leaf_value=0.048264646152720643 -0.017544242111631695 0.086382516968951259 -0.033374248877167702 0.028302265616668754 0.1554298875449435 -0.069152987471306146 -0.12765403873297212
leaf_count=38 156 338 25 289 302 472 393
internal_value=0 1.78181 -1.65162 1.19224 2.86905 -1.12666 -2.44031
internal_count=2013 967 1046 627 340 628 418
shrinkage=0.05


Tree=7
num_leaves=8
num_cat=0
split_feature=66 66 115 42 12 99 83
split_gain=5345.85 559.419 390.46 189.719 139.935 106.661 101.686
threshold=2.4618298195866672 2.3698868400298529 1.6865480854209809 2.5739275636412913 -0.15318197482629756 3.8395000000000006 2.3698442176995407
decision_type=2 2 2 2 2 2 2
left_child=1 4 5 -3 -1 -2 -4
right_child=2 3 6 -5 -6 -7 -8
leaf_value=0.045851416645363269 0.0029390124930604097 0.082063390877574527 -0.08734335304196815 0.026887152348661143 0.14765839474553255 -0.057765912947916366 -0.1312042379860516
leaf_count=38 87 338 272 289 302 430 257
internal_value=0 1.69272 -1.56903 1.13263 2.7256 -0.951012 -2.17304
internal_count=2013 967 1046 627 340 517 529
shrinkage=0.05


Tree=8
num_leaves=8
num_cat=0
split_feature=118 110 83 65 56 115 41
split_gain=4857.69 499.697 379.786 142.895 138.719 135.712 99.629
threshold=2.6694511545375277 1.2866839377111445 2.2179251383199476 13.181996194288054 5.4144922648861993 1.6363916944841754 3.2643231038771763
decision_type=2 2 2 2 2 2 2
left_child=2 5 3 -1 -4 -2 -3
right_child=1 6 4 -5 -6 -7 -8
leaf_value=0.005030121114104987 0.016815703471477789 -0.05331118711189408 -0.04576587050946223 0.14332052685925903 0.070370792378783784 -0.046304647769144877 -0.11013004432381697
leaf_count=20 104 92 27 283 539 470 478
internal_value=0 -1.35596 1.78031 2.68385 1.29661 -0.697364 -2.01919
internal_count=2013 1144 869 303 566 574 570
shrinkage=0.05


Tree=9
num_leaves=8
num_cat=0
split_feature=118 118 83 109 33 115 47
split_gain=4384.07 460.158 342.757 132.707 130.127 129.642 102.296
threshold=2.6694511545375277 2.7443740770286098 2.2179251383199476 4.7200533333333343 0.1998743925410166 1.6363916944841754 4.1163694038065124
decision_type=2 2 2 2 2 2 2
left_child=2 5 4 -4 -1 -2 -3
right_child=1 6 3 -5 -6 -7 -8
leaf_value=0.0042260063812136648 0.015974919452296142 0.002387343744824951 -0.028658114706999378 0.068084239682535894 0.13619355253559332 -0.045288057303310453 -0.10325473547624738
leaf_count=20 104 24 38 528 283 509 507
internal_value=0 -1.28817 1.69129 1.23178 2.54966 -0.697887 -1.9696
internal_count=2013 1144 869 566 303 613 531
shrinkage=0.05


Tree=10
num_leaves=8
num_cat=0
split_feature=115 118 66 66 41 47 20
split_gain=3850.89 387.606 380.174 161.267 122.815 105.014 57.6945
threshold=1.6363916944841754 2.7585185198608086 2.4183640851790895 2.3375178921393442 3.2419628965981624 4.1163694038065124 0.1134278505948567
decision_type=2 2 2 2 2 2 2
left_child=2 4 3 -1 -2 -3 -4
right_child=1 5 6 -5 -6 -7 -8
leaf_value=0.14075037938799115 9.6859711725400758e-05 0.0070432724803686153 -0.010437239391936196 0.080352341551627335 -0.053126634553932586 -0.11052830257194873 0.03873101781046092
leaf_count=138 137 20 90 555 519 377 177
internal_value=0 -1.31221 1.45698 1.84759 -0.840227 -2.09211 0.443149
internal_count=2013 1053 960 693 656 397 267
shrinkage=0.05


Tree=11
num_leaves=8
num_cat=0
split_feature=66 42 118 110 61 29 47
split_gain=3491.17 450.688 288.809 144.144 129.33 97.6676 94.7748
threshold=2.4666257077878528 2.5739275636412913 2.7585185198608086 1.197218999737846 3.7405000000000004 2.0037212740286945 4.1163694038065124
decision_type=2 2 2 2 2 2 2
left_child=1 3 4 -1 -2 -3 -4
right_child=2 5 6 -5 -6 -7 -8
leaf_value=0.13317536376930517 -0.0014925832990283037 0.029629825538164647 0.006691109240055085 0.076949618495885011 -0.056992796649042846 -0.045998058989644056 -0.10500188740489101
leaf_count=145 136 292 20 533 460 50 377
internal_value=0 1.30738 -1.32672 1.77949 -0.886566 0.371462 -1.9875
internal_count=2013 1020 993 678 596 342 397
shrinkage=0.05


Tree=12
num_leaves=8
num_cat=0
split_feature=66 42 118 51 49 29 47
split_gain=3150.78 406.745 260.65 135.579 119.17 88.145 85.5342
threshold=2.4666257077878528 2.5739275636412913 2.7585185198608086 0.97303843022646885 4.2453000000000012 2.0037212740286945 4.1163694038065124
decision_type=2 2 2 2 2 2 2
left_child=1 3 4 -1 -2 -3 -4
right_child=2 5 6 -5 -6 -7 -8
leaf_value=0.020158038177999528 0.0059582209956990382 0.028148333990487131 0.0063565545901656155 0.092292246337468187 -0.05251074608662451 -0.04369815551489592 -0.099751793930865335
leaf_count=73 106 292 20 605 490 50 377
internal_value=0 1.24201 -1.26038 1.69051 -0.842238 0.352889 -1.88813
internal_count=2013 1020 993 678 596 342 397
shrinkage=0.05


Tree=13
num_leaves=8
num_cat=0
split_feature=115 83 66 51 33 92 113
split_gain=2847.45 301.37 290.931 162.371 145.546 95.5634 95.3284
threshold=1.6363916944841754 2.2159887301822843 2.5180860932948144 0.9735327271990345 0.20253228813207805 4.4755000000000011 4.333775000000001
decision_type=2 2 2 2 2 2 2
left_child=1 4 6 -3 -1 -4 -2
right_child=2 3 5 -5 -6 -7 -8
leaf_value=-0.018893790651451459 0.011085131242061438 -0.062411782003062612 0.012064123382935159 0.049754814893711669 0.11481148989131565 -0.086138979570141869 -0.040762461371748715
leaf_count=22 115 34 26 632 272 525 387
internal_value=0 1.25284 -1.12839 0.880572 2.09613 -1.6301 -0.5777
internal_count=2013 960 1053 666 294 551 502
shrinkage=0.05


Tree=14
num_leaves=8
num_cat=0
split_feature=66 66 66 49 66 32 28
split_gain=2579.96 347.202 217.148 138.842 123.969 68.7526 24.771
threshold=2.4666257077878528 2.4183640851790895 2.5610031924743653 4.2594900000000004 2.3375178921393442 74885.74279726237 -9.3339555970398865e-06
decision_type=2 2 2 2 2 2 2
left_child=1 4 3 -2 -1 -3 -4
right_child=2 5 6 -5 -6 -7 -8
leaf_value=0.11864208267205328 -7.5074486675431271e-05 0.058059299602240759 -0.075770395950359462 -0.0546485587111896 0.065687142054986644 0.0018699349337365737 -0.11207627235470635
leaf_count=138 143 69 68 630 555 258 152
internal_value=0 1.12387 -1.14053 -0.891056 1.52465 0.274528 -2.01709
internal_count=2013 1020 993 773 693 327 220
shrinkage=0.05


Tree=15
num_leaves=8
num_cat=0
split_feature=118 42 66 12 36 47 29
split_gain=2290.17 309.061 163.023 125.848 100.952 94.8824 78.2089
threshold=2.6939076893313971 2.5739275636412913 2.5180860932948144 -0.16724774669714837 -0.50176942402761193 4.0930531484446417 2.0053841658401592
decision_type=2 2 2 2 2 2 2
left_child=1 3 4 -1 -2 -4 -3
right_child=2 6 5 -5 -6 -7 -8
leaf_value=-0.008113653073087335 0.015566308621098014 0.023342743560155688 0.020632515300065282 0.075907779392901442 -0.045942149870773601 -0.079008490656604494 -0.038818622417747972
leaf_count=48 85 323 25 623 310 539 60
internal_value=0 0.988836 -1.14679 1.39795 -0.654123 -1.49184 0.272093
internal_count=2013 1054 959 671 395 564 383
shrinkage=0.05


Tree=16
num_leaves=8
num_cat=0
split_feature=115 42 115 115 22 36 2
split_gain=2040.6 332.016 120.361 119.324 109.644 89.2067 32.5644
threshold=1.6465452046968172 2.5739275636412913 1.5491933384829297 1.6996731711951061 -0.022739449613129525 -0.5120344158930813 1.5541212450677753e-05
decision_type=2 2 2 2 2 2 2
left_child=1 2 -1 5 -3 -2 -5
right_child=3 4 -4 6 -6 -7 -8
leaf_value=0.1014226756248055 0.0016459852339405761 0.089227028519380844 0.053369210862369856 -0.086559275929621649 0.0024345532031937807 -0.051813151308993902 -0.04864986086530345
leaf_count=177 95 40 494 297 403 437 70
internal_value=0 0.877314 1.3209 -1.14793 0.205427 -0.845338 -1.58657
internal_count=2013 1114 671 899 443 532 367
shrinkage=0.05


Tree=17
num_leaves=8
num_cat=0
split_feature=118 118 115 52 11 36 13
split_gain=1878.4 257.945 135.793 110.094 108.454 107.417 55.0326
threshold=2.6939076893313971 2.5962417912501219 1.6865480854230737 9.6380116483381322 0.93358187842495699 -0.49837923365336351 0.011377331567398908
decision_type=2 2 2 2 2 2 2
left_child=1 4 5 -3 -1 -2 -4
right_child=2 3 6 -5 -6 -7 -8
leaf_value=0.053444394161610786 0.0084421737906362482 -0.07997283634284269 -0.077099964346371286 0.031230779211692442 0.10980479474145376 -0.046579001262161475 -0.020571861742064358
leaf_count=178 116 23 418 689 164 377 48
internal_value=0 0.89563 -1.0385 0.552771 1.60942 -0.672657 -1.42555
internal_count=2013 1054 959 712 342 493 466
shrinkage=0.05


Tree=18
num_leaves=8
num_cat=0
split_feature=118 42 111 12 13 29 87
split_gain=1695.26 236.619 125.097 114.148 78.9958 70.5276 64.2261
threshold=2.6939076893313971 2.5739275636412913 4.3487893500000014 -0.16724774669714837 0.013559784121938968 2.0053841658401592 22.500000000000004
decision_type=2 2 2 2 2 2 2
left_child=1 3 6 -1 -4 -3 -2
right_child=2 5 4 -5 -6 -7 -8
leaf_value=-0.013855472098415098 -0.022528805738118919 0.020432796736965794 -0.066949564578293805 0.066165056664776581 -0.030241317800604378 -0.038597113142410919 0.068875650401142505
leaf_count=48 152 323 590 623 195 60 22
internal_value=0 0.850849 -0.986578 1.20882 -1.15662 0.223706 -0.219438
internal_count=2013 1054 959 671 785 383 174
shrinkage=0.05


Tree=19
num_leaves=8
num_cat=0
split_feature=118 118 66 97 52 42 72
split_gain=1529.97 221.379 118.249 108.354 101.487 92.9119 78.0934
threshold=2.6939076893313971 2.5962417912501219 2.5180860932948144 1.006933183159942 9.6380116483381322 2.6603625745329587 4.0931127322763858
decision_type=2 2 2 2 2 2 2
left_child=1 3 5 -1 -3 -2 -4
right_child=2 4 6 -5 -6 -7 -8
leaf_value=0.045334882331107967 -0.03390896426526218 -0.078785358385547344 0.024833980441093445 0.10162208713060082 0.027982828886611778 0.047382858483932727 -0.065562677659450272
leaf_count=171 356 23 25 171 689 39 539
internal_value=0 0.808306 -0.937249 1.46957 0.490677 -0.517654 -1.23111
internal_count=2013 1054 959 342 712 395 564
shrinkage=0.05


Tree=20
num_leaves=8
num_cat=0
split_feature=83 115 66 37 8 94 47
split_gain=1389.99 205.908 173.803 194.009 158.041 134.459 50.174
threshold=2.2890825651116762 1.6865480854230737 2.3698868400298529 1126.1970103690435 5.5490713631323141 3.2750000000000004 4.0930531484446417
decision_type=2 2 2 2 2 2 2
left_child=2 5 4 -4 -1 -2 -3
right_child=1 6 3 -5 -6 -7 -8
leaf_value=-0.056809005744400481 0.016049562512887691 0.015579216368496419 -0.048510330252568512 0.041648608952515917 0.084813313327331399 -0.032876201448892146 -0.065427654798838414
leaf_count=21 201 20 68 487 318 466 432
internal_value=0 -0.715773 0.95664 0.612042 1.5208 -0.362649 -1.23687
internal_count=2013 1119 894 555 339 667 452
shrinkage=0.05


Tree=21
num_leaves=8
num_cat=0
split_feature=115 66 51 118 22 82 99
split_gain=1265.86 251.204 147.925 110.067 105.751 102.506 25.0004
threshold=1.6465452046968172 2.4183640851790895 0.96739702211769352 2.81003453650268 -0.022739449613129525 4.1480400000000008 3.9215000000000004
decision_type=2 2 2 2 2 2 2
left_child=1 2 -1 5 -3 -2 -5
right_child=3 4 -4 6 -6 -7 -8
leaf_value=-0.066391462522248423 0.021849816838200666 0.089529921999201179 0.059991206384828979 -0.11408034163039356 0.00017699645079568606 -0.041414705418344723 -0.069210069349692052
leaf_count=24 71 36 656 42 413 652 119
internal_value=0 0.727316 1.11061 -0.870553 0.146823 -0.70404 -1.61831
internal_count=2013 1129 680 884 449 723 161
shrinkage=0.05


Tree=22
num_leaves=8
num_cat=0
split_feature=118 66 37 8 111 83 106
split_gain=1142.11 208.431 148.947 140.551 117.718 76.2942 72.1503
threshold=2.6920774075486049 2.3698868400298529 1126.1970103690435 5.5490713631323141 4.3487893500000014 2.3698442176995407 -47.000499999999995
decision_type=2 2 2 2 2 2 2
left_child=1 3 -3 -1 6 -6 -2
right_child=4 2 -4 -5 5 -7 -8
leaf_value=-0.055764471242825187 0.045610373656797626 -0.048492755395743777 0.029315915775760287 0.077791673698537234 -0.035860936494988137 -0.069391248890409069 -0.023031479302766805
leaf_count=21 56 68 644 318 537 248 121
internal_value=0 0.744979 0.437695 1.39037 -0.762973 -0.929079 -0.0262857
internal_count=2013 1051 712 339 962 785 177
shrinkage=0.05


Tree=23
num_leaves=7
num_cat=0
split_feature=118 115 1 66 94 61
split_gain=1041.19 162.981 152.598 159.356 106.678 45.4496
threshold=2.6694511545375277 1.6865480854230737 0.91136998351127052 2.3698868400298529 3.2750000000000004 4.2245000000000008
decision_type=2 2 2 2 2 2
left_child=2 4 -1 -4 -2 -3
right_child=1 5 3 -5 -6 -7
leaf_value=-0.087722647799686956 0.014841436227097325 -0.058947936865085919 0.072831059965784803 0.028408282254822555 -0.027956481773314109 -0.0065079924974428584
leaf_count=22 209 406 330 520 480 46
internal_value=0 -0.6056 0.845795 0.913095 -0.299485 -1.07222
internal_count=2013 1141 872 850 689 452
shrinkage=0.05


Tree=24
num_leaves=8
num_cat=0
split_feature=115 66 11 22 111 3 13
split_gain=953.454 192.185 128.816 93.2043 81.1232 107.215 67.9644
threshold=1.6465452046968172 2.4183640851790895 0.91609654257203021 -0.022739449613129525 4.4667849500000001 0.98773676726610782 0.013559784121938968
decision_type=2 2 2 2 2 2 2
left_child=1 2 -1 -3 5 -2 -6
right_child=4 3 -4 -5 6 -7 -8
leaf_value=-0.05871205227794471 0.01966634540175485 0.083319716072744798 0.052735700681607725 -0.00056538198320262728 -0.058299694213141899 -0.042731423004194385 -0.020514972829059955
leaf_count=27 122 36 653 413 441 158 163
internal_value=0 0.630951 0.966211 0.123207 -0.7558 -0.310876 -0.962056
internal_count=2013 1129 680 449 884 280 604
shrinkage=0.05


Tree=25
num_leaves=8
num_cat=0
split_feature=66 115 32 33 26 41 91
split_gain=965.149 169.907 127.452 130.452 102.969 60.5514 56.6365
threshold=2.4276916685233561 1.6465452046969256 74923.132295846386 0.20388506346240101 0.35821492804018068 3.2403913430061144 -8.0418440030918532
decision_type=2 2 2 2 2 2 2
left_child=2 6 3 -1 -4 -3 -2
right_child=1 5 4 -5 -6 -7 -8
leaf_value=-0.099100198110808502 0.018720232558579328 -0.0049342778041898232 0.1463530710665509 0.027201033365765955 0.053842040528998741 -0.042748331906010496 -0.019758377569018021
leaf_count=23 222 123 32 184 501 760 168
internal_value=0 -0.506821 0.929293 0.263351 1.18792 -0.749618 0.0428966
internal_count=2013 1273 740 207 533 883 390
shrinkage=0.05


Tree=26
num_leaves=8
num_cat=0
split_feature=118 115 79 98 41 13 15
split_gain=867.368 169.965 154.73 92.2184 77.6486 70.7118 36.5605
threshold=2.6920774075486049 1.5670212364711789 -16.949999999999996 9.0050000000002921 3.1856919795312892 0.013559784121938968 -13513.131868530761
decision_type=2 2 2 2 2 2 2
left_child=1 2 -1 -3 6 -6 -2
right_child=4 3 -4 -5 5 -7 -8
leaf_value=0.073494803219519816 0.054892711434513332 -0.054642716092639598 -0.053830659108308081 0.023424064390323896 -0.045598071992535065 -0.01216958925973822 -0.013549353847280144
leaf_count=290 32 40 26 697 671 207 50
internal_value=0 0.646814 1.26037 0.383741 -0.667423 -0.754337 0.263195
internal_count=2013 1053 316 737 960 878 82
shrinkage=0.05


Tree=27
num_leaves=8
num_cat=0
split_feature=66 115 10 88 60 22 118
split_gain=801.597 135.06 116.122 153.97 101.507 56.4996 56.2191
threshold=2.4276916685233561 1.6465452046969256 44.500000000000007 5.6161355791635428 8.0438107344684635 -0.021663258848665826 2.8068609632954584
decision_type=2 2 2 2 2 2 2
left_child=2 5 4 -4 -1 -2 -3
right_child=1 6 3 -5 -6 -7 -8
leaf_value=0.029551701976019824 0.06505621706601232 -0.027969600108563076 0.18444826299832628 0.049317497617171503 -0.053627916852843904 -0.0042877125121944448 -0.060644245460074145
leaf_count=167 32 722 22 504 47 358 161
internal_value=0 -0.462073 0.846716 1.09939 0.225666 0.0280409 -0.678545
internal_count=2013 1273 740 526 214 390 883
shrinkage=0.05


Tree=28
num_leaves=8
num_cat=0
split_feature=66 66 93 33 24 41 20
split_gain=723.441 123.49 111.439 122.506 84.0433 65.8491 52.0855
threshold=2.4276916685233561 2.485086832619237 74927.170920285411 0.20388506346240101 -0.007575478446669069 3.1898432801546091 0.1292186555780124
decision_type=2 2 2 2 2 2 2
left_child=2 6 3 -1 -4 -3 -2
right_child=1 5 4 -5 -6 -7 -8
leaf_value=-0.094629815757274638 -0.020588934983792051 0.014324913736816278 0.13224354953535142 0.023370704238934066 0.047408051606225403 -0.036964774576525923 0.01512607915517019
leaf_count=25 175 68 31 183 501 785 245
internal_value=0 -0.43897 0.80438 0.183759 1.04703 -0.657521 0.00489647
internal_count=2013 1273 740 208 532 853 420
shrinkage=0.05


Tree=29
num_leaves=8
num_cat=0
split_feature=118 110 75 52 41 13 23
split_gain=644.202 148.854 103.671 91.1321 61.8587 59.4897 34.9655
threshold=2.6920774075486049 1.197218999737846 -1.0000000180025095e-35 8.9737904945460141 3.1856919795312892 0.013559784121938968 -0.0083649830837471666
decision_type=2 2 2 2 2 2 2
left_child=1 2 -1 -3 6 -6 -2
right_child=4 3 -4 -5 5 -7 -8
leaf_value=0.12132739911533215 0.053579843341140077 -0.052402444547269403 0.035670314957142665 0.023878000474845371 -0.039871499762799585 -0.0092101072618098936 -0.013352639839053155
leaf_count=66 32 41 76 870 671 207 50
internal_value=0 0.557339 1.50966 0.408899 -0.575278 -0.652853 0.255347
internal_count=2013 1053 142 911 960 878 82
shrinkage=0.05


Tree=30
num_leaves=8
num_cat=0
split_feature=66 115 51 97 49 70 66
split_gain=505.087 126.447 122.497 85.6913 74.7541 75.5926 45.5033
threshold=2.4820975110398344 1.5491933384829635 0.97421092387537855 1.0038450155479326 4.2594900000000004 4.9081676486916459 2.5742607036141498
decision_type=2 2 2 2 2 2 2
left_child=1 3 -3 -1 6 -6 -2
right_child=4 2 -4 -5 5 -7 -8
leaf_value=0.024747067531412047 0.011645759842741264 -0.063368912031486022 0.018677615896524943 0.093579758875953267 -0.03962170236696546 0.021280858709730885 -0.068772383816540245
leaf_count=88 146 48 871 93 692 55 20
internal_value=0 0.438312 0.287845 1.20228 -0.567863 -0.702752 0.0391365
internal_count=2013 1100 919 181 913 747 166
shrinkage=0.05


Tree=31
num_leaves=8
num_cat=0
split_feature=66 115 70 97 49 44 44
split_gain=455.841 114.119 122.588 77.3364 67.4655 69.2286 41.5164
threshold=2.4820975110398344 1.5491933384829635 4.32313377265766 1.0038450155479326 4.2594900000000004 0.015875549766840472 -0.011592917665165852
decision_type=2 2 2 2 2 2 2
left_child=1 3 -3 -1 6 -6 -2
right_child=4 2 -4 -5 5 -7 -8
leaf_value=0.023509713446070571 -0.01153259647634718 0.054533187659712982 0.0055112180152799535 0.088900771124729064 -0.04189416635339599 -0.0061663023315192194 0.048548556219887094
leaf_count=88 129 153 766 93 569 178 37
internal_value=0 0.416396 0.273453 1.14217 -0.53947 -0.667614 0.0371797
internal_count=2013 1100 919 181 913 747 166
shrinkage=0.05


Tree=32
num_leaves=8
num_cat=0
split_feature=66 110 51 125 41 70 36
split_gain=411.397 108.012 132.919 70.5033 64.4072 62.5962 40.1165
threshold=2.4820975110398344 1.197218999737846 0.97421092387537855 4.400125853235342 3.2129840622155994 4.9081676486916459 -0.49669332910851999
decision_type=2 2 2 2 2 2 2
left_child=1 3 -3 -1 6 -6 -2
right_child=4 2 -4 -5 5 -7 -8
leaf_value=0.03776539939916343 0.055972084271557192 -0.062277713131711446 0.018456469808670432 0.1164688123798952 -0.034142661709366216 0.021109768457033419 -0.010228178072055536
leaf_count=93 34 54 912 41 754 55 70
internal_value=0 0.395576 0.278868 1.23693 -0.512496 -0.607726 0.228284
internal_count=2013 1100 966 134 913 809 104
shrinkage=0.05


Tree=33
num_leaves=8
num_cat=0
split_feature=42 89 118 51 91 49 28
split_gain=371.858 108.844 104.525 102.593 82.0448 79.2238 56.5078
threshold=2.5739275636412913 -8.2822055257598493 2.7443740770286098 0.97421092387537855 -5.5581037334222581 4.2637900000000011 -2.6668444562972403e-06
decision_type=2 2 2 2 2 2 2
left_child=1 4 5 -3 -1 -2 -4
right_child=2 3 6 -5 -6 -7 -8
leaf_value=-0.032138763228431344 0.030034250383482855 -0.016321598988724872 -0.014704655666047565 0.051734065000248797 0.032870524180131956 -0.011684112476541487 -0.047485968821837254
leaf_count=104 137 64 234 411 91 672 300
internal_value=0 0.593042 -0.319043 0.851289 -0.0360219 -0.0923864 -0.662422
internal_count=2013 670 1343 475 195 809 534
shrinkage=0.05


Tree=34
num_leaves=7
num_cat=0
split_feature=66 1 92 36 110 80
split_gain=340.968 99.9941 121.442 59.8591 68.6358 59.7253
threshold=2.4820975110398344 0.90968529055914515 4.6965000000000012 -0.48770416877224615 1.316561177207124 3.3599422952604453e-06
decision_type=2 2 2 2 2 2
left_child=1 -1 -3 4 -2 -5
right_child=3 2 -4 5 -6 -7
leaf_value=-0.090046448154108866 0.022437673225635436 0.056751719975836556 0.012435537562528083 -0.037770666506340998 -0.022756856960894647 0.048289873859002477
leaf_count=21 123 187 892 504 265 21
internal_value=0 0.360256 0.402318 -0.466442 -0.168594 -0.686565
internal_count=2013 1100 1079 913 388 525
shrinkage=0.05


Tree=35
num_leaves=8
num_cat=0
split_feature=118 33 77 28 83 95 41
split_gain=458.054 138.708 150.952 94.8977 90.6918 83.7565 41.5057
threshold=2.644637803001133 0.20253228813207805 1.15086855 7.3338222548168418e-06 2.3371181425253664 7.1047364909940007e-06 3.1856919795312892
decision_type=2 2 2 2 2 2 2
left_child=1 2 -1 -3 5 -2 -6
right_child=4 3 -4 -5 6 -7 -8
leaf_value=-0.15522282671183349 -0.0093959277437534183 0.050210364009504044 0.030769475580503542 0.0087298597408724688 0.018412623619435544 0.074645345826302806 -0.03558675651929142
leaf_count=20 679 465 24 196 38 31 560
internal_value=0 0.64377 -1.07545 0.758211 -0.356189 -0.11453 -0.643107
internal_count=2013 705 44 661 1308 710 598
shrinkage=0.05


Tree=36
num_leaves=8
num_cat=0
split_feature=118 33 77 6 66 11 92
split_gain=413.394 125.184 136.234 85.8817 76.6577 69.8213 38.43
threshold=2.644637803001133 0.20253228813207805 1.15086855 3.0813331852799068 2.5201210488804997 0.92490892982823125 5.4890000000000008
decision_type=2 2 2 2 2 2 2
left_child=1 2 -1 -3 5 -2 -6
right_child=4 3 -4 -5 6 -7 -8
leaf_value=-0.14746168424375355 0.023932310258348785 0.058185919540396015 0.029231002926826479 0.021364400231211573 -0.028513149112470937 -0.014150638436158425 -0.097483877057120916
leaf_count=20 150 263 24 398 528 609 21
internal_value=0 0.611581 -1.02168 0.7203 -0.338379 -0.132487 -0.623027
internal_count=2013 705 44 661 1308 759 549
shrinkage=0.05


Tree=37
num_leaves=8
num_cat=0
split_feature=118 33 77 54 83 95 15
split_gain=373.088 112.979 123.366 84.8188 75.4003 76.347 47.7347
threshold=2.644637803001133 0.20253228813207805 1.1589846500000001 3.0000000000000093 2.3328029700025423 7.1047364909940007e-06 -8119.9405664894775
decision_type=2 2 2 2 2 2 2
left_child=1 2 -1 -3 5 -2 -6
right_child=4 3 -4 -5 6 -7 -8
leaf_value=-0.13614815221655938 -0.0077699856654965989 0.057781829116942962 0.031469826497461488 0.020602456094510408 -0.025719462710093507 0.076599602986659326 -0.10235718774298828
leaf_count=21 633 242 23 419 626 28 21
internal_value=0 0.581002 -0.970593 0.684285 -0.32146 -0.0839217 -0.564139
internal_count=2013 705 44 661 1308 661 647
shrinkage=0.05


Tree=38
num_leaves=6
num_cat=0
split_feature=118 33 28 84 49
split_gain=336.712 102.87 91.896 72.8727 69.7457
threshold=2.644637803001133 0.1980321985167928 7.3338222548168418e-06 2.9633134714537062 4.1941000000000015
decision_type=2 2 2 2 2
left_child=1 -1 -3 -2 -5
right_child=3 2 -4 4 -6
leaf_value=-0.061459755897521978 0.071053421280036375 0.043728979698128327 0.0033719156572215299 0.015526289466869873 -0.021072971362255274
leaf_count=31 24 473 201 147 1137
internal_value=0 0.551952 0.633874 -0.305387 -0.337657
internal_count=2013 705 674 1308 1284
shrinkage=0.05


Tree=39
num_leaves=8
num_cat=0
split_feature=118 33 77 46 83 97 109
split_gain=303.883 93.4914 111.857 82.6117 67.9741 70.0607 36.6473
threshold=2.644637803001133 0.20253228813207805 1.15086855 5.7525000000000004 2.3371181425253664 1.0452736272333072 5.2906766666666671
decision_type=2 2 2 2 2 2 2
left_child=1 2 -1 -3 5 -2 -6
right_child=4 3 -4 -5 6 -7 -8
leaf_value=-0.13168514586985111 -0.0072277034175393792 0.034633081157275772 0.028420459851622584 -0.053129775797840145 0.028921128589926022 0.073470750690570893 -0.029669095986857685
leaf_count=20 682 633 24 28 28 28 570
internal_value=0 0.524354 -0.887096 0.618309 -0.290118 -0.0809046 -0.538515
internal_count=2013 705 44 661 1308 710 598
shrinkage=0.05


Tree=40
num_leaves=7
num_cat=0
split_feature=66 26 26 6 81 97
split_gain=253.844 99.4985 173.358 54.797 53.28 30.5135
threshold=2.4807847395967393 0.34952570224551793 0.35821492804018068 9.2334276594285178 8.5833700945460745 1.0444878710730072
decision_type=2 2 2 2 2 2
left_child=1 -1 -3 4 -2 -5
right_child=3 2 -4 5 -6 -7
leaf_value=-0.089640975326654465 -0.092533981874585156 0.13877584623793762 0.016921280704763526 -0.072146571079088798 -0.0097948209766747958 -0.026018069469205596
leaf_count=21 20 30 1078 62 717 85
internal_value=0 0.363542 0.404412 -0.351995 -0.240802 -0.909473
internal_count=2013 1129 1108 884 737 147
shrinkage=0.05


Tree=41
num_leaves=6
num_cat=0
split_feature=115 26 26 99 6
split_gain=229.768 89.7243 156.568 57.1734 46.0097
threshold=1.6465452046968172 0.34952570224551793 0.35821492804018068 4.6450000000000005 9.0620249008106644
decision_type=2 2 2 2 2
left_child=1 -1 -3 4 -2
right_child=3 2 -4 -5 -6
leaf_value=-0.085158923330406353 -0.013516613120855895 0.1318370542426904 0.016039543142912362 0.064685345095183172 -0.044077710031559886
leaf_count=21 710 30 1082 21 149
internal_value=0 0.344599 0.383272 -0.3365 -0.376353
internal_count=2013 1133 1112 880 859
shrinkage=0.05


Tree=42
num_leaves=6
num_cat=0
split_feature=66 1 83 80 12
split_gain=208.486 87.103 85.0063 46.3157 55.2701
threshold=2.4807847395967393 0.90968529055914515 2.2179251383199476 3.3599422952604453e-06 -0.17517147093957611
decision_type=2 2 2 2 2
left_child=1 -1 -3 4 -2
right_child=3 2 -4 -5 -6
leaf_value=-0.077771627220014738 -0.1001713913306594 0.04127985407379503 0.01006411142976147 0.04732057611857142 -0.016064091937050547
leaf_count=24 20 299 806 28 836
internal_value=0 0.32928 0.370214 -0.319186 -0.360584
internal_count=2013 1129 1105 884 856
shrinkage=0.05


Tree=43
num_leaves=6
num_cat=0
split_feature=115 26 26 99 17
split_gain=188.238 81.6778 138.862 51.5057 43.7418
threshold=1.6465452046968172 0.34952570224551793 0.35821492804018068 4.6450000000000005 0.69969000000000003
decision_type=2 2 2 2 2
left_child=1 -1 -3 4 -2
right_child=3 2 -4 -5 -6
leaf_value=-0.082100766524672519 -0.025413050676035068 0.12354539042959611 0.014491928783447659 0.062129862863747845 -0.0017639484084783698
leaf_count=21 558 30 1082 21 301
internal_value=0 0.311783 0.34868 -0.304698 -0.342525
internal_count=2013 1133 1112 880 859
shrinkage=0.05


Tree=44
num_leaves=7
num_cat=0
split_feature=66 1 115 113 6 0
split_gain=171.403 78.747 72.5225 52.0231 41.6301 22.4195
threshold=2.475638882953167 0.90968529055914515 1.5670212364721032 4.9068041666666673 9.0620249008106644 1.0012182888899554e-06
decision_type=2 2 2 2 2 2
left_child=1 -1 -3 4 -2 -5
right_child=3 2 -4 5 -6 -7
leaf_value=-0.074103571505596252 -0.011755706364186993 0.036654466126054198 0.0085939814544768369 -0.0035680447959087116 -0.040777095250985371 0.062884676825876049
leaf_count=24 724 337 727 22 149 30
internal_value=0 0.309226 0.349631 -0.2763 -0.334179 0.695401
internal_count=2013 1088 1064 925 873 52
shrinkage=0.05


Tree=45
num_leaves=7
num_cat=0
split_feature=13 10 94 24 6 45
split_gain=137.851 183.611 102.793 144.399 70.3287 54.165
threshold=0.039381436630914403 33.500000000000007 3.4550000000000005 0.0035871380191479347 9.0620249008106644 0.0095092942506192681
decision_type=2 2 2 2 2 2
left_child=1 -1 3 -2 -3 -4
right_child=2 4 5 -5 -6 -7
leaf_value=-0.161791854724288 0.027791771279615268 -0.0043024390240132748 0.012791658719742969 0.17859691015698695 -0.037076445383960772 -0.052146731930620527
leaf_count=20 57 1110 578 22 192 34
internal_value=0 -0.228899 0.322253 1.39576 -0.182709 0.183679
internal_count=2013 1322 691 79 1302 612
shrinkage=0.05


Tree=46
num_leaves=7
num_cat=0
split_feature=13 30 28 82 37 46
split_gain=127.069 99.6044 124.49 103.083 81.8155 45.1344
threshold=0.009291441212945865 4.8455000000000004 7.3338222548168418e-06 4.2419100000000016 1352.6677394244909 5.8975000000000009
decision_type=2 2 2 2 2 2
left_child=4 2 -2 -3 -1 -6
right_child=1 3 -4 -5 5 -7
leaf_value=-0.10261706541533824 0.080715033416212958 -0.10855058535933496 -0.049930376980615698 0.0060279835131840957 -0.0088374673862273937 -0.041053958411256856
leaf_count=27 88 20 23 1061 664 130
internal_value=0 0.170792 1.07289 0.0781624 -0.340457 -0.282244
internal_count=2013 1192 111 1081 821 794
shrinkage=0.05


Tree=47
num_leaves=6
num_cat=0
split_feature=44 51 21 28 46
split_gain=118.599 101.481 71.6032 66.252 54.3757
threshold=0.030858328646888585 0.97868621787015775 4196.9912087546791 6.667111140743076e-06 5.8975000000000009
decision_type=2 2 2 2 2
left_child=1 -1 -2 -4 -3
right_child=2 4 3 -5 -6
leaf_value=-0.11596710494031078 0.096018719136714947 -0.0055540804849829196 0.01926649650286108 -0.012314871323054147 -0.036867897688000466
leaf_count=23 25 998 572 234 161
internal_value=0 -0.239356 0.253652 0.201954 -0.198079
internal_count=2013 1182 831 806 1159
shrinkage=0.05


Tree=48
num_leaves=7
num_cat=0
split_feature=13 10 50 94 24 115
split_gain=108.137 160.54 90.7159 89.8008 129.661 51.9031
threshold=0.039381436630914403 33.500000000000007 0.054564434179858214 3.4550000000000005 0.0035871380191479347 1.5491933384829635
decision_type=2 2 2 2 2 2
left_child=1 -1 -3 4 -2 -5
right_child=3 2 -4 5 -6 -7
leaf_value=-0.15066468963399529 0.024700211009762267 -0.012145449094937907 0.033311435183094554 0.034964023117846167 0.16760255017063835 3.1072246547984451e-05
leaf_count=20 57 1181 121 137 22 475
internal_value=0 -0.201609 -0.158419 0.286541 1.28992 0.157021
internal_count=2013 1322 1302 691 79 612
shrinkage=0.05


Tree=49
num_leaves=7
num_cat=0
split_feature=13 30 17 78 37 48
split_gain=99.0158 87.9126 119.034 100.124 69.9534 40.7647
threshold=0.009291441212945865 4.8455000000000004 0.69969000000000003 5.2650000000000006 1352.6677394244909 8.4550000000000018
decision_type=2 2 2 2 2 2
left_child=4 2 -2 -3 -1 -6
right_child=1 3 -4 -5 5 -7
leaf_value=-0.094125283316329689 0.0080011497383742636 -0.076486722178953262 0.11385438384657556 0.0061394272776510777 0.034486686870117078 -0.015031595440457266
leaf_count=27 67 38 44 1043 44 750
internal_value=0 0.151721 0.99922 0.064698 -0.299578 -0.24575
internal_count=2013 1192 111 1081 821 794
shrinkage=0.05


Tree=50
num_leaves=8
num_cat=0
split_feature=66 26 12 18 97 115 49
split_gain=144.084 115.111 163.81 128.503 93.4819 66.3693 34.4092
threshold=2.4276916685233561 0.3993254232191103 -0.16009500398584312 -19.499999999999996 1.0180850780482118 1.6499158227700279 4.4654300000000005
decision_type=2 2 2 2 2 2 2
left_child=1 2 -1 -3 6 -6 -2
right_child=4 3 -4 -5 5 -7 -8
leaf_value=-0.10115319050316302 -0.0066834188997745517 0.010216679068765154 0.012084251618242427 0.07253850716945974 0.010030329325914482 -0.01387145313507656 -0.080122448015829628
leaf_count=35 22 162 365 169 491 711 58
internal_value=0 0.404501 0.0435195 0.840732 -0.151823 -0.0821583 -1.19853
internal_count=2013 731 400 331 1282 1202 80
shrinkage=0.05


Tree=51
num_leaves=8
num_cat=0
split_feature=66 68 12 97 115 5 49
split_gain=130.171 109.69 123.067 86.5362 62.0023 60.5395 36.6982
threshold=2.4267032964260742 75060.123223006391 -0.13715343171421857 1.0180850780482118 1.6499158227700279 0.84214400798789579 4.4782300000000008
decision_type=2 2 2 2 2 2 2
left_child=1 2 -1 6 -5 -3 -2
right_child=3 5 -4 4 -6 -7 -8
leaf_value=-0.031149144327794094 -0.0039578848828872052 0.12621291927061976 0.023259338624886505 0.0098826470601971941 -0.013177880746174576 0.040544349802979107 -0.077114030669132874
leaf_count=131 24 32 503 494 711 58 60
internal_value=0 0.386997 0.240344 -0.14289 -0.0744804 1.42009 -1.12425
internal_count=2013 724 634 1289 1205 90 84
shrinkage=0.05


Tree=52
num_leaves=7
num_cat=0
split_feature=42 51 12 77 15 41
split_gain=121.648 114.981 214.063 94.3984 69.8739 59.8322
threshold=2.5739275636412913 0.98825463078013132 -0.15440056799254229 1.4026084000000003 -5710.2271700133424 3.232820689475675
decision_type=2 2 2 2 2 2
left_child=1 2 -1 -3 5 -2
right_child=4 3 -4 -5 -6 -7
leaf_value=-0.14656420008589824 0.018859645690063025 0.028335489147284534 0.0091189429028958515 0.10220976294577122 -0.09917494236491621 -0.0097498893787353845
leaf_count=24 219 320 276 50 20 1104
internal_value=0 0.393347 -0.0667142 0.76637 -0.128326 -0.100281
internal_count=2013 670 300 370 1343 1323
shrinkage=0.05


Tree=53
num_leaves=7
num_cat=0
split_feature=66 1 70 36 12 49
split_gain=112.37 92.0094 82.5623 59.7909 46.135 44.5321
threshold=2.485086832619237 0.90968529055914515 4.3612123499495796 -0.48634248127582319 -0.15318197482629756 4.2313500000000008
decision_type=2 2 2 2 2 2
left_child=1 -1 -3 5 -5 -2
right_child=3 2 -4 4 -6 -7
leaf_value=-0.093853896670043471 0.043400266844289916 0.038323094351525311 0.0066828471291733764 -0.093722155774858873 -0.019630421218472263 -0.0038625987022143219
leaf_count=20 59 272 852 22 467 321
internal_value=0 0.248961 0.286791 -0.228045 -0.459276 0.0695117
internal_count=2013 1144 1124 869 489 380
shrinkage=0.05


Tree=54
num_leaves=5
num_cat=0
split_feature=12 42 51 6
split_gain=105.697 118.435 108.044 60.4667
threshold=-0.18686975130803793 2.5739275636412913 0.98825463078013132 9.0620249008106644
decision_type=2 2 2 2
left_child=-1 2 -2 -3
right_child=1 3 -4 -5
leaf_value=-0.086702859254243481 -0.0011737536601149963 -0.00077406064072442287 0.039775191354089079 -0.031792617299476293
leaf_count=33 297 1149 352 182
internal_value=0 0.0704708 0.420717 -0.10031
internal_count=2013 1980 649 1331
shrinkage=0.05


Tree=55
num_leaves=8
num_cat=0
split_feature=17 12 27 85 28 66 45
split_gain=126.054 118.371 120.39 78.9812 61.4412 88.4761 49.1824
threshold=0.71814333333333347 -0.17250121464643245 26.314085223459493 2.7885906040268447e-06 -2.0001333422226351e-06 2.375325602134247 -0.0050427518970094587
decision_type=2 2 2 2 2 2 2
left_child=1 2 -1 -3 5 -2 -6
right_child=4 3 -4 -5 6 -7 -8
leaf_value=-0.17007714560763404 0.13024526798519595 -0.009729269054799301 -0.021614724322636097 0.021648318279220161 -0.053877788561361807 0.03082546631292421 0.018948425815679223
leaf_count=22 29 1403 36 234 27 98 164
internal_value=0 -0.154623 -1.55856 -0.10488 0.5315 1.07055 0.173072
internal_count=2013 1695 58 1637 318 127 191
shrinkage=0.05


Tree=56
num_leaves=7
num_cat=0
split_feature=12 19 17 78 76 60
split_gain=115.36 167.999 111.038 90.1973 79.5585 77.6775
threshold=-0.17250121464643245 49.640191274506485 0.7176300000000001 5.3750000000000009 2.9340000000000006 -1.441183633737227
decision_type=2 2 2 2 2 2
left_child=1 -1 4 -4 -2 -3
right_child=2 5 3 -5 -6 -7
leaf_value=-0.1832588658801147 -0.049256755863704413 -0.089946236993585324 0.081465002227454425 0.014066306097586322 -0.0023357680801451646 0.034599496699792648
leaf_count=21 96 21 62 249 1533 31
internal_value=0 -1.27801 0.00251504 0.550054 -0.102018 -0.313956
internal_count=2013 73 1940 311 1629 52
shrinkage=0.05


Tree=57
num_leaves=7
num_cat=0
split_feature=12 27 17 78 76 109
split_gain=104.112 156.239 100.212 81.4031 71.886 42.3059
threshold=-0.17250121464643245 27.784311633996882 0.7176300000000001 5.3750000000000009 2.9065000000000003 5.1567666666666678
decision_type=2 2 2 2 2 2
left_child=1 -1 4 -4 -2 -3
right_child=2 5 3 -5 -6 -7
leaf_value=-0.14350349022861339 -0.04853737567331684 0.055961998365819457 0.077391751774496614 0.013362990893857427 -0.0023208347047443275 -0.04564833005978948
leaf_count=32 89 20 62 249 1540 21
internal_value=0 -1.21411 0.00238929 0.522551 -0.0969173 0.0783537
internal_count=2013 73 1940 311 1629 41
shrinkage=0.05


Tree=58
num_leaves=8
num_cat=0
split_feature=29 10 17 11 12 27 13
split_gain=97.0887 105.168 104.714 83.9385 70.7928 91.1214 79.0023
threshold=1.9031473131062955 37.500000000000007 0.67510666666666685 0.92890216868099207 -0.17250121464643245 29.080405769593611 0.023278289403637412
decision_type=2 2 2 2 2 2 2
left_child=1 2 -1 -3 5 -2 -6
right_child=4 3 -4 -5 6 -7 -8
leaf_value=-0.13055083393542605 -0.14323806867680766 0.06223602193293342 -0.00078709186669790514 0.012888055254913678 -0.016136020033283988 -0.0037144679725170135 0.0079737956283081855
leaf_count=22 22 114 53 353 864 25 560
internal_value=0 0.322161 -0.777022 0.498689 -0.172948 -1.38047 -0.133093
internal_count=2013 542 75 467 1471 47 1424
shrinkage=0.05


Tree=59
num_leaves=7
num_cat=0
split_feature=17 12 26 22 83 28
split_gain=91.441 84.3284 105.704 74.377 55.3644 55.888
threshold=0.71814333333333347 -0.16724774669714837 0.42369498321907867 0.04603036593369849 2.3797758937572753 -2.0001333422226351e-06
decision_type=2 2 2 2 2 2
left_child=1 2 -1 -3 5 -2
right_child=4 3 -4 -5 -6 -7
leaf_value=-0.11811201921286617 0.055304857856057335 -0.011246947895958495 0.0070545572427011304 0.012042171125871163 -0.050299467534447709 0.010830921074904671
leaf_count=37 118 1136 31 491 24 176
internal_value=0 -0.129974 -1.22102 -0.084374 0.454404 0.57362
internal_count=2013 1695 68 1627 318 294
shrinkage=0.05


Tree=60
num_leaves=6
num_cat=0
split_feature=46 26 26 12 3
split_gain=86.1464 79.8831 95.3286 49.4743 40.121
threshold=5.6995000000000013 0.34952570224551793 0.35821492804018068 -0.14317876660070369 0.99288743081442898
decision_type=2 2 2 2 2
left_child=1 -1 -3 -2 -5
right_child=3 2 -4 4 -6
leaf_value=-0.08933959955518897 -0.098323616683483134 0.094884302442272514 0.0049283430102947954 -0.021756849161250418 0.051302299201488502
leaf_count=22 20 30 1610 311 20
internal_value=0 0.106085 0.131478 -0.439134 -0.346848
internal_count=2013 1662 1640 351 331
shrinkage=0.05


Tree=61
num_leaves=7
num_cat=0
split_feature=118 43 12 28 6 48
split_gain=79.8325 89.5568 98.819 67.2803 77.4198 49.0055
threshold=2.6244224293037983 27.450000000000003 -0.16724774669714837 -6.0004000266683514e-06 10.480213360713176 8.3950000000000014
decision_type=2 2 2 2 2 2
left_child=1 -1 -3 4 -2 -5
right_child=3 2 -4 5 -6 -7
leaf_value=-0.058003617315798221 0.015261206380501883 -0.062437850146582631 0.026851583427775241 0.022007743658861895 -0.052811662949945617 -0.017398468974550007
leaf_count=38 454 33 508 87 46 847
internal_value=0 0.323869 0.428102 -0.116075 0.17997 -0.274557
internal_count=2013 579 541 1434 500 934
shrinkage=0.05


Tree=62
num_leaves=6
num_cat=0
split_feature=46 26 26 12 76
split_gain=74.8188 70.6395 85.0203 45.1202 37.7314
threshold=5.6995000000000013 0.34952570224551793 0.35821492804018068 -0.13749223341380043 3.8615000000000008
decision_type=2 2 2 2 2
left_child=1 -1 -3 -2 -5
right_child=3 2 -4 4 -6
leaf_value=-0.084072729267857305 -0.088176334357779967 0.089520100181301437 0.0045669038848452446 -0.028275661256332071 0.0071943555368463794
leaf_count=22 23 30 1610 212 116
internal_value=0 0.0985405 0.122419 -0.40957 -0.314628
internal_count=2013 1662 1640 351 328
shrinkage=0.05


Tree=63
num_leaves=5
num_cat=0
split_feature=80 22 21 92
split_gain=70.9093 68.7138 131.819 85.9609
threshold=4.1594896792959712e-06 0.04442175810502081 5262.2743425994668 4.775500000000001
decision_type=2 2 2 2
left_child=1 2 -1 -3
right_child=-2 3 -4 -5
leaf_value=-0.12307464348462721 0.08974609468132258 0.062848947436769345 -0.0048359274331367733 0.0062331856902760763
leaf_count=24 22 76 1322 569
internal_value=0 -0.0102831 -0.138884 0.258084
internal_count=2013 1991 1346 645
shrinkage=0.05


Tree=64
num_leaves=7
num_cat=0
split_feature=76 70 28 22 125 115
split_gain=68.7525 81.3688 82.0484 64.9205 54.5838 36.6064
threshold=2.9065000000000003 4.3612123499495796 -5.667044469631283e-06 0.04442175810502081 9.0895229249907796 1.7638342073761375
decision_type=2 2 2 2 2 2
left_child=4 2 -2 -3 -1 -6
right_child=1 3 -4 -5 5 -7
leaf_value=-0.1043612126260996 0.047495863606395614 -0.012469269095918396 0.0048028098296488617 0.0092420723107953604 8.8988857057232119e-05 -0.072168227285146713
leaf_count=24 177 821 309 593 65 24
internal_value=0 0.0540433 0.40703 -0.0672804 -0.748836 -0.387922
internal_count=2013 1900 486 1414 113 89
shrinkage=0.05


Tree=65
num_leaves=5
num_cat=0
split_feature=94 42 51 12
split_gain=70.4173 57.8465 106.393 60.4489
threshold=4.0850000000000009 2.5169116652270564 0.97485842144826995 -0.091428250651497747
decision_type=2 2 2 2
left_child=1 3 -3 -1
right_child=-2 2 -4 -5
leaf_value=0.055916565888997252 -0.092131763286306526 -0.066800894318469639 0.002001309245586677 -0.016234876729071229
leaf_count=94 20 58 1799 42
internal_value=0 0.043153 -0.00295204 0.67269
internal_count=2013 1993 1857 136
shrinkage=0.05


Tree=66
num_leaves=5
num_cat=0
split_feature=94 50 54 26
split_gain=63.5516 59.7295 97.8451 79.6438
threshold=4.0850000000000009 0.047129688583924335 3.0000000000000013 0.37646244956591346
decision_type=2 2 2 2
left_child=1 3 -3 -1
right_child=-2 2 -4 -5
leaf_value=0.068237609537066632 -0.087525174953043461 0.046117353429202264 0.0027445269869260341 -0.006165396004642127
leaf_count=37 20 177 490 1289
internal_value=0 0.0409953 0.285085 -0.0817859
internal_count=2013 1993 667 1326
shrinkage=0.05


Tree=67
num_leaves=8
num_cat=0
split_feature=33 14 44 50 14 12 25
split_gain=60.1527 90.2833 98.3402 95.609 83.8289 75.0325 53.8191
threshold=0.23597246950409595 1.8750000000000002 0.1064665993140587 0.064451049475602096 -3.0949999999999993 -0.12483453138981969 0.25584966758894384
decision_type=2 2 2 2 2 2 2
left_child=1 2 -1 -3 6 -6 -2
right_child=4 3 -4 -5 5 -7 -8
leaf_value=-0.010309155029186804 0.019701811220355532 0.1389408514276147 -0.11991276891813392 0.0079932737710845213 -0.0061042110319249332 0.029257804324866778 -0.02120559233747292
leaf_count=804 112 20 21 46 212 513 285
internal_value=0 -0.171947 -0.261981 0.953487 0.176081 0.378349 -0.193299
internal_count=2013 891 825 66 1122 725 397
shrinkage=0.05


Tree=68
num_leaves=5
num_cat=0
split_feature=94 50 54 26
split_gain=55.9284 53.4079 88.6907 68.7296
threshold=4.0850000000000009 0.047129688583924335 3.0000000000000013 0.37646244956591346
decision_type=2 2 2 2
left_child=1 3 -3 -1
right_child=-2 2 -4 -5
leaf_value=0.063265144905528509 -0.082149371970444918 0.043758141766118135 0.0024641039061160494 -0.0058521130274198415
leaf_count=37 20 177 490 1289
internal_value=0 0.0376321 0.268444 -0.07847
internal_count=2013 1993 667 1326
shrinkage=0.05


Tree=69
num_leaves=5
num_cat=0
split_feature=12 33 50 9
split_gain=55.8856 59.8681 79.7889 71.1739
threshold=-0.18686975130803793 0.23597246950409595 0.047129688583924335 0.95575486219680006
decision_type=2 2 2 2
left_child=-1 3 -3 -2
right_child=1 2 -4 -5
leaf_value=-0.062565256326514135 -0.018860426035965709 0.00080010701945310448 0.029857996971218822 0.010455802449949586
leaf_count=34 542 759 343 335
internal_value=0 0.0417273 0.196889 -0.153242
internal_count=2013 1979 1102 877
shrinkage=0.05


Tree=70
num_leaves=7
num_cat=0
split_feature=73 8 12 36 115 97
split_gain=77.4732 86.6823 118.73 70.1179 53.9808 46.5149
threshold=7.2500000000000009 157.34122055565425 -0.16009500398584312 -0.52175146318987176 1.6865480854282755 1.0134788181221273
decision_type=2 2 2 2 2 2
left_child=1 2 -1 4 -2 -5
right_child=3 -3 -4 5 -6 -7
leaf_value=-0.061686172615736723 0.054849659971510756 0.088446857172407606 0.017174734604078475 -0.053743229490496092 -0.0014159159784383596 -0.0078136229396084996
leaf_count=52 78 38 581 58 94 1112
internal_value=0 0.301992 0.213929 -0.114168 0.481997 -0.20181
internal_count=2013 671 633 1342 172 1170
shrinkage=0.05


Tree=71
num_leaves=7
num_cat=0
split_feature=41 51 22 7 33 29
split_gain=72.9037 99.3036 111.003 65.0838 64.825 63.1352
threshold=3.232820689475675 0.97203200552235203 -0.00072348397076479659 0.026630816031006175 0.2445365803439857 1.8623733089210057
decision_type=2 2 2 2 2 2
left_child=1 -1 -3 5 -5 -2
right_child=3 2 -4 4 -6 -7
leaf_value=-0.078703503186504042 0.037428204956397947 0.00012485914531365112 0.053776585234996468 -0.0058096189981177611 0.022893940981710503 -0.017628643256229301
leaf_count=24 56 199 187 463 342 742
internal_value=0 0.399619 0.522335 -0.0729208 0.127699 -0.2753
internal_count=2013 410 386 1603 805 798
shrinkage=0.05


Tree=72
num_leaves=7
num_cat=0
split_feature=41 51 22 7 95 29
split_gain=65.7956 89.6215 100.18 58.7381 62.2559 57.0977
threshold=3.232820689475675 0.97203200552235203 -0.00072348397076479659 0.026630816031006175 -3.7358238825883943e-06 1.8646498833119691
decision_type=2 2 2 2 2 2
left_child=1 -1 -3 5 -5 -2
right_child=3 2 -4 4 -6 -7
leaf_value=-0.074768327859540781 0.034257328964896125 0.00011861607310685082 0.051087755398242111 0.037895987536929653 -8.434588475340217e-06 -0.016855794946374486
leaf_count=24 59 199 187 129 676 739
internal_value=0 0.379638 0.496218 -0.0692747 0.121314 -0.261535
internal_count=2013 410 386 1603 805 798
shrinkage=0.05


Tree=73
num_leaves=8
num_cat=0
split_feature=41 1 23 15 17 80 26
split_gain=59.3806 82.592 128.137 81.9104 55.0883 90.6791 59.2424
threshold=3.232820689475675 0.93443293902741387 0.0011670861477273877 -6935.64810767168 0.70626333333333335 3.3599422952604453e-06 0.37720326156674322
decision_type=2 2 2 2 2 2 2
left_child=1 2 -1 -3 5 -2 -6
right_child=4 3 -4 -5 6 -7 -8
leaf_value=0.030362889933031663 -0.012054748996319128 0.01553340978207416 -0.097497521731485098 0.074949332802246013 -0.069841899485750633 0.073366349050775173 0.014059054500063981
leaf_count=43 1067 256 36 75 22 32 482
internal_value=0 0.360656 -0.558052 0.579925 -0.065811 -0.19135 0.207934
internal_count=2013 410 79 331 1603 1099 504
shrinkage=0.05


Tree=74
num_leaves=8
num_cat=0
split_feature=73 26 68 11 36 15 97
split_gain=56.1646 80.3058 100.904 67.0894 64.9049 52.3364 42.3591
threshold=7.2500000000000009 0.3993254232191103 74850.960248205331 0.94359931880421366 -0.52175146318987176 -22471.830743067749 1.0134788181221273
decision_type=2 2 2 2 2 2 2
left_child=1 2 -1 -3 5 -2 -6
right_child=4 3 -4 -5 6 -7 -8
leaf_value=-0.069422817169403545 -0.037472758133863582 0.040801801539260808 0.0075163091091433433 -0.034846716492690825 -0.050778822119122949 0.036193564775403121 -0.0069489957184578751
leaf_count=49 29 262 327 33 58 143 1112
internal_value=0 0.256222 -0.0502066 0.646788 -0.0981145 0.475462 -0.182435
internal_count=2013 671 376 295 1342 172 1170
shrinkage=0.05


Tree=75
num_leaves=7
num_cat=0
split_feature=28 37 66 42 12 25
split_gain=47.1008 84.1605 85.5279 61.3553 101.031 66.7226
threshold=-9.3339555970396781e-06 984.61664205466468 2.3716337121584758 2.5111192153454867 -0.18686975130803793 0.30740848878249177
decision_type=2 2 2 2 2 2
left_child=1 -1 -3 5 -5 -2
right_child=3 2 -4 4 -6 -7
leaf_value=-0.070802818597959616 -0.029089291686458248 0.075426416445908875 0.011041740770551652 -0.11772886791732162 -0.004519284411356502 0.063023413177297427
leaf_count=28 28 58 466 20 1347 66
internal_value=0 0.273105 0.363366 -0.0697742 -0.123512 0.711712
internal_count=2013 552 524 1461 1367 94
shrinkage=0.05


Tree=76
num_leaves=7
num_cat=0
split_feature=17 1 28 83 75 109
split_gain=42.6776 68.7036 67.9002 77.3495 62.3203 61.1463
threshold=0.70334000000000008 0.90968529055914515 -1.3334222281488641e-06 2.2400171355758203 -3.9522640963347767e-06 4.5622100000000012
decision_type=2 2 2 2 2 2
left_child=1 -1 3 -2 -4 -3
right_child=2 5 4 -5 -6 -7
leaf_value=-0.087911015252272295 0.070275114912812298 0.059955122792407091 -0.032001692507295836 0.013617507187087534 0.011268041719748776 -0.0044158948583228391
leaf_count=24 82 38 124 227 253 1265
internal_value=0 -0.081653 0.225549 0.573057 -0.0592783 -0.0507723
internal_count=2013 1327 686 309 377 1303
shrinkage=0.05


Tree=77
num_leaves=4
num_cat=0
split_feature=26 42 12
split_gain=43.0939 56.6964 48.4755
threshold=0.34952570224551793 2.4942431212038301 -0.18686975130803793
decision_type=2 2 2
left_child=-1 -2 -3
right_child=1 2 -4
leaf_value=-0.071934657543897634 0.075178716202768003 -0.061172337888649876 0.0018507836829793492
leaf_count=20 26 31 1936
internal_value=0 0.0365421 0.0171507
internal_count=2013 1993 1967
shrinkage=0.05


Tree=78
num_leaves=7
num_cat=0
split_feature=28 37 66 29 44 9
split_gain=40.6093 77.825 74.0905 55.6331 75.8889 70.4064
threshold=-9.3339555970396781e-06 984.61664205466468 2.3716337121584758 1.9031473131062955 0.10477125648839868 0.94250710068671018
decision_type=2 2 2 2 2 2
left_child=1 -1 -3 5 -5 -2
right_child=3 2 -4 4 -6 -7
leaf_value=-0.068623811651819522 -0.074815140376714148 0.070225262860285825 0.010300001019937718 -0.0075739592977426889 -0.10591351918876171 0.017113622525402303
leaf_count=28 22 58 466 1028 20 391
internal_value=0 0.251862 0.338659 -0.0665134 -0.189013 0.244334
internal_count=2013 552 524 1461 1048 413
shrinkage=0.05


Tree=79
num_leaves=4
num_cat=0
split_feature=26 42 12
split_gain=38.271 51.2216 44.4769
threshold=0.34952570224551793 2.4942431212038301 -0.18686975130803793
decision_type=2 2 2
left_child=-1 -2 -3
right_child=1 2 -4
leaf_value=-0.067833551615476606 0.071398362121544781 -0.058659831356377368 0.0017080219507252044
leaf_count=20 26 31 1936
internal_value=0 0.0335638 0.0151324
internal_count=2013 1993 1967
shrinkage=0.05


Tree=80
num_leaves=8
num_cat=0
split_feature=17 10 47 108 62 19 9
split_gain=70.3149 55.9102 93.1258 72.991 50.3118 74.8249 54.5809
threshold=0.71894000000000002 35.500000000000007 4.5522030206603041 4.4813996283079192 1.6666777778518527e-05 47.52416042575765 0.94295847911039365
decision_type=2 2 2 2 2 2 2
left_child=1 2 -1 -3 6 -6 -2
right_child=4 3 -4 -5 5 -7 -8
leaf_value=-0.084289769449254925 -0.063229447782039636 0.014296879227303209 0.0087126535381756576 -0.0097341944909334951 0.13561087787151335 0.028000233049637509 0.015613201937586483
leaf_count=57 25 434 51 1162 20 84 180
internal_value=0 -0.111109 -0.807439 -0.0639886 0.407371 0.973892 0.119965
internal_count=2013 1704 108 1596 309 104 205
shrinkage=0.05


Tree=81
num_leaves=8
num_cat=0
split_feature=17 86 12 109 21 62 99
split_gain=63.4592 54.1403 58.0915 51.9216 48.35 46.8919 46.4434
threshold=0.71894000000000002 -0.35602277033610991 -0.17517147093957611 4.9406733333333337 13949.262024277927 1.6666777778518527e-05 3.9625000000000004
decision_type=2 2 2 2 2 2 2
left_child=1 4 -3 6 -1 -5 -2
right_child=3 2 -4 5 -6 -7 -8
leaf_value=-0.079676505785689439 0.017140501844031469 -0.062395654171705256 -0.0013681472425119681 -0.0039026345482191327 -0.012602143281179926 0.040466627412372169 0.12109546283767983
leaf_count=44 21 40 1551 176 69 90 22
internal_value=0 -0.105553 -0.0580493 0.387002 -0.774392 0.22219 1.40654
internal_count=2013 1704 1591 309 113 266 43
shrinkage=0.05


Tree=82
num_leaves=8
num_cat=0
split_feature=17 86 12 109 106 60 26
split_gain=57.2719 48.8616 52.4276 46.8592 46.6278 46.0804 43.315
threshold=0.71894000000000002 -0.35602277033610991 -0.17517147093957611 4.9406733333333337 -46.000499999999995 4.3067759482609036 0.3931407351727389
decision_type=2 2 2 2 2 2 2
left_child=1 4 -3 6 -1 -5 -2
right_child=3 2 -4 5 -6 -7 -8
leaf_value=-0.013466763330271116 0.12062549678608776 -0.059275871599093082 -0.0012997398931488965 -0.0043276486590250653 -0.081025843952710813 0.039656025885035182 0.020014707679333894
leaf_count=74 20 40 1551 176 39 90 23
internal_value=0 -0.100276 -0.0551468 0.367652 -0.735672 0.211081 1.33621
internal_count=2013 1704 1591 309 113 266 43
shrinkage=0.05


Tree=83
num_leaves=7
num_cat=0
split_feature=17 86 85 88 56 21
split_gain=53.3463 69.0111 62.44 62.3158 62.6518 34.4311
threshold=0.70174666666666674 -0.33407470387256849 -3.0973154362416107e-06 5.6788918292855683 5.4913208939297897 13586.064141740633
decision_type=2 2 2 2 2 2
left_child=1 5 -3 -2 -5 -1
right_child=3 2 -4 4 -6 -7
leaf_value=-0.084770817261857867 0.096294299140572553 0.027677037315270693 -0.0084770432827040425 -0.070950080752372746 0.0095959928203559353 -0.023352803750471635
leaf_count=39 20 135 1035 25 704 55
internal_value=0 -0.152339 -0.0861084 0.184452 0.136676 -0.976695
internal_count=2013 1264 1170 749 729 94
shrinkage=0.05


end of trees

feature importances:
q05_roll_std_100=51
q05_roll_std_10=35
q05_roll_std_1000=33
autocorr_5=27
std_roll_mean_100=20
q01_roll_std_1000=16
q01_roll_std_100=16
stdAudioIncrease=13
av_change_abs_roll_mean_10=13
std_roll_mean_1000=12
hmean=12
classic_sta_lta6_mean=12
mean_change_rate=11
mean_change_rate_first_50000=9
avg_first_50000=9
classic_sta_lta5_mean=9
min_roll_std_100=8
autocorr_10=8
classic_sta_lta1_mean=7
std_last_10000=7
Rstd__last_5000=7
ave_roll_mean_100=7
q01_roll_mean_100=7
abs_mean=7
abs_max_roll_mean_1000=6
exp_Moving_average_3000_mean=6
max_last_50000=5
classic_sta_lta8_mean=5
Rmin_last_5000=5
mean_change_rate_last_50000=5
mean_change_rate_last_10000=5
max_to_min=5
q05_roll_mean_1000=5
q01_roll_std_10=5
Rmax_last_5000=4
max_roll_std_1000=4
q01_roll_mean_1000=4
min_roll_mean_1000=4
trend=4
q95_roll_mean_1000=4
kurt=3
classic_sta_lta3_mean=3
autocorr_10000=3
q99_roll_mean_1000=3
q99_roll_std_1000=3
Rmean=3
Rmean_last_15000=3
q99_roll_mean_100=3
skew=3
av_change_abs_roll_mean_100=3
gmean=3
classic_sta_lta7_mean=2
mean_change_rate_first_10000=2
min_roll_mean_100=2
max_roll_std_100=2
autocorr_50=2
autocorr_500=2
classic_sta_lta2_mean=2
av_change_rate_roll_mean_10=2
autocorr_5000=2
max_roll_mean_100=2
q95_roll_std_1000=2
mean_change_abs=2
MA_700MA_BB_high_mean=2
av_change_rate_roll_mean_100=2
q95_roll_mean_10=2
av_change_abs_roll_std_10=2
avg_last_50000=2
av_change_abs_roll_mean_1000=2
Hilbert_mean=2
MA_700MA_BB_low_mean=2
q001=2
std_last_50000=2
ave10=2
q95_roll_std_10=2
av_change_abs_roll_std_100=1
av_change_abs_roll_std_1000=1
classic_sta_lta4_mean=1
min_last_10000=1
abs_max_roll_mean_10=1
Hann_window_mean_50=1
min_roll_mean_10=1
q95_roll_std_100=1
std_first_10000=1
q99=1
Rmean_last_5000=1
av_change_rate_roll_std_10=1
q99_roll_mean_10=1

parameters:
[boosting: gbdt]
[objective: regression]
[metric: l1,l2]
[tree_learner: serial]
[device_type: cpu]
[data: ]
[valid: ]
[num_iterations: 100]
[learning_rate: 0.05]
[num_leaves: 31]
[num_threads: 0]
[max_depth: 3]
[min_data_in_leaf: 20]
[min_sum_hessian_in_leaf: 0.001]
[bagging_fraction: 0.8]
[bagging_freq: 5]
[bagging_seed: 3]
[feature_fraction: 0.9]
[feature_fraction_seed: 2]
[early_stopping_round: 0]
[max_delta_step: 0]
[lambda_l1: 0]
[lambda_l2: 0]
[min_gain_to_split: 0]
[drop_rate: 0.1]
[max_drop: 50]
[skip_drop: 0.5]
[xgboost_dart_mode: 0]
[uniform_drop: 0]
[drop_seed: 4]
[top_rate: 0.2]
[other_rate: 0.1]
[min_data_per_group: 100]
[max_cat_threshold: 32]
[cat_l2: 10]
[cat_smooth: 10]
[max_cat_to_onehot: 4]
[top_k: 20]
[monotone_constraints: ]
[feature_contri: ]
[forcedsplits_filename: ]
[refit_decay_rate: 0.9]
[verbosity: 0]
[max_bin: 255]
[min_data_in_bin: 3]
[bin_construct_sample_cnt: 200000]
[histogram_pool_size: -1]
[data_random_seed: 1]
[output_model: LightGBM_model.txt]
[snapshot_freq: -1]
[input_model: ]
[output_result: LightGBM_predict_result.txt]
[initscore_filename: ]
[valid_data_initscores: ]
[pre_partition: 0]
[enable_bundle: 1]
[max_conflict_rate: 0]
[is_enable_sparse: 1]
[sparse_threshold: 0.8]
[use_missing: 1]
[zero_as_missing: 0]
[two_round: 0]
[save_binary: 0]
[enable_load_from_binary_file: 1]
[header: 0]
[label_column: ]
[weight_column: ]
[group_column: ]
[ignore_column: ]
[categorical_feature: ]
[predict_raw_score: 0]
[predict_leaf_index: 0]
[predict_contrib: 0]
[num_iteration_predict: -1]
[pred_early_stop: 0]
[pred_early_stop_freq: 10]
[pred_early_stop_margin: 10]
[convert_model_language: ]
[convert_model: gbdt_prediction.cpp]
[num_class: 1]
[is_unbalance: 0]
[scale_pos_weight: 1]
[sigmoid: 1]
[boost_from_average: 1]
[reg_sqrt: 0]
[alpha: 0.9]
[fair_c: 1]
[poisson_max_delta_step: 0.7]
[tweedie_variance_power: 1.5]
[max_position: 20]
[label_gain: ]
[metric_freq: 1]
[is_provide_training_metric: 0]
[eval_at: ]
[num_machines: 1]
[local_listen_port: 12400]
[time_out: 120]
[machine_list_filename: ]
[machines: ]
[gpu_platform_id: -1]
[gpu_device_id: -1]
[gpu_use_dp: 0]

end of parameters

pandas_categorical:[]
