tree
version=v2
num_class=1
num_tree_per_iteration=1
label_index=0
max_feature_idx=171
objective=regression
feature_names=q01_roll_std_100 min_roll_std_100 q01_roll_std_10 min_roll_std_10 hmean gmean Hilbert_mean q01_roll_std_1000 min_roll_std_1000 max_roll_std_1000 mean_change_abs iqr iqr1 ave10 mean_change_rate_first_50000 sum q05_roll_std_10 q05_roll_mean_10 q05_roll_std_100 q01_roll_mean_10 q05_roll_std_1000 mean_change_rate_last_10000 mean_change_rate_last_50000 mean_change_rate_first_10000 q99 max_roll_std_100 q75Audio q25Audio abs_max_roll_mean_100 skew q01 abs_max_roll_mean_10 abs_std q95 q05 min_roll_mean_10 abs_trend q95_roll_mean_10 q95_roll_std_10 abs_q95 ave_roll_std_10 stdAudio ave_roll_mean_10 ave_roll_std_100 ave_roll_std_1000 abs_mean std_roll_std_10 av_change_rate_roll_std_10 q95_roll_std_100 std_roll_std_100 av_change_rate_roll_std_100 minAudio max_first_10000 maxAudio max_roll_mean_10 std_roll_mean_10 std_first_10000 av_change_rate_roll_mean_10 mean_change_rate std_roll_std_1000 av_change_rate_roll_std_1000 q95_roll_std_1000 min_first_50000 min_first_10000 min_last_10000 std_first_50000 q95_roll_mean_100 max_roll_mean_100 q05_roll_mean_100 std_roll_mean_100 av_change_rate_roll_mean_100 avg_last_10000 min_roll_mean_100 max_first_50000 ave_roll_mean_100 max_last_50000 std_last_50000 max_last_10000 max_roll_std_10 std_roll_mean_1000 av_change_rate_roll_mean_1000 max_roll_mean_1000 q01_roll_mean_100 min_last_50000 mad ave_roll_mean_1000 q95_roll_mean_1000 max_to_min_diff stdAudioIncrease min_roll_mean_1000 q05_roll_mean_1000 count_big abs_max_roll_std_1000 abs_max_roll_std_10 abs_max_roll_std_100 meanAudio avg_last_50000 avg_first_50000 std_last_10000 q99_roll_mean_10 av_change_abs_roll_mean_1000 av_change_abs_roll_std_1000 av_change_abs_roll_mean_100 av_change_abs_roll_mean_10 av_change_abs_roll_std_100 av_change_abs_roll_std_10 q99_roll_mean_1000 avg_first_10000 kurt q01_roll_mean_1000 abs_q99 q99_roll_mean_100 trend q99_roll_std_10 modeAudio q99_roll_std_1000 medianAudio max_to_min abs_q01 q99_roll_std_100 abs_q05 Hann_window_mean_50 Hann_window_mean_150 Hann_window_mean_1500 Hann_window_mean_15000 classic_sta_lta1_mean classic_sta_lta2_mean classic_sta_lta3_mean classic_sta_lta4_mean classic_sta_lta5_mean classic_sta_lta6_mean classic_sta_lta7_mean classic_sta_lta8_mean autocorr_1 autocorr_5 autocorr_10 autocorr_50 autocorr_100 autocorr_500 autocorr_1000 autocorr_5000 autocorr_10000 abs_max_roll_mean_1000 Kalman_correction exp_Moving_average_300_mean exp_Moving_average_3000_mean exp_Moving_average_30000_mean MA_700MA_std_mean MA_700MA_BB_high_mean MA_700MA_BB_low_mean MA_400MA_std_mean MA_400MA_BB_high_mean MA_400MA_BB_low_mean MA_1000MA_std_mean q999 q001 Rmean Rstd Rmax Rmin Imean Istd Imax Imin Rmean_last_5000 Rstd__last_5000 Rmax_last_5000 Rmin_last_5000 Rmean_last_15000 Rstd_last_15000 Rmax_last_15000 Rmin_last_15000
feature_infos=[0:2.8922746282577951] [0:2.3446478919821931] [0:1.5811388300762523] [0:0.69920589878719175] [0:4.9279681359544769] [0:9.4654179999999997] [0:50.671826806405754] [0:3.5830520875726735] [0:3.1662477990709625] [0:1499.5107317474015] [-0.00086000573337155582:0.00074000493336622247] [0:13] [0:89] [0:5.3939500000000002] [-0.1123902064913862:0.14243136088145256] [0:808799] [0:2.0976176963370921] [-24.5:3.2000000000000002] [0:3.3219654642186924] [-225.44999999999999:1.9900000000000089] [0:3.9441088974559517] [-0.13450542413890712:0.17506373156509591] [-0.12138340097115838:0.16094230601280834] [-0.12061458111762373:0.17580883963915803] [0:337] [0:2286.8340229419468] [0:11] [-2:3] [0:452.31] [-3.3766192288580013:4.2194288243558846] [-336:0] [0:4135.8999999999996] [0:150.43236825417767] [0:50] [-39:0] [-3418.6999999999998:0] [-0.00048049042291024413:0.0006645023224953106] [0:34.799999999999997] [0:76.123072854786386] [0:93] [0:26.10412483750418] [0:153.67862] [0:5.3923822164663209] [0:39.153994265819065] [0:42.577828501521637] [0:32.762073333333333] [0:109.41231004547069] [0:75924.928711562548] [0:117.38549589478352] [0:148.94719266801354] [0:75936.77343498636] [-4482:0] [0:587] [0:5444] [0:4135.8999999999996] [0:110.67245002955292] [0:49.020283007900076] [0:75921.279998886937] [-0.096501159712536144:0.14276451945282165] [0:148.73028532188806] [0:75397.328559697577] [0:122.7692608204763] [-4482:0] [-512:0] [-2592:0] [0:257.2780212666969] [0:8.4700000000000006] [0:452.31] [0:4.6799999999999997] [0:15.966909976346299] [0:75933.174214980085] [0:5.5812999999999997] [-440.50999999999999:3.2799999999999998] [0:4281] [0:5.3925197963989575] [0:5444] [0:247.19259169875261] [0:2030] [0:3362.4702047420105] [0:3.5770345912695567] [0:75397.291861625708] [0:73.841999999999999] [-26.629999999999999:4.3600000000000003] [-4392:0] [0:31.724965651468612] [0:5.3925303387225583] [0:7.226] [-1033:1740] [0:0.78298666666666672] [-48.777999999999999:4.6269999999999998] [0:4.9689999999999994] [0:2082] [0:1499.5107317474015] [0:3362.4702047420105] [0:2286.8340229419468] [0:5.3919934999999999] [0:5.4859599999999995] [0:5.5157999999999996] [0:277.80284855245156] [0:251.11000000000058] [-2.0114093959731574e-05:1.5785234899328862e-05] [-0.00043899603017062141:0.00054616711306101321] [-5.5370246831220726e-05:4.3762508338892585e-05] [-0.00044069604640309363:0.00040469364624308332] [-0.00045353238754379082:0.00050139426484522643] [-0.000526060371849054:0.00047896647476628162] [0:12.965] [0:5.5696000000000003] [0:631.15892683450727] [-4.641:4.8780000000000001] [0:674.0100000000092] [0:34.219999999999999] [-6.5007629549555673e-06:9.5287343273578634e-06] [0:567.73378416663945] [0:6] [0:981.88165275608367] [0:5] [0:2.3452382000000003] none [0:968.04971129346211] [0:1] [0:5.3919520818605724] [0:5.3914864318308737] [0:5.3843482565412053] [0:5.3107105679209869] [0:1.1229264331263005] [0:1.3614629039057966] [0:0.97837911866299876] [0:0.97645873226967161] [0:1.0845520805293922] [0:1.1547550071184729] [0:0.99594385772077121] [0:0.99818155493660121] [0:0.96773954347772206] [-0.2412399859758825:0.37409679936118362] [-0.65425857193019576:0] [-0.078080552262811687:0.55470845964870197] [-0.44404260707617865:0.45475068418122472] [-0.13143743274742986:0.13829295169436345] [-0.081867765385133046:0.08803794511135879] [-0.067029633808116662:0.063626192355735398] [-0.038956617667028397:0.060117222569058472] [0:73.841999999999999] [0:25.276520938497239] [0:5.392367527999169] [0:5.3911399712353214] [0:5.4042483199718987] [0:41.527308976396725] [0:129.2238751124863] [-119.93997874589407:0] [0:40.489373848144453] [0:126.1100697277295] [-116.82617336113724:0] [0:42.57782850152185] [0:1790] [-1726.0020000000002:0] [-106:74.000000000000014] [0:42126.253061481744] [0:808799] [-514814.91433320154:0] [-2.9928438986341166e-14:7.8774367769559212e-14] [0:42094.98967810777] [0:531468.36227035639] [-531468.36227035639:0] [-747.91838644715665:559.02328000287935] [0:91276.583058056713] [0:439570.45858373435] [-431182.35442300455:0] [-282.4743705510578:222.33834814737281] [0:93811.160245564606] [0:533402.28815948707] [-514814.91433320154:0]
tree_sizes=3878 4038 4083 4040 4043 4056 4059 4069 4081 4039 4073 4072 4048 4046 4071 4062 4059 4058 4060 4071 4068 4053 4061 4068 4055 4056 4030 4072 4052 4091 4047 4080 4053 4065 4043 4056 4062 4037 4051 4040 4033 4062 4058 4068 4065 4087 4081 4051 4060 4074 4035 4089 4060 4062 4043 4040 4032 4052 4077 4037 4063 4059 4047 4066 4047 4061 4068 4040 4057 4052 4075 4083 4035 4065 4054 4083 4044 4055 4038 4052 4092 4049 4071 4072 4047 4044 4059 4081 4064 4065 4028 4090 4067 4069 4072 4071 4046 4047 4074 4078

Tree=0
num_leaves=51
num_cat=0
split_feature=16 16 20 16 18 130 18 134 90 107 101 69 156 3 70 1 101 107 1 106 146 79 98 139 16 58 16 102 104 19 146 81 77 75 83 112 4 83 113 14 131 159 117 136 25 127 115 104 23 4
split_gain=14026 1170.47 1082.95 322.174 273.319 235.432 203.992 198.561 169.502 138.614 129.716 124.461 114.169 112.457 133.81 110.208 105.684 104.799 101.654 99.4845 91.4895 90.6038 86.8393 94.4717 97.0585 132.001 86.4786 84.8278 80.9142 79.9414 77.101 75.5013 102.689 93.0774 81.9426 74.882 74.5132 73.0111 71.8312 71.7104 76.2599 69.0628 68.614 67.9849 77.2016 71.5143 67.6258 62.6969 70.5128 60.6906
threshold=1.6363916944840755 1.6865480854209571 2.6236666378543654 1.6465452046955467 2.3376475267840369 0.98857936234663069 2.5720624113917316 -0.15439785738320708 3.8365000000000005 4.1206000000000005 -4.7968363062588301e-06 0.34782689360240193 -0.99999999999999611 0.51639777949103804 75047.466729953128 1.8998537943819722 3.890479943072216e-05 4.0701500000000008 1.9387072584987775 4.5950000000000006 4.7198907766838358 0.23626968526169764 2.7756312659493756 -0.004901523053213193 1.563471919940796 0.087558319392920483 1.6465452046972564 6.9379586390927305e-06 -4.0342618612100023e-07 -2.2049999999999952 4.8540960513029061 5.7105000000000006 34.500000000000007 54.500000000000007 -37.499999999999993 -2.4224934774409993e-06 3.3805587157118779 -55.499999999999993 23.878151221352606 0.059381225747450632 0.99361586551751468 -18281.69068510702 1.4261983000000003 0.098255262317628225 44.530487748696387 0.9558214372462801 11.249498987202253 -4.0342618612100023e-07 0.054356202903720098 3.4976462683406173
decision_type=2 2 2 2 2 2 2 2 2 2 2 2 2 2 2 2 2 2 2 2 2 2 2 2 2 2 2 2 2 2 2 2 2 2 2 2 2 2 2 2 2 2 2 2 2 2 2 2 2 2
left_child=2 3 4 17 11 7 9 -6 26 38 -7 -1 -12 22 15 46 27 -2 21 -13 28 41 -9 -24 25 -25 -5 31 -20 49 -11 32 33 34 -4 -19 -37 -30 -3 -26 -41 -14 -21 45 -45 -43 -15 48 -17 -10
right_child=1 6 16 8 5 10 -8 13 29 30 12 19 18 14 -16 47 -18 35 20 42 -22 -23 23 24 39 -27 -28 -29 37 -31 -32 -33 -34 -35 -36 36 -38 -39 -40 40 -42 43 -44 44 -46 -47 -48 -49 -50 -51
leaf_value=5.7056949192321866 5.7075394687873686 5.7026477984300952 5.7044358203729955 5.7069109853932076 5.7036899506371022 5.7068863130735741 5.7009127598941678 5.7098469466996757 5.7027830050797581 5.7017880188075507 5.7118910191214649 5.7122584588258398 5.7065557772137074 5.709589656021949 5.7029353679764831 5.706267548552808 5.7041433248317208 5.7061691553620717 5.7086003887204892 5.708780419143495 5.7097677018118471 5.7094390548015266 5.7049301068501856 5.7101568551898563 5.7056963314171529 5.7069632032800799 5.7040288273470017 5.7083824960654876 5.7069189541658893 5.7001051181781852 5.7032050194542085 5.7049012428683259 5.705778105645356 5.7072856572913802 5.7065587577949035 5.7036625597328445 5.7050730157040839 5.7038308687689474 5.7052715685513391 5.7094702931833829 5.706416433055808 5.7091880682041314 5.7104386840795547 5.7115126837211037 5.7083631835783093 5.7063407233299879 5.7069646801707137 5.7067288162084981 5.7025146482873525 5.7037207854937186
leaf_count=10 12 23 25 12 17 56 210 18 344 386 10 11 23 16 10 10 25 23 15 120 12 102 13 30 27 23 78 18 21 10 43 43 204 135 66 92 63 12 19 16 17 16 32 13 20 20 26 27 10 87
internal_value=0 -2.17754 2.41126 -1.28931 3.17607 2.84652 -3.1178 2.13868 -1.68919 -2.75164 3.42133 4.28036 3.71502 2.36996 1.54736 1.93762 1.29498 -0.171218 3.58374 4.49059 2.44179 3.9364 2.93479 2.6396 2.93332 3.9215 -0.437096 1.39717 1.82106 -1.94449 -2.92151 1.31575 1.4421 1.90681 1.12311 -0.364546 -0.614835 0.941662 -1.0142 2.05876 3.0488 3.21319 4.27886 3.71465 4.7556 2.75767 3.11573 0.882721 -0.455224 -1.87925
internal_count=2671 1402 1269 721 753 580 681 260 531 471 320 173 264 243 99 89 516 190 254 163 60 194 144 126 113 53 90 491 48 441 429 473 430 226 91 178 155 33 42 60 33 92 152 69 33 36 42 47 20 431
shrinkage=1


Tree=1
num_leaves=51
num_cat=0
split_feature=16 16 20 16 20 79 16 130 134 109 109 165 87 23 5 101 58 132 137 1 88 127 0 3 132 157 23 8 88 47 140 76 156 29 23 36 88 103 1 164 141 106 106 166 100 60 71 106 119 0
split_gain=13703.7 1199.28 1021.62 250.382 232.309 222.557 219.961 176.657 270.956 172.259 133.055 127.986 118.005 115.162 103.754 116.382 108.652 92.1115 108.032 91.9678 152.3 107.059 102.109 105.455 92.4079 84.1104 93.1928 91.1415 83.0085 82.4493 81.5455 80.0577 79.4096 79.2397 116.864 78.2756 75.8811 91.7548 72.3682 72.0661 67.317 66.7867 142.725 108.722 82.5397 66.6108 72.5773 90.7662 66.0025 93.4325
threshold=1.6363916944840755 1.6633299933175569 2.6236666378543654 1.549193338482914 2.7884738709087591 0.19769654734711029 1.6465452046955467 0.97370375346326443 -0.12731333670925843 3.6995000000000005 3.5315000000000007 1087.8110800038962 15.500000000000002 0.068356324707733826 4.2731763000000011 1.3055653968691354e-07 0.018687674867662537 0.9415465503731415 -0.034502040204093927 1.9284551828850263 0.72886333333333342 0.94730221864872843 2.2221111083332774 0.48304589153744776 0.93396884715246631 1975.6932481468295 0.1091591921014257 2.4498557698871317 0.69521000000000011 75068.119484886673 0.0068558992393066088 3.4823686060533272 3 0.13736880877642291 0.053820726276047955 -4.0307592215124793e-06 0.69977333333333347 -9.3339555970399728e-06 1.9050968320255726 8.3798466655145187 0.002425684260108414 4.8515000000000006 4.7045000000000003 6273.6152897665825 4.523489932885907e-06 74406.804508548012 4.2525000000000004 5.1865000000000014 12.396638962939795 2.2095065494176374
decision_type=2 2 2 2 2 2 2 2 2 2 2 2 2 2 2 2 2 2 2 2 2 2 2 2 2 2 2 2 2 2 2 2 2 2 2 2 2 2 2 2 2 2 2 2 2 2 2 2 2 2
left_child=2 6 3 5 10 -1 17 8 -5 35 -3 -4 25 -14 15 40 -16 45 -19 21 22 -9 23 -21 -25 31 27 -27 -11 36 41 -7 -17 -24 -35 -8 -12 -38 -34 -10 -13 42 43 -23 48 46 -2 -48 -43 -50
right_child=1 4 11 7 -6 12 9 19 39 28 29 14 13 -15 16 32 -18 18 -20 20 -22 30 33 24 -26 26 -28 -29 -30 -31 -32 -33 38 34 -36 -37 37 -39 -40 -41 -42 44 -44 -45 -46 -47 47 -49 49 -51
leaf_value=-0.00044798132723028011 0.0028066966915130617 -0.00044994728189927564 -0.0022790411436557768 -0.0035411820975216955 -0.0037523749677329018 0.0038416023994601051 0.0016316525722251218 0.0061318948599199457 0.0010730826200623259 -0.0022345802456400802 -0.0028117917751967906 0.0036282732142054516 0.0068570042559733761 0.004299007492831775 -0.0010424226470291612 0.0029850680134798353 0.0011640728304676351 0.0025243176286870784 -0.0012015475625793139 0.0027958300957312949 0.0050295479509565571 0.0049482477128505696 0.0031694391777768493 -0.0027036681741476054 0.0012176340589920679 0.0031273522811276575 0.0040784683436882211 0.00023686327669355606 -0.0012634277178673074 -0.0033969835537916689 0.0014458460648677179 0.0065398693974812834 0.0022296606266605005 -0.0010947602088634786 0.0023628838058847648 -0.000763057731235049 -0.00043286359207970755 -0.0024293756378924148 8.8043427588988333e-06 0.0042994158357381818 0.0017948894205192726 0.0018311620348874405 0.005934273654222489 0.00095661480873823171 0.0056686750509522179 -0.0010170742552195278 -0.0018781381719252641 0.0014393261983990668 0.0051356843721298943 0.0028558961360736659
leaf_count=11 10 27 10 11 289 43 17 12 19 229 200 46 26 56 24 19 310 22 12 13 18 12 63 12 12 28 41 18 144 134 28 15 21 13 39 69 35 68 49 11 36 49 26 16 11 112 17 16 21 131
internal_value=0 -2.18942 2.34617 3.08702 -3.04779 3.93669 -1.19181 2.69568 0.700711 -1.56572 -2.60873 1.25989 4.1496 5.1113 1.33016 1.96425 1.00522 -0.283217 1.20637 2.8673 2.27553 3.19574 1.94874 0.500362 -0.73885 3.60506 2.97985 1.99847 -1.85993 -2.74188 3.07556 4.54115 1.17046 2.41387 1.49655 -0.288522 -2.45184 -1.75192 0.67649 2.2594 2.82459 3.24673 4.244 2.67089 2.99224 -0.61061 0.445764 -0.26664 2.84527 3.17152
internal_count=2671 1401 1270 755 753 238 648 517 41 459 464 515 227 82 505 171 334 189 34 476 170 306 152 37 24 145 87 46 373 437 294 58 89 115 52 86 303 103 70 30 82 266 54 28 212 155 43 33 201 152
shrinkage=0.001


Tree=2
num_leaves=51
num_cat=0
split_feature=16 16 20 16 18 20 79 66 130 134 88 70 16 21 13 101 166 13 79 166 137 20 170 101 101 132 112 58 102 16 60 117 102 20 162 103 76 100 16 38 2 88 2 127 45 103 71 136 137 65
split_gain=13912.8 1138.07 1125.46 288.231 235.251 199.035 184.177 182.326 144.227 260.966 120.514 119.295 124.751 144.045 140.527 115.382 106.95 105.832 105.31 127.697 103.742 102.851 103.034 92.0159 91.4822 91.4089 90.9143 90.7264 84.5579 95.462 92.4607 83.4287 82.5159 82.1364 80.9979 79.6629 79.6293 75.6048 74.2125 73.7368 98.2359 72.2262 82.2442 71.7359 71.1851 70.9243 69.3085 97.6514 77.8466 68.5393
threshold=1.636391694484296 1.6865480854209571 2.6236666378543654 1.6465452046960345 2.3376475267840369 2.7884738709087591 0.2027538271079036 5.035000000000001 0.98857936234663069 -0.15439785738320708 0.69535666666666673 75013.915538502857 1.5634719199411506 0.035552399762591967 4.5905708333333344 -2.4555197594102852e-06 6235.7428516223963 4.1108041666666679 0.23626968526169764 9905.5736205069206 -0.012564471001397921 2.6124724899710139 20785.705428266621 3.890479943072216e-05 -9.1969506293526651e-07 0.9415465503731415 -1.7273292862989885e-06 0.012871391239538696 6.9379586390927305e-06 1.5951314818701294 74341.966723531994 1.4468304000000003 3.2021347565043379e-06 2.5969241450138445 21872.493893044746 8.3338889259282663e-06 3.8809027683213331 -2.7818791946308715e-06 1.5951314818660853 7.9554314080939781 1.286683937708655 0.70892666666666682 1.316561177207731 0.96263847493080246 5.1458700000000004 -8.0005333688910912e-06 4.6791500000000008 0.17740242317577751 -0.014280777021475389 4.211267091928053
decision_type=2 2 2 2 2 2 2 2 2 2 2 2 2 2 2 2 2 2 2 2 2 2 2 2 2 2 2 2 2 2 2 2 2 2 2 2 2 2 2 2 2 2 2 2 2 2 2 2 2 2
left_child=2 3 4 25 6 17 -1 26 9 -6 -9 12 14 -14 35 32 20 -3 19 -17 -13 22 -20 28 -16 -2 -5 41 29 34 44 -8 33 -10 36 -11 38 -38 -4 -12 46 -19 -43 -28 -31 -35 48 -48 -41 -32
right_child=1 5 23 7 8 -7 31 10 15 11 39 16 13 -15 24 18 -18 27 21 -21 -22 -23 -24 -25 -26 -27 43 -29 -30 30 49 -33 -34 45 -36 -37 37 -39 -40 40 -42 42 -44 -45 -46 -47 47 -49 -50 -51
leaf_value=0.00032487437327702838 -0.0005094604276447885 -0.00030722679951124721 0.00045956454642471812 0.0011046412327813662 -0.0014103478272755941 -0.0037810169624606913 0.0040478138553923454 -0.0025331898658175591 0.0031910050635039805 0.0053502026053362118 -0.0025503009250035162 0.00029057102352380741 -0.00057912799856242017 0.0026324892921881244 0.00011740305764334542 0.0033965505752157456 -0.00057397607508159819 -0.0032457253938675381 0.0043092317269089516 0.00077491040655776203 0.0043069515926497329 0.0025654680910706519 0.0074448995212713885 -0.00064109688943624489 0.0033177309451103212 0.0014908860588515244 -0.0013119025800715793 -0.0017657234403449047 0.0032418008212000133 0.0041938608215405385 0.0015142049382694744 0.0058493362747132783 0.0044746922423442208 -0.0010932410610573634 0.00037808811137562292 0.0028300908303923078 0.0052235197329521185 0.0023198883413367215 0.0031978004558728293 -0.0020060515928726928 -0.002222579451526205 0.00058116980433464054 -0.0025474716523114374 0.0013513087164271963 0.0013688918289294916 0.0018098535673249335 0.0026428256676066663 -0.0011269110312064491 0.0011631088942289354 0.00032439625221279152
leaf_count=12 148 18 42 22 18 278 138 222 20 43 37 12 17 77 14 99 21 263 89 23 14 30 12 25 25 27 121 71 22 13 66 32 12 14 34 18 10 93 13 26 36 10 51 11 29 21 16 12 11 183
internal_value=0 -2.21907 2.34803 -1.30938 3.12732 -3.12598 4.1202 -1.6868 2.81505 2.25903 -2.07651 2.5335 2.88012 2.0506 3.65887 3.26476 1.10065 -2.68482 3.57433 2.90313 2.45708 4.19866 4.68278 1.22892 2.17146 -0.200264 -0.775154 -2.79292 1.32169 1.23402 0.872234 4.38751 2.0943 1.57312 1.78184 4.6082 2.08328 2.60277 1.1086 -1.34112 -0.897166 -3.0177 -2.03294 -1.08921 2.24567 0.645759 -0.161552 1.02365 -1.06117 0.640169
internal_count=2671 1380 1291 689 761 691 182 514 579 259 360 241 194 94 100 320 47 413 253 122 26 131 101 530 39 175 154 395 505 483 291 170 67 55 192 61 158 103 55 138 101 324 61 132 42 35 65 28 37 249
shrinkage=0.001


Tree=3
num_leaves=51
num_cat=0
split_feature=16 20 16 18 90 16 20 130 134 170 70 101 87 166 8 79 21 18 16 102 16 9 0 139 62 137 60 107 58 137 135 5 124 170 20 79 80 80 134 162 69 132 151 159 112 140 47 165 170 102
split_gain=13836.7 1238.36 1090.54 247.27 207.594 201.882 195.21 193.182 262.664 170.823 126.691 115.773 101.364 100.778 99.1631 102.558 100.631 98.658 96.2452 98.6219 95.8265 121.693 91.2018 89.0154 88.5995 88.5702 84.2165 82.5101 99.0235 82.1838 82.0354 81.3831 79.6164 77.4167 113.488 95.3092 75.9228 74.5851 72.2529 82.4574 71.9161 71.5832 70.9921 90.0153 69.7418 69.2086 67.6449 67.1738 66.6785 64.8572
threshold=1.6363916944843677 2.6236666378543654 1.6865480854209571 2.3376475267840369 3.8485000000000005 1.6465452046955467 2.7884738709087591 0.98857936234663069 -0.15439785738320708 6900.0162831608404 75013.915538502857 3.890479943072216e-05 12.500000000000002 7002.7388259487479 2.4850978247281064 0.23626968526169764 0.030670089800483226 2.4841111248913679 1.5951314818680513 6.9379586390927305e-06 1.5670212364719729 10.248551588487002 2.1963238340094917 -0.0015374563653973551 -101.49999999999999 -0.035494923695894916 74341.966723531994 4.1270000000000016 0.012871391239538696 -0.012564471001397921 -0.49007907858984806 4.2837608500000011 4.4144755638299076 16268.768054415714 2.609414981489552 0.26339414990003357 74541.213599290801 74403.829890625289 -0.11804887413625632 13302.48806706056 0.37414876389231499 0.9415465503731415 13.757364672131443 -12893.88075261534 9.7474219648776448e-07 -0.00087389729731705032 75030.205409819071 1131.9674529677259 12881.426490655884 -3.5356904603068724e-06
decision_type=2 2 2 2 2 2 2 2 2 2 2 2 2 2 2 2 2 2 2 2 2 2 2 2 2 2 2 2 2 2 2 2 2 2 2 2 2 2 2 2 2 2 2 2 2 2 2 2 2 2
left_child=1 3 4 9 17 25 27 8 -5 -1 20 18 38 29 15 40 -16 -2 47 26 21 -10 -23 -22 -17 41 31 44 36 -12 -7 -20 -18 35 -35 -26 -29 -34 39 -11 -9 -6 -24 -44 -4 -42 -14 -3 -45 -28
right_child=2 11 6 7 5 30 -8 14 10 12 13 -13 46 -15 16 24 32 -19 19 -21 23 22 42 -25 33 -27 49 28 -30 -31 -32 -33 37 34 -36 -37 -38 -39 -40 -41 45 -43 43 48 -46 -47 -48 -49 -50 -51
leaf_value=0.00032809292403134432 0.0014495382974887717 4.5964027444521584e-06 -0 -0.0016208741468541762 -0.00033602134217989855 -0.001245660981603089 -0.0037803559349770845 0.0046820652735233307 0.00042156262646118805 0.0068114096678220321 0.00061097057216307686 -0.00088254799384337198 0.0059985306521679492 -0.00087634377645121693 5.5555688440799715e-05 0.0024200467574454487 0.0043970075321694219 -0.00066818113761268308 0.0038121041734346796 0.003117811884433031 0.00050594830132193039 0.0010869941516356034 0.0058158084225654605 0.0027030711274025807 0.0047399522478483161 -0.0014872334181710528 0.0016344678401873979 -0.002677236149106707 -0.0017330226590236029 0.0038910864182880945 -0.0022191215965134572 0.0010826621822772487 0.0044176784369078549 0.0069171972901732838 0.0029533260130882263 0.0019803564448566996 -0.0037274547796664029 0.0014239131942817144 0.0029674759351781439 0.0035573933315277105 0.0035926003995694618 0.0019967980118358836 0.0052990776135162882 0.0034880956481803554 -0.0026768835544586185 0.0017955819072185551 0.0041326030359548679 0.0020405492103084664 0.00052812900185585023 0.00038480978317196132
leaf_count=11 29 18 20 17 58 122 283 20 12 13 17 26 47 18 15 21 24 91 17 20 27 11 20 59 49 54 51 175 66 14 303 31 11 27 10 17 115 35 56 20 38 17 22 33 19 50 34 172 10 226
internal_value=0 2.30245 -2.24998 3.13611 -1.34894 -1.60725 -3.14555 2.81568 2.17567 4.15703 2.44168 1.17587 4.4042 1.00179 3.3403 3.67966 2.41286 -0.155566 1.27609 0.960723 2.80485 3.43333 3.80876 2.01444 4.30195 -0.510498 0.827671 -2.69049 -2.842 2.09554 -1.93992 2.05142 2.91657 4.68467 5.84858 4.03066 -3.09405 2.14199 3.66376 4.84231 2.96425 0.191418 4.15982 3.64874 -1.30489 2.5727 5.21654 1.8482 2.80206 0.615252
internal_count=2671 1319 1352 758 674 554 678 577 260 181 243 561 170 49 317 232 85 120 535 345 194 108 96 86 124 129 325 395 356 31 425 48 70 103 37 66 290 46 89 33 108 75 85 65 39 88 81 190 43 277
shrinkage=0.001


Tree=4
num_leaves=51
num_cat=0
split_feature=16 16 20 16 18 5 130 134 98 20 167 105 9 79 125 38 5 58 70 16 87 107 166 60 107 7 148 20 58 83 60 2 135 139 79 73 65 38 98 57 126 103 131 162 128 166 1 20 134 72
split_gain=13858.7 1273.7 1040.61 324.52 257.14 214.923 183.921 347.134 172.421 166.483 118.856 133.545 167.195 109.556 108.827 106.047 105.724 120.575 103.285 104.067 101.878 100.955 98.227 96.2079 95.5371 87.5407 109.928 82.8312 82.0213 81.1346 79.3301 78.6876 75.9027 75.6442 74.1777 73.5089 79.0384 72.7134 113.04 72.1028 84.0226 99.5615 69.0331 101.408 84.5282 80.1791 75.8445 68.6967 67.0441 70.3311
threshold=1.6363916944840755 1.6865480854209571 2.6236666378543654 1.6465452046955467 2.3376475267840369 4.331944700000002 0.98857936234663069 -0.15439785738320708 2.649286475795376 2.7925034343742334 -5134.8953805383162 -7.2351170481489622e-06 10.248551588487002 0.23626968526169764 0.94594625694005041 4.8904653007833678 4.2731763000000011 0.018687674867662537 74954.442101618653 1.563471919940796 15.500000000000002 4.0856500000000002 9905.5736205069206 74585.112514618886 4.1270000000000016 2.5910400392927815 17.136060670629998 2.6139951140124418 0.012871391239538696 -38.499999999999993 74544.85490199356 1.2472191289245493 -0.49007907858984806 -0.011835930142153924 0.25508470213505491 49.500000000000007 3.2976246258560216 4.4777225924746906 3.1799751967021943 75157.531472912 0.40045028264624533 -3.3335555703710607e-06 0.99312891925173974 15879.671353577241 0.86061077521019824 11412.546549527196 2.0082531713741667 2.7454097640523547 -0.11804887413625632 1.4550000000000003
decision_type=2 2 2 2 2 2 2 2 2 2 2 2 2 2 2 2 2 2 2 2 2 2 2 2 2 2 2 2 2 2 2 2 2 2 2 2 2 2 2 2 2 2 2 2 2 2 2 2 2 2
left_child=2 3 4 21 8 29 7 -6 -1 24 11 15 -13 22 18 -9 33 -18 19 -14 -10 -2 -8 35 -3 26 -23 39 30 34 -26 -29 47 -4 -5 36 -12 -20 -39 40 41 -15 43 -35 45 46 -45 -7 49 -21
right_child=1 9 16 5 6 32 13 10 20 -11 23 12 14 27 -16 -17 17 -19 37 48 -22 25 -24 -25 28 -27 -28 31 -30 -31 -32 -33 -34 42 -36 -37 -38 38 -40 -41 -42 -43 -44 44 -46 -47 -48 -49 -50 -51
leaf_value=0.00051254585584004715 0.0026835780027012032 -0.0012187041562151265 -0.00036073657108040959 -0.00065852613173086536 -0.0024844267145792643 -0.0009739162685126067 0.003120388894883763 0.0051944990114732225 0.0038696562972637492 -0.0037776169019819051 0.0050478793136775491 -0.001386389011144638 0.0039991757936202561 0.0055555174574628474 0.0043216451585292824 0.0017989748009480536 -0.0010813369473585714 0.0011547901196307859 0.0026300734194842253 -0.0017627780520915984 0.0055081373012672036 -0.0015055541011420161 0.0011561324280221015 0.00096702320814132689 -0.002728147596241859 -0.00065473277517819203 0.0023081633868316811 0.00065079160125127843 -0.0018802219424339441 -0.0030805757067420263 -0.0037690274308293551 0.0039069408677518368 -0.0023033872421334184 0.004785157026350499 0.0013241971972592485 0.0063178141730172305 0.0017798668759209768 -0.0026103260248899456 0.001258243661456638 0.0064886318188447228 0.0017698189095656076 0.0035356836907099935 0.00053673919491145931 0.003346734440326691 -0.00053633229651234369 0.001066482445961711 0.00037391682989895345 -0.0027254836963168509 0.002528213512897491 0.0019871324443817137
leaf_count=12 12 37 13 88 15 100 128 22 109 261 16 16 26 40 18 16 26 325 11 10 59 11 32 10 197 145 24 14 65 11 118 16 270 16 24 14 14 13 18 13 15 64 23 64 11 33 10 29 27 10
internal_value=0 -2.1685 2.39126 -1.23613 3.13917 -1.64502 2.81361 2.17983 4.18402 -3.15023 2.47055 2.09197 1.664 3.31718 2.03172 3.76744 1.30295 0.988866 1.67242 2.39156 4.44567 -0.12395 2.72816 3.7797 -2.75731 -0.311675 1.10671 3.89831 -2.90685 -0.488259 -3.11838 2.39074 -2.00137 1.95084 -0.232764 4.41667 3.52614 0.420118 -0.360834 4.24018 3.99371 4.3135 2.14288 2.41781 2.09597 2.36751 2.94635 -1.36845 1.50011 0.107177
internal_count=2671 1392 1279 714 758 522 578 256 180 678 241 187 149 322 133 38 521 351 115 73 168 192 160 54 417 180 35 162 380 123 315 30 399 170 112 44 30 42 31 132 119 104 157 134 118 107 74 129 47 20
shrinkage=0.001


Tree=5
num_leaves=51
num_cat=0
split_feature=16 16 20 16 66 18 79 20 130 134 28 90 89 3 106 98 88 13 107 112 139 1 0 7 70 165 5 58 101 69 112 4 3 69 58 23 4 88 1 1 98 23 1 2 102 88 129 57 135 136
split_gain=13782 1172.65 1052.66 306.31 211.995 201.687 318.765 189.15 178.289 226.588 115.747 124.655 113.692 112.448 159.231 119.244 106.116 105.879 105.226 100.269 111.636 97.2789 111.417 95.2752 93.555 91.2966 95.1507 133.459 109.228 90.8224 88.2312 89.7902 86.1116 88.8172 76.6505 76.617 96.1157 90.8558 76.4825 73.4472 115.471 88.5977 92.7825 72.882 119.978 72.7342 72.4825 81.9201 98.9709 72.1235
threshold=1.6363916944840755 1.6865480854202091 2.6236666378543654 1.6465452046955467 5.035000000000001 2.344292444432075 0.19769654734711029 2.7884738709087591 0.97370375346326443 -0.12731333670925843 11.635000000000003 4.2025000000000015 3.2985000000000002 0.51639777949385279 5.4880000000000004 2.8933053168005594 0.69535666666666673 4.1108041666666679 4.0701500000000008 -2.3848846445504401e-06 -9.7542037049464146e-05 1.9243653015677937 2.2379080231431434 2.5345348422711829 74858.35283704316 1093.5183186755146 4.2731763000000011 0.018687674867662537 1.3055653968691354e-07 0.37081283826465933 -2.4224934774409993e-06 3.3805587157118779 0.51639777949356069 0.35839746311368897 0.012871391239538696 0.056887984149181031 3.4378831148273785 0.69144000000000017 1.8837690565953586 1.8686947856783738 3.4711745413674877 0.11418703327513859 1.9617426801875599 1.2866839377078518 -1.1340893929286157e-06 0.6937633333333334 1.0358121333149735 75052.377140479235 -0.47378294225951872 0.11521137262972873
decision_type=2 2 2 2 2 2 2 2 2 2 2 2 2 2 2 2 2 2 2 2 2 2 2 2 2 2 2 2 2 2 2 2 2 2 2 2 2 2 2 2 2 2 2 2 2 2 2 2 2 2
left_child=2 3 5 18 19 6 -1 17 9 -7 13 24 -8 14 15 49 -6 -3 -2 -5 43 35 -23 -11 -12 -4 28 -28 -27 -17 -20 -32 33 -14 45 37 -37 -15 -34 40 -31 42 -41 44 -21 -19 -18 48 -48 -10
right_child=1 7 25 4 16 8 12 -9 10 23 11 -13 32 21 -16 29 46 34 30 20 -22 22 -24 -25 -26 26 27 -29 -30 39 31 -33 38 -35 -36 36 -38 -39 -40 41 -42 -43 -44 -45 -46 -47 47 -49 -50 -51
leaf_value=-0.00070813389079911373 0.0026808944178124267 -0.00047116995538984033 -0.0013392461344599723 0.001769876349568367 -0.0025103725527903797 -0.0033252742195129391 0.0065540057056828558 -0.0037297651817393496 0.0036616948601272373 0.0039729526019096377 0.0027220159987608591 0.0026045150207246051 0.0063232003632045933 0.0055142915189266206 -0.00078217500239610672 0.0047315058916807184 -0.0019661165754299567 -0.0033530872825348734 0.0014979888726364481 -0.00082050478841577234 -0.0017538515528397903 -0.00022668525092303755 0.0028807528988354734 0.00059420462235024109 0.0059875469793291653 0.0028342883086823799 -0.0014041859249273936 0.001197416704767753 0.0012047684847026688 -0.00072877407928307854 -0.001236623692456825 0.00031070635457996462 0.0041491350087626225 0.0040771383547577363 -0.0017939460274396522 0.00064323589788942495 0.0035904413210021127 0.0024255314556881785 0.0018810390578162287 0.0031925960502923304 0.002750914203203642 0.0057392923636869955 0.00095199947227602409 -0.00093473017081782662 0.0033152001926941531 -0.0023833344472674873 -0.00065603453211841129 -0.0019835779939911197 0.0031640467339754102 0.0059743253653699703
leaf_count=14 12 21 13 15 224 10 19 280 36 15 12 34 21 16 10 24 83 202 22 14 77 32 18 19 34 77 21 315 89 15 97 61 29 116 66 29 18 24 31 97 26 11 23 34 14 127 21 21 10 22
internal_value=0 -2.17257 2.37597 -1.2633 -1.66658 3.12798 3.90993 -3.09344 2.78522 0.85526 2.96156 4.06243 4.20972 2.74168 3.12384 3.27801 -2.08775 -2.66491 -0.185276 -0.684114 -0.949652 2.00455 0.889992 2.08777 5.13784 1.27331 1.34116 1.03452 1.96123 2.90387 -0.376909 -0.638604 3.98311 4.42216 -2.78128 2.64394 1.77408 3.66354 2.97895 2.64827 1.47542 3.01458 2.76398 0.0474985 1.24378 -2.97905 -1.38577 -0.457527 0.573024 4.54062
internal_count=2671 1401 1270 705 513 755 230 696 525 44 481 80 216 401 264 254 359 416 192 154 139 137 50 34 46 515 502 336 166 196 180 158 197 137 395 87 47 40 60 172 41 131 120 62 28 329 135 52 31 58
shrinkage=0.001


Tree=6
num_leaves=51
num_cat=0
split_feature=16 20 20 18 69 16 96 165 79 100 20 134 111 1 130 38 166 6 89 81 14 86 101 140 16 80 117 56 16 115 100 48 1 141 146 107 106 139 64 139 164 112 45 157 81 78 40 131 5 132
split_gain=13690.4 1047.81 1044.72 243.89 351.03 227.263 226.887 173.648 208.727 183.504 170.095 146.7 141.462 130.367 122.784 110.979 116.135 108.863 129.895 107.592 92.5116 84.3608 83.5236 95.8742 80.6153 103.022 80.609 87.4096 134.717 79.0889 99.8994 76.8947 76.1643 74.0339 71.7713 71.6431 95.0126 69.4545 79.4932 69.0621 75.6402 100.159 89.1049 92.1071 75.6844 69.978 67.7749 107.673 67.5795 66.0861
threshold=1.6363916944843677 2.6236666378543654 2.7454097640523547 2.344292444432075 0.35157883933394452 1.6465452046955467 4.1483500000000015 1026.1789248262558 0.2281747306914573 1.9563758389261757e-06 2.7925034343742334 -0.13543134849353752 4.955000000000001 1.8804013053300592 0.97433701615751189 4.647580015448967 15437.369919763554 5.8443140458929248 3.4005000000000005 5.7895000000000012 0.05061993065690832 4.7525000000000004 3.890479943072216e-05 0.0083823570973813408 1.5951314818678453 74341.732871159053 1.4261983000000003 3.8566710584290917 1.5491933384829635 10.386251833624355 4.6308724832214765e-06 6.1748839404769145 1.9720009834651722 -0.0023638884583570868 4.8540960513029061 4.2445000000000013 5.0955000000000004 0.0018081365790406172 -20.499999999999996 0.012765249834659695 -7.2875021859354954 2.0614225663138399e-06 4.9060233333333345 2138.0452519302921 5.2000000000000011 61.235816251407719 4.1846618331588479 0.98765527015870436 4.2837608500000011 0.9538675754888728
decision_type=2 2 2 2 2 2 2 2 2 2 2 2 2 2 2 2 2 2 2 2 2 2 2 2 2 2 2 2 2 2 2 2 2 2 2 2 2 2 2 2 2 2 2 2 2 2 2 2 2 2
left_child=1 3 5 4 -1 35 33 8 14 11 21 -10 -6 -13 -5 20 17 -17 -19 22 -9 49 23 24 31 48 27 28 -14 -20 39 -3 -25 -7 -23 -2 -37 38 -33 40 41 -31 44 -44 45 -42 47 -8 -26 -4
right_child=2 19 10 7 12 6 46 15 9 -11 -12 13 26 -15 -16 16 -18 18 29 -21 -22 34 -24 32 25 -27 -28 -29 -30 30 -32 37 -34 -35 -36 36 -38 -39 -40 -41 42 -43 43 -45 -46 -47 -48 -49 -50 -51
leaf_value=-0.00014804007003181861 0.0014981207568002374 0.00041790467984974386 -0.0022431212815642357 0.00048148026704788197 0.0074182957683290758 -0.0016759526809056601 -0.001019647821546346 0.0067767053167025254 -0.0041810598232529389 0.0035258081279017708 -0.0037589865510297333 -0.0023035306654193167 0.0038730435194167414 0.002373231284434979 0.0047847534549236301 0.00071247090708326407 0.0054963490025202438 0.0051032861533372295 0.00084522876927386147 -0.00028241047969620141 0.0035768423831776574 -0.0031917048526268737 -0.00047790354140426805 0.0035665250759465356 0.0040761169958335817 0.00076469264557524558 0.0054887216029848376 0.0056020190544750379 0.00084586393272175506 0.0024431376638707437 0.005610097142060599 0.00073206933875169067 0.0005386383216489446 0.00070198023919947441 -0.0016788549554016855 -0.0013668211848656131 0.00029326276686606986 0.003153550804128834 0.0028677224523418893 0.0008571736630797385 0.0055033166105096969 -0.00066809761474529903 0.0017762271619926799 0.003392283012956381 0.0069358779573440565 0.0020585063267212645 -0.0031402426001394083 -0.0021174081081736023 0.0014731766270266638 0.00032535331032492896
leaf_count=19 19 28 105 10 14 18 125 12 11 11 260 11 113 13 20 27 15 23 23 42 38 260 23 35 16 246 35 23 17 73 12 42 11 48 36 72 66 51 30 20 11 12 55 100 10 13 42 317 27 11
internal_value=0 2.29859 -2.23176 3.07524 3.95624 -1.38293 -1.68588 2.70063 1.30152 -0.0346652 -3.12465 -1.15653 4.34278 0.225549 3.35366 2.93989 2.76109 2.65257 2.80111 1.25394 4.34681 -2.7241 1.38091 1.46908 1.32504 1.01491 4.11322 3.79791 3.47795 2.63986 2.77442 1.91795 2.84464 0.0519379 -3.00805 -0.320965 -0.572143 2.25862 1.62331 2.65834 2.78945 2.00273 3.14273 2.81949 4.61341 3.64154 -1.92307 -1.80718 2.44404 -1.9987
internal_count=2671 1292 1379 741 221 707 550 520 76 46 672 35 202 24 30 444 394 379 352 551 50 412 509 486 440 289 188 153 130 329 306 151 46 66 296 157 138 123 72 294 274 85 189 155 34 24 484 442 43 116
shrinkage=0.001


Tree=7
num_leaves=51
num_cat=0
split_feature=16 16 20 69 18 16 90 20 130 134 105 167 62 159 146 106 101 137 101 151 107 160 97 166 0 5 8 22 58 16 60 100 160 117 14 81 106 71 88 105 7 47 163 76 160 31 127 96 134 163
split_gain=13559.2 1161.51 1061.48 277.484 326.931 227.389 226.396 183.037 133.083 223.704 115.206 139.199 117.488 137.099 114.03 155.003 121.238 120.935 112.078 111.916 109.678 107.404 105.628 93.4206 93.2098 92.0635 99.1264 99.7233 88.723 88.3652 86.8953 84.6494 84.5164 83.6617 81.5689 80.8011 80.7995 79.956 77.274 76.8434 76.8262 75.4042 75.1121 126.51 73.924 75.2486 88.948 71.9554 71.2674 90.2585
threshold=1.6363916944843677 1.6865480854209571 2.6236666378543654 0.3444209991840757 2.3376475267840369 1.6465452046955467 3.8485000000000005 2.7925034343742334 0.98857936234663069 -0.15439785738320708 -9.361388564150042e-06 -5134.8953805383162 -37.499999999999993 -14034.665934122628 4.3547356998756372 4.7260000000000009 -2.4555197594102852e-06 -0.040271317899116171 3.890479943072216e-05 14.137642087332059 4.1270000000000016 -9.8225427791476231e-16 4.2780000000000014 7347.1011426835976 2.2156924261310746 4.2731763000000011 2.526689367365639 0.035880409180961546 0.012871391239538696 1.5634719199403422 74537.296720754515 -8.9261744966442802e-07 9.1555799978474786e-16 1.4468304000000003 -0.022994382642789409 4.7960000000000003 5.0955000000000004 4.4066500000000008 0.69521000000000011 -1.5478460437765338e-06 2.5546673609933337 74856.375791278348 -16387.450534182055 3.9012205648940497 -4.3049415883918601e-16 72.250000000000014 0.95125867413765375 4.1555200000000001 -0.11804887413625632 -11954.890542314088
decision_type=2 2 2 2 2 2 2 2 2 2 2 2 2 2 2 2 2 2 2 2 2 2 2 2 2 2 2 2 2 2 2 2 2 2 2 2 2 2 2 2 2 2 2 2 2 2 2 2 2 2
left_child=2 5 3 -1 33 34 32 20 9 -6 29 12 19 -14 15 17 -16 -10 25 31 37 -13 39 -15 -25 35 -27 -28 30 -11 -22 -12 -7 48 -2 -4 -36 -3 -8 -17 -21 -37 -43 -44 -18 -46 -47 -34 49 -5
right_child=1 7 18 4 8 6 38 -9 14 10 11 21 13 23 16 22 44 -19 -20 40 28 -23 -24 24 -26 26 27 -29 -30 -31 -32 -33 47 -35 36 41 -38 -39 -40 -41 -42 42 43 -45 45 46 -48 -49 -50 -51
leaf_value=-0.0019090709491209551 0.0019974300792813299 -0.00040484833931550383 0.00031286517393130524 0.0042453006873005312 -0.0013682998955249785 0.00043983423631924846 -0.0022347766124356022 -0.0037880248274760227 0.0008751845246867129 0.0060184318161010742 0.0018894162362272082 0.0008631961846351624 0.0042410037153959275 0.001311948932324137 0.001472645925424993 0.0088296376054937172 0.0024038957503704087 0.0047566629452364785 -0.00074097784917663643 0.0010743702903721066 -0.0026800362497880195 0.0045922500672510693 0.0040010478819055215 -0.0034018877170302639 0.00042565097173055016 0.0013687361107991912 -0.0011129243889773214 0.0010179388018393958 -0.001790723523930196 0.002756231738626957 -0.003761568775215769 0.0053920734631387815 -0.00056146681036528512 0.0057752389599295224 -0.0011651890331208707 0.0040393255424499511 0.00035104587879596332 -0.0036490993404388427 -0.0013600815621987443 0.0051377498527367914 0.0036314132582396267 0.0014771651225625186 0.00041926520737734711 0.0045530030410574828 0.0044601847783913686 0.0050746637301785618 0.0021713770903900947 -0.0037608869695663454 0.0034652634450759007 0.0075159758134321743
leaf_count=11 15 32 26 38 16 65 269 259 19 15 11 10 10 35 50 11 70 14 27 45 191 35 28 11 15 253 37 54 62 19 123 19 24 34 75 20 66 10 163 12 16 93 11 23 63 14 44 10 87 11
internal_value=0 -2.1968 2.31043 3.07147 3.14446 -1.2805 -1.59236 -3.12648 2.78763 2.24859 2.48913 2.2079 1.77453 0.808342 3.21358 4.21941 2.86258 2.5249 1.24284 2.52728 -2.71634 3.76579 5.31389 0.243971 -1.18985 1.34663 1.04675 0.150445 -2.88773 4.19838 -3.10401 4.1111 -0.227221 4.36549 -0.218325 1.94236 -0.454753 -1.17967 -1.90497 6.90778 1.74671 2.22989 1.94415 3.21856 3.22592 3.70064 2.87389 -1.50541 4.01232 4.98157
internal_count=2671 1364 1307 763 752 687 531 677 582 257 241 207 162 71 325 84 241 33 544 91 418 45 51 61 26 517 344 91 376 34 314 30 99 170 156 173 141 42 432 23 61 147 127 34 191 121 58 34 136 49
shrinkage=0.001


Tree=8
num_leaves=51
num_cat=0
split_feature=16 16 20 16 18 20 106 130 134 79 101 105 167 51 125 134 50 73 98 79 98 40 88 102 130 107 87 107 139 4 126 28 2 150 23 36 112 8 8 112 21 119 119 105 104 54 140 119 101 157
split_gain=13863.5 1280.12 1095.05 266.029 218.696 208.855 191.382 169.011 186.62 149.888 159.246 141.229 169.281 159.692 127.652 155.644 123.936 121.462 120.974 116.903 108.662 103.832 100.406 98.4388 111.059 96.8408 94.6426 94.0965 83.6189 83.4889 83.6301 81.3801 79.0595 78.5562 75.3611 108.99 73.3519 72.7796 72.5415 84.784 71.9656 71.2489 71.582 82.4107 89.9122 71.1743 71.1414 73.4852 70.5512 68.9805
threshold=1.6363916944840755 1.6633299933175569 2.6236666378543654 1.6465452046955467 2.3376475267840369 2.7925034343742334 4.9225000000000003 0.98857936234663069 -0.15439785738320708 0.23626968526169764 -1.8786792006650641e-06 -7.583701217348585e-06 -5134.8953805383162 -38.499999999999993 0.94594625694005041 -0.12731333670925843 74955.948313112895 49.500000000000007 4.3164444884093944 0.26889197886167343 2.649286475795376 2.9197529692727531 0.70343000000000011 6.5376917945297003e-06 1.0045646889463771 4.0856500000000002 16.500000000000004 4.0701500000000008 0.0055145956551193509 3.2559905347552029 0.22371993941457483 13.305000000000001 1.2292725943049814 3.2045336923266179 -0.0019898423349246149 3.5378577512683378e-07 -2.3848846445504401e-06 2.5410385428318931 2.421592784013789 -3.9042061868401859e-07 -0.017383946787787367 14.039160206526178 15.131122127109341 -1.279500787189452e-06 -1.5000881901710072e-06 70.15000000000002 0.0070798021355141594 21.694582244342772 4.871226854826601e-08 2175.9805830129353
decision_type=2 2 2 2 2 2 2 2 2 2 2 2 2 2 2 2 2 2 2 2 2 2 2 2 2 2 2 2 2 2 2 2 2 2 2 2 2 2 2 2 2 2 2 2 2 2 2 2 2 2
left_child=2 3 4 27 20 29 34 8 -6 21 -11 19 13 14 15 48 -17 33 25 -10 -1 -9 -8 24 -20 -4 38 -2 -24 30 -3 45 -23 -14 -5 -36 -29 -30 39 -22 -32 49 -43 44 -44 -12 47 -45 -13 -27
right_child=1 5 18 6 7 -7 22 9 11 10 31 12 17 -15 -16 16 -18 -19 23 -21 26 32 28 -25 -26 41 -28 36 37 -31 40 -33 -34 -35 35 -37 -38 -39 -40 -41 -42 42 43 46 -46 -47 -48 -49 -50 -51
leaf_value=0.0010606581752950494 0.0026770084698091853 0.00093512916803359988 0.0036907253161072733 -0.0011453374969924727 -0.0011772440528869629 -0.0038098581020676301 -0.0023379859439450605 0.0046500468860973011 0.0030355954340951785 0.0022436065368726852 0.0050394182132136433 -0.0021792886274201524 0.0041326121336883962 -0.0017676091900238622 0.0044643115978468869 0.0029812048655552944 0.0006574950023277385 0.0065370199600855517 0.0016480180385005144 0.0065593530049690837 0.0073534150470386831 0.00056112104517153712 -0.0017471845966080825 0.0037521623635292053 5.8691492939546499e-05 0.0010161212152284052 0.0053808473352875029 0.0013741338622840968 -0.0010490349741652605 -0.0028761930311659301 -0.0015427570445919938 0.0072898980522155769 0.0026362188618516791 0.00089523928280060112 -0.0011699684040931365 0.0017578159585043237 -0.00057393102616991245 0.0022072868689894673 0.0033100870003183202 0.003724870102107525 -0.0038178750226372168 0.0033015342925603575 0.0012058709945620561 5.366998656822872e-06 0.0032693325424566866 0.0034672978080402725 0.0029208520567975938 0.0018490490225228397 0.0012016457205468959 -0.0019511536748707294
leaf_count=11 11 10 22 89 15 254 232 22 35 40 62 14 18 13 17 61 37 12 63 13 11 22 60 10 146 36 56 22 16 412 53 10 115 13 24 27 158 12 83 16 19 26 41 63 44 55 16 33 11 10
internal_value=0 -2.17952 2.38212 -1.15391 3.14127 -3.07199 -1.56586 2.84604 2.24182 3.32577 3.98855 2.45242 2.07486 1.58107 1.89273 1.53649 2.10491 3.82952 1.24765 3.99203 4.11648 2.629 -1.99263 0.68546 0.538249 1.6704 4.31837 -0.161273 -1.081 -2.6924 -1.76774 4.53736 2.30372 2.77823 -0.589666 0.378074 -0.335279 0.34296 3.77657 5.20687 -2.14452 1.5048 1.73866 1.53189 2.27519 4.30124 0.966878 0.640174 -0.687678 0.368888
internal_count=2671 1399 1272 651 762 748 460 585 259 326 167 244 196 153 140 123 98 43 510 48 177 159 320 219 209 291 166 191 88 494 82 127 137 31 140 51 180 28 110 27 72 269 223 197 85 117 112 96 25 46
shrinkage=0.001


Tree=9
num_leaves=51
num_cat=0
split_feature=16 16 20 16 38 24 134 79 20 106 129 69 16 13 106 86 0 112 77 168 107 5 100 58 23 18 36 36 60 107 81 81 52 81 166 18 103 79 0 75 83 7 40 87 77 79 135 45 132 134
split_gain=13421.2 1218.01 1039.88 287.811 204.004 213.709 217.176 208.493 190.6 190.469 157.237 154.947 140.956 124.108 117.939 320.81 126.471 106.44 104.915 103.653 103.606 100.768 100.121 90.7373 90.437 109.289 131.259 92.1206 89.7576 86.345 86.2355 95.8282 85.7598 81.6347 79.8217 132.608 77.3326 76.9912 74.1635 72.3362 80.3407 69.2255 77.4184 68.0649 67.7945 66.7621 66.0842 75.2877 70.2841 64.9697
threshold=1.6363916944840755 1.6865480854209571 2.6236666378543654 1.6465452046955467 4.6904157598232237 13.500000000000002 -0.13809625767840369 0.19769654734711029 2.803996861257025 4.9295 1.0071464184210839 0.35839746311368897 1.563471919940796 4.1108041666666679 4.7110000000000012 4.7095000000000011 2.2432615144521657 -2.1990883165421814e-06 33.500000000000007 2.3032639465777343 4.0701500000000008 4.6331345000000015 4.6308724832214765e-06 0.013770280376626677 0.057740896952878769 2.3418890760332625 -1.1215879502720711e-06 -1.8063279289691695e-07 74543.467266083884 4.658100000000001 5.0955000000000004 5.1575000000000006 30.500000000000004 5.7695000000000007 5346.0344430443665 2.3706965248509451 -9.3339555970397713e-06 0.22464806522340716 2.3168574146597307 52.500000000000007 -37.499999999999993 2.5888038561081634 3.4731215921460268 49.500000000000007 28.500000000000004 0.25117772919111597 -0.50814791127167458 5.3183433333333339 0.92218891052271201 -0.15575227068832651
decision_type=2 2 2 2 2 2 2 2 2 2 2 2 2 2 2 2 2 2 2 2 2 2 2 2 2 2 2 2 2 2 2 2 2 2 2 2 2 2 2 2 2 2 2 2 2 2 2 2 2 2
left_child=2 3 4 20 7 6 -6 -1 13 17 11 29 24 -3 -7 16 -16 -5 33 -14 -2 -11 30 28 -13 32 -27 -28 -15 -9 -17 -32 -26 39 44 -36 -8 -12 -23 40 -4 42 -22 -37 -33 -39 -19 48 -48 -41
right_child=1 8 18 9 5 14 36 10 -10 21 37 12 19 23 15 22 -18 46 -20 -21 41 38 -24 -25 25 26 27 -29 -30 -31 31 34 -34 -35 35 43 -38 45 -40 49 -42 -43 -44 -45 -46 -47 47 -49 -50 -51
leaf_value=0.00025327777301563934 0.0026721533531943956 -0.00035852180925153557 -0.00059427645642310377 0.0015527069230046539 -0.0026659507150833426 0.00069275683679363947 0.003815891360839208 0.0056215921603498011 -0.0038889659818481513 -0.0023628217290529584 0.0035208535005648934 0.004893969572385152 0.0027919585672291835 -0.0026842973538736504 0.0076476979684829711 0.00070215664930819044 0.0035214998642603555 0.00050973261619607609 0.00081127473288952843 -0.0015466433649713343 -0.0012573767014525156 0.00019927182883340203 0.0057426553336056797 -0.0017511323640588671 0.004003149774043183 0.0044067275909277105 -0.0017079054843295702 0.0018338636617768894 -0.0037274062390167881 0.002737723820550101 0.0048696281719509344 -0.00076983676801125191 0.0010031163768334822 -8.176504567913387e-05 0.0041193020413487647 0.0021976046104695956 0.0011469577772915364 0.006712079299290975 -0.0017084091071341489 0.0044541633422558128 0.001686308985792879 -0.0006665397916454823 0.0019643165777558863 0.0046771603147188817 0.002521725663313499 0.0045663187142076164 -0.0030198046082258222 -0.0020823863568907928 -0.00015049650320562267 0.0021058996409385358
leaf_count=17 12 21 20 18 13 22 15 42 212 254 24 30 11 240 20 21 12 24 259 11 11 28 11 64 76 13 11 22 127 14 21 12 11 23 59 157 40 30 74 13 67 144 23 12 13 29 10 63 59 136
internal_value=0 -2.12856 2.3576 -1.22743 3.09543 2.63486 1.00675 3.67321 -3.10553 -1.60601 3.85234 3.44221 2.99966 -2.73786 2.94212 3.08823 6.1035 -0.747617 1.26205 0.618112 -0.170883 -2.02528 2.77258 -2.85356 3.32048 2.96481 1.71403 0.650244 -3.04554 4.90241 2.66149 2.8113 3.62498 1.71244 2.64005 2.82627 1.87667 5.042 -1.18375 1.88773 1.16089 -0.36311 0.919063 2.37426 0.937776 5.65908 -1.01368 -1.29142 -0.567788 2.31145
internal_count=2671 1384 1287 720 769 428 68 341 664 530 324 241 185 452 360 338 32 174 518 22 190 356 306 431 163 133 46 33 367 56 295 274 87 259 253 228 55 83 102 236 87 178 34 169 25 59 156 132 69 149
shrinkage=0.001


Tree=10
num_leaves=51
num_cat=0
split_feature=16 20 16 20 69 18 106 16 28 97 117 23 101 139 139 2 106 15 81 37 76 88 159 115 72 20 165 79 70 29 104 138 128 66 135 9 50 140 102 160 47 125 101 103 16 136 165 88 98 168
split_gain=13988.9 1769.78 746.555 217.449 205.571 283.384 186.595 165.675 160.424 155.001 133.584 124.499 124.208 121.533 116.894 153.694 153.523 173.587 122.503 117.133 114.186 111.117 107.241 101.123 93.9686 89.4176 120.172 89.2125 88.1363 87.4931 86.8167 86.7624 85.9502 84.4971 83.0038 95.524 82.9631 82.453 112.947 82.4121 81.6279 81.5346 80.2546 80.0719 79.2496 103.396 87.1923 77.109 74.5349 74.4177
threshold=1.636391694485962 2.6236666378543654 1.6865480854209571 2.7884738709087591 0.3444209991840757 2.344292444432075 4.9295 1.6363916944840755 11.635000000000003 4.5705000000000009 1.4261983000000003 0.067694912006158445 3.890479943072216e-05 -0.00625062881289016 0.009176411809412378 1.2292725943051546 4.8480000000000008 616469.50000000012 5.1350000000000007 6.6250000000000009 3.8809027683213331 0.70201333333333349 -12515.865896039601 11.543182740505449 0.69500000000000006 2.5664435767416278 974.22570937059334 0.27288790421587023 74858.35283704316 0.11184171770389538 -1.6059887279633313e-07 0.0008585061271024543 0.81523387552948068 4.7950000000000008 -0.51077338113477733 26.089050438223328 74823.315497421179 0.0083823570973813408 -3.0020013342228143e-06 -6.9727927135924481e-16 75068.119484886673 0.98325951160513647 -2.4232748878693079e-07 -1.0000666711113886e-05 1.5951314818678453 0.1134278505948567 1131.9674529677259 0.70373666666666679 2.8189578308265948 11.599235296507102
decision_type=2 2 2 2 2 2 2 2 2 2 2 2 2 2 2 2 2 2 2 2 2 2 2 2 2 2 2 2 2 2 2 2 2 2 2 2 2 2 2 2 2 2 2 2 2 2 2 2 2 2
left_child=1 4 6 33 -1 10 27 12 13 28 11 29 37 20 16 -16 17 -15 22 -20 24 -8 -18 31 -7 -13 -27 34 -10 -6 -11 -21 36 -4 -2 -36 -9 38 -3 -23 43 -34 -17 47 46 -46 -40 -35 -25 -48
right_child=2 7 3 -5 5 8 21 32 9 30 -12 25 -14 14 15 42 18 -19 19 23 -22 39 -24 48 -26 26 -28 -29 -30 -31 -32 -33 41 40 35 -37 -38 -39 44 -41 -42 -43 -44 -45 45 -47 49 -49 -50 -51
leaf_value=-0.00074123783478370088 0.00048342516452074051 0.002131832045646809 -0.00054557276649607551 -0.003819394190804399 0.0039505183342256047 0.0015201389486973098 -0.0023402743348091902 6.1892145747939728e-05 0.0029915259434418243 0.00098023660226779813 0.0057013058845033033 0.0037960789898267159 -0.00094977328068017951 0.0020419898814276645 -0.0020803268411755563 0.00057140139586785263 0.0025436201863123908 0.0057376626827777963 0.0050447153825026294 0.0029770833627010391 0.0024742523216916361 9.5266871154308312e-07 -0.00048459935978055002 0.0053315219298998521 -0.0023590592029194037 -0.00086026209538633185 0.0030546383712026812 0.0011946398279577988 0.006293008872121573 0.006344544397867643 0.0041856294638970325 0.00038127703091927941 -0.00056074066089727636 -0.0024157651885151864 -0.00013981891179700261 -0.0018780821980871991 0.0039705240452289582 0.0026409036478535698 -0.00099866342494885139 -0.001831881280952976 -0.003424258317053318 0.0021786483297745389 0.0033734858724360287 -0.002827405414467847 -0.00038015305880261094 0.0010715535876273676 0.0022077082972282603 -0.00044213104320294931 0.0029652647867449556 7.620087906718254e-05
leaf_count=13 30 101 18 279 38 13 273 12 11 17 47 78 25 19 10 17 28 39 26 24 34 40 20 15 12 11 27 20 32 26 17 28 114 50 46 102 10 44 12 63 128 12 26 176 76 138 93 33 128 20
internal_value=0 2.15138 -2.43339 -3.13924 3.19474 3.26374 -1.5921 0.950651 2.85351 4.18705 4.1958 3.80214 1.22143 2.61938 2.82693 1.44568 3.05049 4.52874 2.73139 3.04622 1.28098 -2.00602 1.27978 2.77924 -0.337876 3.18195 1.91875 -0.805558 5.45077 4.92465 2.58587 1.58126 0.0186979 -2.67044 -1.03086 -1.33849 1.84309 1.33379 1.20285 -1.11913 -2.76901 -0.299053 2.26801 -2.4448 0.925781 0.555527 1.55886 -1.63227 3.21417 1.83134
internal_count=2671 1413 1258 684 756 743 574 657 516 77 227 180 509 439 380 53 327 58 269 221 59 376 48 195 25 116 38 198 43 64 34 52 148 405 178 148 22 484 440 103 387 126 43 259 339 214 125 83 143 113
shrinkage=0.001


Tree=11
num_leaves=51
num_cat=0
split_feature=16 16 20 16 18 106 20 130 165 134 112 40 167 105 9 60 127 45 156 165 13 132 134 53 129 5 58 0 135 79 79 166 1 23 141 168 102 168 79 105 17 66 106 60 130 5 127 131 136 160
split_gain=13409.1 1207.96 1052.87 334.532 209.343 201.207 187.572 185.32 174.112 160.701 141.765 130.85 127.47 135.149 215.618 116.636 116.222 111.274 130.571 106.899 105.341 105.325 102.722 113.381 91.6562 91.5024 90.6658 87.3608 84.8471 84.7385 83.6944 85.2768 83.7755 94.9037 72.1842 78.9902 71.7882 71.43 71.0707 71.9966 70.3205 74.0974 67.1577 66.6687 71.6258 66.4838 80.5471 71.5612 66.1304 65.8818
threshold=1.6363916944840755 1.6865480854209571 2.6236666378543654 1.6465452046955467 2.3376475267840369 4.9295 2.7884738709087591 0.98857936234663069 905.0716699889216 -0.15439785738320708 -2.4224934774409993e-06 2.9197529692727531 -5134.8953805383162 -7.2351170481489622e-06 10.657752068710524 74585.112514618886 0.94769189155431277 5.0987033333333338 2.0000000000000049 1175.5230921848304 4.1108041666666679 0.9415465503731415 -0.13741016363795741 117.50000000000001 1.0069081428519249 4.6331345000000015 0.012871391239538696 2.3203535080131026 -0.51077338113477733 0.26889197886167343 0.23571580493280414 9905.5736205069206 1.9566514369757295 0.070465073970819483 0.0072123857318569552 13.141088711559915 7.271514342895398e-06 -5.0931496337776005 0.23593901819074156 -3.1429345329196642e-06 1.1500000000000001 4.955000000000001 5.049500000000001 74366.096084734003 1.0077281716159729 4.3334920000000006 0.95639926691224286 0.98785641022975945 0.12457450237998234 -4.9719043696920066e-16
decision_type=2 2 2 2 2 2 2 2 2 2 2 2 2 2 2 2 2 2 2 2 2 2 2 2 2 2 2 2 2 2 2 2 2 2 2 2 2 2 2 2 2 2 2 2 2 2 2 2 2 2
left_child=2 3 4 21 8 10 20 9 -1 -6 -5 24 13 29 -15 42 -13 18 -4 -19 -3 43 -16 34 -9 -7 -22 -27 -12 -11 31 37 49 -34 35 -24 40 -18 -20 -40 41 -21 -14 44 -2 46 -30 -47 -33 -32
right_child=1 6 17 5 7 25 -8 11 -10 12 28 16 15 14 22 -17 30 19 38 36 26 -23 23 -25 -26 27 -28 -29 45 -31 32 48 33 -35 -36 -37 -38 -39 39 -41 -42 -43 -44 -45 -46 47 -48 -49 -50 -51
leaf_value=0.00069791924272264761 -0.0012900698911906643 -0.00040543337173759944 0.0037551331284597068 0.0022860916449555331 -0.00087694207727909092 -0.0023802932315067555 -0.0037224095067706973 0.0031806358603870171 0.0043841485185176134 0.0027761320475074985 0.00067281678950786589 0.0059026072936398648 0.0059756596763928735 -0.0023229344253356643 -0.00083864290962616607 0.00069577832907438285 0.0013282978217905531 -0.0018395530574023722 0.00065401783484827591 0.0013401799721270795 -0.0029936219846859527 0.0015155682526967105 0.0024676699465140703 0.0049028655541794646 0.0062065693054199223 -8.0200729470174666e-05 -0.0017157763745854885 -0.0019760957194864749 -0.0014757900324019674 0.0061986742341518398 0.0027898368755728009 -0.0011252644926140253 -0.0005737404251098631 0.0034522287649767737 -0.00054922385053201162 -0.00049732961297035223 0.0032997956974165779 0.0032559187153403304 0.00385079346644251 0.0015221954588592052 0.0011081145226961272 -0.0022770979239390447 0.0034033341678480311 -0.00078337764808548104 0.0018089565308197684 -0.00091778191895711982 0.00048110647624538793 -0.0034076738871060886 0.0020992419894536336 0.0043882281259894369
leaf_count=14 11 20 33 14 16 257 275 17 160 27 25 14 18 13 12 10 26 13 54 10 313 34 84 14 25 39 68 65 65 10 40 11 10 14 11 10 14 76 19 45 318 13 24 119 23 21 31 26 15 75
internal_value=0 -2.12212 2.36532 -1.22993 3.12636 -1.6272 -3.08543 2.83362 4.08813 2.18417 -0.769007 3.33397 2.39481 1.99718 1.55797 3.77692 3.08697 1.27122 1.9947 0.974084 -2.64834 -0.0758149 1.94386 2.22529 4.98417 -2.05958 -2.76582 -1.2661 -1.02419 3.70385 2.93895 2.3531 3.47773 1.77057 1.86733 2.15118 1.0774 2.76554 1.50153 2.21506 0.985865 -0.700021 4.50814 -0.430109 0.803389 -1.32157 -0.842834 -2.2973 0.731182 3.83314
internal_count=2671 1406 1265 730 746 543 676 572 174 249 182 323 233 181 144 52 281 519 151 368 401 187 131 119 42 361 381 104 168 37 267 128 139 24 105 94 355 102 118 64 341 23 42 153 34 143 96 47 26 115
shrinkage=0.001


Tree=12
num_leaves=51
num_cat=0
split_feature=16 20 16 16 20 38 119 79 66 2 139 82 18 88 50 13 79 134 160 69 1 166 166 102 6 57 5 58 139 18 141 112 56 156 136 81 137 132 58 112 80 8 162 156 14 160 1 104 21 111
split_gain=13854.8 1117.32 1028 222.47 215.595 197.251 247.667 209.056 179.091 161.943 153.249 144.105 128.365 121.2 113.959 112.887 108.097 222.53 171.274 146.01 105.705 106.533 103.11 102.089 101.605 96.322 95.9719 153.06 91.0933 94.02 90.3037 88.073 84.0934 83.1374 108.349 95.9132 79.8063 96.3519 79.7019 79.5183 74.4739 73.3552 71.6033 70.3308 70.5046 69.9044 69.1707 83.5309 67.3514 66.1241
threshold=1.6363916944843677 2.6236666378543654 1.6865480854209571 1.6465452046955467 2.7884738709087591 4.6904157598232237 12.743670436073243 0.19769654734711029 5.035000000000001 1.229272594305479 0.008876366726938343 3.7350000000000008 2.3432688884278803 0.70201333333333349 74865.01438444489 4.1108041666666679 0.23571580493280414 -0.16785905867882386 -4.0017766878008834e-16 0.37673361524523891 1.9566514369757295 5929.0930554236247 6326.6480350979446 6.9379586390927305e-06 6.2569020363950889 74968.55904523145 4.269415200000001 0.018004356976374643 0.0080848612628240928 2.3547716423443394 -0.0024918038600610089 -2.1221835476498698e-06 3.00665552385566 2.0000000000000049 0.1655723713422286 5.2195000000000009 -0.035494923695894916 0.9415465503731415 0.013770280376626677 -5.2218742668987591e-07 74541.213599290801 2.4920684986877455 11625.730420910882 8.5000000000000089 0.11815095058199147 -8.8524150972565014e-16 1.9760178300438251 -1.0449527956735243e-06 0.079333791128150435 5.245000000000001
decision_type=2 2 2 2 2 2 2 2 2 2 2 2 2 2 2 2 2 2 2 2 2 2 2 2 2 2 2 2 2 2 2 2 2 2 2 2 2 2 2 2 2 2 2 2 2 2 2 2 2 2
left_child=1 5 3 36 15 7 9 -1 31 -7 11 25 -12 -10 -11 -4 17 -8 -18 -19 21 -20 -14 26 -23 42 33 -28 29 -21 -15 -5 41 34 -3 39 37 -2 40 -35 -17 -29 -9 44 -13 -32 47 -41 -44 -16
right_child=2 23 4 8 -6 6 16 10 13 14 12 43 22 30 49 38 18 19 20 28 -22 24 -24 -25 -26 -27 27 32 -30 -31 45 -33 -34 35 -36 -37 -38 -39 -40 46 -42 -43 48 -45 -46 -47 -48 -49 -50 -51
leaf_value=0.00023986380030127137 -0.00026044218214097575 0.0043607989119446794 -0.00032118779689073565 0.001157741757556796 -0.0037816260396736569 -0.001694904169703231 -0.0021491666400432585 0.0046974199571779797 -0.0024143550487217081 -0.0012982819536328316 0.0035145245498732522 0.0029368944220004543 0.0026420415119691319 -0.0027199585171846247 0.0042446355368409841 -0.0025695042022455903 0.002404768455793199 0.0047388293997994791 0.0019300871323455462 0.0055401673340797417 0.0021052538871765133 0.0067056551327804729 -0.0016857619158246299 0.0032737863360863665 0.0043066497247327461 0.0042000059314207597 -0.0015628379163742066 0.0002842720606110313 0.0002824216625466943 0.0023092064702223678 0.00094042749133977028 -0.0010816112261659032 0.00082379283377900727 -3.5278752654097802e-05 0.00040649067997932439 0.0034145907264947891 -0.0012082063771910588 0.0022237099003791809 -0.0017303127853643327 0.0047044986257950465 -0.0035515312678080337 0.0033934324816465382 0.0087786615212758368 0.00066841436862945562 0.0050308998888189144 -0.0011905389194687209 0.00041126962218571595 0.0016145812238481912 0.0055673371251424159 0.001693203771428058
leaf_count=17 71 23 20 20 283 17 10 28 270 10 38 62 11 26 14 194 76 29 11 10 17 30 11 23 44 110 25 11 20 96 22 142 290 43 10 20 59 20 63 12 130 25 12 10 22 51 27 33 15 38
internal_value=0 2.30656 -2.25009 -1.37821 -3.11046 3.09059 2.63456 3.66304 -1.68203 1.03633 3.84516 4.17928 2.40118 -2.067 1.78684 -2.64353 3.00237 2.41738 3.54407 2.71265 4.39199 4.84816 0.473594 1.2099 5.28057 4.74353 1.11825 0.820204 2.24551 2.61496 -1.11866 -0.804531 1.00326 1.74034 3.16555 1.39122 -0.302009 0.284426 -2.76329 1.03846 -2.96384 2.44619 5.82876 3.18778 3.48651 -0.54696 1.6811 2.44078 6.9983 2.38205
internal_count=2671 1300 1371 681 690 758 422 336 531 79 319 259 60 369 62 407 343 165 178 155 102 85 22 542 74 165 519 351 126 106 99 162 326 168 33 135 150 91 387 115 324 36 55 94 84 73 72 45 27 52
shrinkage=0.001


Tree=13
num_leaves=51
num_cat=0
split_feature=16 20 16 18 79 16 106 130 134 20 112 67 97 58 134 65 139 75 98 128 134 13 5 0 3 2 117 101 5 58 156 58 88 101 104 109 8 8 165 69 89 67 64 134 8 48 125 135 146 134
split_gain=13478.1 1200.44 1111.71 263.053 262.11 249.39 199.027 193.716 209.403 184.77 129.602 124.057 150.55 123.431 146.098 123.333 108.099 141.788 111.959 114.528 168.261 104.555 100.353 97.7902 93.1913 119.968 88.9498 88.1414 92.4212 123.532 96.5179 86.4669 87.5369 84.9865 82.8724 82.3474 77.6617 83.4896 76.4733 73.5134 102.308 77.8668 125.008 70.862 70.3319 68.4176 65.2146 64.7262 63.7181 71.2325
threshold=1.6363916944843677 2.6236666378543654 1.6865480854209571 2.344292444432075 0.19769654734711029 1.6465452046955467 4.9295 0.97370375346326443 -0.12731333670925843 2.7884738709087591 -2.3848846445504401e-06 11.635000000000003 4.5705000000000009 0.050475641376294185 -0.10666881942682169 7.2269297591517692 -0.00625062881289016 61.500000000000007 2.7658449204363103 0.82822647953710871 -0.1590982467141161 4.1108041666666679 4.6331345000000015 2.2247006376659733 0.5163977794926623 1.229272594305479 1.5179647000000001 3.890479943072216e-05 4.2731763000000011 0.018004356976374643 2.0000000000000049 0.012871391239538696 0.6937633333333334 -2.1793786481962955e-06 -9.3912052597256096e-07 3.9175000000000004 2.5199901486173979 2.4859178964288806 1056.2789371738829 0.3731124749970135 3.4445000000000001 8.4350000000000005 -9.4999999999999982 -0.10803301350940246 2.5375559481767769 6.4073939281637253 0.91477411155140864 -0.51077338113477733 4.4069360398071238 -0.061271090682945652
decision_type=2 2 2 2 2 2 2 2 2 2 2 2 2 2 2 2 2 2 2 2 2 2 2 2 2 2 2 2 2 2 2 2 2 2 2 2 2 2 2 2 2 2 2 2 2 2 2 2 2 2
left_child=1 3 5 4 -1 -2 10 8 -5 21 -7 16 15 14 -6 -13 17 23 -18 38 -21 -4 -8 -9 39 -26 -15 28 30 -30 -3 32 -23 36 -14 -35 37 -32 -20 -22 -41 42 -42 -10 -31 -43 -40 -12 49 -34
right_child=2 27 9 7 13 6 22 11 43 -11 47 12 34 26 -16 -17 18 -19 19 20 24 31 -24 -25 25 -27 -28 -29 29 44 33 -33 48 35 -36 -37 -38 -39 46 40 41 45 -44 -45 -46 -47 -48 -49 -50 -51
leaf_value=-0.00033720043714229882 -0.00016496869928745271 0.0032299360955506569 -0.00041953317418694496 -0.0033215226435661313 0.008237144508957862 0.0018595226741012405 -0.002392933596243184 -0.0022831212392220124 0.0035046893403927492 -0.0037095923211491366 0.00044377253925800326 0.006260854721791817 0.00064979577766997474 0.0037414027975428673 0.0037950843121324269 0.0022347524201124904 0.0048810565515206416 0.0029526231351810006 0.0053290244472026828 -0.0015146313751285725 0.0045000162706925317 -0.0034007028995385888 -0.0012142357800242621 0.0016740589025119939 -0.00044006781925757729 0.0024311667918841891 0.0060343484577379735 -0.00065818984596431249 -0.0011268144590063736 0.0013335874410451134 0.0034723347948147692 -0.0017055367256049068 -0.0022892604368704339 0.00055337633255727681 0.0036981406233310703 0.0033680548091729484 0.0048219102541605628 -0.00017796241069833438 0.00073574219584465034 0.0056667611980438237 0.0023009150016692378 0.0039239423056159706 -0.0016189667489040979 0.00051460232068510604 3.1064973832393176e-05 0.0015562589091886031 0.003461300495231094 -0.0012983829395566793 -0.0028350520079394423 0.00042361887057622277
leaf_count=13 153 40 20 10 16 17 251 13 15 283 25 33 14 168 14 10 26 26 20 11 26 196 102 12 21 47 19 25 26 275 13 64 27 79 25 12 12 12 10 10 31 35 11 17 49 19 78 142 83 15
internal_value=0 2.30582 -2.18915 3.12576 4.01717 -1.292 -1.61293 2.73129 0.669127 -3.08875 -0.768827 2.91227 4.03422 4.2785 6.16752 5.32688 2.6797 1.31718 2.88082 2.71748 2.28747 -2.65469 -2.05263 -0.379675 2.49709 1.54299 3.97491 1.17312 1.2617 0.968462 1.87202 -2.77054 -2.98256 1.44688 2.60643 0.925642 2.72615 1.71619 3.55666 2.98784 2.61598 2.29715 1.2719 1.91933 1.13691 3.09272 3.15271 -1.03698 -2.32612 -1.31799
internal_count=2671 1293 1378 750 230 690 537 520 42 688 184 478 82 217 30 43 396 51 345 319 211 405 353 25 200 68 187 543 518 350 168 385 321 128 39 91 37 25 108 132 106 96 42 32 324 54 88 167 125 42
shrinkage=0.001


Tree=14
num_leaves=51
num_cat=0
split_feature=16 20 16 20 69 16 106 18 28 134 46 112 73 157 26 164 109 140 16 101 107 139 0 71 104 88 100 45 89 100 21 168 81 89 102 23 146 71 89 139 10 107 165 170 171 8 137 81 103 50
split_gain=13403.4 1156.41 1067.13 212.467 255.947 198.266 198.539 168.164 141.576 179.705 229.499 139.912 127.425 119.656 117.313 180.25 142.387 131.964 129.369 112.65 112.538 111.754 110.546 136.566 100.137 99.5728 97.4335 95.981 95.8377 88.838 101.294 88.4399 89.4834 110.433 85.8942 94.7824 84.6041 83.122 83.0933 81.1023 80.1457 79.5373 74.8153 73.0559 71.4422 123.317 71.1591 70.7207 69.0102 68.8468
threshold=1.6363916944843677 2.6236666378543654 1.6865480854209571 2.5722557219644657 0.34782689360240193 1.6465452046960345 4.9295 2.5720624113917316 11.635000000000003 -0.16150845671730077 2.6046361440752714 -2.1990883165421814e-06 35.500000000000007 2299.8295587650537 6.5000000000000009 -7.9346557145618597 3.5965000000000003 0.01086921707101933 1.5634719199412717 3.890479943072216e-05 4.1270000000000016 -0.0020892340068263873 2.2156924261310746 4.1735500000000014 2.1240392060243328e-06 0.70201333333333349 4.4597315436241612e-06 5.0987033333333338 3.2695000000000003 5.9731543624161061e-07 0.085336359659693675 -2.4343578880294348 4.8205000000000018 3.5185000000000004 6.9379586390927305e-06 0.038807626714570283 4.8540960513029061 4.4066500000000008 4.1005000000000011 0.0055145956551193509 3.0000200001333346e-05 4.0856500000000002 1144.5463185185447 17821.32885120199 -13011.284935715876 2.4631497302509913 -0.034502040204093927 5.4940000000000007 -4.0002666844456286e-06 74888.684081377069
decision_type=2 2 2 2 2 2 2 2 2 2 2 2 2 2 2 2 2 2 2 2 2 2 2 2 2 2 2 2 2 2 2 2 2 2 2 2 2 2 2 2 2 2 2 2 2 2 2 2 2 2
left_child=1 3 5 4 -1 41 11 20 9 10 -5 -7 21 -10 15 16 -14 26 42 27 37 -11 -20 -24 -15 38 29 31 -6 30 -16 43 -33 -34 35 47 -22 -4 -8 -27 44 -2 -17 -3 -23 -46 -43 -29 -31 -18
right_child=2 19 7 8 28 6 25 -9 13 12 -12 -13 14 24 17 18 49 -19 22 -21 36 40 23 -25 -26 39 -28 34 -30 48 -32 32 33 -35 -36 -37 -38 -39 -40 -41 -42 46 -44 -45 45 -47 -48 -49 -50 -51
leaf_value=-5.2647194862365724e-05 0.00239823994576931 0.0036090349713903528 -0.00029408913830916087 -0.0029750986690704629 0.0071032229466871794 0.0020905380450189112 -0.0025414831077840562 -0.0038152395614903965 0.0051276229594335995 -0.0010559553937454309 0.0029669146281022288 -0.0010110826206272704 0.0048689138770103453 0.0011765162375569343 0.0022038844862444832 0.0065682159392038983 -0.0012214986526966095 -0.001083768882751465 0.00040708566248416904 -0.00087691640383005137 -0.0030422370314792621 0.0044998302674293536 0.0016986857701750363 0.0051478605591588553 0.0047507813224425682 -0.0017824735805392266 0.0056819198036193851 0.00082329109842712819 0.0040560887833130665 6.4829424449375697e-05 0.0041074101266812303 -0.00099033406201217864 0.0034741935644149783 0.00088723290076061167 0.0032204236765994744 0.0013975368013771259 -0.0016020348621451337 -0.0036277110600471496 -0.00050220204413953153 0.00015335323666372609 -0.00018427401979764302 5.5863362837457254e-05 0.003385552831888199 0.0012451793116958515 0.003414536580112244 -0.00082913016135042377 -0.0013452949372715639 -0.00056270216912708494 0.0022237136310222106 0.001861493060279351
leaf_count=15 10 43 30 13 11 16 232 211 43 14 13 158 13 20 66 30 10 10 10 25 383 15 17 36 13 71 10 111 195 21 49 14 25 49 17 191 46 10 22 31 12 89 10 19 18 11 61 55 51 26
internal_value=0 2.29825 -2.18348 3.10389 3.92888 -1.30708 -1.60165 -3.07263 2.76034 2.54871 -0.000245867 -0.725301 2.70342 4.02603 2.94436 3.61285 2.0302 2.453 4.36479 1.19454 -2.73832 1.46634 3.4678 4.04341 2.58759 -2.0297 2.63304 1.29356 4.21929 2.46947 3.01582 1.97008 1.32346 1.76256 1.02196 0.916992 -2.88804 -1.12999 -2.36525 -1.19315 2.0987 -0.33068 5.77505 2.88624 2.72361 1.80142 -0.513274 0.363474 1.59543 1.00233
internal_count=2671 1301 1370 752 221 690 530 680 531 455 26 174 429 76 359 152 49 207 103 549 469 70 63 53 33 356 197 524 206 187 115 150 88 74 374 357 429 40 254 102 56 160 40 62 44 29 150 166 72 36
shrinkage=0.001


Tree=15
num_leaves=51
num_cat=0
split_feature=16 16 0 38 79 16 0 165 106 13 129 7 107 112 89 17 88 14 139 165 7 61 14 13 63 69 112 8 106 88 64 60 135 135 134 46 141 112 134 134 81 139 89 168 7 82 41 119 58 8
split_gain=13342.8 1159.52 948.246 269.116 236.468 217.861 159.652 158.449 151.248 143.356 143.098 149.696 136.855 128.295 127.165 153.555 117.321 115.583 107.435 104.742 114.088 104.043 99.5669 96.9613 158.771 100.144 89.4735 123.93 88.7868 83.821 86.5079 86.4695 81.6129 81.3522 81.1405 230.638 81.4386 82.2059 79.5417 77.7639 76.9283 75.5852 74.7086 74.112 73.0816 72.286 72.9141 77.1294 71.2957 69.5365
threshold=1.6363916944843677 1.6865480854209571 2.2488942254513344 4.6904157598232237 0.19769654734711029 1.6465452046968905 2.3861447699591474 1002.8012661130725 4.9295 4.1108041666666679 1.0069081428519249 2.538832638880137 4.0856500000000002 -2.3848846445504401e-06 3.4125000000000005 1.5500000000000003 0.70343000000000011 -0.022994382642789409 0.0055145956551193509 1114.8613067929957 2.5954314215698173 5.2273868625391264 -0.0051314850898774586 4.5338833333333346 -10.499999999999998 0.35497985144459848 -1.0896748889373174e-06 2.5038703774077136 5.0955000000000004 0.71064000000000005 -14.499999999999998 74629.268997250532 -0.27632845489486857 -0.51077338113477733 -0.1590982467141161 2.876736283907789 0.0051099832547798979 -6.7258550669656069e-07 -0.15822037034186412 -0.12796279976396538 5.2635000000000005 -0.0093227855662037749 4.1005000000000011 14.566429155129812 2.5786152785700556 2.9250000000000003 5.7649290000000004 24.696729164912238 0.012871391239538696 2.5038703774077136
decision_type=2 2 2 2 2 2 2 2 2 2 2 2 2 2 2 2 2 2 2 2 2 2 2 2 2 2 2 2 2 2 2 2 2 2 2 2 2 2 2 2 2 2 2 2 2 2 2 2 2 2
left_child=2 5 3 4 -1 17 9 -5 13 -3 11 23 22 -7 15 -9 42 -2 -18 -14 38 -13 44 24 -6 -26 27 29 -19 31 -31 -16 -12 -15 35 -28 37 -36 -21 -25 -41 -22 -10 49 -4 -35 -47 -48 -11 -43
right_child=1 6 12 7 10 8 -8 14 16 48 32 21 19 33 26 -17 18 28 -20 20 41 -23 -24 39 25 -27 34 -29 -30 30 -32 -33 -34 45 36 -37 -38 -39 -40 40 -42 43 -44 -45 -46 46 47 -49 -50 -51
leaf_value=1.3244656955494598e-06 0.0019483671095026167 -0.00019736504413187504 5.3335910061231015e-05 -0.0012876623050733047 0.0056461942703116171 0.0020281876986580232 -0.0039073534795994822 0.0014572204151978858 -0.0025826988573582773 -0.0030984976685323514 0.0044959656518933017 -0.0014075366699695582 -0.0016024001497243129 0.0005570946600288153 0.0023986575329193365 0.0056781839038317029 -0.0017578796497778968 -0.0013042828477095615 0.00065029284005554825 0.0037189198906766251 -0.0011200530784204602 0.002811456165782043 0.0050154029082258543 0.0010254117712378502 0.0058084679031372068 0.0021852089571230342 -0.0032653374367952333 0.00012595141132672627 0.00011502197541114761 0.0030982976952424407 0.0066430425898234054 0.0054850953839041972 0.0071391405650547577 0.00047392540740616185 0.00073030662387609478 0.0035260093124210834 0.00094825338132324666 0.0027027477334679094 0.0014224351230757773 0.0015206805447737376 0.0038088141043980915 0.0018167950977091537 -0.00064213398524814037 0.0029002750074863435 0.0031728237491514947 -0.00060132251816164505 -0.0034517829100290938 -0.0014027302694817384 -0.0019861753654392329 0.00014546492307392113
leaf_count=17 19 20 13 11 51 14 190 13 216 399 76 10 14 24 54 26 64 95 26 16 24 14 15 16 10 33 10 12 82 13 15 11 14 17 24 10 42 186 282 18 84 33 22 15 18 38 33 42 68 102
internal_value=0 -2.19795 2.27354 2.98299 3.64321 -1.28742 -3.12852 2.45242 -1.6402 -2.82445 3.83282 3.42227 1.24651 -0.867572 2.55156 4.27376 -2.03563 -0.394164 -1.06107 1.09014 1.17022 1.04938 2.89642 3.69043 4.45056 3.03015 2.37313 3.15903 -0.646187 3.54932 5.00084 2.92252 4.90824 -1.13147 2.06938 0.125336 2.22327 2.4778 1.54607 3.08406 3.40601 0.525945 -2.40374 0.789972 1.86788 -1.44398 -1.7334 -2.30565 -2.93675 0.554753
internal_count=2671 1369 1302 770 343 692 677 427 496 487 326 236 532 168 416 39 328 196 90 486 472 24 46 212 94 43 377 105 177 93 28 65 90 154 272 20 252 210 298 118 102 174 238 150 31 130 113 75 467 135
shrinkage=0.001


Tree=16
num_leaves=51
num_cat=0
split_feature=16 20 20 16 18 20 53 96 130 134 101 70 3 101 86 135 103 167 105 9 162 81 73 132 40 127 57 138 87 128 149 8 128 51 54 21 56 104 105 108 28 141 141 15 18 114 107 159 128 132
split_gain=13047.6 1184.19 1117.73 337.262 271.514 192.21 180.962 179.087 170.703 240.277 133.706 126.72 141.252 126.003 106.718 105.018 103.377 100.564 117.422 130.047 110.18 94.9337 90.0726 89.1781 86.4626 98.904 88.4842 84.0839 83.6605 78.1292 76.8314 72.8018 71.4021 75.1807 70.4881 91.9881 74.1422 70.2885 74.145 78.2687 72.3538 67.2988 66.7051 64.912 64.5803 94.859 62.673 62.5241 62.1315 63.098
threshold=1.6363916944840755 2.7442001812249486 2.6236666378543654 1.6465452046955467 2.3376475267840369 2.7925034343742334 40.500000000000007 4.1555200000000001 0.98857936234663069 -0.15439785738320708 3.890479943072216e-05 75013.915538502857 0.51639777949340926 -2.4555197594102852e-06 4.7015000000000011 -0.49007907858984806 -6.000400026668437e-06 -5134.8953805383162 -7.583701217348585e-06 10.248551588487002 10699.470502011014 5.7895000000000012 49.500000000000007 0.94104024995709745 2.9075124656543316 0.94833388212497172 75157.531472912 -0.0044529148061514005 6.5000000000000009 0.82149645846094177 -5.3478518808541349 2.4726470600240478 0.80996815327758698 -108.49999999999999 64.950000000000017 0.008960998840772819 5.1509854852925505 -3.7560088343632469e-06 4.533725939782869e-06 107.89091671322903 10.645000000000001 -0.0014629847066936913 0.00024552296760470483 721348.50000000012 2.3634314207726903 4.5000000000000009 4.6692500000000008 -16063.207643567725 0.83122096417883606 0.93270232261767616
decision_type=2 2 2 2 2 2 2 2 2 2 2 2 2 2 2 2 2 2 2 2 2 2 2 2 2 2 2 2 2 2 2 2 2 2 2 2 2 2 2 2 2 2 2 2 2 2 2 2 2 2
left_child=2 3 4 23 6 14 -1 41 9 -6 21 17 31 16 27 -9 47 18 28 -20 -21 -4 -19 32 42 -26 34 -3 -11 -8 -30 -13 33 -2 35 -27 -37 -36 40 -40 -39 -5 -15 -16 45 -22 -42 -10 -31 -50
right_child=1 5 10 7 8 -7 29 15 13 11 -12 12 -14 24 43 -17 -18 22 19 20 44 -23 -24 -25 25 26 -28 -29 30 48 -32 -33 -34 -35 37 36 -38 38 39 -41 46 -43 -44 -45 -46 -47 -48 -49 49 -51
leaf_value=0.00090976274907588958 -0.00085066294074058512 -0.00042371404141639218 0.0013703911285412266 -0.00147131068774245 -0.0014062256097793577 -0.0037634086476504348 0.0062040740479122518 -0.0011691086274256994 -0.001690885005295276 0.0062966805284673522 -0.0013281683188109171 0.0033354466570051093 -0.0016292707498868307 0.0035173499703407278 -0.0030969706277703419 -0.0021973268733097118 0.002800473154919303 0.0030521795570850373 -0.0013674076546322216 0.00485890337569373 0.005208280990024408 -0.00029267120141019998 0.0061921277318681993 0.0012845315118093748 0.0058204143222173061 0.00085676363327286467 0.005281522605650955 -0.0024468721903454175 0.0011858892764896154 0.0030849871488717886 0.0049531313741207105 0.00025553582448225752 -0.00074768420927721316 0.0026377343871763774 0.0045444226168669189 0.0043234501266143687 0.0015185692873868073 0.0030010200809439023 0.0019551628822684288 0.0048557839727401738 0.0013504041806572959 0.00070597580792615194 0.0067556068488529757 -0.0017319381973147396 0.0012082395807777844 0.0017774502775669096 -0.0015945311860604719 0.0018449095943570135 0.0058348159510513836 0.0040786075321778857
leaf_count=16 11 33 458 22 18 263 22 145 10 11 21 19 15 12 290 319 46 27 11 14 12 37 14 37 15 11 18 55 12 39 10 13 128 14 13 71 11 15 25 15 21 40 14 40 60 25 11 10 29 73
internal_value=0 -2.14856 2.27649 -1.25042 3.04938 -3.09271 4.12686 -1.66292 2.71611 2.11564 1.14093 2.37693 0.899072 3.20863 -2.67048 -1.87622 1.97518 2.7308 2.36089 1.90667 2.23202 1.24588 4.1268 -0.107921 3.53127 3.33139 3.15397 -1.68932 4.03714 4.44204 2.90282 2.08736 -0.445311 1.09884 2.95503 3.5838 3.94841 2.36927 2.0431 3.0454 1.18796 -0.0649968 5.26487 -2.93182 1.85186 2.89285 0.334958 0.0720123 4.1664 4.5789
internal_count=2671 1397 1274 716 758 681 179 526 579 261 516 243 47 318 418 464 66 196 155 122 111 495 41 190 252 226 211 88 33 163 22 32 153 25 193 93 82 100 87 40 47 62 26 330 97 37 32 20 141 102
shrinkage=0.001


Tree=17
num_leaves=51
num_cat=0
split_feature=16 18 18 16 18 18 79 68 165 100 79 5 108 58 166 38 157 106 151 7 102 164 103 16 81 69 70 14 106 107 98 87 61 81 79 14 28 48 1 137 166 97 29 60 156 140 60 16 107 146
split_gain=13598.9 1041.73 1025.39 232.187 217.122 214.828 305.012 180.671 169.593 238.472 276.097 169.255 146.632 146.444 115.948 116.093 122.068 197.909 121.469 107.975 115.21 105.912 100.638 94.8957 93.6805 85.816 82.4362 80.8992 94.8928 80.2313 108.307 77.9458 75.0371 80.3492 75.0199 74.4266 70.518 70.1934 81.7505 76.1216 69.4776 80.1167 66.0733 62.9051 61.913 65.5453 61.228 67.3156 65.7264 62.2444
threshold=1.6363916944843677 2.3923066929500236 2.5156078418091972 1.6465452046955467 2.5720624113917316 2.344292444432075 0.19620676461775119 3.4050000000000007 1033.6144952094232 2.0167785234899366e-06 0.24377992253463099 4.313435300000001 35.988838705455258 0.040933340647984304 15437.369919763554 4.647580015448967 1975.6932481468295 4.8665000000000012 14.858894277821816 2.5730678505558178 7.1380920613742516e-06 12.563492632934024 -2.0001333422229706e-06 1.5491933384831722 5.0955000000000004 0.39090897436102928 75075.390518174521 -0.022994382642789409 5.0955000000000004 4.0856500000000002 3.7012530551474687 20.500000000000004 11.433139498888151 5.7105000000000006 0.27288790421587023 0.075034194004970384 9.6450000000000014 6.1748839404769145 1.9500712216629845 0.027228307706806124 6971.832519633821 4.7303400000000009 0.20296325189037953 74359.668982202085 2.0000000000000049 0.004771003717614253 74537.296720754515 1.6865480854227486 4.1206000000000005 4.9326117970945154
decision_type=2 2 2 2 2 2 2 2 2 2 2 2 2 2 2 2 2 2 2 2 2 2 2 2 2 2 2 2 2 2 2 2 2 2 2 2 2 2 2 2 2 2 2 2 2 2 2 2 2 2
left_child=1 5 3 27 7 6 -1 -4 9 10 12 34 -7 -8 15 23 -17 18 -18 21 29 25 -12 -10 -19 -3 -26 -2 -29 30 -21 42 33 35 44 37 -13 -31 -39 -40 -23 -42 43 -15 45 -5 48 -48 -9 -49
right_child=2 19 4 11 -6 8 13 46 14 -11 22 36 -14 31 -16 16 17 24 -20 20 -22 40 -24 -25 26 -27 -28 28 -30 32 -32 -33 -34 -35 -36 -37 -38 38 39 -41 41 -43 -44 -45 -46 -47 47 49 -50 -51
leaf_value=-0.00097393972873687754 0.0021688695682929113 -0.00046123750045111309 -0.00022703675215517911 0.001297416623397952 -0.0038474533472885918 0.0030293024208396676 0.0071175352126359942 -0.0007183463615414344 0.0058276458833528607 0.0049723418966929125 -0.0047734044694900495 -0.0028312389815098619 -0.0013517222487926485 0.0012872177701729994 0.0059708881992560177 0.00046240901661955794 0.0037290720158153108 0.00069062680062682673 0.0079654908418655395 0.0052110259810090051 0.0033374156399142178 0.00091105128364129509 -0.00027576397597789767 0.0030738477422722751 0.0025566267996338697 0.0017913924774517547 0.0044918937120437628 -0.001188995047622862 0.00042018673387558565 -0.0014619993104853413 0.0010056450642645359 0.0051218121283728149 -0.00030341946049951588 -0.00058572782175374564 0.0015698108659187953 0.0028865272853685468 -0.0017233835519563797 0.001702640945647533 0.00028437655958093023 0.0030453316171060907 0.0045203444089740516 0.0012624851757287981 0.0053479867947101595 0.0036083878476172683 -0.0014823860923327242 -0.0017146683790467002 -0.0022557773997970657 -0.0037867921400388687 -0.00264231685913541 -0.0011834988617897032
leaf_count=12 13 19 29 21 215 32 16 19 23 15 10 73 10 13 13 23 18 24 11 10 21 11 10 28 195 149 25 78 69 11 16 46 52 29 15 23 277 120 110 11 32 10 20 128 56 11 51 131 307 10
internal_value=0 2.29443 -2.22034 -1.25725 -2.99498 3.15848 3.93048 -2.65973 2.7431 1.39369 0.52627 -1.62305 1.98382 4.19485 3.03144 2.92103 2.68005 2.86651 5.33944 1.36375 1.05516 1.92602 -2.52958 4.31772 2.57219 1.53604 2.777 -0.220959 -0.432985 0.929429 2.62695 3.96846 0.805172 0.995128 -0.494971 1.1622 -1.95474 1.00442 1.11741 0.536199 3.16033 3.74704 3.63831 3.39509 -0.848059 0.258887 -2.79573 -3.24557 -2.53049 -3.60287
internal_count=2671 1296 1375 613 762 672 235 547 437 77 62 453 42 223 360 347 296 273 29 624 403 221 20 51 244 168 220 160 147 382 26 207 356 304 103 275 350 252 241 121 53 42 161 141 88 32 518 192 326 141
shrinkage=0.001


Tree=18
num_leaves=51
num_cat=0
split_feature=16 20 16 16 20 69 90 20 130 134 70 101 156 16 90 101 21 103 88 103 98 90 60 1 5 156 125 79 166 8 166 101 58 107 107 1 112 81 156 1 98 50 79 136 162 160 7 50 28 1
split_gain=12779.7 1094.14 1091.18 231.756 202.769 248.75 194.234 186.205 181.786 162.352 128.331 122.293 121.606 115.045 118.061 100.12 98.9678 98.3269 94.9339 93.9256 90.6021 88.8145 88.6703 88.4902 88.4227 90.6853 86.4948 86.1313 94.6832 85.6177 85.3652 80.661 77.5521 93.6517 75.7545 73.8709 70.5061 70.36 69.5977 71.4601 74.315 68.9661 66.231 65.2549 65.0331 60.9732 60.1434 59.3416 58.5027 58.3311
threshold=1.6363916944843677 2.6236666378543654 1.6865480854209571 1.6465452046955467 2.5722557219644657 0.34782689360240193 3.8485000000000005 2.7884738709087591 0.98857936234663069 -0.15439785738320708 75013.915538502857 -2.4555197594102852e-06 -0.99999999999999611 1.5634719199411506 4.2115000000000009 3.890479943072216e-05 0.035552399762591967 -8.0005333688913334e-06 0.69521000000000011 1.1334088939262597e-05 3.9603464111773272 3.6755000000000004 74442.912875076916 1.9096115199811419 4.2731763000000011 2.0000000000000049 0.98616624844043821 0.23626968526169764 9905.5736205069206 2.5375559481767769 7002.7388259487479 1.3055653968691354e-07 0.012871391239538696 4.1270000000000016 4.7775500000000006 1.9482963290682458 -1.0394426844906411e-06 5.150500000000001 8.0000000000000036 1.9751997725330577 3.3305436083367845 75087.711295278379 0.2267906338424987 0.1098830178962535 29228.733047101701 -1.0000000180025095e-35 2.5546673609933337 74976.79196225763 8.7150000000000016 1.9316999358576163
decision_type=2 2 2 2 2 2 2 2 2 2 2 2 2 2 2 2 2 2 2 2 2 2 2 2 2 2 2 2 2 2 2 2 2 2 2 2 2 2 2 2 2 2 2 2 2 2 2 2 2 2
left_child=1 4 3 26 5 -1 23 32 9 -6 13 17 -13 14 22 24 -15 43 -8 20 30 -7 -11 -5 25 48 -2 28 42 37 -12 38 33 44 -16 41 -25 -26 39 40 -27 -29 -14 -10 -4 -44 -18 -24 -3 -17
right_child=2 15 7 6 8 21 18 -9 11 10 19 12 27 16 34 49 46 -19 -20 -21 -22 -23 47 36 29 31 -28 35 -30 -31 -32 -33 -34 -35 -36 -37 -38 -39 -40 -41 -42 -43 45 -45 -46 -47 -48 -49 -50 -51
leaf_value=2.2084937989711765e-05 -0.00038553497322567115 0.0052818340921401974 -0.0029599121613161903 0.0021248910330809077 -0.00095130137275247005 0.0068984857169064615 -0.0022307104502338917 -0.0036711069915577664 0.0018790165695277119 0.0028776768508884643 0.00049974468300739911 0.0069577947759628302 0.0037362195516588976 -0.00023744197943631343 0.00045389448165893549 0.00094132688172782436 0.0018319926497659513 0.0028391776505749412 -0.0012526138992607595 0.0031477332333723707 0.0022233017758889629 0.0039644326715591628 0.0069021777068867399 0.00077934227585404483 -0.00082458792869001627 0.00047105649560689929 0.0025217051961205221 0.0040212665841788857 0.00099600703966182952 -7.9744797103828012e-05 -0.0034502998286485669 0.00068563192145460676 -0.0016177732647799734 -0.0029884363560398826 0.0039176536603407423 0.0023999544755272245 -0.0012373781632121293 0.0013278017332527087 0.0044132007069885735 0.00022065831169486047 0.003472174437288885 0.0063878259833653767 -8.7250819206237778e-05 -0.0016494750478863716 -0.0001974805091253736 0.0032466683010260265 0.0037048563713431362 0.0038025528246164318 0.0024737960021197795 -0.0020131147758165992
leaf_count=16 146 10 14 13 17 11 264 278 11 18 12 10 67 17 15 12 56 43 160 12 11 195 17 24 16 12 11 74 24 62 10 68 67 294 11 23 62 280 12 20 27 15 10 10 22 12 25 10 30 15
internal_value=0 2.23344 -2.14178 -1.24745 3.02319 3.82658 -1.56733 -3.04258 2.68648 2.01901 2.25543 3.20182 3.53611 2.65527 3.62624 1.18027 1.95078 1.9728 -1.86185 0.751623 -0.116659 4.12159 4.60802 -0.304946 1.27481 1.84932 -0.181206 3.38359 2.76476 0.987282 -1.29118 1.46616 -2.6022 -2.80177 1.92318 4.00705 -0.67341 1.21112 2.2123 1.76296 2.55132 4.42125 3.24061 0.194021 -1.27454 1.72671 2.41127 5.75787 3.17831 -0.696326
internal_count=2671 1316 1355 680 752 222 523 675 530 231 214 299 235 169 71 564 98 64 424 45 33 206 45 99 537 179 157 225 113 358 22 139 397 330 26 112 86 296 71 59 39 89 89 21 36 22 81 27 40 27
shrinkage=0.001


Tree=19
num_leaves=51
num_cat=0
split_feature=16 16 20 16 18 79 20 66 130 134 138 106 117 79 101 1 4 141 28 48 112 109 79 79 107 107 58 45 168 79 135 160 102 156 4 112 139 164 170 125 28 102 168 136 97 164 96 100 52 14
split_gain=13516.3 1169.59 1061.86 301.872 207.846 269.101 199.878 183.218 170.144 235.67 153.126 149.559 122.149 111.919 109.6 102.177 101.547 97.791 96.6657 95.6688 94.0178 90.2339 86.0091 92.1821 84.9468 84.8663 90.568 83.4352 142.566 96.617 83.0295 81.1419 78.712 77.8212 76.5548 83.9221 75.9528 74.0234 86.5963 73.4785 100.701 72.5757 74.7901 71.8677 71.7778 71.7265 130.438 75.4418 66.9852 66.6002
threshold=1.6363916944840755 1.6865480854209571 2.6236666378543654 1.6465452046955467 2.344292444432075 0.19769654734711029 2.7884738709087591 5.035000000000001 0.98857936234663069 -0.15439785738320708 0.0016605352387942158 4.6035000000000013 1.4549955000000001 0.27288790421587023 3.890479943072216e-05 1.9316999358576163 3.5150519590213514 0.0027646411142322642 8.7150000000000016 4.9577760144399319 2.2163920063207287e-06 3.9335000000000004 0.23359717387359458 0.22647949823607158 4.0701500000000008 4.1270000000000016 0.012871391239538696 5.0987033333333338 -0.66387485627473641 0.23593901819074156 -0.39540282965690737 -6.9727927135924481e-16 6.9379586390927305e-06 0.50000000000000455 3.3805587157118779 -2.4224934774409993e-06 0.0080848612628240928 -12.601614733394181 15283.034174960709 0.94594625694005041 6.8250000000000011 -6.6711140760506678e-07 -18.500111392501221 0.14049938019159305 4.4340100000000016 1.6446666232013998 4.4698400000000005 3.1107382550335566e-06 36.500000000000007 0.020344811327844603
decision_type=2 2 2 2 2 2 2 2 2 2 2 2 2 2 2 2 2 2 2 2 2 2 2 2 2 2 2 2 2 2 2 2 2 2 2 2 2 2 2 2 2 2 2 2 2 2 2 2 2 2
left_child=2 3 4 24 5 -1 25 18 9 -6 17 -7 21 19 27 22 -9 36 -5 -12 33 39 23 48 -2 -3 -27 28 37 -30 -20 -24 41 -17 35 -26 -11 38 -4 40 -13 -29 -43 49 -19 47 -47 -33 -10 -44
right_child=1 6 14 7 8 11 -8 16 15 10 13 12 -14 -15 -16 20 -18 44 30 -21 -22 -23 31 -25 34 26 -28 32 29 -31 -32 45 -34 -35 -36 -37 -38 -39 -40 -41 -42 42 43 -45 -46 46 -48 -49 -50 -51
leaf_value=-0.00049378254505304188 0.0026714439088106152 -0.0012531510465573974 0.003861858492493628 0.0015919943746179341 -0.0017415315564473469 0.0073532643250056682 -0.0037155796792994189 -0.0022982217620315729 0.0028182537638950936 0.0029817122215130294 0.0035705878604026073 0.0030058026415961127 0.005696252206493827 -0.0017957362973690032 -0.00074285772276612427 0.0050984136492013936 -0.0010297574343251779 0.0066320751493627378 -0.0012096985575968796 0.0010370015487576334 0.00025659054132068859 0.0030203458660373497 0.0029209327989816666 0.0011705467902447867 0.0011928505648584927 -0.0030143670893648046 -0.001714137205029979 0.0015290040547578368 -6.9311652910944657e-05 0.0022310575785807201 0.0017753408609749747 0.0031014892506780051 0.0034233044275215692 0.0024244923183341909 0.0005000579943691475 -0.0012231375220818849 0.0004618064896265666 0.0037979001946250599 1.760042778083256e-06 0.0029277868655323979 0.0062538963871617472 -0.002070467391014099 -0.001403349472284317 0.0015658969723167972 0.0035476044639050964 0.0078255133432500509 0.0041212659969925881 0.0061409131093458705 0.0049363913844932212 0.00060933246744553679
leaf_count=13 10 41 10 16 15 14 287 291 48 61 21 14 34 10 26 13 81 11 132 52 17 102 35 23 17 294 66 146 38 35 10 33 14 70 69 92 15 45 14 20 31 10 20 66 25 17 22 11 22 92
internal_value=0 -2.14579 2.35955 -1.25276 3.1201 3.91747 -3.07763 -1.63896 2.77096 2.07419 2.36822 4.18466 3.96346 1.33674 1.2554 3.24112 -2.02229 3.13174 -0.73579 1.76721 2.40556 3.61008 3.63665 2.91397 -0.163467 -2.62079 -2.77627 1.36163 2.00846 1.03224 -0.99878 4.20537 1.09741 2.8445 -0.323293 -0.845415 2.48568 3.03984 1.6143 4.53397 5.2456 0.999613 0.587958 0.73787 4.49286 4.74579 5.7385 3.86362 3.48538 0.249032
internal_count=2671 1406 1265 718 749 228 688 530 521 210 195 215 201 83 516 311 372 112 158 73 100 167 211 93 188 401 360 490 142 73 142 118 348 83 178 109 76 69 24 65 45 334 188 178 36 83 39 44 70 112
shrinkage=0.001


Tree=20
num_leaves=51
num_cat=0
split_feature=16 16 20 18 16 20 66 28 109 134 166 88 160 23 156 3 52 71 139 139 6 168 0 81 160 76 140 167 16 166 109 71 10 141 128 146 90 129 47 98 140 97 165 8 4 96 156 1 103 2
split_gain=13407.6 1091.83 1020.97 263.429 230.371 221.568 192.749 154.557 129.85 123.024 106.103 100.607 96.9109 95.9941 99.5115 120.07 134.848 133.126 110.288 100.824 142.702 141.817 114.459 92.8394 90.1644 90.0061 89.0488 92.4497 87.6414 109.311 84.8874 83.6932 83.1699 76.7704 75.6702 111.54 81.35 72.6388 95.6398 71.7576 71.0049 70.4831 69.8165 80.2668 98.753 89.5103 78.1489 75.2978 74.5556 71.3244
threshold=1.6363916944843677 1.6633299933175569 2.6236666378543654 2.3376475267840369 1.6465452046955467 2.7925034343742334 5.035000000000001 11.335000000000003 3.5315000000000007 -0.058791895268452722 10532.708140438523 0.69108666666666674 -6.0026650317013254e-16 -0.016437187476157199 -0.99999999999999611 0.51639777949445742 16.500000000000004 5.0462500000000015 -0.00625062881289016 0.0076414470599956066 5.5728222648105001 9.0290109727464252 2.240017135576478 5.7895000000000012 1.8189894035458566e-16 3.5680424530085406 0.0019800788909206178 -9376.1134098730035 1.6363916944845183 10532.708140438523 3.5315000000000007 4.1353500000000016 -1.0000066667111113e-05 0.0040609520395840986 0.82780133410944845 4.3371567715625075 3.8325000000000005 1.0358121333149735 75055.00284392036 8.6115278426160913 -0.004013092097695385 4.1442900000000007 1093.5183186755146 2.526689367365639 3.2397814485430527 4.5004400000000002 2.0000000000000049 1.9403998338359238 2.0001333422228124e-05 1.2649110640675016
decision_type=2 2 2 2 2 2 2 2 2 2 2 2 2 2 2 2 2 2 2 2 2 2 2 2 2 2 2 2 2 2 2 2 2 2 2 2 2 2 2 2 2 2 2 2 2 2 2 2 2 2
left_child=2 4 3 9 28 8 34 13 -3 30 12 -8 -9 -5 -15 17 -17 18 25 20 -20 22 -21 42 31 -16 27 -18 -2 -30 -1 -22 -28 -29 -6 36 41 -13 -39 -10 -32 -36 -4 46 -45 -46 48 -47 -44 -48
right_child=1 5 23 7 6 -7 11 10 39 -11 -12 37 -14 14 15 16 26 -19 19 21 24 -23 -24 -25 -26 -27 32 33 29 -31 40 -33 -34 -35 35 -37 -38 38 -40 -41 -42 -43 43 44 45 47 49 -49 -50 -51
leaf_value=0.0070580066247419885 -0.0013003258521482347 -0.00041732260447282062 -0.00099536974430084238 -0.00027618738089998566 -0.0014642459422501864 -0.0037463758212883101 -0.0024756908713761904 0.0028419732075598506 -0.0025542598784679457 0.0007365590834617615 0.0026400573070533575 -0.0018296401152387263 0.0056608948698410625 0.0050378376334905628 -0.001099633011763746 -0.0019038615280389784 0.0051508885517716407 -0.00080154302656650544 0.0066252569161928624 0.003444643980264664 0.00056649007191881542 -0.0012973052772608672 -0.00033869363456964492 -0.00017925782980079334 0.0040547312361222726 0.0022548638487363171 -0.0011191309727480012 0.0013644284658506512 0.0014858353465795518 -0.00053813620907564952 0.0060386264801025403 0.0030012881637917549 0.0019320246351036158 0.0040925841135638101 -0.0003351195041788742 0.0031447998160123824 -0.0016247917416505515 0.0011964724531905219 -0.0017513246591118249 -0.0036628847307053169 0.0039090209526094523 0.0024243013326938337 0.0028473065687996614 0.0022622662785463038 -0.0013493124625430658 0.0021265482613333953 0.0012245121098267352 -3.2356510348618027e-05 5.4823368245905103e-05 0.0027345440655118891
leaf_count=11 45 26 12 12 59 255 179 18 399 10 40 96 39 16 11 10 12 10 13 39 16 11 10 41 81 29 15 40 48 60 18 127 22 14 32 10 32 22 22 69 132 13 77 32 26 27 246 40 11 36
internal_value=0 -2.17659 2.30559 3.05903 -1.19244 -2.98847 -1.54268 2.73938 -2.59704 4.15199 3.89415 -1.97837 4.77246 2.50964 2.58009 2.49438 1.59702 2.78632 2.89308 3.10328 3.397 1.9414 2.67049 1.26598 3.2092 1.32988 1.93788 2.63461 -0.127338 0.360481 4.3635 2.72956 0.692367 2.07358 -0.590026 0.00168685 -0.405211 -1.3418 -0.275153 -2.71792 4.16524 0.459824 1.38305 1.44091 0.746664 0.224091 1.67519 0.836157 2.49938 1.41764
internal_count=2671 1367 1304 756 618 749 465 585 494 171 97 319 57 488 476 460 113 347 337 297 237 60 49 548 224 40 103 66 153 108 161 143 37 54 146 87 77 140 44 468 150 45 507 495 125 93 370 67 88 282
shrinkage=0.001


Tree=21
num_leaves=51
num_cat=0
split_feature=16 16 20 18 18 20 106 28 45 125 16 79 98 101 3 71 130 139 0 1 128 15 6 104 106 96 142 132 107 58 88 87 135 79 21 71 140 139 142 88 128 165 35 102 139 136 151 168 83 166
split_gain=13539 1132.99 1089.33 260.81 231.731 171.022 160.514 144.66 133.824 127.591 118.398 116.365 111.692 110.232 107.264 157.001 126.298 116.292 143.748 106.149 133.464 114.399 138.852 103.733 99.7379 145.777 98.9199 96.6114 96.1535 91.577 87.7767 87.2929 82.2376 87.0917 102.409 80.8828 79.9964 79.5065 75.2659 74.2582 73.8947 82.8848 73.1474 71.1127 115.852 87.3994 85.1152 110.036 82.0646 79.5561
threshold=1.6363916944840755 1.6865480854209571 2.6236666378543654 2.3376475267840369 2.486651230758699 2.7884738709087591 4.9295 11.635000000000003 4.9498133333333341 0.96283643666248919 1.6465452046960345 0.30214245129170253 2.649286475795376 3.890479943072216e-05 0.51639777949285526 5.0199500000000006 0.97203200552235203 -0.0063947159858276535 2.2450731692367429 1.8998537943819722 0.83098614569171425 635581.50000000012 5.9132002535725023 5.8448016772873286e-07 4.8725000000000014 4.1408200000000006 5.7895000000000012 0.93420153534696559 4.1270000000000016 0.012871391239538696 0.70892666666666682 15.500000000000002 -0.51077338113477733 0.24729725781483183 -0.038018415040615046 4.4066500000000008 0.0083823570973813408 0.0016436955790154399 5.0955000000000004 0.69463666666666668 0.83348320111985486 1044.8479392388128 -103.84999999999998 -4.6697798532354346e-07 0.0023423014084325857 0.11716599662539717 16.519468923921661 9.622368185945243 -110.49999999999999 7002.7388259487479
decision_type=2 2 2 2 2 2 2 2 2 2 2 2 2 2 2 2 2 2 2 2 2 2 2 2 2 2 2 2 2 2 2 2 2 2 2 2 2 2 2 2 2 2 2 2 2 2 2 2 2 2
left_child=2 4 3 12 9 28 32 11 -9 10 -2 14 -1 26 15 16 37 -18 24 20 -16 -21 -23 -10 25 -19 36 39 35 30 -30 -14 42 -34 -35 -3 43 -5 -26 -22 41 -40 -6 44 -4 46 47 -45 -46 -47
right_child=1 5 13 7 6 -7 -8 8 23 -11 -12 -13 31 -15 19 -17 17 18 -20 21 27 22 -24 -25 38 -27 -28 -29 29 -31 -32 -33 33 34 -36 -37 -38 -39 40 -41 -42 -43 -44 45 48 49 -48 -49 -50 -51
leaf_value=0.0012085770885149638 -0.0004780283391971874 -0.00030703902391010317 0.0010380962074818935 0.0024180485477050136 -0.0010192260167815467 -0.003674726229326593 -0.0021921010291815674 0.0061755183662687025 0.0021715493537877734 0.00033013400728307149 -0.0021421646177994481 0.005536588253424719 0.0038549345204959042 -0.00085018730992451311 0.0040028847096860417 -0.0010318319672346114 0.0013480212888410015 0.0024632557157959253 0.0015327537760564259 0.0036243187801043193 0.0021157186080108985 -0.0020127975657582282 0.0013132813289468499 0.0046442960806431311 0.0016905681934531616 0.0064291643466268273 -0.00020615007625341319 0.00308181136623025 -0.0033100342123958577 -0.0017360242372751239 -0.0018945674580556375 0.0053762676678854844 -0.0018015252913836212 0.0018542336832019775 -0.0013536665766189495 -0.0036098282122612002 0.0026940519861256085 -0.0013965527975559236 0.0017873000347614287 -0.001355505329796246 0.002986297631873326 0.0049382979843903465 0.0025467442852755385 0.0014098826995183682 5.3211814436045564e-05 -0.00094040377714360763 -0.0014451362115533454 -0.0014812082907732795 0.0029824721106315975 0.001763720905554614
leaf_count=12 122 29 99 12 11 279 274 21 38 101 66 13 111 24 40 10 31 14 35 15 11 16 58 31 23 28 38 21 241 65 54 58 84 17 24 10 48 10 10 14 77 54 12 58 11 12 23 17 77 112
internal_value=0 -2.1482 2.35824 3.11858 -1.26602 -3.07318 -1.73858 2.79201 3.95975 -0.575636 -1.06278 2.5782 4.16809 1.24025 2.4977 2.85737 2.98999 3.17649 3.41128 1.87234 2.66546 1.10484 0.592778 3.28394 3.72996 5.10958 1.34181 1.5003 -2.6523 -2.81407 -3.05127 4.37764 -0.898275 -1.21835 -0.0211226 -1.15647 1.47074 0.679593 3.37603 0.167833 3.65026 4.44752 0.836932 1.32693 1.78186 0.943272 0.236271 0.753235 2.61745 1.50122
internal_count=2671 1389 1282 763 711 678 422 582 90 289 188 492 181 519 479 304 294 272 241 175 86 89 74 69 206 42 495 46 399 360 295 169 148 125 41 39 457 22 164 25 141 64 23 409 187 222 98 75 88 124
shrinkage=0.001


Tree=22
num_leaves=51
num_cat=0
split_feature=16 16 20 18 16 90 20 130 134 40 70 127 107 107 101 129 166 79 57 87 10 39 60 137 58 135 45 168 69 77 60 76 155 167 1 140 134 60 81 21 127 117 138 164 83 102 14 98 4 71
split_gain=13397.6 1186.43 1067.72 275.464 255.156 226.803 186.862 140.367 267.973 134.185 127.755 121.829 111.131 108.729 108.267 107.357 104.435 104.198 110.253 103.295 98.5334 108.699 105.998 98.1649 93.2774 88.7068 84.299 112.094 82.1431 87.0922 81.9909 80.4626 77.0032 91.0307 73.4591 71.9669 71.1905 72.3197 70.7713 70.1741 69.224 73.0571 68.6406 67.8195 91.4337 66.835 70.2361 65.2221 64.4113 64.9126
threshold=1.6363916944840755 1.6865480854209571 2.6236666378543654 2.3376475267840369 1.6465452046955467 3.8485000000000005 2.803996861257025 0.98857936234663069 -0.15439785738320708 2.9197529692727531 75013.915538502857 0.94769189155431277 4.1206000000000005 4.0701500000000008 3.890479943072216e-05 1.0069081428519249 6235.7428516223963 0.23571580493280414 75157.531472912 12.500000000000002 -5.0000333335555565e-05 9.5000000000000018 74430.432461827077 -0.012564471001397921 0.012871391239538696 -0.51077338113477733 5.0987033333333338 -0.66387485627473641 0.37481281520516702 16.500000000000004 74537.296720754515 4.5276314694819648 -23.000499999999999 -4849.3071282116098 1.9096115199811419 -0.003468700771881098 -0.11804887413625632 74426.683424621995 4.8205000000000018 0.039292935223687049 0.95437135910467708 1.4261983000000003 -0.0046776259480752784 7.4902773462433965 -30.499999999999996 6.9379586390927305e-06 0.032342994591730352 4.6696754815218036 3.3805587157118779 4.1670500000000006
decision_type=2 2 2 2 2 2 2 2 2 2 2 2 2 2 2 2 2 2 2 2 2 2 2 2 2 2 2 2 2 2 2 2 2 2 2 2 2 2 2 2 2 2 2 2 2 2 2 2 2 2
left_child=2 4 3 19 13 34 12 8 -5 15 20 -11 -3 -2 26 -9 23 28 31 36 -10 22 -22 -12 30 -7 27 -4 -13 -30 -14 35 -23 43 -6 -19 42 -38 -29 -31 -21 -42 -1 -34 -45 46 -28 -41 49 -15
right_child=1 6 14 7 5 25 -8 9 10 11 16 17 24 48 -16 -17 -18 18 -20 40 21 32 -24 -25 -26 -27 45 38 29 39 -32 -33 33 -35 -36 -37 37 -39 -40 47 41 -43 -44 44 -46 -47 -48 -49 -50 -51
leaf_value=0.0028958752671877537 0.0026572375416755675 -0.0010395146192775833 0.0028886788859910947 -0.0016214144033544202 0.0017818623320261637 -0.00084730427429418676 -0.0038595204273401866 0.002968223471501294 -2.3363263566385618e-05 0.0060835146029790252 0.00025893201629320774 0.0044202112827982226 -0.0026868441574380429 0.00082242999772230783 -0.00074203905777002759 0.0062677432258923856 -0.00049714321779168174 0.0052761742652817209 0.0063058238446712499 0.0063644590616226205 0.0021838052703784063 0.0042561289979144937 0.0056959347092188327 0.004105576266447703 -0.0017801328429218495 -0.0021085094556730945 0.00035436273553773114 -0.00097882259935140625 -0.00096527749538421635 0.00078318732996371431 -0.0036757187654503755 0.0020753948936119994 0.0011921005990748344 0.0043366762818561671 -0.0006134565384428107 0.0031645203667027611 0.00103823102414608 0.0034847923463466124 0.0015762830897234383 0.0031881441425946028 0.0035023297864529824 0.0058292112090370871 0.0060048500511381371 0.0044596798542298772 0.0012571054150076473 0.0032211169000182834 0.0013231480000248496 0.00088004463664256036 0.00033056906240456032 -0.0012475236451679327
