tree
version=v2
num_class=1
num_tree_per_iteration=1
label_index=0
max_feature_idx=142
objective=regression
feature_names=q01_roll_std_100 min_roll_std_100 q01_roll_std_10 min_roll_std_10 hmean gmean Hilbert_mean q01_roll_std_1000 min_roll_std_1000 max_roll_std_1000 mean_change_abs iqr iqr1 ave10 mean_change_rate_first_50000 sum q05_roll_std_10 q05_roll_mean_10 q05_roll_std_100 q01_roll_mean_10 q05_roll_std_1000 mean_change_rate_last_10000 mean_change_rate_last_50000 mean_change_rate_first_10000 q99 max_roll_std_100 q75Audio q25Audio abs_max_roll_mean_100 skew q01 abs_max_roll_mean_10 abs_std q95 q05 min_roll_mean_10 abs_trend q95_roll_mean_10 q95_roll_std_10 abs_q95 ave_roll_std_10 stdAudio ave_roll_mean_10 ave_roll_std_100 ave_roll_std_1000 abs_mean std_roll_std_10 av_change_rate_roll_std_10 q95_roll_std_100 std_roll_std_100 av_change_rate_roll_std_100 minAudio max_first_10000 maxAudio max_roll_mean_10 std_roll_mean_10 std_first_10000 av_change_rate_roll_mean_10 mean_change_rate std_roll_std_1000 av_change_rate_roll_std_1000 q95_roll_std_1000 min_first_50000 min_first_10000 min_last_10000 std_first_50000 q95_roll_mean_100 max_roll_mean_100 q05_roll_mean_100 std_roll_mean_100 av_change_rate_roll_mean_100 avg_last_10000 min_roll_mean_100 max_first_50000 ave_roll_mean_100 max_last_50000 std_last_50000 max_last_10000 max_roll_std_10 std_roll_mean_1000 av_change_rate_roll_mean_1000 max_roll_mean_1000 q01_roll_mean_100 min_last_50000 mad ave_roll_mean_1000 q95_roll_mean_1000 max_to_min_diff stdAudioIncrease min_roll_mean_1000 q05_roll_mean_1000 count_big abs_max_roll_std_1000 abs_max_roll_std_10 abs_max_roll_std_100 meanAudio avg_last_50000 avg_first_50000 std_last_10000 q99_roll_mean_10 av_change_abs_roll_mean_1000 av_change_abs_roll_std_1000 av_change_abs_roll_mean_100 av_change_abs_roll_mean_10 av_change_abs_roll_std_100 av_change_abs_roll_std_10 q99_roll_mean_1000 avg_first_10000 kurt q01_roll_mean_1000 abs_q99 q99_roll_mean_100 trend q99_roll_std_10 modeAudio q99_roll_std_1000 medianAudio max_to_min abs_q01 q99_roll_std_100 abs_q05 Hann_window_mean_50 Hann_window_mean_150 Hann_window_mean_1500 Hann_window_mean_15000 classic_sta_lta1_mean classic_sta_lta2_mean classic_sta_lta3_mean classic_sta_lta4_mean classic_sta_lta5_mean classic_sta_lta6_mean classic_sta_lta7_mean classic_sta_lta8_mean autocorr_1 autocorr_5 autocorr_10 autocorr_50 autocorr_100 autocorr_500 autocorr_1000 autocorr_5000 autocorr_10000 abs_max_roll_mean_1000
feature_infos=[2.1596857234890563:2.8922746282577951] [1.5896127474527595:2.3446478919821931] [1.1737877907770979:1.5811388300762523] [0:0.69920589878028683] [2.8215648044263215:4.9279681359544769] [3.5825385999999999:9.4654179999999997] [5.2415348333391645:50.671826806405754] [2.4693022199506918:3.5830520875726735] [2.3495566425213967:3.1662477990709625] [6.5807104289544425:1429.0629433975919] [-0.00086000573337155582:0.00061333742224948162] [3:13] [9:89] [3.6866416666666666:5.2958083333333335] [-0.10139994734142647:0.14243136088145256] [207622:796428] [1.5055453054179335:2.0976176963370921] [-24.5:3.2000000000000002] [2.3001097909676078:3.3219654642186924] [-225.44999999999999:1.9900000000000089] [2.5326644841725656:3.9441088974559517] [-0.11978344602523246:0.17506373156509591] [-0.098977219508818964:0.14999979365021374] [-0.12061458111762373:0.16207303262014774] [11:337] [12.691220221360547:2330.9913223885032] [6:11] [-2:3] [5.6100000000000003:494.37] [-4.0918262207255873:4.1084690798019885] [-336:-2] [19.399999999999999:4211.6000000000004] [2.5890852183163084:135.89133201596511] [9:50] [-39:0] [-4211.6000000000004:-8.6999999999999993] [-0.00044649147455139924:0.0006645023224953106] [5.7000000000000002:34.799999999999997] [3.8815804341358815:76.123072854786386] [9:93] [2.6016066627852523:26.10412483750418] [2.8863790000000003:138.95001000000002] [3.6947963614483537:5.3093325664873205] [2.7798130067340172:39.153994265819065] [2.8130889342708145:42.577828501521637] [4.1477066666666671:32.762073333333333] [0.93190916976653482:100.16200787718508] [22760.625151912885:75924.928711562548] [3.3042824982562697:117.38549589478352] [0.71580675050228659:134.75350290198747] [22666.935073186229:75936.77343498636] [-5008:-21] [13:941] [31:5115] [19.399999999999999:3685.0999999999999] [1.1901030472097085:101.03889310268585] [2.6211690545863835:97.549197783010044] [22757.964557269526:75921.279998886937] [-0.089323727598501282:0.14276451945282165] [0.54306842703490066:134.35701532467442] [22209.016092182377:75390.298653790902] [3.428372461932621:122.7692608204763] [-4482:-7] [-972:-5] [-1699:-4] [2.6819279287013469:193.8941412213953] [4.3099999999999996:8.4700000000000006] [5.6100000000000003:494.37] [0.91000000000000003:4.6399999999999997] [0.3365529160040725:14.911204621520655] [22665.474270634804:75933.174214980085] [3.3685999999999998:5.4497999999999998] [-357.20999999999998:3.2799999999999998] [17:3449] [3.6947466661329811:5.3094432326001844] [17:5115] [2.7071704444745084:240.31665916647029] [13:1456] [19.043809142780887:2949.4417946452172] [0.16959270725536413:3.2334344171125933] [22209.174352479571:75387.916821997671] [4.3389999999999995:62.295000000000002] [-23.82:4.3600000000000003] [-4079:-8] [2.2281416604445821:31.724965651468612] [3.6951742874208886:5.3104582720921325] [4.056:7.226] [-1033:1498] [0.42807827616534738:0.78298666666666672] [-37.478000000000002:4.6269999999999998] [2.2389999999999999:4.9199999999999999] [0:2082] [6.5807104289544425:1429.0629433975919] [19.043809142780887:2949.4417946452172] [12.691220221360547:2330.9913223885032] [3.6948466:5.30952] [3.6507199999999997:5.3892800000000003] [3.4480599999999999:5.3923399999999999] [2.6213149065276227:136.45070471434622] [7:251.11000000000058] [-1.508724832214765e-05:1.5785234899328862e-05] [-0.00043899603017062141:0.00054616711306101321] [-3.0820547031354235e-05:3.4823215476984652e-05] [-0.00044069604640309363:0.00040469364624308332] [-0.00045353238754379082:0.00050139426484522643] [-0.00041954624275433695:0.00047896647476628162] [4.1610000000000005:10.834000000000001] [3.3955000000000002:5.5195999999999996] [1.9005984757326264:630.14621225910264] [-4.641:4.7679999999999998] [11:658] [4.5999999999999996:32.710000000000001] [-8.239300194143986e-06:9.5287343273578634e-06] [5.2873013490394714:493.82861722651728] [4:5] [5.4397946989170656:815.5478154831502] [4:5] [0.51063829999999999:2.3452382000000003] none [5.3340435133227215:768.87686493634533] [0:1] [3.6946390094655168:5.309141850632523] [3.6942758877126933:5.3086397749572525] [3.6892528003821856:5.3017400479480612] [3.6416315797761767:5.2326949087178871] [0.79537139351946329:1.1146118898097643] [0:1.181978881443982] [0.85078181227039007:0.97896253241468023] [0.46177994256079569:0.97645873226967161] [0:1.0845520805293922] [0.89192471016597963:1.1547550071184729] [0:0.99705436104076883] [0.78573122964120579:0.99818155493660121] [0.43801450293317667:0.96773954347772206] [-0.24123998597588259:0.37736068656992383] [-0.64206966186668613:-0.10554332354929873] [-0.04837902091919221:0.53883866502219369] [-0.44404260707617865:0.31478646724641202] [-0.13143743274742986:0.14751454150797566] [-0.045256286304503117:0.08803794511135879] [-0.067029633808116662:0.037249671812275321] [-0.039262153376697688:0.060117222569058472] [4.3389999999999995:62.295000000000002]
tree_sizes=2372 2456 2446 2465 2444 2415 2438 2468 2444 2464 2464 2467 2463 2468 2472 2480 2464 2467 2484 2480

Tree=0
num_leaves=31
num_cat=0
split_feature=18 20 18 106 20 0 134 84 87 58 109 58 2 139 20 107 57 7 64 71 82 50 131 86 1 1 138 65 18 111
split_gain=10107 1463.63 465.937 246.667 220.763 182.436 164.953 148.011 130.585 158.566 122.566 145.234 133.62 119.547 112.996 94.6487 93.6471 88.897 85.626 84.7324 81.0649 80.0048 79.8902 78.7583 73.7874 73.4833 72.311 71.8353 70.3207 67.9387
threshold=2.4754756656727346 2.616250707972382 2.5200108200766507 4.8465000000000007 2.5685865032601098 2.2807051895444315 -0.16717628301698506 2.4653133983111437 19.500000000000004 0.039165729612507021 3.7805000000000004 0.013594025746199534 1.2692955176444218 -0.0026266670650745769 2.803300463029534 4.2433000000000005 74878.05977610634 2.6079696134278221 -19.499999999999996 4.2255000000000011 3.7450000000000006 75020.513786044423 0.98950315391304033 5.222500000000001 1.9038504312699913 1.9440403592761657 -0.0051263157716438896 3.3031720801165037 2.3650122252183414 5.6850000000000014
decision_type=2 2 2 2 2 2 2 2 2 2 2 2 2 2 2 2 2 2 2 2 2 2 2 2 2 2 2 2 2 2
left_child=1 3 10 8 -5 17 -6 -8 9 26 12 -12 -2 20 19 -7 -15 18 22 -4 -9 -20 -3 -21 27 -26 -1 -18 -29 -13
right_child=2 5 14 4 6 15 7 13 -10 -11 11 29 -14 16 -16 -17 24 -19 21 23 -22 -23 -24 -25 25 -27 -28 28 -30 -31
leaf_value=5.7644308639941961 5.7565917007057221 5.8211748936563845 5.6116604722484089 5.8974295583431227 5.6786773432670383 5.775979711025383 5.7028569639014641 5.7320698229337923 6.0331731394395538 5.9823234295676118 5.559426763492155 5.5637477825152875 5.6269546538253064 5.9455523182330872 5.5054700063084949 5.6953621179630884 5.7936001123367102 5.669279911888701 5.7863480066521147 5.5358555906643678 5.8494473079368303 5.8909592071119512 5.736073389632713 5.6136595952369843 5.7613393641887454 5.8549764021246666 5.8957931047421681 5.9599058837451198 5.8552850593505648 5.6502921569713687
leaf_count=20 25 34 57 121 20 44 22 38 23 31 148 29 97 26 162 211 20 22 89 269 24 23 146 37 40 44 22 29 36 104
internal_value=0 2.07229 -2.42287 3.29193 2.96137 0.96625 2.50017 2.69903 4.7381 4.08344 -1.61411 -1.97749 -0.777149 2.91213 -3.04368 0.33791 3.29671 1.47653 1.62257 -2.73376 1.70258 2.30907 1.19542 -2.94228 3.02489 2.36021 2.81725 3.68176 4.1917 -1.21911
internal_count=2013 1085 928 516 420 569 299 279 96 73 403 281 122 257 525 255 195 314 292 363 62 112 180 306 169 84 42 85 65 133
shrinkage=1


Tree=1
num_leaves=31
num_cat=0
split_feature=18 20 18 106 20 0 87 58 136 139 1 109 58 2 20 63 50 14 7 64 71 36 131 19 21 50 87 111 117 125
split_gain=9121.57 1321.76 420.508 243.746 194.44 177.023 138.143 132.466 121.212 146.175 128.896 110.616 131.074 120.592 101.979 88.565 127.483 88.1563 82.4393 85.3175 76.4709 75.842 73.1602 72.837 70.7828 67.8226 75.5584 61.3147 59.2744 58.3179
threshold=2.4754756656727346 2.6144538375121846 2.5200108200766507 4.8465000000000007 2.5685865032601098 2.2807051895444315 19.500000000000004 0.039165729612507021 0.063359025259583826 -0.0060109098568457021 1.8987236542342927 3.7805000000000004 0.013594025746199534 1.2692955176444218 2.803300463029534 -18.499999999999996 74936.005157673484 -0.019149393517667829 2.6079696134278221 -19.499999999999996 4.2255000000000011 -7.6513607576734005e-06 0.98950315391304033 -5.5499999999999989 0.078656971903225362 75020.513786044423 7.5000000000000009 5.6850000000000014 1.2644284500000003 0.96127081897526223
decision_type=2 2 2 2 2 2 2 2 2 2 2 2 2 2 2 2 2 2 2 2 2 2 2 2 2 2 2 2 2 2
left_child=1 3 11 6 -5 18 7 -1 -6 -10 24 13 -13 -2 20 28 -17 -7 19 22 -4 -22 -3 -19 -11 26 -21 -14 -12 -24
right_child=2 5 14 4 8 17 -8 -9 9 10 15 12 27 -15 -16 16 -18 23 -20 25 21 -23 29 -25 -26 -27 -28 -29 -30 -31
leaf_value=0.13697802563890435 0.061003884196281437 0.12268083925225906 -0.076680780658825193 0.19479985466180755 0.051754766021406766 0.10942058971799587 0.34451767262958349 0.2754490217374217 0.025376204865191272 0.14108347071866906 0.2023970063144882 -0.12630280471482389 -0.12219783930942929 -0.062151306882961513 -0.17756172470104548 -0.029714527410188957 0.12611365162900517 0.098006895044818521 -0.021942312050272118 0.02569153877938616 -0.073652275269360926 -0.14913134581006285 0.062989532752571825 -0.0018107126337335499 0.22662746305005596 0.18865301531294121 0.1225197890942747 -0.039980679749882814 0.095084723762490539 -0.0038280141163379595
leaf_count=39 25 35 57 121 54 23 21 31 27 42 31 148 29 97 162 21 35 20 22 29 38 268 107 212 57 23 66 104 22 47
internal_value=0 1.96867 -2.30172 3.16032 2.83171 0.946383 4.64086 3.96602 2.38611 2.69656 2.98071 -1.53341 -1.87862 -0.738292 -2.8915 2.23049 1.35356 0.321015 1.43109 1.56509 -2.59707 -2.79516 1.14855 0.135885 3.80672 2.23227 1.85923 -1.15815 3.15705 0.851943
internal_count=2013 1085 928 501 410 584 91 70 289 235 208 403 281 122 525 109 56 255 329 307 363 306 189 232 99 118 95 133 53 154
shrinkage=0.05


Tree=2
num_leaves=31
num_cat=0
split_feature=16 16 20 106 20 16 87 58 130 68 73 37 53 111 16 107 39 64 64 130 7 38 5 105 83 21 112 90 129 59
split_gain=8289.77 832.757 764.27 219.981 175.483 157.7 124.674 119.551 116.542 111.603 111.429 173.473 151.6 110.649 110.094 130.792 103.075 98.0706 90.807 103.149 93.4852 78.0365 77.7415 72.5059 74.2861 78.8589 67.5707 64.6489 64.2739 83.6392
threshold=1.6363916944834336 1.6499158227685513 2.6144538375121846 4.8465000000000007 2.5685865032601098 1.6996731711974076 19.500000000000004 0.039165729612507021 0.98850447189022805 3.6350000000000002 42.500000000000007 6.7500000000000009 80.500000000000014 5.8650000000000011 1.6465452046969318 4.2433000000000005 11.500000000000002 -12.499999999999998 -20.499999999999996 0.9990472597171659 2.5928714737657326 4.691600058733834 4.2214543000000004 -1.0180673813971805e-05 -83.499999999999986 -0.012582917769893559 -1.2066371769425185e-06 4.2145000000000001 1.0146408059536252 2.2575547094917003
decision_type=2 2 2 2 2 2 2 2 2 2 2 2 2 2 2 2 2 2 2 2 2 2 2 2 2 2 2 2 2 2
left_child=2 14 3 6 -5 9 7 -1 10 26 11 -6 17 -11 15 -2 -17 -12 23 20 -20 -10 -21 -4 27 -26 -3 -25 29 -23
right_child=1 5 18 4 8 -7 -8 -9 21 13 12 -13 -14 -15 -16 16 -18 -19 19 22 -22 28 -24 24 25 -27 -28 -29 -30 -31
leaf_value=0.13012912429105014 0.085306969728095067 0.0097930447126810382 -0.031231350812219807 0.18505985976373854 -0.069494859401423192 -0.15069797973809018 0.32729178723834812 0.26167657835889729 0.22754007257197217 -0.1415416189111196 0.10005897222586942 0.1212742568417029 0.027812946314224974 -0.074770415156752201 -0.062423971078253739 -0.084262483718101772 0.0035618323593267377 0.23749142879247667 0.078687788462877037 0.19048002381044041 -0.036115889366716149 0.16680213003936742 0.093356794780359062 -0.030255581040021986 0.16286770567297937 0.05621929763028255 -0.08299041218589992 0.066345868921228526 0.16630684334784748 0.056379028863491533
leaf_count=39 33 26 31 121 26 337 21 31 23 195 27 22 32 91 151 49 105 25 61 28 25 27 78 43 20 130 80 29 60 47
internal_value=0 -1.91078 2.1552 3.00231 2.69013 -2.51233 4.40882 3.76772 2.26681 -2.08109 1.57425 0.35882 2.26878 -2.40592 -0.613359 -0.100507 -0.487645 3.32265 1.20149 1.72003 0.906293 2.84908 2.38024 0.807963 1.00801 1.40878 -1.20464 0.173067 2.557 1.93337
internal_count=2013 1067 946 501 410 729 91 70 289 392 132 48 84 286 338 187 154 52 445 192 86 157 106 253 222 150 106 72 134 74
shrinkage=0.05


Tree=3
num_leaves=31
num_cat=0
split_feature=16 16 18 106 7 16 131 71 14 126 16 107 103 136 39 71 97 104 105 131 7 130 98 51 28 88 0 37 139 87
split_gain=7481.52 751.563 685.706 223.529 148.539 144.336 140.76 119.404 117.533 190.133 99.3601 118.04 98.5303 96.6139 93.0254 83.6185 80.4286 80.3064 71.8269 71.7974 72.2669 70.8177 135.023 85.667 79.7423 78.8504 78.4628 67.9459 67.4909 66.1053
threshold=1.6363916944834336 1.6499158227685513 2.3923066929496142 4.8465000000000007 2.520430829642601 1.7029386365931727 0.9926125876404881 4.0059000000000013 0.087703044896819571 0.30761633909463498 1.6465452046969318 4.2433000000000005 -1.3334222281483161e-06 0.069676206987223391 11.500000000000002 4.1444500000000009 4.8677400000000004 -2.0724470627175132e-06 -7.4301110511373362e-07 0.99212248397074709 2.5512292664591496 0.99629756287112181 3.8134477065917149 -98.499999999999986 8.7550000000000008 0.67479000000000011 2.2698618286599728 7.1500000000000012 0.0030806842536060248 12.500000000000002
decision_type=2 2 2 2 2 2 2 2 2 2 2 2 2 2 2 2 2 2 2 2 2 2 2 2 2 2 2 2 2 2
left_child=2 10 3 12 17 7 19 -3 9 -8 11 -2 -1 -11 -13 -14 -9 -5 -15 20 -6 25 24 27 -23 29 -26 -24 -25 -4
right_child=1 5 21 4 6 -7 8 16 -10 13 -12 14 15 18 -16 -17 -18 -19 -20 -21 -22 22 23 28 26 -27 -28 -29 -30 -31
leaf_value=0.26943964262803399 0.081041619949268576 -0.0030597562177313701 0.024760311733310423 0.10380643535601466 0.092214179561489223 -0.15502683566244066 -0.069542412745899382 -0.11765753267185641 0.13490248231310398 -0.0093833067454397682 -0.059302772310198537 -0.0800493585858114 0.092715917866338385 0.19132637778030975 0.0033837408040251053 0.22403447456933834 -0.050194037041379785 0.18802053515656711 0.071562810458483242 0.20695530442411411 0.20219384290277961 0.19490359747274355 0.1510317827974047 -0.032777464181184768 0.13654977269105467 -0.0014271352258136219 0.052514632385163032 0.05035726565822779 0.069226707518100741 0.14784213725477457
leaf_count=42 33 27 24 38 59 204 28 449 50 20 151 49 22 21 105 27 49 111 31 34 20 22 21 50 51 87 61 83 24 20
internal_value=0 -1.81524 2.04744 2.84643 2.53313 -2.38672 2.08118 -2.10935 1.44621 0.820289 -0.582691 -0.0954815 4.26487 1.68018 -0.463263 3.3015 -2.22039 3.33086 2.39858 2.92407 2.40114 1.14023 1.39931 0.828527 2.15751 0.523195 1.81561 1.41372 0.0060994 1.61413
internal_count=2013 1067 946 503 412 729 263 525 150 100 338 187 91 72 154 49 498 149 52 113 79 443 312 178 134 131 112 104 74 44
shrinkage=0.05


Tree=4
num_leaves=31
num_cat=0
split_feature=18 0 18 20 134 106 96 23 136 109 58 2 37 41 56 47 20 134 18 57 81 97 88 52 79 29 50 71 88 12
split_gain=6740.9 975.374 314.673 197.413 257.428 129.634 108.724 96.3817 96.2726 90.8062 114.119 98.3349 83.6501 125.24 103.308 95.6479 76.9146 76.2713 75.6137 75.0262 76.6236 73.2937 71.8828 127.468 77.7474 84.7496 71.6577 69.5541 74.4338 65.8147
threshold=2.4754756656727346 2.2531123252924616 2.5223746169850405 2.5726208189058286 -0.16717628301698506 4.8545000000000007 4.0915100000000004 0.03474798096794162 0.063359025259583826 3.7805000000000004 0.024706035579998589 1.2692955176444218 7.3500000000000005 4.7884550000000008 4.3720191767272771 74991.846614943017 2.803300463029534 -0.08111775889670815 2.385223874040586 74903.465993091013 5.222500000000001 4.5971600000000015 0.70755666666666683 28.500000000000004 0.23843853258012113 0.1219495874233516 74936.005157673484 4.2474000000000007 0.70105333333333342 12.500000000000002
decision_type=2 2 2 2 2 2 2 2 2 2 2 2 2 2 2 2 2 2 2 2 2 2 2 2 2 2 2 2 2 2
left_child=1 3 9 7 -5 6 -6 -1 21 11 -11 -2 13 14 15 -3 27 29 -8 -15 -21 -7 23 26 -25 -26 -10 -4 -29 -14
right_child=2 12 16 4 5 8 18 -9 22 10 -12 -13 17 19 -16 -17 -18 -19 -20 20 -22 -23 -24 24 25 -27 -28 28 -30 -31
leaf_value=0.26408004474639896 0.057727744594216347 -0.072585268930860744 -0.061617421986241094 -0.034353063563848367 0.077860993785517557 -0.028366656761084286 0.25307628257494225 0.15761392845076994 -0.0080183639723275385 -0.099407666063505332 -0.027085644591392746 -0.05336696727139572 0.033790797117808961 0.17530666713913282 0.11023149736954466 0.042150139054044702 -0.15384131852698366 0.048311701355831599 0.13821350004847929 0.033871713835332128 0.14304690536856654 0.091123904649055371 0.15484689109196717 0.089936449658125639 0.24425984323024752 0.11033294555686771 0.087883343447174411 -0.13856775501531921 -0.083066006931801176 -0.02743152111282815
leaf_count=25 25 34 57 29 21 21 38 142 28 225 72 98 71 24 23 39 162 111 23 45 25 33 88 38 27 21 64 203 86 115
internal_value=0 1.69238 -1.97869 2.54801 2.19036 2.39793 3.51973 3.47104 2.11047 -1.33827 -1.6375 -0.615735 0.641731 1.1599 0.356517 -0.225765 -2.50817 0.310244 4.19535 1.98037 1.45726 0.893107 2.3576 1.99209 2.86735 3.71334 1.17392 -2.24191 -2.44103 -0.0812342
internal_count=2013 1085 928 598 431 402 82 167 320 420 297 123 487 190 96 73 508 297 61 94 70 54 266 178 86 48 92 346 289 186
shrinkage=0.05


Tree=5
num_leaves=31
num_cat=0
split_feature=16 16 20 16 129 5 81 0 71 8 113 7 77 5 75 115 115 6 2 58 44 134 58 73 7 50 134 106 1 89
split_gain=6130.84 594.38 576.727 143.963 160.944 122.756 105.197 93.6785 91.2431 83.0687 80.9408 74.2898 135.633 121.841 73.4957 72.6357 95.6168 69.3587 68.4589 68.0161 66.8463 68.33 64.7503 63.4477 89.3405 101.89 59.8691 78.2939 97.9335 62.5465
threshold=1.6363916944842474 1.6633299933151064 2.6144538375121846 1.5634719199408142 1.0062173838213362 4.3882208 4.980500000000001 2.331211155744497 4.102100000000001 2.5566187238799167 20.76677314689611 2.5371023606099987 37.500000000000007 4.2561348000000008 44.500000000000007 29.625163229644198 25.433319442950761 5.9140484357351264 1.2292725943059439 0.012022395744357648 4.3908696522386919 -0.16255000634722969 0.075654018032486184 55.500000000000007 2.520430829642601 74934.555933502706 -0.14673690444040341 4.9685000000000006 1.9761200607761651 3.7375000000000003
decision_type=2 2 2 2 2 2 2 2 2 2 2 2 2 2 2 2 2 2 2 2 2 2 2 2 2 2 2 2 2 2
left_child=2 7 3 6 -5 8 14 -2 -3 15 -10 12 18 17 -1 16 20 -13 -6 -7 21 -4 -15 24 -8 -26 -23 28 -28 -29
right_child=1 5 9 4 11 19 23 -9 10 -11 -12 13 -14 22 -16 -17 -18 -19 -20 -21 -22 26 -24 -25 25 -27 27 29 -30 -31
leaf_value=0.16741946093414142 -0.02015498364646617 0.0059107573677061338 -0.019018025398254396 0.0084226231973030079 0.087870828725397587 -0.12573303913106462 0.15311859137131067 -0.086211011671335797 -0.13703519663749597 -0.045510800369083886 -0.013317339532077314 0.12074609644711019 0.17067819519865293 0.062075328293510458 0.29847525745630266 -0.034358054594624612 0.14396871156641283 0.23527084398919193 -0.031657750924806237 -0.082313900400291795 -0.012926418462987333 0.14276399124258507 0.16284247571229937 0.17922510972680294 -0.019477888382971289 0.12941957065766607 0.13265515046624038 -0.014179096678988293 0.025801398287876511 0.056524865067257436
leaf_count=23 308 36 25 38 25 501 79 65 39 21 20 20 27 44 20 21 32 39 23 110 34 24 25 73 20 27 65 39 32 158
internal_value=0 -1.65442 1.84501 2.60433 2.05725 -2.1939 3.14915 -0.633322 -1.13641 1.03181 -1.90194 2.41082 1.62052 2.87388 4.56751 1.12665 1.21978 3.92898 0.611934 -2.35832 1.07892 1.21149 1.9717 2.84267 2.41288 1.32118 1.33664 1.21266 1.94809 0.850553
internal_count=2013 1079 934 483 241 706 242 373 95 451 59 203 75 128 43 430 409 59 48 611 377 343 69 199 126 47 318 294 97 197
shrinkage=0.05


Tree=6
num_leaves=31
num_cat=0
split_feature=16 16 20 101 3 7 1 2 5 21 105 137 25 125 6 0 8 64 71 139 139 101 76 76 80 75 8 113 64 131
split_gain=5533.08 536.428 520.818 136.374 147.698 124.297 114.688 119.542 110.787 111.54 101.242 119.817 162.018 99.4636 87.3413 84.5449 73.9322 85.1031 90.5704 73.4907 71.5995 84.2323 84.0337 72.907 71.3003 67.8641 66.9177 64.9814 63.7769 63.6914
threshold=1.6363916944842474 1.6633299933151064 2.6158022514989363 -2.3535593140525523e-06 0.42163702135947739 2.520430829642601 1.9042748294988263 1.2292725943053486 4.3882208 -0.042108735506976989 7.362915639922418e-06 0.0084998448082503637 50.58520079039976 0.94843285039639591 5.8750829978939185 2.331211155744497 2.5566187238799167 -20.499999999999996 4.3860000000000001 0.0070726595307093664 0.001847827043595062 5.1902067812910141e-06 4.4580700227008139 4.0939382624245537 74494.871739762748 60.500000000000007 2.4303662645237529 20.76677314689611 -16.499999999999996 0.99229249072139358
decision_type=2 2 2 2 2 2 2 2 2 2 2 2 2 2 2 2 2 2 2 2 2 2 2 2 2 2 2 2 2 2
left_child=2 15 3 6 13 -6 26 -8 9 -3 11 12 14 25 -7 -2 17 20 -19 28 22 29 23 -4 -12 -5 -1 -11 -20 -22
right_child=1 8 16 4 5 10 7 -9 -10 27 24 -13 -14 -15 -16 -17 -18 18 19 -21 21 -23 -24 -25 -26 -27 -28 -29 -30 -31
leaf_value=0.053333815864541313 -0.019147234646927198 0.012374991617214524 -0.00078904718499292037 0.18947120256520608 0.16192557802652238 -0.063221141907314843 0.10876574198759736 -0.047875840599038481 -0.11202036439366457 -0.13746566162318796 0.22975709005480721 0.17393712814037618 0.13082029757400354 0.10625288814983586 0.049762362264096742 -0.081900461018085485 -0.043235260358224406 0.13959283688632043 0.14641888781485182 -0.0016595009009580356 0.060066051088029253 0.12686421622123037 -0.021901032420615835 0.12793461450121621 0.097845452772453434 0.30036415105516262 0.16461781660360952 -0.025602785851806406 0.055589302678537726 -0.04089245338525091
leaf_count=22 308 38 22 37 115 26 21 29 611 37 21 26 45 22 50 65 21 46 27 37 61 35 83 22 20 22 35 20 68 21
internal_value=0 -1.5717 1.75276 2.46206 2.74026 2.4196 1.46367 0.358272 -2.08421 -1.07959 1.91867 1.53111 1.11261 3.93976 0.222202 -0.601656 0.966603 1.05773 1.58351 1.16242 0.674176 1.23855 0.154239 1.27146 3.3082 4.61642 2.43332 -1.96431 1.62808 0.684216
internal_count=2013 1079 934 491 384 303 107 50 706 95 188 147 121 81 76 373 443 422 178 132 244 117 127 44 41 59 57 57 95 82
shrinkage=0.05


Tree=7
num_leaves=31
num_cat=0
split_feature=18 16 18 16 130 29 90 141 128 50 22 64 68 3 102 111 101 72 64 73 69 14 52 130 99 97 58 103 86 127
split_gain=5009.91 704.568 245.462 227.023 127.747 97.8189 93.8083 78.4173 76.1617 85.4117 74.6526 68.205 70.8434 94.3568 105.893 71.7936 67.8207 68.0521 64.4082 64.2568 63.7285 63.3652 58.8273 54.3632 55.0239 53.3357 52.8879 72.857 53.5611 56.2643
threshold=2.4776985084933019 1.5951314818681357 2.5223746169850405 1.5634719199408142 0.98850447189022805 0.41723409956630558 3.9315000000000002 0.0057601338145968619 0.82051399822058813 74887.954695632114 0.036543951184480394 -8.4999999999999982 3.7650000000000001 0.51639777949024912 -6.6711140760512991e-08 5.5950000000000006 -4.2339583865354752e-07 1.2150000000000001 -15.499999999999998 91.500000000000014 0.42301680820856707 -0.022339214402102719 15.500000000000002 1.0051953737183925 11.450000000000001 4.2332800000000006 0.010214823345970027 7.3338222548172221e-06 4.767500000000001 0.95095588136845655
decision_type=2 2 2 2 2 2 2 2 2 2 2 2 2 2 2 2 2 2 2 2 2 2 2 2 2 2 2 2 2 2
left_child=1 3 6 5 7 8 -2 16 -1 -10 -8 12 13 14 -6 19 17 -5 -18 -14 -13 -3 -11 -17 -25 -4 27 -23 -28 -30
right_child=2 21 25 4 11 -7 10 -9 9 22 -12 20 15 -15 -16 23 18 -19 -20 -21 -22 26 -24 24 -26 -27 28 -29 29 -31
leaf_value=0.21180534892612035 -0.018321091478245091 0.091621072996141653 -0.06606285524639216 0.08701912241091056 0.12778578401991614 0.24855223767459395 -0.079963092257109805 -0.036929758105427028 0.046091923189740029 0.078035017760360953 -0.0043625994107207742 -0.022523580901324752 0.091532327938968178 0.071859356093530863 0.27748950294085911 0.16508240198095642 0.041943497431930155 -0.016799162573328145 0.15267568827959999 0.002029301611513927 0.10218721420637199 0.015990314248483628 0.15190540256408547 0.026135827926918865 0.14201706140523865 -0.11417357018699617 0.095153878194590424 -0.082346864741656089 -0.026261503160288881 0.029767046645661901
leaf_count=27 115 28 66 27 27 20 278 25 31 34 37 20 65 24 21 45 24 38 29 29 21 48 130 20 21 453 24 31 58 197
internal_value=0 1.46215 -1.69818 2.07615 1.64504 2.85285 -1.13945 0.87023 2.66203 2.44408 -1.42166 2.0232 2.21781 3.05614 3.86562 1.88247 1.21108 0.526507 2.05066 1.27839 0.827054 0.383669 2.73182 2.54274 1.70979 -2.16111 0.270358 -0.451954 0.474884 0.340466
internal_count=2013 1064 949 678 436 242 430 143 222 195 315 293 252 72 48 180 118 65 53 94 41 386 164 86 41 519 358 79 279 255
shrinkage=0.05


Tree=8
num_leaves=31
num_cat=0
split_feature=18 16 18 16 134 131 103 81 109 16 70 75 14 62 134 1 1 140 73 7 50 8 9 14 31 129 54 129 132 16
split_gain=4521.44 635.873 221.53 204.888 227.764 107.927 103.253 90.9414 79.2285 86.2757 68.7125 66.0147 57.1871 56.6384 63.4653 65.3204 56.7268 74.7066 53.7022 72.6 84.7462 55.5627 51.7835 61.2738 50.9293 49.4708 48.6852 48.6604 48.5035 55.6133
threshold=2.4776985084933019 1.5951314818681357 2.5223746169850405 1.5634719199408142 -0.17012730450572663 0.99317265324880222 1.0667377825188504e-05 4.980500000000001 3.6885000000000003 1.6465452046974016 74895.856187790283 44.500000000000007 -0.022339214402102719 -101.49999999999999 -0.14884262037238941 1.9662814209213684 1.9518445044871242 0.0029155135169640746 55.500000000000007 2.520430829642601 74934.555933502706 2.4562013197471679 33.455156445771408 0.025274185802407732 37.45000000000001 1.0185861895676707 50.350000000000001 1.0322524894319152 0.94865567200625522 1.6363916944840751
decision_type=2 2 2 2 2 2 2 2 2 2 2 2 2 2 2 2 2 2 2 2 2 2 2 2 2 2 2 2 2 2
left_child=1 3 8 7 -5 13 10 11 27 22 -7 -1 -3 -6 -15 16 17 25 19 -9 -21 26 23 -10 -12 -16 -20 -2 29 -14
right_child=2 12 -4 4 5 6 -8 18 9 -11 24 -13 28 14 15 -17 -18 -19 21 20 -22 -23 -24 -25 -26 -27 -28 -29 -30 -31
leaf_value=0.14367787190105605 0.059573770232964313 0.087040020844766086 -0.10265267205519713 -0.05981001108884812 0.051649071500551973 -0.038049580925895325 0.13715594032406805 0.13076669286134876 -0.091719937537397656 -0.078332864570624716 0.11878256987780333 0.26788471937179564 0.022548478310315614 0.19427614980800587 0.10644414660274842 0.030765790900645348 0.19075608546422287 0.044520049410848285 0.18755718097090723 -0.025723294988274577 0.11007117282737185 0.22180313437499782 0.030568736407064624 0.010769478210248054 0.021460402429546801 0.17737843459181024 0.087497821185858027 -0.031724327424955033 0.074830918232428614 -0.020478249150970629
leaf_count=23 20 28 519 28 44 31 25 79 35 265 20 20 213 22 106 26 22 39 20 20 27 22 31 25 41 32 31 54 29 116
internal_value=0 1.38904 -1.61328 1.97234 1.56279 1.75213 0.941007 2.71021 -1.08247 -1.27818 0.451302 4.02897 0.364485 2.07826 2.26446 2.10596 2.30071 2.11248 2.42525 2.02985 1.04573 3.10774 -0.438095 -0.98032 1.06739 2.45785 2.53474 -0.140983 0.256841 0.147559
internal_count=2013 1064 949 678 436 408 117 242 430 356 92 43 386 291 247 225 199 177 199 126 47 73 91 60 61 138 51 74 358 329
shrinkage=0.05


Tree=9
num_leaves=31
num_cat=0
split_feature=18 20 18 101 3 16 7 2 28 105 137 25 125 90 71 17 57 5 129 141 2 139 130 62 96 140 70 127 134 137
split_gain=4080.6 584.521 199.931 112.984 128.19 100.004 99.6603 99.2401 124.045 88.1441 99.8784 138.464 87.3801 78.5527 68.3206 69.3185 64.011 63.9039 60.6086 59.2861 58.861 64.7246 74.4309 68.1079 60.463 52.7919 62.6284 61.8817 54.8388 82.225
threshold=2.4776985084933019 2.6158022514989363 2.5223746169850405 -2.3535593140525523e-06 0.42163702135947739 1.6329931618553417 2.520430829642601 1.2292725943056284 8.3550000000000022 7.362915639922418e-06 0.0084998448082503637 50.58520079039976 0.94843285039639591 3.9315000000000002 4.5612500000000002 2.2500000000000004 75009.23567440045 4.1548205000000014 1.0069960004169873 0.0072052581447392553 1.2866839377074755 0.0032249818138342071 1.0307139456999399 -46.499999999999993 4.7179300000000008 0.0016652948645468502 74985.879252681887 0.9549413979670125 -0.079157646806413504 -0.032562927166603188
decision_type=2 2 2 2 2 2 2 2 2 2 2 2 2 2 2 2 2 2 2 2 2 2 2 2 2 2 2 2 2 2
left_child=1 3 13 7 12 25 -6 17 -9 10 11 14 18 -2 15 -8 -11 -1 -5 -7 24 23 -23 -22 -15 26 28 -28 29 -3
right_child=2 5 -4 4 6 19 9 8 -10 16 -12 -13 -14 20 -16 -17 -18 -19 -20 -21 21 22 -24 -25 -26 -27 27 -29 -30 -31
leaf_value=0.16513488152623179 -0.016048499889995741 0.026501218140216883 -0.097520038314515403 0.14054028229279952 0.1404022873338798 0.01386371523270661 0.019125966802239422 -0.087607394605875022 0.074254126217344715 0.20710690333729698 0.1521404434568607 0.11363507700049216 0.089504110195081352 -0.058839455364674602 0.060084868504876092 -0.10576063504442573 0.082119925580918796 0.059155629597830051 0.24533774980620759 -0.069586964262028539 -0.12541522846401981 -0.097110083296492289 0.0025186343339124798 -0.023408496007323268 0.018751530897091417 0.070488607657498259 0.12648779795105969 0.034291079554420255 0.064146095876182835 -0.068787538798318976
leaf_count=25 115 61 519 22 115 188 25 20 29 21 26 45 22 96 31 20 20 33 37 24 90 37 38 20 34 149 28 52 35 36
internal_value=0 1.31959 -1.53261 2.12028 2.3735 0.633481 2.07477 1.21154 0.163764 1.62622 1.2646 0.882503 3.49098 -1.02835 0.0593598 -0.727584 2.92275 2.09673 4.12521 0.0883294 -1.2866 -1.64896 -0.932631 -2.13737 -0.770929 0.953625 0.633031 1.3312 0.209899 -0.177274
internal_count=2013 1064 949 491 384 573 303 107 49 188 147 121 81 430 76 45 41 58 59 212 315 185 75 110 130 361 212 80 132 97
shrinkage=0.05


Tree=10
num_leaves=31
num_cat=0
split_feature=16 20 16 134 92 71 58 98 130 108 139 136 53 62 117 102 35 86 37 119 21 141 21 50 79 16 23 127 86 19
split_gain=3631.99 475.636 397.6 147.078 140.966 119.697 100.33 90.3474 114.255 106.212 84.5781 96.715 101.933 75.7423 82.885 66.5787 64.3062 60.1906 59.9291 59.875 73.2799 100.902 60.4655 58.7801 59.6531 57.2238 80.0486 80.4672 77.1157 60.8907
threshold=1.6363916944834336 2.616250707972382 1.6633299933151064 -0.16717628301698506 27.940982168719255 3.9465500000000007 0.011509483218363873 3.7511088124091168 1.0029101540227479 24.599617214958236 -0.0026266670650745769 0.075295598522248111 147.50000000000003 -50.499999999999993 1.3976819 7.1714476317545007e-06 -90.549999999999983 4.9235000000000007 7.0500000000000007 9.485034488226038 0.045991857474951055 -0.00082728012820839356 0.090939207319010132 74962.034377800243 0.21518950462263994 1.6465452046972666 -0.036530900733276903 0.95689800654473933 5.073500000000001 -5.0049999999999946
decision_type=2 2 2 2 2 2 2 2 2 2 2 2 2 2 2 2 2 2 2 2 2 2 2 2 2 2 2 2 2 2
left_child=1 3 15 4 -1 -4 17 8 9 -3 -5 13 18 -12 -15 25 -10 -7 19 -13 21 -21 -22 -9 -25 26 -2 28 29 -28
right_child=2 7 5 10 -6 6 -8 23 16 -11 11 12 -14 14 -16 -17 -18 -19 -20 20 22 -23 -24 24 -26 -27 27 -29 -30 -31
leaf_value=-0.072009412419389601 0.077562119358259698 0.070552506557820985 0.032559488806873559 0.075244068712886192 0.11140134997665883 -0.084352526322534649 -0.045537202369346885 -0.016317665962246704 0.018628396111584844 -0.036370716206729416 0.17440675510601567 0.096832286203077642 0.064213363727664244 0.047895371028578576 0.15204273827373982 0.062500494697385209 0.11733683657034166 -0.11826928233806516 0.10155006898076911 0.22291839670389893 0.24677741825580599 0.077931246341516575 0.1614371645663466 0.10956955721432514 0.018868684077870498 -0.050508322586226312 0.0059349101409316065 0.02164484343268502 0.013707630164348162 -0.093312089525930147
leaf_count=22 23 48 21 113 20 339 112 102 21 45 22 23 34 81 25 22 77 213 38 20 51 30 35 22 103 153 20 71 39 68
internal_value=0 1.4556 -1.23825 2.09982 0.306581 -1.69937 -1.77371 0.663425 1.17026 0.376309 2.25939 2.49689 2.88325 1.79962 1.44917 -0.440605 1.9237 -1.9488 3.15922 3.42885 3.68121 2.71852 4.24092 0.236969 0.696641 -0.540053 -0.214589 -0.419711 -0.896366 -1.41512
internal_count=2013 932 1081 514 42 685 664 418 191 93 472 359 231 128 106 396 98 552 197 159 136 50 86 227 125 374 221 198 127 88
shrinkage=0.05


Tree=11
num_leaves=31
num_cat=0
split_feature=16 20 20 16 134 47 98 130 108 107 112 22 136 54 3 23 66 71 90 127 6 21 72 22 107 8 50 76 28 109
split_gain=3277.87 429.261 358.968 136.942 132.738 144.964 81.5385 103.115 95.8566 78.6909 83.1223 83.7724 72.8279 121.026 72.9028 71.5696 68.008 67.5355 70.3957 66.3061 67.7435 58.9957 56.2277 55.963 55.7873 54.8979 53.0491 59.1955 80.3762 51.1238
threshold=1.6363916944834336 2.616250707972382 2.7439418108928351 1.6465452046972666 -0.16717628301698506 74959.877362866042 3.7511088124091168 1.0029101540227479 24.599617214958236 4.3281500000000008 -4.2159936890763056e-08 0.055578504738607752 0.14006700317952078 84.550000000000011 0.42163702135535364 -0.036530900733276903 4.9350000000000014 4.3477500000000004 4.0535000000000005 0.95566950388729111 7.1311480924931869 -0.029328059073693954 -3.2449999999999997 0.065384011079214086 4.5535500000000004 2.5072323813335373 74962.034377800243 4.4580700227008139 10.485000000000001 3.6830000000000003
decision_type=2 2 2 2 2 2 2 2 2 2 2 2 2 2 2 2 2 2 2 2 2 2 2 2 2 2 2 2 2 2
left_child=1 4 3 15 5 -1 7 8 -3 10 -6 -12 14 -14 -11 -2 21 -16 -19 20 -17 -4 -9 -20 -10 -21 -8 -28 -29 -5
right_child=2 6 16 29 9 -7 26 22 24 12 11 -13 13 -15 17 19 -18 18 23 25 -22 -23 -24 -25 -26 -27 27 28 -30 -31
leaf_value=-0.082862770379801998 0.076784032619056808 0.067024881357792762 0.0033873316276419375 -0.0061864912653198613 0.20164243330247703 0.10313110184771093 -0.015501782296261951 0.029960082498965441 -0.0940673024704059 0.14963797380526861 0.05460072136210168 0.16197742183621114 0.18036394318057733 0.055517277562369904 0.01312876702286303 -0.062797747066435525 -0.09500733277146256 0.16538719877135011 0.0031490978163977467 -0.04306160649284721 0.018615260592808849 -0.098393627333765235 0.11473104025279893 0.085344076337946564 0.017523551653478839 0.045611807497334671 0.089381646244403201 -0.036507819432087918 0.057524949914597445 -0.060232322798127416
leaf_count=20 26 48 35 52 40 22 102 27 21 36 34 39 55 30 39 78 464 24 24 24 38 24 71 151 24 64 34 44 47 276
internal_value=0 1.38282 -1.17633 -0.618444 1.99483 0.291252 0.630253 1.11175 0.357494 2.14642 2.8742 2.23933 1.91735 2.72601 1.66648 -0.0268506 -1.77156 1.46587 1.70169 -0.225997 -0.722559 -0.760302 1.82752 1.48143 -0.691044 0.428563 0.225121 0.661809 0.241171 -1.03328
internal_count=2013 932 1081 558 514 42 418 191 93 472 113 73 359 85 274 230 523 238 199 204 116 59 98 175 45 88 227 125 91 328
shrinkage=0.05


Tree=12
num_leaves=31
num_cat=0
split_feature=16 20 16 134 47 71 58 139 136 53 98 130 108 103 62 117 102 129 139 16 89 99 103 67 35 127 23 86 102 141
split_gain=2958.28 387.408 326.396 119.796 130.83 101.411 89.1095 74.858 85.3639 85.813 73.5885 93.0616 86.5106 66.7225 65.7065 73.5612 58.347 56.3156 67.4128 59.1082 56.477 56.1141 55.6575 71.8259 54.5253 51.7486 60.3292 75.0512 51.4814 54.0023
threshold=1.6363916944834336 2.616250707972382 1.6633299933151064 -0.16717628301698506 74959.877362866042 3.9465500000000007 0.012022395744357648 -0.0026266670650745769 0.075295598522248111 147.50000000000003 3.7511088124091168 1.0029101540227479 24.599617214958236 -1.0000666711113966e-05 -50.499999999999993 1.3976819 7.1714476317545007e-06 1.0377929071703029 0.0015815879477472118 1.6465452046972666 3.6555000000000004 14.15 2.0001333422226665e-06 7.1850000000000014 -90.549999999999983 0.95689800654473933 -0.02764397775728113 5.0825000000000005 -1.7344896597731879e-06 -0.00068184544659717085
decision_type=2 2 2 2 2 2 2 2 2 2 2 2 2 2 2 2 2 2 2 2 2 2 2 2 2 2 2 2 2 2
left_child=1 3 16 4 -1 -4 13 -5 14 22 11 12 -3 -7 -9 -16 17 19 -19 25 -21 -8 23 -10 -13 26 -2 -28 -25 -30
right_child=2 10 5 7 -6 6 21 8 9 -11 -12 24 -14 -15 15 -17 -18 18 -20 20 -22 -23 -24 28 -26 -27 27 -29 29 -31
leaf_value=-0.078719630911946295 0.04221292984756557 0.063673638265269492 0.031413052702278253 0.066463475674390801 0.097974546135149221 -0.063161786858671617 -0.11327789008617402 0.15900693941988389 0.25265453040599822 0.057920074216364061 0.010693245000792627 0.015391629615000317 -0.032824572616567217 -0.1000788200969399 0.040912254998621389 0.13902711772918702 0.059391735663468198 -0.031889588385820393 0.085428155881042286 -0.02532354785964407 -0.0948033999714811 -0.020193661254118471 0.11278952024652655 0.1053134858282283 0.10628390423953533 0.019079831662986962 -0.075620162944439101 0.010670405646433703 0.2382024249304896 0.13708445243312106
leaf_count=20 22 48 21 113 22 181 20 22 20 34 227 21 45 378 81 25 22 25 24 58 59 85 83 40 77 70 79 37 23 31
internal_value=0 1.31368 -1.11752 1.89509 0.276689 -1.53531 -1.60374 2.0391 2.26253 2.62552 0.598741 1.05616 0.339619 -1.76251 1.60746 1.28105 -0.39482 -0.487917 0.511443 -0.63859 -1.20721 -0.75848 2.87872 3.33226 1.73614 -0.318742 -0.673986 -0.961929 2.96613 3.60306
internal_count=2013 932 1081 514 42 685 664 472 359 231 418 191 93 559 128 106 396 374 49 325 117 105 197 114 98 208 138 116 94 54
shrinkage=0.05


Tree=13
num_leaves=31
num_cat=0
split_feature=16 20 20 16 134 69 107 97 102 98 130 108 86 20 3 136 54 23 127 135 112 107 69 107 86 101 63 35 8 99
split_gain=2669.85 349.636 297.543 112.205 108.116 126.502 69.0429 76.5395 79.0059 66.4136 83.9881 78.0758 65.0053 72.2974 64.7791 80.1599 94.1841 60.1033 55.0036 60.4643 53.9118 50.348 50.2066 73.0998 63.706 55.8899 57.6118 49.6673 49.2384 48.1473
threshold=1.6363916944834336 2.616250707972382 2.7439418108928351 1.6465452046972666 -0.16717628301698506 0.395572531295942 4.3281500000000008 4.1798700000000002 6.0040026684456725e-07 3.7511088124091168 1.0029101540227479 24.599617214958236 4.7825000000000015 2.7859765189197616 0.4216370213539738 0.14006700317952078 84.550000000000011 -0.036530900733276903 0.95566950388729111 -0.4949057755246517 -1.6475477067398794e-07 4.5535500000000004 0.37272198914221089 4.6385500000000013 5.1615000000000011 -2.4425900766901749e-06 -7.4999999999999991 -87.34999999999998 2.5072323813335373 13.205000000000291
decision_type=2 2 2 2 2 2 2 2 2 2 2 2 2 2 2 2 2 2 2 2 2 2 2 2 2 2 2 2 2 2
left_child=1 4 3 17 5 -1 7 8 -6 10 11 -3 13 -4 -8 22 -17 -2 19 -19 -9 -13 23 -16 25 -24 -27 -12 -20 -30
right_child=2 9 12 -5 6 -7 14 20 -10 -11 27 21 -14 -15 15 16 -18 18 28 -21 -22 -23 24 -25 -26 26 -28 -29 29 -31
leaf_value=-0.073632298126107165 0.070684197917580613 0.06048995506663838 -0.029742789983523088 -0.046461362692517889 0.15687923172245855 0.099917776421422064 0.16060646562664599 0.23420714162999678 0.033706897273659712 0.010158582937817545 0.023232561414344953 -0.087722710089846737 -0.092463929963890801 -0.096923958137631425 0.14362317727618787 0.16312419849161347 0.045028936862014236 0.044130024704195206 -0.041302682397266227 -0.049621257189857333 0.134839381201145 0.01828860176804786 -0.020292415783147923 0.045516198720125592 0.11037169741466642 0.072527324981705915 -0.018145447833971543 0.10385672138589952 0.079722264690979108 -0.0080916515654987763
leaf_count=21 26 48 107 328 23 21 27 21 30 227 26 21 352 64 43 52 25 21 24 95 39 24 33 34 37 86 22 72 37 27
internal_value=0 1.248 -1.06164 -0.553722 1.80034 0.262855 1.93715 2.61885 1.74318 0.568804 1.00335 0.322638 -1.60355 -1.09773 1.72257 1.60143 2.49563 -0.0182187 -0.200716 -0.652981 3.39236 -0.623667 1.33142 2.00606 1.03958 0.733121 1.08114 1.64933 0.395451 0.853515
internal_count=2013 932 1081 558 514 42 472 113 53 418 191 93 523 171 359 332 77 230 204 116 60 45 255 77 178 141 108 98 88 64
shrinkage=0.05


Tree=14
num_leaves=31
num_cat=0
split_feature=16 20 20 16 134 9 140 18 45 86 21 128 86 20 64 130 89 16 43 136 25 83 100 105 126 105 28 76 70 115
split_gain=2409.54 316.97 268.532 101.265 90.4238 119.851 79.2276 82.1621 98.9443 111.144 71.1982 60.7059 58.6672 65.2484 57.2757 83.4 56.7209 84.5154 56.3963 55.8957 70.7408 54.8857 54.0553 56.5041 52.914 55.9921 49.4134 87.2425 60.8335 60.5463
threshold=1.6363916944834336 2.6236919138673049 2.7439418108928351 1.6465452046972666 -0.16717628301698506 27.940982168719255 0.0095991522301759509 2.3671787751530644 4.7110933333333351 4.7115000000000009 0.11241664239609588 0.8208110038052292 4.7825000000000015 2.7859765189197616 -20.499999999999996 1.0041357015632821 3.4705000000000008 1.6363916944845134 3.5301746866279577 0.075295598522248111 31.613621761008016 -59.499999999999993 -1.0838926174496656e-06 -4.176348185060207e-06 0.35040379109304259 -2.2160515649744891e-07 10.485000000000001 4.5650305858766052 74956.21060663533 28.311588917639892
decision_type=2 2 2 2 2 2 2 2 2 2 2 2 2 2 2 2 2 2 2 2 2 2 2 2 2 2 2 2 2 2
left_child=1 4 3 16 5 -1 7 10 -9 -10 11 -6 13 -4 26 18 -2 -18 -16 24 -21 -22 -19 -24 25 -13 27 28 -3 -28
right_child=2 14 12 -5 6 -7 -8 8 9 -11 -12 19 -14 -15 15 -17 17 22 -20 20 21 -23 23 -25 -26 -27 29 -29 -30 -31
leaf_value=-0.068046575446020482 0.045074082911014557 -0.0078889667987823483 -0.028255649889976 -0.044138294274183337 0.19532987991204631 0.10107099903747439 -0.0040815243328159506 -0.030844687065109611 0.16951583817601204 0.064793931116904221 0.061334932149098867 0.16313758287578822 -0.087840733239599192 -0.092077759734820575 0.072404339731387476 0.080875371175492747 -0.062602163711562755 -0.036095195163677381 -0.022199330720235597 0.20487583618739558 0.15836870999050301 0.075305313218471615 0.094963685308511445 0.0043938348690668741 0.030492289644510798 0.064825345370918511 0.05345119955743869 -0.05941052361015689 0.098060213823337114 -0.044191392045468098
leaf_count=22 52 42 107 328 26 20 22 22 30 163 58 28 352 64 23 83 60 41 50 29 37 43 26 51 30 30 77 57 20 20
internal_value=0 1.1856 -1.00856 -0.526036 1.66091 0.249712 1.77533 1.8577 1.3924 1.62144 2.2137 2.47042 -1.52338 -1.04285 0.470074 0.931793 -0.0173077 -0.285718 0.152146 2.28087 2.75948 2.27444 0.205634 0.699517 1.68804 2.24573 0.136609 -0.295215 0.525764 0.666374
internal_count=2013 932 1081 558 560 42 518 496 215 193 281 223 523 171 372 156 230 178 73 197 109 80 118 77 88 58 216 119 62 97
shrinkage=0.05


Tree=15
num_leaves=31
num_cat=0
split_feature=20 18 16 134 20 106 0 132 117 15 58 0 106 52 4 101 104 125 19 128 2 88 103 82 108 132 38 50 46 76
split_gain=2385.71 257.521 176.69 127.419 101.212 95.8439 88.4318 79.1732 123.906 78.7226 82.8865 69.7092 87.2215 95.2531 61.1186 60.6771 69.7644 57.8641 54.5096 93.794 93.6045 59.4111 52.2817 52.256 52.1369 51.5888 53.4021 48.5622 46.0687 47.0541
threshold=2.6714746446030504 2.4859504203360081 1.5634719199408142 -0.16717628301698506 2.7915842170356453 4.7705000000000011 2.2690495496103256 0.93755753343657622 0.92158941500000002 628617.00000000012 0.013388257535251935 2.2146208075900407 4.9465000000000012 15.500000000000002 3.2975625207104442 2.739974768403571e-05 1.1932008117377358e-06 0.95432756195250168 -1.9499999999999997 0.81740715986792856 1.2472191289256578 0.71039000000000019 -1.1334088939262668e-05 3.4550000000000005 35.895607457792032 0.93074171582555443 6.9498199576648156 74933.725655016373 3.8966931288615032 7.2168362327358579
decision_type=2 2 2 2 2 2 2 2 2 2 2 2 2 2 2 2 2 2 2 2 2 2 2 2 2 2 2 2 2 2
left_child=2 7 5 -4 9 -1 15 8 -2 22 17 12 -7 -14 -15 16 18 23 20 -20 -5 -21 -3 -11 -8 -26 -27 -9 -19 -30
right_child=1 4 3 6 -6 11 24 27 -10 10 -12 -13 13 14 -16 -17 -18 28 19 21 -22 -23 -24 -25 25 26 -28 -29 29 -31
leaf_value=0.17122244979884174 0.074225420063292538 0.047227380206358846 -0.058860237836941255 0.16590616711630271 -0.093874117411038988 0.025195995964915365 -0.0085837132744974905 -0.029338505086691488 -0.04200994853653308 -0.030448537442589442 -0.025558002215718301 0.0037888767352948585 0.023329276534227228 0.20857894450426101 0.11349148073601067 -0.014625696424880756 0.096811800438445061 -0.11808827575748891 -0.058330939363010904 0.033982622175632665 0.050079849184235949 0.1036988990971955 -0.035739348207346415 -0.092582439339679232 0.001776226132343977 0.041825783124957716 0.14231697980314492 0.055029642737160128 -0.042925940238360674 -0.091975404899248978
leaf_count=37 27 29 27 26 188 37 77 23 152 128 142 24 26 20 109 23 144 72 22 120 53 41 55 46 39 39 20 66 84 117
internal_value=0 -0.962327 1.23128 0.948185 -1.22878 1.93732 1.04319 -0.106288 -0.489545 -1.04757 -1.17673 1.68258 1.88343 2.21274 2.56467 1.28758 1.37709 -1.38816 1.06978 0.770086 1.764 1.03473 -0.141921 -0.937495 0.4441 0.927922 1.51781 0.664533 -1.6754 -1.42954
internal_count=2013 1129 884 631 861 253 604 268 179 673 589 216 192 155 129 429 406 447 262 183 79 161 84 174 175 98 59 89 273 201
shrinkage=0.05


Tree=16
num_leaves=31
num_cat=0
split_feature=20 2 39 45 20 18 100 60 106 132 87 86 88 29 86 97 50 56 108 53 54 125 138 16 57 52 93 93 7 102
split_gain=2153.11 237.397 160.73 130.281 90.0295 89.874 86.0761 113.156 76.9028 70.1278 97.1853 68.3165 70.0735 68.6996 68.0928 86.2422 64.6847 100.132 60.8761 75.3602 72.7927 71.4654 57.434 55.1526 53.7768 48.6931 48.2721 69.2126 66.0142 47.6228
threshold=2.6714746446030504 1.316561177208236 9.5000000000000018 4.7110933333333351 2.6236919138673049 2.4859504203360081 1.275167785234899e-06 74455.724481690864 4.7205000000000004 0.93755753343657622 -8.4999999999999982 4.7005000000000008 0.71039000000000019 -0.020550825395438208 4.8775000000000004 4.5570700000000004 74936.005157673484 3.1705219899179236 189.12288583370722 187.50000000000003 52.750000000000007 0.95392310904963507 -0.0016691963537503022 1.5634719199409157 75021.401903403908 89.500000000000014 82.521848774009442 95.885492524808086 2.5694305737741074 2.3348899266177568e-06
decision_type=2 2 2 2 2 2 2 2 2 2 2 2 2 2 2 2 2 2 2 2 2 2 2 2 2 2 2 2 2 2
left_child=2 5 6 -4 11 9 7 -1 -3 10 -2 -5 14 -14 -13 -16 17 -17 19 20 -7 -21 -11 -15 -9 -10 -6 -28 -29 -8
right_child=1 8 3 4 26 18 29 24 25 22 -12 12 13 23 15 16 -18 -19 -20 21 -22 -23 -24 -25 -26 -27 27 28 -30 -31
leaf_value=-0.016492684968662533 0.05627187907812186 -0.0091312075170075016 -0.067387508159584331 0.1393667770549655 0.018459871664379884 0.039223677868192849 0.21468043493417405 0.1618559245050194 -0.090768897389519779 -0.01035315196606375 -0.039940028414385376 -0.0058552998950348253 0.017563269368332367 0.17433064596520531 0.13361475585192881 -0.075650598699955843 0.072466674780399351 0.050406936897430567 -0.11903625155488651 0.084591571738322588 -0.05511308609218947 -0.021504893394616933 0.070517771367145626 0.089865354026722563 0.067131243459880349 -0.049774721455025046 0.11143416846852477 0.11343113018199802 0.010590365077828019 0.11021240571513774
leaf_count=22 32 41 23 32 198 22 24 31 305 42 146 47 23 27 34 23 101 50 24 21 290 65 46 68 29 95 41 20 71 20
internal_value=0 -0.914211 1.16971 0.995862 1.0692 -0.547084 2.21557 1.61012 -1.48696 -0.0918465 -0.45287 1.38512 1.26482 1.90199 0.969978 1.21562 0.930979 0.213804 -0.834035 -0.740767 -0.969223 0.0880477 0.638406 2.27743 2.32145 -1.62066 0.681478 1.1499 0.663855 3.3439
internal_count=2013 1129 884 758 735 688 126 82 441 266 178 405 373 118 255 208 174 73 422 398 312 86 88 95 60 400 330 132 91 44
shrinkage=0.05


Tree=17
num_leaves=31
num_cat=0
split_feature=20 18 16 134 106 0 71 90 16 139 135 0 86 52 13 101 104 96 20 19 128 2 83 88 129 40 7 98 131 88
split_gain=1943.18 215.69 146.234 113.027 83.7144 75.8785 68.8131 120.127 75.1829 60.5842 64.8401 59.3499 78.398 92.2492 54.3014 53.7923 61.3588 53.5858 47.4714 47.3484 84.166 83.5256 57.0869 61.7956 49.6707 49.2562 43.0662 42.4071 52.5138 41.8443
threshold=2.6714746446030504 2.5200108200766507 1.5634719199408142 -0.16717628301698506 4.7705000000000011 2.2690495496103256 4.6483500000000006 3.9105000000000003 1.6465452046982598 -0.006716732795520374 -0.43819881488456985 2.2146208075900407 4.7545000000000011 15.500000000000002 4.1097541666666677 2.739974768403571e-05 1.1932008117377358e-06 4.6666600000000011 2.6657122911631461 -1.9499999999999997 0.81740715986792856 1.2472191289256578 -43.499999999999993 0.70303666666666687 1.0072339882162826 3.0392024901580461 2.5694305737741074 4.2257831407162483 0.99463560516710281 0.72122000000000008
decision_type=2 2 2 2 2 2 2 2 2 2 2 2 2 2 2 2 2 2 2 2 2 2 2 2 2 2 2 2 2 2
left_child=2 6 4 -4 -1 15 7 9 17 -2 -11 12 -6 -14 -3 16 19 -8 26 21 -21 -5 24 -24 -22 -26 -7 28 -15 -9
right_child=1 14 3 5 11 18 8 29 -10 10 -12 -13 13 27 -16 -17 -18 -19 -20 20 22 -23 23 -25 25 -27 -28 -29 -30 -31
leaf_value=0.15716947465631609 0.069999994558316694 0.010335916839540006 -0.057403924040220405 0.15403531690916192 -0.0037748381156813013 0.060361891008656604 0.080684605613350877 -0.061498763173436513 -0.033857775455730599 -0.040159503112236664 0.040725753939635047 0.001642880526681741 0.018540980217960992 0.14534252255742269 -0.0698937540547694 -0.01591026147260614 0.088910310222288708 0.0054674116318496188 0.070582093432959583 -0.057415267501280391 -0.047758301421999938 0.044622384574053424 0.050531635512080453 0.15616091880947353 0.10594359476651466 0.01592831745066426 -0.0081317478943277489 0.056352585747551469 0.063225227063521738 0.0053634066994373616
leaf_count=37 27 22 27 26 22 29 34 234 86 75 37 24 31 88 510 23 144 78 36 22 20 53 45 20 21 55 110 26 25 26
internal_value=0 -0.8685 1.11123 0.853687 1.75355 0.94317 -0.455893 -0.695056 0.0260572 0.0553799 -0.26877 1.51547 1.7008 1.93067 -1.33152 1.16955 1.25383 0.566024 0.388224 0.96562 0.686307 1.61263 0.937 1.66066 0.447022 0.816019 0.123166 2.27855 2.5435 -1.09625
internal_count=2013 1129 884 631 253 604 597 399 198 139 112 216 192 170 532 429 406 112 175 262 183 79 161 65 96 76 139 139 113 260
shrinkage=0.05


Tree=18
num_leaves=31
num_cat=0
split_feature=20 2 39 134 25 0 125 128 18 106 16 100 132 105 62 18 18 97 28 36 8 8 132 117 21 109 105 64 96 126
split_gain=1753.72 198.85 134.934 104.698 118.646 87.8023 81.0099 79.124 73.4635 65.38 60.3799 58.1098 58.1046 123.203 57.6809 74.9328 92.8961 66.2155 80.7771 59.8301 54.2361 54.1739 54.1358 88.3088 54.0423 48.7394 67.1936 61.3655 49.2914 47.4598
threshold=2.6714746446030504 1.316561177208236 9.5000000000000018 -0.16717628301698506 51.261000663264269 2.2690495496103256 0.93589256448940705 0.79468755823004089 2.4859504203360081 4.7205000000000004 1.5238839267549784 -6.3758389261745386e-08 0.93266570597666032 1.7918782829835227e-05 -53.499999999999993 2.3412635737419296 2.3503169772040988 4.2664400000000011 7.1450000000000005 2.6440227850064052e-06 2.5756598218539892 2.441019474739957 0.93755753343657622 0.92366995000000007 0.06187196068054749 3.8265000000000007 -7.5098466021577818e-06 -21.499999999999996 4.3989400000000005 0.24874981575668198
decision_type=2 2 2 2 2 2 2 2 2 2 2 2 2 2 2 2 2 2 2 2 2 2 2 2 2 2 2 2 2 2
left_child=2 7 6 4 -4 14 11 -2 22 -3 -8 -1 13 20 19 -16 -17 -18 -19 25 -10 -12 23 -9 -25 27 -27 -5 -28 -14
right_child=1 9 3 5 -6 -7 10 8 12 -11 21 -13 29 -15 15 16 17 18 -20 -21 -22 -23 -24 24 -26 26 28 -29 -30 -31
leaf_value=-0.0089400611736852199 -0.09661467156062524 -0.0073306291295987805 -0.12002170804888011 0.063637864576386552 0.046492777829584872 0.018480435603608691 0.075032487637814019 0.070281374445185063 -0.04624247550460938 -0.073627001092652786 0.10434959181161091 0.10609960234945728 0.006775691336201083 0.10453831163817084 0.10518719390641118 -0.069630146548151972 -0.037727952699946325 0.14465009662367048 0.041171065905458624 0.15382067287421747 0.017838990248422674 0.20839906596931917 0.032660867671894404 -0.044730980942515125 0.044152355883270503 -0.0087390273256460205 0.1351843901872635 0.17522825231267647 0.057953067098845956 -0.059873867007889284
leaf_count=23 36 41 20 28 23 174 31 25 111 400 22 21 31 20 43 20 23 21 185 23 47 29 87 118 20 32 25 22 119 193
internal_value=0 -0.825075 1.05566 0.896375 -0.619116 0.987517 2.01393 -0.489074 -0.409387 -1.34927 2.60129 0.919305 -0.674096 -0.247609 1.18625 0.884726 0.674213 0.854721 1.0344 1.53985 -0.543605 3.2703 0.0162657 -0.323702 -0.636987 1.38347 1.13595 2.25475 1.42723 -1.013
internal_count=2013 1129 884 758 43 715 126 688 652 441 82 44 402 178 541 292 249 229 206 249 158 51 250 163 138 226 176 50 144 224
shrinkage=0.05


Tree=19
num_leaves=31
num_cat=0
split_feature=20 2 39 45 125 128 102 138 126 134 60 0 85 83 106 108 127 108 8 4 58 135 115 18 2 108 117 98 77 58
split_gain=1582.73 179.462 121.778 113.14 73.1114 71.4094 69.3776 69.3167 69.2319 67.3948 122.805 89.5135 63.5555 70.3362 59.0054 54.5273 50.5451 49.4595 48.9105 48.596 64.5816 52.4021 63.2866 47.3137 76.086 46.8198 45.9855 51.3737 61.9417 45.044
threshold=2.6714746446030504 1.316561177208236 9.5000000000000018 4.7110933333333351 0.93589256448940705 0.79468755823004089 7.738492328218813e-06 0.0027338485514967798 0.24637148915304599 -0.16717628301698506 74475.673027071505 2.2690495496103256 4.3485325031375632 -71.499999999999986 4.7205000000000004 173.73448885178877 0.95441274480543015 35.895607457792032 2.441019474739957 3.1849593991773486 0.013388257535251935 -0.50485612197561258 16.451893907129122 2.3412635737419296 1.1972189997378793 69.784442002007836 1.2507143000000003 3.2225165389561012 34.500000000000007 0.020282799338153509
decision_type=2 2 2 2 2 2 2 2 2 2 2 2 2 2 2 2 2 2 2 2 2 2 2 2 2 2 2 2 2 2
left_child=2 5 4 -4 7 -2 8 -1 -7 10 -5 12 13 -11 -3 19 -15 -13 -6 -10 21 -21 -23 -14 -25 -19 -26 -28 -29 -16
right_child=1 14 3 9 18 6 -8 -9 15 11 -12 17 23 16 29 -17 -18 25 -20 20 -22 22 -24 24 26 -27 27 28 -30 -31
leaf_value=0.10642405504530127 -0.091783938091248282 -0.0069640972628826044 -0.06662233416800914 -0.10472448186017574 0.085875981768947993 0.016575771074821343 0.056150483262949982 -0.019090114698999308 0.014968726832059125 0.034532064426204434 0.070493334382772443 -0.01144451823133927 0.094613022730530558 0.19601834091273221 -0.073895207530693549 -0.10362676500032347 0.088838458569212408 0.075079256880517101 0.16313040782231839 -0.0040990605205297476 -0.011346419687517248 0.0038537635918586485 -0.074162066384270697 -0.045647441578053297 0.064983227331626425 0.0046853476365372035 0.071543960624581418 -0.042083271950679395 0.043364028376527135 0.001334436024938311
leaf_count=22 36 41 23 20 42 94 29 22 62 23 20 77 60 22 379 24 22 51 40 50 201 31 161 21 244 44 45 38 48 21
internal_value=0 -0.783821 1.00288 0.851557 1.91323 -0.46462 -0.388917 0.873339 -0.459296 0.9199 -0.342311 0.992545 1.19835 2.10779 -1.2818 -0.599818 2.84857 0.366741 2.47122 -0.529828 -0.645879 -0.99385 -1.23132 1.06473 0.939348 0.849515 1.04308 0.565158 0.112165 -1.39891
internal_count=2013 1129 884 758 126 688 652 44 623 735 40 695 523 67 441 529 44 172 82 505 443 242 192 456 396 95 375 131 86 400
shrinkage=0.05


end of trees

feature importances:
q05_roll_std_10=38
q05_roll_std_1000=31
q05_roll_std_100=23
autocorr_5=17
mean_change_rate=14
q01_roll_std_10=13
q01_roll_std_100=12
q01_roll_std_1000=12
avg_last_10000=12
q95_roll_mean_1000=12
q99_roll_mean_1000=12
av_change_rate_roll_std_100=11
classic_sta_lta6_mean=11
min_last_10000=10
autocorr_1000=10
min_roll_std_1000=9
kurt=9
mean_change_rate_last_10000=8
av_change_abs_roll_std_10=8
avg_first_10000=8
autocorr_50=8
min_roll_std_100=7
stdAudioIncrease=7
std_last_10000=7
av_change_abs_roll_std_1000=7
av_change_abs_roll_mean_100=7
classic_sta_lta1_mean=7
classic_sta_lta3_mean=7
classic_sta_lta5_mean=7
classic_sta_lta7_mean=7
max_to_min_diff=6
avg_first_50000=6
av_change_abs_roll_mean_10=6
q01_roll_mean_1000=6
max_to_min=6
classic_sta_lta4_mean=6
classic_sta_lta8_mean=6
min_roll_std_10=5
gmean=5
mean_change_rate_first_50000=5
mean_change_rate_first_10000=5
abs_max_roll_mean_100=5
abs_q95=5
max_first_10000=5
min_first_50000=5
std_last_50000=5
q05_roll_mean_1000=5
q01_roll_mean_10=4
max_roll_std_100=4
q95_roll_mean_10=4
maxAudio=4
max_roll_mean_10=4
av_change_rate_roll_mean_10=4
max_first_50000=4
min_last_50000=4
avg_last_50000=4
q99_roll_mean_100=4
q99_roll_std_1000=4
classic_sta_lta2_mean=4
autocorr_10000=4
Hilbert_mean=3
mean_change_rate_last_50000=3
skew=3
min_roll_mean_10=3
abs_mean=3
av_change_rate_roll_std_10=3
std_roll_mean_100=3
av_change_rate_roll_mean_100=3
max_last_50000=3
max_roll_mean_1000=3
min_roll_mean_1000=3
q99_roll_mean_10=3
av_change_abs_roll_mean_1000=3
av_change_abs_roll_std_100=3
trend=3
autocorr_10=3
autocorr_100=3
autocorr_500=3
autocorr_5000=3
hmean=2
max_roll_std_1000=2
abs_trend=2
q95_roll_std_10=2
std_first_10000=2
av_change_rate_roll_std_1000=2
min_first_10000=2
q05_roll_mean_100=2
min_roll_mean_100=2
max_last_10000=2
std_roll_mean_1000=2
q01_roll_mean_100=2
abs_max_roll_std_10=2
q99_roll_std_10=2
iqr1=1
ave10=1
sum=1
q05_roll_mean_10=1
abs_max_roll_mean_10=1
ave_roll_std_10=1
stdAudio=1
ave_roll_std_100=1
ave_roll_std_1000=1
std_roll_std_10=1
minAudio=1
std_roll_std_1000=1
std_first_50000=1
q95_roll_mean_100=1
max_roll_mean_100=1
av_change_rate_roll_mean_1000=1
mad=1
ave_roll_mean_1000=1
abs_max_roll_std_1000=1
q99_roll_std_100=1

parameters:
[boosting: gbdt]
[objective: regression]
[metric: l2,l1]
[tree_learner: serial]
[device_type: cpu]
[data: ]
[valid: ]
[num_iterations: 100]
[learning_rate: 0.05]
[num_leaves: 31]
[num_threads: 0]
[max_depth: -1]
[min_data_in_leaf: 20]
[min_sum_hessian_in_leaf: 0.001]
[bagging_fraction: 0.8]
[bagging_freq: 5]
[bagging_seed: 3]
[feature_fraction: 0.9]
[feature_fraction_seed: 2]
[early_stopping_round: 0]
[max_delta_step: 0]
[lambda_l1: 0]
[lambda_l2: 0]
[min_gain_to_split: 0]
[drop_rate: 0.1]
[max_drop: 50]
[skip_drop: 0.5]
[xgboost_dart_mode: 0]
[uniform_drop: 0]
[drop_seed: 4]
[top_rate: 0.2]
[other_rate: 0.1]
[min_data_per_group: 100]
[max_cat_threshold: 32]
[cat_l2: 10]
[cat_smooth: 10]
[max_cat_to_onehot: 4]
[top_k: 20]
[monotone_constraints: ]
[feature_contri: ]
[forcedsplits_filename: ]
[refit_decay_rate: 0.9]
[verbosity: 0]
[max_bin: 255]
[min_data_in_bin: 3]
[bin_construct_sample_cnt: 200000]
[histogram_pool_size: -1]
[data_random_seed: 1]
[output_model: LightGBM_model.txt]
[snapshot_freq: -1]
[input_model: ]
[output_result: LightGBM_predict_result.txt]
[initscore_filename: ]
[valid_data_initscores: ]
[pre_partition: 0]
[enable_bundle: 1]
[max_conflict_rate: 0]
[is_enable_sparse: 1]
[sparse_threshold: 0.8]
[use_missing: 1]
[zero_as_missing: 0]
[two_round: 0]
[save_binary: 0]
[enable_load_from_binary_file: 1]
[header: 0]
[label_column: ]
[weight_column: ]
[group_column: ]
[ignore_column: ]
[categorical_feature: ]
[predict_raw_score: 0]
[predict_leaf_index: 0]
[predict_contrib: 0]
[num_iteration_predict: -1]
[pred_early_stop: 0]
[pred_early_stop_freq: 10]
[pred_early_stop_margin: 10]
[convert_model_language: ]
[convert_model: gbdt_prediction.cpp]
[num_class: 1]
[is_unbalance: 0]
[scale_pos_weight: 1]
[sigmoid: 1]
[boost_from_average: 1]
[reg_sqrt: 0]
[alpha: 0.9]
[fair_c: 1]
[poisson_max_delta_step: 0.7]
[tweedie_variance_power: 1.5]
[max_position: 20]
[label_gain: ]
[metric_freq: 1]
[is_provide_training_metric: 0]
[eval_at: ]
[num_machines: 1]
[local_listen_port: 12400]
[time_out: 120]
[machine_list_filename: ]
[machines: ]
[gpu_platform_id: -1]
[gpu_device_id: -1]
[gpu_use_dp: 0]

end of parameters

pandas_categorical:[]
