tree
version=v2
num_class=1
num_tree_per_iteration=1
label_index=0
max_feature_idx=129
objective=regression
feature_names=av_change_abs_roll_std_100 classic_sta_lta1_mean av_change_abs_roll_std_1000 classic_sta_lta7_mean abs_trend classic_sta_lta4_mean std_last_10000 mean_change_rate_first_10000 kurt classic_sta_lta3_mean max_last_50000 classic_sta_lta8_mean autocorr_5 mean_change_rate min_roll_mean_100 Rmin_last_5000 min_roll_std_1000 stdAudioIncrease min_last_10000 max_roll_std_100 autocorr_50 Rmax_last_5000 mean_change_rate_first_50000 autocorr_500 autocorr_10000 classic_sta_lta2_mean std_roll_mean_100 max_roll_std_1000 av_change_abs_roll_mean_10 min_roll_std_100 q99_roll_mean_1000 Imean av_change_rate_roll_mean_10 std_roll_mean_1000 autocorr_100 av_change_rate_roll_std_1000 autocorr_10 Rstd__last_5000 avg_last_10000 autocorr_1000 abs_max_roll_std_1000 hmean q01_roll_std_1000 abs_max_roll_mean_10 mean_change_rate_last_50000 autocorr_5000 abs_max_roll_mean_1000 ave_roll_mean_100 max_roll_mean_100 avg_first_50000 mean_change_rate_last_10000 classic_sta_lta6_mean q99_roll_std_1000 min_last_50000 Rmean min_roll_std_10 q95_roll_std_1000 iqr abs_std max_roll_mean_10 Rmean_last_15000 q01_roll_mean_1000 mean_change_abs abs_max_roll_std_100 max_first_10000 MA_700MA_BB_high_mean q05_roll_std_100 max_first_50000 av_change_rate_roll_mean_100 std_roll_std_10 exp_Moving_average_3000_mean abs_max_roll_std_10 Hann_window_mean_50 q95_roll_mean_10 Rmin_last_15000 av_change_abs_roll_std_10 min_roll_mean_1000 max_to_min q99_roll_mean_100 min_roll_mean_10 trend q95_roll_std_100 avg_last_50000 q01_roll_std_100 std_first_10000 av_change_abs_roll_mean_1000 skew q99 Hilbert_mean Rmean_last_5000 minAudio MA_700MA_BB_low_mean q95_roll_mean_1000 av_change_rate_roll_std_10 q01_roll_mean_100 av_change_abs_roll_mean_100 q99_roll_std_10 classic_sta_lta5_mean q99_roll_mean_10 q05_roll_mean_1000 Hann_window_mean_150 ave_roll_mean_10 abs_q99 av_change_rate_roll_std_100 min_first_10000 exp_Moving_average_300_mean q001 Kalman_correction std_last_50000 abs_mean q01_roll_std_10 gmean iqr1 ave10 sum q05_roll_std_10 q05_roll_mean_10 q01_roll_mean_10 q05_roll_std_1000 q75Audio q25Audio abs_max_roll_mean_100 q01 q95 q05 q95_roll_std_10 abs_q95 ave_roll_std_10 stdAudio ave_roll_std_100
feature_infos=[-0.00045353238754379082:0.00063078538269458753] [0:1.1229264331263005] [-0.00036587584990985559:0.00054616711306101321] [0:0.99733447848836521] [-0.00069577447282736886:0.0006645023224953106] [0:0.97645873226967161] [0:277.80284855245156] [-0.12568965116518455:0.17580883963915803] [0:631.15892683450727] [0:0.97955739052546076] [0:5444] [0:0.99818155493660121] [-0.23461412928212924:0.36893895750363059] [-0.096501159712536144:0.13655475048906729] [-373.11000000000001:3.2799999999999998] [-442618.99550136545:0] [0:2.8725268337143879] [0:0.78298666666666672] [-2592:0] [0:2330.9913223885032] [-0.026201263107822038:0.55470845964870197] [0:435731.27006912936] [-0.10139994734142647:0.15226135404146793] [-0.13143743274742986:0.14751454150797566] [-0.039262153376697688:0.060117222569058472] [0:1.2302991128655421] [0:15.966909976346299] [0:1431.3298155928296] [-0.00074738315887725858:0.00040469364624308332] [0:2.2107176946737259] [0:12.965] [-2.9928438986341166e-14:7.7610214551289874e-14] [0:75921.279998886937] [0:3.5770345912695567] [-0.44204380224377721:0.45475068418122472] [0:75390.298653790902] [-0.63914648743235247:0] [0:91276.583058056713] [0:5.5156000000000001] [-0.098716652647818676:0.08803794511135879] [0:1431.3298155928296] [0:4.6978001442665533] [0:3.094442530500733] [0:4380.1000000000004] [-0.12138340097115838:0.16094230601280834] [-0.067029633808116662:0.063626192355735398] [0:73.841999999999999] [0:5.3094432326001844] [0:494.37] [0:5.3414000000000001] [-0.13450542413890712:0.17506373156509591] [0:1.1615400102911058] [0:981.88165275608367] [-4079:0] [-106:78] [0:0.69920589878719175] [0:122.7692608204763] [0:11] [0:150.43236825417767] [0:4135.8999999999996] [-282.4743705510578:222.33834814737281] [-4.641:4.7679999999999998] [-0.00086000573337155582:0.00074000493336622247] [0:2330.9913223885032] [0:3479] [0:124.53488907211435] [0:3.0633710882548937] [0:4281] [0:75933.174214980085] [0:109.41231004547069] [0:5.3135327807672335] [0:3121.166699595949] [0:5.309141850632523] [0:32.100000000000001] [-514814.91433320154:0] [-0.000526060371849054:0.00055023140163027687] [-48.777999999999999:4.6269999999999998] [0:2.4761906000000002] [0:34.219999999999999] [-4380.1000000000004:0] [-6.8594094367493064e-06:9.5287343273578634e-06] [0:117.38549589478352] [0:5.3915800000000003] [0:2.7161321281348285] [0:436.46745261486467] [-1.640939597315438e-05:1.5785234899328862e-05] [-4.0918262207255873:4.2194288243558846] [0:279] [0:49.149244736433971] [-754.31490491109957:559.02328000287935] [-5515:0] [-115.71700250164845:0] [0:7.226] [0:75924.928711562548] [-26.629999999999999:4.3600000000000003] [-5.5370246831220726e-05:4.3762508338892585e-05] [0:567.73378416663945] [0:1.0845520805293922] [0:210.61000000000058] [0:4.9139999999999997] [0:5.3086397749572525] [0:5.3093325664873205] [0:674.0100000000092] [0:75936.77343498636] [-5515:0] [0:5.3105973234062436] [-1726.0020000000002:0] [0:24.375846459757465] [0:240.31665916647029] [0:31.848340000000004] [0:1.56347191994115] [0:8.5022409999999997] [0:84] [0:5.2958083333333335] [0:796428] [0:2.0682789409983808] [-23.199999999999999:3.2000000000000002] [-199.05999999999997:2] [0:3.5140044432565687] [0:10] [-1:3] [0:494.37] [-260:0] [0:47] [-37:0] [0:76.123072854786386] [0:93] [0:25.89950615676489] [0:153.67862] [0:37.897474779489912]
tree_sizes=695 715 717 715 715 717 720 714 721 714 721 715 722 724 716 726 725 727 727 731 723 724 728 729 721 723 728 717 648 650 724 724 734 727 720 720 648 721 723 575 710 727 648 721 719 648 649 647 644 648

Tree=0
num_leaves=8
num_cat=0
split_feature=115 118 118 115 66 115 109
split_gain=11184.4 1187.74 872.073 242.103 184.394 137.28 75.79
threshold=1.6363916944842776 2.6243781853803134 2.7457301435914654 1.5634719199404687 2.5702257889261708 1.6465452046969991 5.0312733333333339
decision_type=2 2 2 2 2 2 2
left_child=1 3 5 -1 -4 -2 -3
right_child=2 6 4 -5 -6 -7 -8
leaf_value=5.8579560274942191 5.6259767435101082 5.7545312931423913 5.515166203428433 5.7919876089547637 5.4537321452730181 5.5684010157459527 5.6986048729613348
leaf_count=246 145 74 342 320 190 362 334
internal_value=0 2.49394 -2.2228 3.43151 -3.11717 -1.28433 1.19329
internal_count=2013 974 1039 566 532 507 408
shrinkage=1


Tree=1
num_leaves=8
num_cat=0
split_feature=115 66 115 115 115 30 109
split_gain=10094 985.229 711.917 302.665 236.503 89.2791 61.5402
threshold=1.6363916944842776 2.4115358275925831 1.702938636589064 1.5634719199404687 1.6499158227699757 4.7245000000000008 5.1500800000000009
decision_type=2 2 2 2 2 2 2
left_child=1 3 4 -1 -2 -4 -3
right_child=2 6 5 -5 -6 -7 -8
leaf_value=0.19842857485864221 -0.045567781009078247 0.079429292030649135 -0.075553993411038245 0.12767461140769862 -0.10302155311511788 -0.17804421146924351 0.034036576059172929
leaf_count=246 307 112 23 392 430 279 224
internal_value=0 2.36924 -2.11166 3.09912 -1.58178 -3.40477 0.98335
internal_count=2013 974 1039 638 737 302 336
shrinkage=0.05


Tree=2
num_leaves=8
num_cat=0
split_feature=66 118 118 115 115 41 6
split_gain=9115.33 1098.23 632.814 195.194 121.996 112.407 101.616
threshold=2.466042096898148 2.6243781853803134 2.7566887442589292 1.5491933384835399 1.7029386365932624 3.2185455896112334 3.3394419918164986
decision_type=2 2 2 2 2 2 2
left_child=1 3 5 -1 -4 -2 -3
right_child=2 6 4 -5 -6 -7 -8
leaf_value=0.19047723882771159 -0.021868937342536175 0.089812154171622208 -0.12326739959016041 0.13073480575331556 -0.17623641115958702 -0.079564546767331698 0.035448842737133855
leaf_count=231 103 117 222 335 213 468 324
internal_value=0 2.18053 -2.0754 3.10235 -2.98408 -1.38314 0.997435
internal_count=2013 1007 1006 566 435 571 441
shrinkage=0.05


Tree=3
num_leaves=8
num_cat=0
split_feature=115 118 118 115 66 110 109
split_gain=8249.49 876.58 663.188 176.162 137.69 108.439 62.0028
threshold=1.6363916944842776 2.6243781853803134 2.7457301435914654 1.5491933384835399 2.5702257889261708 1.2866839377070234 5.0312733333333339
decision_type=2 2 2 2 2 2 2
left_child=1 3 5 -1 -4 -2 -3
right_child=2 6 4 -5 -6 -7 -8
leaf_value=0.18095337638623399 -0.029258752367519715 0.09263057818430212 -0.11549156543320745 0.12419806582165133 -0.16857846410871535 -0.07568957949381161 0.042046185796083546
leaf_count=231 231 74 342 335 190 276 334
internal_value=0 2.14178 -1.90909 2.94723 -2.68902 -1.09069 1.02442
internal_count=2013 974 1039 566 532 507 408
shrinkage=0.05


Tree=4
num_leaves=8
num_cat=0
split_feature=66 118 118 115 92 41 6
split_gain=7445.76 888.617 520.219 159.762 135.086 95.442 89.5567
threshold=2.466042096898148 2.6243781853803134 2.7457301435914654 1.5634719199404687 4.6015000000000006 3.2185455896112334 3.3394419918164986
decision_type=2 2 2 2 2 2 2
left_child=1 3 5 -1 -4 -2 -3
right_child=2 6 4 -5 -6 -7 -8
leaf_value=0.17029078397596997 -0.0083778254608837793 0.082818404373386487 -0.05276744419501888 0.11670224761066493 -0.13619702964997754 -0.066335876312501527 0.031782853890951999
leaf_count=246 87 117 54 320 478 387 324
internal_value=0 1.97068 -1.87579 2.79987 -2.55457 -1.11396 0.906458
internal_count=2013 1007 1006 566 532 474 441
shrinkage=0.05


Tree=5
num_leaves=8
num_cat=0
split_feature=115 66 66 115 47 66 49
split_gain=6746.96 562.485 559.283 191.418 177.448 119.863 105.701
threshold=1.6363916944843513 2.5181964044349843 2.4115358275925831 1.5491933384835399 4.1933062821462164 2.4822602928810853 4.2217800000000016
decision_type=2 2 2 2 2 2 2
left_child=2 5 3 -1 -3 -2 -4
right_child=1 4 6 -5 -6 -7 -8
leaf_value=0.15709887952603752 -0.010628308990800923 -0.038319793542879718 0.11891593478227919 0.099955661706803256 -0.13112905635113684 -0.065586249961339535 0.030211844359775104
leaf_count=233 143 57 38 395 534 324 289
internal_value=0 -1.79541 1.87092 2.42314 -2.44356 -0.975152 0.810399
internal_count=2013 1058 955 628 591 467 327
shrinkage=0.05


Tree=6
num_leaves=8
num_cat=0
split_feature=115 66 125 70 66 15 56
split_gain=6099.73 596.649 403.264 166.083 148.669 143.344 108.078
threshold=1.6363916944832271 2.5181964044349843 5.2307846995497398 4.2004770461623542 2.4822602928810853 -4164.6697143020574 6.4128847712538812
decision_type=2 2 2 2 2 2 2
left_child=2 4 5 -3 -2 -1 -4
right_child=1 3 6 -5 -6 -7 -8
leaf_value=0.13729861893450387 -0.0058580087245704397 -0.037217369804687532 -0.045137893273071814 -0.12497880278881324 -0.062277439621483799 0.0060556814751841805 0.068169975773402558
leaf_count=383 181 60 22 531 329 22 485
internal_value=0 -1.63754 1.85939 -2.32138 -0.845081 2.60339 1.26507
internal_count=2013 1101 912 591 510 405 507
shrinkage=0.05


Tree=7
num_leaves=8
num_cat=0
split_feature=115 66 66 115 66 92 49
split_gain=5505 538.571 373.277 160.933 149.463 142.261 97.6388
threshold=1.6363916944832271 2.5219741335789312 2.4115358275925831 1.5491933384835399 2.4822602928810853 4.6015000000000006 4.2217800000000016
decision_type=2 2 2 2 2 2 2
left_child=2 4 3 -1 -2 -3 -4
right_child=1 5 6 -5 -6 -7 -8
leaf_value=0.14278812659304796 -0.0055651087066909887 -0.036426243402741171 0.12450670167323082 0.090392346910136187 -0.061035990445788828 -0.12118152736631249 0.030491229146350871
leaf_count=233 181 55 31 395 369 496 253
internal_value=0 -1.55566 1.76642 2.19664 -0.855621 -2.25443 0.81507
internal_count=2013 1101 912 628 550 551 284
shrinkage=0.05


Tree=8
num_leaves=8
num_cat=0
split_feature=115 118 115 66 119 66 41
split_gain=4971.23 524.181 319.922 183.308 163.789 130.906 109.974
threshold=1.6363916944804193 2.757487484598808 1.5491933384835399 2.4822602928810853 6.5000000000000009 2.4115358275925831 3.2112428197656624
decision_type=2 2 2 2 2 2 2
left_child=2 3 4 -2 -1 -4 -3
right_child=1 6 5 -5 -6 -7 -8
leaf_value=0.17428013661373704 -0.0045735183680354029 -0.0091437236446401358 0.085872729409344595 -0.061905116674164408 0.090157524252606328 0.040649734548254969 -0.12147269515474755
leaf_count=126 196 23 395 483 107 269 414
internal_value=0 -1.45693 1.70481 -0.907116 2.71297 1.35104 -2.31121
internal_count=2013 1116 897 679 233 664 437
shrinkage=0.05


Tree=9
num_leaves=8
num_cat=0
split_feature=115 118 66 115 61 41 49
split_gain=4487.4 398.376 382.385 131.081 120.81 99.2516 88.423
threshold=1.6363916944843513 2.757487484598808 2.4115358275925831 1.5491933384835399 3.6830000000000003 3.2112428197656624 4.2217800000000016
decision_type=2 2 2 2 2 2 2
left_child=2 4 3 -1 -2 -3 -4
right_child=1 5 6 -5 -6 -7 -8
leaf_value=0.12886628646547446 0.0031695416719285832 -0.0086865371660045966 0.10415047903131239 0.081579094211677028 -0.057074525384045074 -0.11539906106061407 0.023019676946206699
leaf_count=233 99 23 38 395 522 414 289
internal_value=0 -1.46416 1.52586 1.98247 -0.949408 -2.19565 0.648954
internal_count=2013 1058 955 628 621 437 327
shrinkage=0.05


Tree=10
num_leaves=8
num_cat=0
split_feature=115 118 110 41 38 51 2
split_gain=4118.8 378.106 320.873 142.379 121.331 88.0062 86.3701
threshold=1.6363916944841423 2.6183593725067911 1.3165611772065378 3.2562245281172664 3.9445000000000006 1.0118881406124782 3.5584050398902184e-05
decision_type=2 2 2 2 2 2 2
left_child=1 4 5 -4 -1 -2 -3
right_child=2 6 3 -5 -6 -7 -8
leaf_value=-0.01796653034980409 -0.076214866138605494 0.044498338657033787 -0.028703459046151056 -0.10616304148551232 0.10760505892600442 -0.029276931773852179 -0.061910805553197862
leaf_count=20 134 410 68 465 504 392 20
internal_value=0 1.48595 -1.37879 -1.92562 2.05625 -0.82469 0.790982
internal_count=2013 954 1059 533 524 526 430
shrinkage=0.05


Tree=11
num_leaves=8
num_cat=0
split_feature=115 118 115 30 47 61 2
split_gain=3717.22 341.24 293 123.336 101.864 92.2273 77.949
threshold=1.6363916944841423 2.6183593725067911 1.6865480854205137 4.8425000000000002 4.1013496240852296 3.6830000000000003 3.5584050398902184e-05
decision_type=2 2 2 2 2 2 2
left_child=1 3 5 -1 -4 -2 -3
right_child=2 6 4 -5 -6 -7 -8
leaf_value=0.14419695219424153 0.008711979037616403 0.042273420920459243 0.013779531927271325 0.085023979872953404 -0.096096780783545915 -0.048179011179900873 -0.058815264105796822
leaf_count=112 85 410 22 412 512 440 20
internal_value=0 1.41165 -1.30985 1.95343 -1.8314 -0.779362 0.751432
internal_count=2013 954 1059 524 534 525 430
shrinkage=0.05


Tree=12
num_leaves=8
num_cat=0
split_feature=115 118 110 66 47 61 34
split_gain=3354.79 308.78 268.652 107.546 97.0569 93.7983 77.6643
threshold=1.6363916944841423 2.6243781853803134 1.3165611772027714 2.3445940393213913 4.0834469084262297 3.6915000000000004 -0.018211820926464634
decision_type=2 2 2 2 2 2 2
left_child=1 3 5 -1 -4 -2 -3
right_child=2 6 4 -5 -6 -7 -8
leaf_value=0.12352902138179966 0.015086060717653532 0.047654903323522638 0.016799209944226526 0.07619813123145408 -0.090358282109356924 -0.04489022324047983 -0.00085204541285195928
leaf_count=175 77 280 22 382 535 425 117
internal_value=0 1.34107 -1.24436 1.82137 -1.72252 -0.713813 0.667188
internal_count=2013 954 1059 557 557 502 397
shrinkage=0.05


Tree=13
num_leaves=8
num_cat=0
split_feature=115 88 115 54 69 41 30
split_gain=3027.7 280.857 249.508 105.971 80.1394 77.9363 51.2142
threshold=1.6363916944841423 6.3796129142440998 1.6996731711976276 -1.0000000180025095e-35 2.880822619457597 3.2159573619562107 4.7245000000000008
decision_type=2 2 2 2 2 2 2
left_child=1 3 5 -1 -3 -2 -4
right_child=2 4 6 -5 -6 -7 -8
leaf_value=0.17202466981429043 -0.0049242817741518806 -0.0010894488624847718 -0.02307747844606638 0.07981358055731759 0.047375943429718639 -0.049437541399285266 -0.098750157899656535
leaf_count=33 118 137 24 558 226 590 327
internal_value=0 1.27401 -1.18214 1.69925 0.581692 -0.840373 -1.87152
internal_count=2013 954 1059 591 363 708 351
shrinkage=0.05


Tree=14
num_leaves=8
num_cat=0
split_feature=115 118 66 38 30 17 93
split_gain=2732.5 261.422 230.917 122.394 105.356 78.9764 75.3384
threshold=1.6363916944841423 2.6243781853803134 2.5059726634381727 3.9445000000000006 4.8425000000000002 0.65950333333333344 74872.694887933249
decision_type=2 2 2 2 2 2 2
left_child=1 4 5 -4 -1 -2 -3
right_child=2 6 3 -5 -6 -7 -8
leaf_value=0.12411033197694149 -0.093953703343868267 0.075789268098823317 0.045936851842062816 -0.076630238506171247 0.07121755625025393 -0.015902542137182677 0.019261035482112606
leaf_count=120 36 72 21 677 437 325 325
internal_value=0 1.21031 -1.12303 -1.45885 1.65226 -0.473721 0.59026
internal_count=2013 954 1059 698 557 361 397
shrinkage=0.05


Tree=15
num_leaves=8
num_cat=0
split_feature=66 110 118 111 12 39 51
split_gain=2476.69 426.589 196.875 124.919 108.498 75.4241 23.2136
threshold=2.4822602928810853 1.2292725943058243 2.7911789878639808 4.1729177000000002 -0.16197248820503779 0.0069783798891976329 1.0304003962741481
decision_type=2 2 2 2 2 2 2
left_child=1 3 5 -1 -3 -2 -4
right_child=2 4 6 -5 -6 -7 -8
leaf_value=0.12212118852581809 -0.057861622407381401 -0.050673409230833834 -0.13241506976132492 0.066095595984981104 0.031346599397701506 -0.020339563730795412 -0.093479389733501839
leaf_count=179 515 43 49 224 647 181 175
internal_value=0 1.00215 -1.22451 1.81961 0.524704 -0.962075 -2.03993
internal_count=2013 1093 920 403 690 696 224
shrinkage=0.05


Tree=16
num_leaves=8
num_cat=0
split_feature=66 110 115 119 12 39 92
split_gain=2235.21 384.996 177.939 114.445 97.9198 71.633 32.782
threshold=2.4822602928810853 1.2292725943058243 1.7029386365853882 6.5000000000000009 -0.16197248820503779 0.0069783798891976329 4.8365000000000009
decision_type=2 2 2 2 2 2 2
left_child=1 3 5 -1 -3 -2 -4
right_child=2 4 6 -5 -6 -7 -8
leaf_value=0.11172231734842326 -0.052408652107017895 -0.048139739582358405 -0.067142883697845809 0.058359791588584321 0.029779269365295825 -0.013114992611608499 -0.1004629900666376
leaf_count=212 444 43 116 191 647 157 203
internal_value=0 0.952041 -1.16328 1.72863 0.498469 -0.842878 -1.76693
internal_count=2013 1093 920 403 690 601 319
shrinkage=0.05


Tree=17
num_leaves=8
num_cat=0
split_feature=115 110 115 12 119 36 118
split_gain=2025.97 301.958 196.006 105.959 103.287 64.837 52.7298
threshold=1.6363916944850725 1.2292725943058243 1.686548085423796 -0.16197248820503779 6.5000000000000009 -0.42720408406275673 2.7911789878639808
decision_type=2 2 2 2 2 2 2
left_child=1 4 5 -3 -1 -2 -4
right_child=2 3 6 -5 -6 -7 -8
leaf_value=0.10613620123751287 -0.024755893192491878 -0.049124267939911336 -0.059648668326582145 0.032206878138508005 0.055441801425518168 -0.069160558167845013 -0.095007160397384452
leaf_count=212 462 43 206 583 191 100 216
internal_value=0 0.967046 -1.03989 0.532405 1.6422 -0.653142 -1.55494
internal_count=2013 1029 984 626 403 562 422
shrinkage=0.05


Tree=18
num_leaves=8
num_cat=0
split_feature=66 110 118 89 15 47 28
split_gain=1831.39 311.273 148.101 109.763 82.1765 69.0269 22.5847
threshold=2.4822602928810853 1.2292725943058243 2.7911789878639808 -19.648447531803523 -5312.9440140831375 4.3381245288557126 3.6669111274084935e-05
decision_type=2 2 2 2 2 2 2
left_child=1 3 5 -1 -3 -2 -4
right_child=2 4 6 -5 -6 -7 -8
leaf_value=0.0061881609597897284 -0.014505387102019604 0.02650333602005463 -0.082902273362768564 0.087485679359635693 -0.055547008104622368 -0.050531063689913329 -0.13737048620269413
leaf_count=47 179 658 203 356 32 517 21
internal_value=0 0.861801 -1.05293 1.56009 0.453962 -0.825317 -1.76017
internal_count=2013 1093 920 403 690 696 224
shrinkage=0.05


Tree=19
num_leaves=8
num_cat=0
split_feature=115 110 115 89 12 17 2
split_gain=1660.32 243.755 163.35 99.0614 94.1231 63.5995 43.3683
threshold=1.6363916944850725 1.2292725943058243 1.6865480854235784 -19.648447531803523 -0.16586232319687985 0.70025333333333351 3.6785667853602727e-06
decision_type=2 2 2 2 2 2 2
left_child=1 3 5 -1 -3 -2 -4
right_child=2 4 6 -5 -6 -7 -8
leaf_value=0.005878753985892585 -0.040331219891453669 -0.055420842724187042 -0.082208997780463977 0.083111396297456674 0.028966544329857707 -0.0035225246619631557 -0.049294672006906209
leaf_count=47 384 35 273 356 591 169 158
internal_value=0 0.87548 -0.941344 1.48208 0.484968 -0.581645 -1.40286
internal_count=2013 1029 984 403 626 553 431
shrinkage=0.05


Tree=20
num_leaves=8
num_cat=0
split_feature=118 118 110 95 86 12 92
split_gain=1401.34 227.39 116.028 111.269 110.482 96.9381 48.932
threshold=2.6714678063258486 2.757487484598808 1.1972189997379232 7.2381587725150108e-06 0.1330533088167182 -0.17290111382518422 4.5465000000000009
decision_type=2 2 2 2 2 2 2
left_child=2 3 4 -2 -1 -4 -3
right_child=1 6 5 -5 -6 -7 -8
leaf_value=0.056672982499003412 -0.023593509583128409 0.0026081234216690065 -0.034218513036501551 0.065479220429787766 0.14668174886073057 0.044020551609708858 -0.069501474336312527
leaf_count=99 669 25 42 37 52 690 399
internal_value=0 -0.726145 0.955268 -0.378508 1.75339 0.790628 -1.30499
internal_count=2013 1130 883 706 151 732 424
shrinkage=0.05


Tree=21
num_leaves=8
num_cat=0
split_feature=66 118 115 77 3 39 24
split_gain=1269.5 205.15 109.35 94.8518 93.8412 72.323 38.7132
threshold=2.485665976851763 2.6243781853803134 1.7029386365909922 1.4350078500000003 0.98701719773720076 0.012751393399924328 -0.0052322808691129047
decision_type=2 2 2 2 2 2 2
left_child=1 3 4 -1 -2 -3 -4
right_child=2 5 6 -5 -6 -7 -8
leaf_value=0.049977717393147325 -0.0013651505028701126 0.020663127905561948 -0.034489392705502046 0.11567108862462544 -0.045357813779092225 -0.038566368530716814 -0.078946020572482262
leaf_count=483 173 538 62 62 405 57 233
internal_value=0 0.705778 -0.896652 1.14902 -0.643809 0.299781 -1.39205
internal_count=2013 1140 873 545 578 595 295
shrinkage=0.05


Tree=22
num_leaves=8
num_cat=0
split_feature=118 118 110 12 95 17 28
split_gain=1151.47 188.242 100.355 122.331 99.7998 94.8765 47.0023
threshold=2.6714678063258486 2.757487484598808 1.19721899973785 -0.1258519181907776 7.2381587725150108e-06 0.71981333333333353 -1.5334355623708022e-05
decision_type=2 2 2 2 2 2 2
left_child=2 4 3 -1 -2 -4 -3
right_child=1 6 5 -5 -6 -7 -8
leaf_value=0.19152569806372577 -0.021519791201625008 -0.028681615748701945 0.028008177529788399 0.061963523643196752 0.062837639934307826 0.073998702253915208 -0.068314249804086805
leaf_count=22 669 97 618 106 37 137 327
internal_value=0 -0.658277 0.865879 1.68464 -0.341976 0.72707 -1.18495
internal_count=2013 1130 883 128 706 755 424
shrinkage=0.05


Tree=23
num_leaves=8
num_cat=0
split_feature=66 66 12 66 22 38 95
split_gain=1046.36 171.512 108.144 94.1226 74.6985 72.5087 21.0888
threshold=2.485665976851763 2.4346613173162406 -0.19159853970707827 2.5702257889261708 0.0020502098247795445 4.0012500000000015 6.3375583722481809e-06
decision_type=2 2 2 2 2 2 2
left_child=1 2 -1 5 -3 -2 -5
right_child=3 4 -4 6 -6 -7 -8
leaf_value=-0.063549833799797034 0.051398899838328363 0.044552036832816631 0.048942046814560387 -0.066488253645260217 -0.0078354968911739376 -0.035343697016600797 -0.1208538868278265
leaf_count=22 25 89 740 165 289 663 20
internal_value=0 0.640696 0.913885 -0.814102 0.0899827 -0.643834 -1.44731
internal_count=2013 1140 762 873 378 688 185
shrinkage=0.05


Tree=24
num_leaves=8
num_cat=0
split_feature=66 42 39 113 15 66 46
split_gain=944.956 175.961 140.483 89.6906 75.7595 64.3284 29.4699
threshold=2.4903855528858139 2.54783407200232 0.012896052832530801 4.0920541666666681 -4331.8824676738741 2.5702257889261708 4.9460000000000006
decision_type=2 2 2 2 2 2 2
left_child=1 4 -3 6 -1 -5 -2
right_child=3 2 -4 5 -6 -7 -8
leaf_value=0.059917118504329153 -0.0098774374861802378 0.021333403390925834 -0.053986444069510878 -0.036588532742567785 -0.02978196594119072 -0.070703365715147723 0.074928600817220289
leaf_count=403 21 691 68 606 25 179 20
internal_value=0 0.580832 0.291708 -0.812044 1.09355 -0.887352 0.629827
internal_count=2013 1187 759 826 428 785 41
shrinkage=0.05


Tree=25
num_leaves=8
num_cat=0
split_feature=118 12 36 118 66 95 12
split_gain=939.791 172.436 213.873 133.06 104.999 94.1175 63.0346
threshold=2.6804573929006623 -0.16586232319687985 -0.4044580103257242 2.7403234014668612 2.3573439926590587 7.6717811874583012e-06 -0.16880499185375339
decision_type=2 2 2 2 2 2 2
left_child=1 2 -1 5 -3 -2 -5
right_child=3 4 -4 6 -6 -7 -8
leaf_value=0.061218941588278702 -0.017341689255702845 0.072072432548820717 -0.14455498127665903 -0.1345834118127823 0.032805064108418137 0.07547105238612356 -0.0441978996750459
leaf_count=23 470 228 28 20 672 29 543
internal_value=0 0.753691 -1.0351 -0.614935 0.855056 -0.238955 -0.948175
internal_count=2013 951 51 1062 900 499 563
shrinkage=0.05


Tree=26
num_leaves=8
num_cat=0
split_feature=118 12 26 118 77 95 12
split_gain=848.161 156.971 219.604 120.086 98.9222 84.9411 56.8887
threshold=2.6804573929006623 -0.16197248820503779 0.38562848876188144 2.7403234014668612 1.4350078500000003 7.6717811874583012e-06 -0.16880499185375339
decision_type=2 2 2 2 2 2 2
left_child=1 2 -1 5 -3 -2 -5
right_child=3 4 -4 6 -6 -7 -8
leaf_value=-0.17748605674132706 -0.01647460446735111 0.03473587634743025 0.023815356283670382 -0.12785424038767815 0.084434965706389892 0.071697501019285667 -0.041988004760175231
leaf_count=20 470 774 42 20 115 29 543
internal_value=0 0.716007 -0.822412 -0.584188 0.823298 -0.227007 -0.900766
internal_count=2013 951 62 1062 889 499 563
shrinkage=0.05


Tree=27
num_leaves=8
num_cat=0
split_feature=115 42 115 86 61 3 51
split_gain=772.489 122.439 121.328 115.947 107.417 64.044 38.0842
threshold=1.6363916944804193 2.5165534039560695 1.686548085421246 0.17974423349826826 3.7665000000000002 0.9871782610660188 1.0356964510527205
decision_type=2 2 2 2 2 2 2
left_child=1 3 5 -1 -3 -2 -4
right_child=2 4 6 -5 -6 -7 -8
leaf_value=0.048695658991663636 0.020389185480773453 0.063608534222003077 -0.064704939816434534 0.14473242343149403 0.0174760378494709 -0.019879163339377403 -0.03531631964301029
leaf_count=110 125 160 162 44 597 470 345
internal_value=0 0.709886 -0.53468 1.52269 0.544533 -0.228389 -0.894135
internal_count=2013 911 1102 154 757 595 507
shrinkage=0.05


Tree=28
num_leaves=7
num_cat=0
split_feature=115 12 36 73 38 12
split_gain=703.916 156.196 200.704 136.97 84.2939 68.3491
threshold=1.6465452046968616 -0.16197248820503779 -0.4044580103257242 7.2500000000000009 3.9274000000000004 -0.16880499185375339
decision_type=2 2 2 2 2 2
left_child=1 2 -1 -3 -2 -6
right_child=4 3 -4 -5 5 -7
leaf_value=0.042731978805900059 0.053835486594055383 0.047183766667709244 -0.12666535640342369 0.010016922881269116 -0.11934932525391165 -0.031995136025916339
leaf_count=34 28 639 36 405 23 848
internal_value=0 0.558352 -0.887733 0.655312 -0.631135 -0.686037
internal_count=2013 1114 70 1044 899 871
shrinkage=0.05


Tree=29
num_leaves=7
num_cat=0
split_feature=115 12 36 73 38 12
split_gain=635.284 140.967 181.136 123.616 76.0753 61.6851
threshold=1.6465452046968616 -0.16197248820503779 -0.4044580103257242 7.2500000000000009 3.9274000000000004 -0.16880499185375339
decision_type=2 2 2 2 2 2
left_child=1 2 -1 -3 -2 -6
right_child=4 3 -4 -5 5 -7
leaf_value=0.040595378644545294 0.051143711619079116 0.044824578409762367 -0.12033208784285106 0.0095160766757656778 -0.11338185964395171 -0.030395379075453779
leaf_count=34 28 639 36 405 23 848
internal_value=0 0.530435 -0.843346 0.622546 -0.599578 -0.651735
internal_count=2013 1114 70 1044 899 871
shrinkage=0.05


Tree=30
num_leaves=8
num_cat=0
split_feature=118 29 49 8 118 46 23
split_gain=684.046 123.777 107.521 78.6239 77.5355 73.2631 25.4688
threshold=2.6714678063258486 1.9984590022916662 4.0743400000000012 8.537418838152492 2.8080442682781657 4.9590000000000005 -0.0027272159271744339
decision_type=2 2 2 2 2 2 2
left_child=1 3 5 -1 -4 -2 -3
right_child=2 6 4 -5 -6 -7 -8
leaf_value=-0.017810953198932111 -0.0029232056238330329 -0.075308862991631031 -0.022060911635423876 0.043532082075993274 -0.05935538630706795 0.10810801095018785 -0.0069767102102438611
leaf_count=56 39 25 897 777 165 24 30
internal_value=0 0.69223 -0.481808 0.788164 -0.557105 0.787488 -0.760736
internal_count=2013 888 1125 833 1062 63 55
shrinkage=0.05


Tree=31
num_leaves=8
num_cat=0
split_feature=118 29 49 34 118 46 34
split_gain=617.352 111.709 97.0379 78.0203 70.5227 66.12 29.1779
threshold=2.6714678063258486 1.9984590022916662 4.0743400000000012 0.020279311915906012 2.8163649277862093 4.9590000000000005 -0.036364947790766308
decision_type=2 2 2 2 2 2 2
left_child=1 3 5 -1 -4 -2 -3
right_child=2 6 4 -5 -6 -7 -8
leaf_value=0.032045940833993251 -0.0027770450052160486 -0.076028831824660303 -0.021400484959582255 0.080865449940471956 -0.05925856666888675 0.10270261000841857 -0.0028900323808193208
leaf_count=741 39 25 920 92 142 24 30
internal_value=0 0.657618 -0.457717 0.748755 -0.52925 0.748114 -0.722699
internal_count=2013 888 1125 833 1062 63 55
shrinkage=0.05


Tree=32
num_leaves=8
num_cat=0
split_feature=118 29 47 12 13 39 34
split_gain=557.16 100.817 87.8482 77.2254 64.7754 61.1713 26.3453
threshold=2.6714678063258486 1.9984590022916662 4.2227286008765796 -0.16586232319687985 0.029969638309474328 -0.0029860177948435357 -0.030823311025499598
decision_type=2 2 2 2 2 2 2
left_child=1 3 5 -1 -4 -2 -3
right_child=2 6 4 -5 -6 -7 -8
leaf_value=-0.02467945461953059 0.065584617666900158 -0.069568297901639237 -0.031841920297556885 0.039412966766067585 0.0075087195144919287 -0.0062157325490405507 -0.00034666391355650766
leaf_count=50 42 27 863 783 119 101 28
internal_value=0 0.624737 -0.434832 0.711318 -0.541467 0.29745 -0.686564
internal_count=2013 888 1125 833 982 143 55
shrinkage=0.05


Tree=33
num_leaves=8
num_cat=0
split_feature=118 29 49 24 38 45 34
split_gain=502.837 90.9877 81.9478 77.6567 63.5713 62.1428 23.9414
threshold=2.6714678063258486 1.9984590022916662 4.0743400000000012 -0.0076574110901233648 3.9445000000000006 0.0016434074931853053 -0.036364947790766308
decision_type=2 2 2 2 2 2 2
left_child=1 3 5 -1 -4 -2 -3
right_child=2 6 4 -5 -6 -7 -8
leaf_value=0.094853235872424391 0.071127179360426049 -0.068748975515365601 0.064358006210532046 0.029970985406662855 -0.025636081270560274 -0.03304039182310755 -0.0024974575638771058
leaf_count=49 41 25 20 784 1042 22 30
internal_value=0 0.5935 -0.41309 0.675752 -0.478826 0.695024 -0.652236
internal_count=2013 888 1125 833 1062 63 55
shrinkage=0.05


Tree=34
num_leaves=8
num_cat=0
split_feature=118 13 94 49 26 66 46
split_gain=453.81 85.9008 166.482 73.9579 68.9977 63.2641 58.5833
threshold=2.6714678063258486 0.0071858729889201691 3.4050000000000007 4.0743400000000012 0.4220178901024621 2.5702257889261708 4.9590000000000005
decision_type=2 2 2 2 2 2 2
left_child=1 4 -3 6 -1 -5 -2
right_child=3 2 -4 5 -6 -7 -8
leaf_value=-0.10283632963186218 -0.0048097027632861564 0.079819049206346471 0.021765701591320869 -0.017194371533723 0.010094303245607176 -0.049578613817568992 0.094476577317497382
leaf_count=21 39 151 678 880 38 182 24
internal_value=0 0.563825 0.646799 -0.392435 -0.602027 -0.454884 0.660273
internal_count=2013 888 829 1125 59 1062 63
shrinkage=0.05


Tree=35
num_leaves=8
num_cat=0
split_feature=73 77 15 17 50 17 51
split_gain=392.16 118.377 120.451 84.555 87.8821 83.1274 48.523
threshold=7.7500000000000009 1.4494676500000001 -4331.8824676738741 0.71017666666666679 0.059533871080326699 0.69397000000000009 1.0124551686150152
decision_type=2 2 2 2 2 2 2
left_child=1 2 -1 6 -5 -3 -2
right_child=3 5 -4 4 -6 -7 -8
leaf_value=0.019931967310330471 -0.054689867111132641 0.033495466003660115 -0.087217154298667554 -0.0053345765990133473 0.094642352536320695 0.1200307728836731 -0.022963592220810312
leaf_count=918 151 64 27 182 25 49 597
internal_value=0 0.453079 0.337411 -0.430833 0.134799 1.42039 -0.587365
internal_count=2013 1058 945 955 207 113 748
shrinkage=0.05


Tree=36
num_leaves=7
num_cat=0
split_feature=115 17 109 15 38 36
split_gain=365.772 112.365 162.323 83.9328 73.6907 67.8903
threshold=1.6465452046968616 0.72030666666666676 4.9390433333333341 -4164.6697143020574 4.0012500000000015 -0.42350869546846559
decision_type=2 2 2 2 2 2
left_child=1 3 -3 -1 -2 -6
right_child=4 2 -4 -5 5 -7
leaf_value=0.016303902583835295 0.046870166133787187 0.15264485474261974 0.032568859118361805 -0.084775962263700516 -0.019389911953726399 -0.059256640796363363
leaf_count=932 37 36 129 21 733 125
internal_value=0 0.413444 1.17535 0.281531 -0.444373 -0.50396
internal_count=2013 1118 165 953 895 858
shrinkage=0.05


Tree=37
num_leaves=8
num_cat=0
split_feature=115 17 109 15 115 17 29
split_gain=333.496 109.536 129.716 79.7613 68.244 83.8479 20.4417
threshold=1.6363916944842776 0.72030666666666676 4.9390433333333341 -4164.6697143020574 1.7029386365932624 0.70269666666666686 2.0990979294916836
decision_type=2 2 2 2 2 2 2
left_child=1 3 -3 -1 5 -2 -6
right_child=4 2 -4 -5 6 -7 -8
leaf_value=0.018188969006945121 -0.02121474196223111 0.14501261395505735 0.035789893343541268 -0.080537164663629868 -0.03688468481838391 0.014248199308098392 -0.084800421565771111
leaf_count=793 592 36 111 21 203 232 25
internal_value=0 0.45631 1.25077 0.31284 -0.358577 -0.224601 -0.842772
internal_count=2013 961 147 814 1052 824 228
shrinkage=0.05


Tree=38
num_leaves=8
num_cat=0
split_feature=115 17 109 15 115 17 3
split_gain=300.98 98.8561 117.239 71.9846 61.5902 76.511 18.9247
threshold=1.6363916944842776 0.72030666666666676 4.9348600000000014 -4164.6697143020574 1.7029386365932624 0.71017666666666679 0.98068523124169893
decision_type=2 2 2 2 2 2 2
left_child=1 3 -3 -1 5 -2 -6
right_child=4 2 -4 -5 6 -7 -8
leaf_value=0.017279520505715708 -0.018321137892798517 0.14240461371161722 0.035387047647351504 -0.076510303751343781 -0.077766674474395558 0.01966530724557633 -0.034532603164596588
leaf_count=793 658 33 114 21 29 166 199
internal_value=0 0.433495 1.18823 0.297198 -0.340648 -0.213371 -0.800633
internal_count=2013 961 147 814 1052 824 228
shrinkage=0.05


Tree=39
num_leaves=6
num_cat=0
split_feature=115 94 61 38 36
split_gain=274.095 85.0499 115.984 66.6486 60.6593
threshold=1.6465452046968616 2.9650000000000003 3.7940000000000005 4.0012500000000015 -0.42350869546846559
decision_type=2 2 2 2 2
left_child=1 -1 -3 -2 -5
right_child=3 2 -4 4 -6
leaf_value=-0.069781299639079308 0.046457771504002099 0.050265914811071281 0.011254996232827575 -0.016590306879341665 -0.054274168626032772
leaf_count=27 37 246 845 733 125
internal_value=0 0.357635 0.401025 -0.384939 -0.441608
internal_count=2013 1118 1091 895 858
shrinkage=0.05


Tree=40
num_leaves=8
num_cat=0
split_feature=110 17 118 109 110 37 82
split_gain=312.3 112.627 112.446 90.1216 86.7142 75.3673 56.9333
threshold=1.2516655570351447 0.71881333333333342 2.576662801050853 4.9440133333333343 1.2866839377100903 1291.8330261961519 5.02921
decision_type=2 2 2 2 2 2 2
left_child=1 2 -1 -3 5 -2 -6
right_child=4 3 -4 -5 6 -7 -8
leaf_value=0.054123424589287553 -0.088472524075768888 0.13254141347482801 0.0056248459964990619 0.041529143496471299 -0.03062638026888842 0.0017190894623236531 0.051353591646660458
leaf_count=163 24 40 448 85 567 664 22
internal_value=0 0.548198 0.371262 1.41306 -0.269651 -0.0285426 -0.551286
internal_count=2013 736 611 125 1277 688 589
shrinkage=0.05


Tree=41
num_leaves=8
num_cat=0
split_feature=118 39 17 30 115 45 45
split_gain=284.59 92.353 98.2878 85.6604 62.2218 79.0639 22.1089
threshold=2.6702013918802727 0.012187878812902545 0.71881333333333342 5.025500000000001 1.7029386365932624 -0.012535189069953025 -0.0048116376832417632
decision_type=2 2 2 2 2 2 2
left_child=1 2 -1 -3 5 -2 -6
right_child=4 3 -4 -5 6 -7 -8
leaf_value=0.019708076128140774 0.063485592520899248 -0.11922876238822938 0.065715607966408671 0.0025326183746353943 -0.06400947817830277 -0.012119886813573401 -0.028920545199995536
leaf_count=657 36 20 141 52 61 876 170
internal_value=0 0.458879 0.556745 -0.6258 -0.300133 -0.182709 -0.763729
internal_count=2013 870 798 72 1143 912 231
shrinkage=0.05


Tree=42
num_leaves=7
num_cat=0
split_feature=115 104 49 110 128 38
split_gain=259.263 84.321 90.2178 77.9387 96.7554 44.6116
threshold=1.595131481868006 -5.4999999999999991 4.9812300000000009 1.2866839377100903 4.5637757500000005 5.0413000000000006
decision_type=2 2 2 2 2 2
left_child=1 2 -1 4 -2 -5
right_child=3 -3 -4 5 -6 -7
leaf_value=0.026395399521893927 -0.073533795167540397 0.11629518563859165 -0.070422174267470841 -0.028026965115831311 0.003769997498425453 0.041574996337294584
leaf_count=641 43 25 25 565 690 24
internal_value=0 0.522902 0.455222 -0.232951 -0.0152975 -0.503818
internal_count=2013 691 666 1322 733 589
shrinkage=0.05


Tree=43
num_leaves=8
num_cat=0
split_feature=16 31 78 46 83 52 38
split_gain=241.186 125.276 169.056 135.263 100.412 109.98 38.9519
threshold=2.4649728377094386 8.0641863557199648e-16 5.2650000000000006 5.1545000000000014 2.3303877511492481 9.3179144930943796 5.0413000000000006
decision_type=2 2 2 2 2 2 2
left_child=1 3 -3 -1 5 -2 -6
right_child=4 2 -4 -5 6 -7 -8
leaf_value=0.094404757199232026 -0.086277185623167149 -0.14457979533821344 0.020517949122881546 0.026092356964853583 -0.024120739059906235 0.0066785421682877492 0.042066749574049662
leaf_count=113 33 20 69 202 663 890 23
internal_value=0 0.715967 -0.331653 1.01196 -0.148263 0.067102 -0.438033
internal_count=2013 404 89 315 1609 923 686
shrinkage=0.05


Tree=44
num_leaves=8
num_cat=0
split_feature=110 17 118 46 12 110 27
split_gain=219.61 90.7028 92.6254 72.0752 69.689 67.6016 45.3982
threshold=1.2516655570351447 0.71881333333333342 2.576662801050853 5.1755000000000004 -0.15523881540650464 1.3165611772076622 28.02154031251931
decision_type=2 2 2 2 2 2 2
left_child=1 2 -1 -3 6 -6 -2
right_child=4 3 -4 -5 5 -7 -8
leaf_value=0.0472851645971357 -0.11945854644898489 0.11813653065608098 0.0032679249840189837 0.036188924044024115 0.00079402511137442993 -0.023254050562827019 -0.029030046218207907
leaf_count=163 23 39 448 86 733 486 35
internal_value=0 0.458997 0.300213 1.23513 -0.226829 -0.175873 -1.29779
internal_count=2013 736 611 125 1277 1219 58
shrinkage=0.05


Tree=45
num_leaves=7
num_cat=0
split_feature=13 37 92 13 18 78
split_gain=178.922 142.215 139.633 97.0965 86.8923 74.6447
threshold=0.013603971291725978 1321.2107782996768 4.730500000000001 0.074121770132963144 -8.4999999999999982 5.4850000000000012
decision_type=2 2 2 2 2 2
left_child=1 -1 4 -4 -2 -3
right_child=2 5 3 -5 -6 -7
leaf_value=-0.14815846918150785 0.080189741669444869 0.0069433361182308006 -0.002228635355938396 0.032958378810020075 -0.033187869936227798 -0.023875400461439863
leaf_count=20 109 299 723 269 20 573
internal_value=0 -0.32663 0.273531 0.14626 1.25224 -0.266159
internal_count=2013 892 1121 992 129 872
shrinkage=0.05


Tree=46
num_leaves=7
num_cat=0
split_feature=13 37 92 12 23 41
split_gain=161.477 128.349 126.019 94.7551 82.6948 68.4712
threshold=0.013603971291725978 1321.2107782996768 4.730500000000001 -0.19159853970707827 -0.002325966133045428 3.2562245281172664
decision_type=2 2 2 2 2 2
left_child=1 -1 4 -4 -2 -3
right_child=2 5 3 -5 -6 -7
leaf_value=-0.14075054809451104 0.017865671890397224 0.008447971093914845 -0.098131514943781362 0.0092199150348671096 0.097991143183699295 -0.021950294235567297
leaf_count=20 62 267 21 971 67 605
internal_value=0 -0.310299 0.259855 0.138947 1.18962 -0.252851
internal_count=2013 892 1121 992 129 872
shrinkage=0.05


Tree=47
num_leaves=7
num_cat=0
split_feature=13 37 92 13 18 78
split_gain=145.733 115.835 113.732 87.6735 77.5983 62.0149
threshold=0.013603971291725978 1321.2107782996768 4.730500000000001 0.074121770132963144 -8.4999999999999982 5.4850000000000012
decision_type=2 2 2 2 2 2
left_child=1 -1 4 -4 -2 -3
right_child=2 5 3 -5 -6 -7
leaf_value=-0.13371301883831621 0.073118438188909396 0.0064482702352698391 -0.0024668389774168513 0.030969187445232305 -0.03402426987886429 -0.021642471908268245
leaf_count=20 109 299 723 269 20 573
internal_value=0 -0.294784 0.246862 0.132 1.13014 -0.240209
internal_count=2013 892 1121 992 129 872
shrinkage=0.05


Tree=48
num_leaves=7
num_cat=0
split_feature=44 92 78 106 25 70
split_gain=132.663 84.6044 125.48 78.1071 70.0604 58.8732
threshold=0.023740923257815145 4.730500000000001 5.2650000000000006 -27.000499999999999 0.15095645048731368 4.2217968410156672
decision_type=2 2 2 2 2 2
left_child=4 3 -3 -2 -1 -6
right_child=1 2 -4 -5 5 -7
leaf_value=-0.098103000337015023 0.13467157274484634 -0.10373524794510257 0.012233603497159231 0.031517930242462432 0.014356224246249341 -0.015707827127471319
leaf_count=23 25 24 830 69 202 840
internal_value=0 0.278603 0.179491 1.17905 -0.235699 -0.197593
internal_count=2013 948 854 94 1065 1042
shrinkage=0.05


Tree=49
num_leaves=7
num_cat=0
split_feature=13 49 37 23 16 41
split_gain=122.49 105.088 104.563 100.178 92.7503 53.0302
threshold=0.013603971291725978 4.2217800000000016 1321.2107782996768 0.00069000068089912134 2.4649728377094386 3.2562245281172664
decision_type=2 2 2 2 2 2
left_child=2 3 -1 -2 -3 -4
right_child=1 4 5 -5 -6 -7
leaf_value=-0.12655475554987788 0.017497253315202122 0.029277133338998052 0.0076356329442409986 0.15559610792746148 -0.0022558297344177284 -0.01911638560250771
leaf_count=20 29 344 267 24 724 605
internal_value=0 0.226224 -0.270354 1.60065 0.158017 -0.218502
internal_count=2013 1121 892 53 1068 872
shrinkage=0.05


end of trees

feature importances:
q05_roll_std_10=46
q05_roll_std_1000=36
q05_roll_std_100=29
autocorr_5=18
q01_roll_std_10=15
stdAudioIncrease=13
avg_last_10000=10
avg_first_50000=9
mean_change_rate=8
hmean=8
q95_roll_mean_1000=8
Rmin_last_5000=7
abs_mean=7
autocorr_10=6
autocorr_1000=6
abs_max_roll_mean_1000=6
min_roll_std_100=5
q99_roll_mean_1000=5
autocorr_100=5
Rstd__last_5000=5
ave_roll_mean_100=5
q01_roll_mean_1000=5
av_change_abs_roll_mean_100=5
classic_sta_lta6_mean=4
q99_roll_mean_100=4
av_change_abs_roll_std_1000=3
classic_sta_lta7_mean=3
autocorr_500=3
autocorr_5000=3
q95_roll_mean_10=3
max_to_min=3
q75Audio=3
std_last_10000=2
min_roll_std_1000=2
min_last_10000=2
autocorr_10000=2
std_roll_mean_100=2
av_change_abs_roll_mean_10=2
q01_roll_std_1000=2
exp_Moving_average_3000_mean=2
skew=2
Rmean_last_5000=2
q01_roll_mean_100=2
kurt=1
mean_change_rate_first_50000=1
classic_sta_lta2_mean=1
max_roll_std_1000=1
Imean=1
mean_change_rate_last_50000=1
mean_change_rate_last_10000=1
q99_roll_std_1000=1
Rmean=1
q95_roll_std_1000=1
std_roll_std_10=1
avg_last_50000=1
q01_roll_std_100=1
Hilbert_mean=1
av_change_rate_roll_std_10=1
min_first_10000=1
q001=1
gmean=1
ave10=1
q95_roll_std_10=1
stdAudio=1

parameters:
[boosting: gbdt]
[objective: regression]
[metric: l1,l2]
[tree_learner: serial]
[device_type: cpu]
[data: ]
[valid: ]
[num_iterations: 100]
[learning_rate: 0.05]
[num_leaves: 31]
[num_threads: 0]
[max_depth: 3]
[min_data_in_leaf: 20]
[min_sum_hessian_in_leaf: 0.001]
[bagging_fraction: 0.8]
[bagging_freq: 5]
[bagging_seed: 3]
[feature_fraction: 0.9]
[feature_fraction_seed: 2]
[early_stopping_round: 0]
[max_delta_step: 0]
[lambda_l1: 0]
[lambda_l2: 0]
[min_gain_to_split: 0]
[drop_rate: 0.1]
[max_drop: 50]
[skip_drop: 0.5]
[xgboost_dart_mode: 0]
[uniform_drop: 0]
[drop_seed: 4]
[top_rate: 0.2]
[other_rate: 0.1]
[min_data_per_group: 100]
[max_cat_threshold: 32]
[cat_l2: 10]
[cat_smooth: 10]
[max_cat_to_onehot: 4]
[top_k: 20]
[monotone_constraints: ]
[feature_contri: ]
[forcedsplits_filename: ]
[refit_decay_rate: 0.9]
[verbosity: 0]
[max_bin: 255]
[min_data_in_bin: 3]
[bin_construct_sample_cnt: 200000]
[histogram_pool_size: -1]
[data_random_seed: 1]
[output_model: LightGBM_model.txt]
[snapshot_freq: -1]
[input_model: ]
[output_result: LightGBM_predict_result.txt]
[initscore_filename: ]
[valid_data_initscores: ]
[pre_partition: 0]
[enable_bundle: 1]
[max_conflict_rate: 0]
[is_enable_sparse: 1]
[sparse_threshold: 0.8]
[use_missing: 1]
[zero_as_missing: 0]
[two_round: 0]
[save_binary: 0]
[enable_load_from_binary_file: 1]
[header: 0]
[label_column: ]
[weight_column: ]
[group_column: ]
[ignore_column: ]
[categorical_feature: ]
[predict_raw_score: 0]
[predict_leaf_index: 0]
[predict_contrib: 0]
[num_iteration_predict: -1]
[pred_early_stop: 0]
[pred_early_stop_freq: 10]
[pred_early_stop_margin: 10]
[convert_model_language: ]
[convert_model: gbdt_prediction.cpp]
[num_class: 1]
[is_unbalance: 0]
[scale_pos_weight: 1]
[sigmoid: 1]
[boost_from_average: 1]
[reg_sqrt: 0]
[alpha: 0.9]
[fair_c: 1]
[poisson_max_delta_step: 0.7]
[tweedie_variance_power: 1.5]
[max_position: 20]
[label_gain: ]
[metric_freq: 1]
[is_provide_training_metric: 0]
[eval_at: ]
[num_machines: 1]
[local_listen_port: 12400]
[time_out: 120]
[machine_list_filename: ]
[machines: ]
[gpu_platform_id: -1]
[gpu_device_id: -1]
[gpu_use_dp: 0]

end of parameters

pandas_categorical:[]
