tree
version=v2
num_class=1
num_tree_per_iteration=1
label_index=0
max_feature_idx=171
objective=regression
feature_names=q01_roll_std_100 min_roll_std_100 q01_roll_std_10 min_roll_std_10 hmean gmean Hilbert_mean q01_roll_std_1000 min_roll_std_1000 max_roll_std_1000 mean_change_abs iqr iqr1 ave10 mean_change_rate_first_50000 sum q05_roll_std_10 q05_roll_mean_10 q05_roll_std_100 q01_roll_mean_10 q05_roll_std_1000 mean_change_rate_last_10000 mean_change_rate_last_50000 mean_change_rate_first_10000 q99 max_roll_std_100 q75Audio q25Audio abs_max_roll_mean_100 skew q01 abs_max_roll_mean_10 abs_std q95 q05 min_roll_mean_10 abs_trend q95_roll_mean_10 q95_roll_std_10 abs_q95 ave_roll_std_10 stdAudio ave_roll_mean_10 ave_roll_std_100 ave_roll_std_1000 abs_mean std_roll_std_10 av_change_rate_roll_std_10 q95_roll_std_100 std_roll_std_100 av_change_rate_roll_std_100 minAudio max_first_10000 maxAudio max_roll_mean_10 std_roll_mean_10 std_first_10000 av_change_rate_roll_mean_10 mean_change_rate std_roll_std_1000 av_change_rate_roll_std_1000 q95_roll_std_1000 min_first_50000 min_first_10000 min_last_10000 std_first_50000 q95_roll_mean_100 max_roll_mean_100 q05_roll_mean_100 std_roll_mean_100 av_change_rate_roll_mean_100 avg_last_10000 min_roll_mean_100 max_first_50000 ave_roll_mean_100 max_last_50000 std_last_50000 max_last_10000 max_roll_std_10 std_roll_mean_1000 av_change_rate_roll_mean_1000 max_roll_mean_1000 q01_roll_mean_100 min_last_50000 mad ave_roll_mean_1000 q95_roll_mean_1000 max_to_min_diff stdAudioIncrease min_roll_mean_1000 q05_roll_mean_1000 count_big abs_max_roll_std_1000 abs_max_roll_std_10 abs_max_roll_std_100 meanAudio avg_last_50000 avg_first_50000 std_last_10000 q99_roll_mean_10 av_change_abs_roll_mean_1000 av_change_abs_roll_std_1000 av_change_abs_roll_mean_100 av_change_abs_roll_mean_10 av_change_abs_roll_std_100 av_change_abs_roll_std_10 q99_roll_mean_1000 avg_first_10000 kurt q01_roll_mean_1000 abs_q99 q99_roll_mean_100 trend q99_roll_std_10 modeAudio q99_roll_std_1000 medianAudio max_to_min abs_q01 q99_roll_std_100 abs_q05 Hann_window_mean_50 Hann_window_mean_150 Hann_window_mean_1500 Hann_window_mean_15000 classic_sta_lta1_mean classic_sta_lta2_mean classic_sta_lta3_mean classic_sta_lta4_mean classic_sta_lta5_mean classic_sta_lta6_mean classic_sta_lta7_mean classic_sta_lta8_mean autocorr_1 autocorr_5 autocorr_10 autocorr_50 autocorr_100 autocorr_500 autocorr_1000 autocorr_5000 autocorr_10000 abs_max_roll_mean_1000 Kalman_correction exp_Moving_average_300_mean exp_Moving_average_3000_mean exp_Moving_average_30000_mean MA_700MA_std_mean MA_700MA_BB_high_mean MA_700MA_BB_low_mean MA_400MA_std_mean MA_400MA_BB_high_mean MA_400MA_BB_low_mean MA_1000MA_std_mean q999 q001 Rmean Rstd Rmax Rmin Imean Istd Imax Imin Rmean_last_5000 Rstd__last_5000 Rmax_last_5000 Rmin_last_5000 Rmean_last_15000 Rstd_last_15000 Rmax_last_15000 Rmin_last_15000
feature_infos=[0:2.8922746282577951] [0:2.3446478919821931] [0:1.5811388300762523] [0:0.69920589878719175] [0:4.6978001442665533] [0:8.5022409999999997] [0:49.149244736433971] [0:3.5830520875726735] [0:3.1662477990709625] [0:1499.5107317474015] [-0.00078667191114607446:0.00074000493336622247] [0:11] [0:84] [0:5.3939500000000002] [-0.1123902064913862:0.15226135404146793] [0:808799] [0:2.0976176963370921] [-23.199999999999999:3.2000000000000002] [0:3.3219654642186924] [-199.05999999999997:2.2000000000000002] [0:3.9441088974559517] [-0.13450542413890712:0.17506373156509591] [-0.12138340097115838:0.16094230601280834] [-0.12568965116518455:0.17580883963915803] [0:279] [0:2330.9913223885032] [0:10] [-1:3] [0:496.20999999999998] [-4.0918262207255873:4.1084690798019885] [-260:0] [0:4380.1000000000004] [0:150.43236825417767] [0:47] [-37:0] [-4380.1000000000004:0] [-0.00069577447282736886:0.0006645023224953106] [0:32.100000000000001] [0:76.123072854786386] [0:93] [0:25.89950615676489] [0:153.67862] [0:5.3923822164663209] [0:37.897474779489912] [0:40.904076527445433] [0:31.848340000000004] [0:109.41231004547069] [0:76007.607221321436] [0:117.38549589478352] [0:148.94719266801354] [0:75964.828312551603] [-5515:0] [0:3479] [0:5115] [0:3685.0999999999999] [0:110.67245002955292] [0:436.46745261486467] [0:75991.57755571774] [-0.096501159712536144:0.14276451945282165] [0:148.73028532188806] [0:75448.015440714022] [0:122.7692608204763] [-5515:0] [-5515:0] [-1699:0] [0:226.39000726393243] [0:8.4700000000000006] [0:496.20999999999998] [0:4.6799999999999997] [0:15.966909976346299] [0:75960.699736103081] [0:5.5812999999999997] [-440.50999999999999:3.5600000000000001] [0:3479] [0:5.3925197963989575] [0:5115] [0:247.19259169875261] [0:1456] [0:3362.4702047420105] [0:3.5770345912695567] [0:75448.557242090814] [0:73.841999999999999] [-26.629999999999999:4.3600000000000003] [-4392:0] [0:30.822537379378076] [0:5.3925303387225583] [0:7.226] [-2036:1498] [0:0.77462666666666669] [-48.777999999999999:4.6269999999999998] [0:4.9689999999999994] [0:1937] [0:1499.5107317474015] [0:3362.4702047420105] [0:2330.9913223885032] [0:5.3919934999999999] [0:5.4859599999999995] [0:5.5157999999999996] [0:136.45070471434622] [0:210.61000000000058] [-2.0114093959731574e-05:1.1420863309352514e-05] [-0.00043899603017062141:0.00034533035295970674] [-3.8025350233489003e-05:3.8625750500333555e-05] [-0.00074738315887725858:0.00040469364624308332] [-0.00045353238754379082:0.00063078538269458753] [-0.000526060371849054:0.00055023140163027687] [0:12.965] [0:5.5401999999999996] [0:630.14621225910264] [-4.641:4.8780000000000001] [0:674.0100000000092] [0:34.219999999999999] [-8.239300194143986e-06:9.5287343273578634e-06] [0:567.73378416663945] [0:6] [0:953.24831232420559] [0:5] [0:2.3452382000000003] none [0:968.04971129346211] [0:1] [0:5.3919520818605724] [0:5.3914864318308737] [0:5.3843482565412053] [0:5.3107105679209869] [0:1.1146118898097643] [0:1.3614629039057966] [0:0.97955739052546076] [0:0.97645873226967161] [0:1.0813394125717235] [0:1.1547550071184729] [0:0.99733447848836521] [0:0.99818155493660121] [0:0.97068665069093996] [-0.2412399859758825:0.48291697350869239] [-0.64179140125033241:0] [-0.088714748341982952:0.55470845964870197] [-0.44204380224377721:0.45475068418122472] [-0.13143743274742986:0.14751454150797566] [-0.098716652647818676:0.072693322193793694] [-0.067029633808116662:0.063626192355735398] [-0.039262153376697688:0.060117222569058472] [0:73.841999999999999] [0:24.375846459757465] [0:5.392367527999169] [0:5.3911399712353214] [0:5.4042483199718987] [0:40.041981928960467] [0:124.53488907211435] [-115.71700250164845:0] [0:39.113159415268967] [0:121.74842153103987] [-112.93053496057394:0] [0:40.904076527444865] [0:1740.0019999999786] [-1702.0070000000001:0] [-106:74.000000000000014] [0:42126.253061481744] [0:808799] [-514814.91433320154:0] [-2.9928438986341166e-14:7.8774367769559212e-14] [0:42094.98967810777] [0:541129.40686954814] [-541129.40686954814:0] [-754.31490491109957:532.36592136057743] [0:96095.569257410476] [0:435731.27006912936] [-442618.99550136545:0] [-282.4743705510578:222.33834814737281] [0:93811.160245564606] [0:559463.70466397249] [-514814.91433320154:0]
tree_sizes=2393 2461 2461 2443 2458 2467 2460 2451 2451 2472 2478 2459 2470 2475 2494 2479 2486 2473 2484 2463 2489 2500 2517 2493 2501 2510 2481 2513 2508 2508 2509 2483 2506 2507 2490 2502 2509 2512 2499 2517 2525 2498 2522 2506 2523

Tree=0
num_leaves=31
num_cat=0
split_feature=18 20 18 2 107 13 18 140 134 0 101 20 111 170 90 20 83 137 62 38 152 101 18 156 88 19 88 88 107 68
split_gain=13558.7 1055.39 1054.67 222.64 187.498 187.021 179.123 175.83 174.212 163.44 147.235 141.505 117.506 115.941 151.189 115.607 111.301 110.032 103.684 96.1992 85.6116 82.5926 80.3482 79.3463 107.006 109.643 78.0222 75.9345 73.4749 71.7992
threshold=2.4613374043762022 2.6132516298417072 2.5168924161515345 1.1972189997394185 4.3384000000000009 4.0720583333333344 2.4824840931468688 0.0037771452870282982 -0.16694780464751402 2.2756284443998145 -1.8636257752974058e-06 2.792209237329724 5.4650000000000007 15599.581283560474 4.0365000000000011 2.5758315912451346 -56.499999999999993 0.010473984822155918 -42.499999999999993 4.3262762572923235 -8.7214794911680542 1.6324982301213296e-05 2.37144204519895 6.0000000000000036 0.68574000000000013 -0.84999999999999998 0.69935000000000014 0.71035000000000015 4.4006000000000007 3.8550000000000004
decision_type=2 2 2 2 2 2 2 2 2 2 2 2 2 2 2 2 2 2 2 2 2 2 2 2 2 2 2 2 2 2
left_child=1 3 6 4 19 -4 -2 8 -5 21 -9 26 -8 17 -15 29 20 23 -17 -1 -11 -3 -16 24 -10 -26 -7 -14 -18 -6
right_child=2 9 5 7 15 11 12 10 13 16 -12 -13 27 14 22 18 28 -19 -20 -21 -22 -23 -24 -25 25 -27 -28 -29 -30 -31
leaf_value=5.8869663096341887 5.657606623151163 5.7858094067623069 5.6536811194177616 5.7026765150574619 5.9600492814372616 5.5270625472111679 5.6421383054396594 5.6440877015638131 5.7609382802854281 5.6547971237342196 5.7966632528012765 5.4942843233852283 5.5686996710081935 5.9830158396769386 5.9231615093954435 5.8702142425800483 5.7423961773618979 5.934039845874401 5.740626150155582 6.0085926798642584 5.7658055941042301 5.7046303171459378 5.8041554959533279 5.7495619275939678 5.7870650417707541 5.9160375320968335 5.5729543704129938 5.6370483965765077 5.6530104549632032 5.8665571787520792
leaf_count=29 205 299 29 21 25 295 114 21 34 20 64 252 217 33 23 29 35 21 33 37 132 35 37 38 26 45 135 50 67 115
internal_value=0 2.40947 -2.2356 3.30769 3.999 -3.05425 -1.24231 2.7973 3.18214 1.44557 1.53865 -3.16001 -1.64785 3.40843 4.30036 3.52089 0.841005 2.90263 2.38408 5.4623 1.38327 1.90534 3.35477 2.58874 3.03686 3.73545 -2.81131 -2.01073 0.0329248 4.02433
internal_count=2516 1219 1297 631 268 711 586 363 278 588 85 682 381 257 93 202 254 164 62 66 152 334 60 143 105 71 430 267 102 140
shrinkage=1


Tree=1
num_leaves=31
num_cat=0
split_feature=16 16 20 16 16 165 88 106 106 4 5 88 18 112 87 105 167 23 13 134 86 83 68 88 20 100 159 149 166 134
split_gain=12465.2 967.099 858.313 234.026 204.903 163.641 129.907 125.395 237.338 118.127 113.575 109.952 108.697 111.623 94.2375 92.2392 91.1053 85.8738 83.5326 82.8385 77.0792 73.3829 99.3265 71.5812 105.364 101.095 65.3248 67.4359 65.2728 64.5021
threshold=1.6363916944842136 1.6633299933146082 2.6132516298417072 1.6996731711976676 1.5491933384829115 993.01816921392299 0.71035000000000015 4.8425000000000002 4.7545000000000011 3.1848037320945992 4.317402200000001 0.71060333333333348 2.4410628528145826 -2.1432114303174775e-06 14.500000000000002 4.6325699912154882e-06 -5700.015380951897 0.068026876701788239 4.0977000000000006 -0.15390748087720188 4.5465000000000009 -38.499999999999993 3.9050000000000007 0.70458333333333345 2.5964330271286076 1.1644295302013437e-06 -19392.055345748544 -8.6602833006522904 8704.407779022682 -0.012237100624610713
decision_type=2 2 2 2 2 2 2 2 2 2 2 2 2 2 2 2 2 2 2 2 2 2 2 2 2 2 2 2 2 2
left_child=2 9 4 6 14 -6 10 8 -7 18 -3 29 16 -14 21 -8 -4 -16 -2 -9 -5 22 -1 24 28 -25 27 -15 -21 -11
right_child=1 3 12 20 5 7 15 19 -10 11 -12 -13 13 26 17 -17 -18 -19 -20 23 -22 -23 -24 25 -26 -27 -28 -29 -30 -31
leaf_value=0.26549198346005548 -0.041727734791735811 -0.059218434873037046 0.095210971090238197 -0.079893058846489742 0.036999109701106425 0.12053493350744247 -0.092807093315749933 0.064424776400511086 0.31218777865171438 -0.05858091198073731 -0.13668633176410785 0.0020044472517812967 -0.052823474975647759 0.039661289860562582 0.31286264405800751 0.016096966816433547 0.009513026727911305 0.20321093601615808 0.094821384859581803 0.18033239154712014 -0.16877110399022888 0.13829117304162136 0.14115253358051694 0.2083523062753006 0.074955436148667259 0.10243555777423988 0.021904294042744573 0.12784824373767428 0.077745564673095957 -0.12788801689289117
leaf_count=36 21 56 353 26 38 35 59 39 30 288 305 71 27 41 26 29 34 57 24 69 395 79 29 71 69 33 72 46 20 38
internal_value=0 -2.11807 2.33772 -2.73003 3.1423 2.71515 -2.22781 2.92022 4.1798 -0.913543 -2.49338 -1.08759 1.45169 0.823442 3.90252 -1.13837 1.75364 4.75119 0.621969 2.64822 -3.26564 3.41335 4.20035 2.85062 2.42655 3.49488 1.14267 1.72578 3.14558 -1.33319
internal_count=2516 1312 1204 870 631 404 449 366 65 442 361 397 573 186 227 88 387 83 45 301 421 144 65 262 158 104 159 87 89 326
shrinkage=0.05


Tree=2
num_leaves=31
num_cat=0
split_feature=16 16 20 16 20 117 62 0 165 151 165 5 58 88 112 5 90 88 119 131 105 1 13 75 167 86 81 10 140 53
split_gain=11249.8 872.807 774.627 211.208 190.727 182.974 186.71 129.776 126.56 194.369 117.705 120.518 119.346 117.241 105.638 102.502 100.712 110.205 99.5011 89.7357 83.2459 77.9805 77.6781 82.7702 76.6956 75.5394 76.698 73.0883 72.7186 81.7848
threshold=1.6363916944842136 1.6633299933146082 2.6132516298417072 1.6996731711976676 2.5630717520564796 1.4026084000000003 -24.499999999999996 2.2798192379168882 1116.8713113201263 13.899906957523351 971.78904973945396 4.1734018500000003 0.048899591847966807 0.71035000000000015 -2.5544068516690879e-06 4.317402200000001 3.8365000000000005 0.69128666666666672 21.69083728883454 0.99239362394243125 4.6325699912154882e-06 1.9348348390310115 4.5230791666666681 44.500000000000007 -9943.324850978026 5.081500000000001 5.6295000000000011 1.0000066667111116e-05 -0.00020375437311727327 118.50000000000001
decision_type=2 2 2 2 2 2 2 2 2 2 2 2 2 2 2 2 2 2 2 2 2 2 2 2 2 2 2 2 2 2
left_child=2 16 4 13 22 6 10 28 9 -8 -6 12 19 15 -9 -3 18 25 -2 -12 -15 24 23 -1 -19 -18 -27 -7 -4 -30
right_child=1 3 7 -5 5 27 8 14 -10 -11 11 -13 -14 20 -16 -17 17 21 -20 -21 -22 -23 -24 -25 -26 26 -28 -29 29 -31
leaf_value=0.18259788947524849 0.10512983596750669 -0.056257511721923947 0.063503958159960766 -0.15511808624002207 0.049998427389396562 0.17670827884303064 0.094888721406459819 -0.071723008081316958 0.14515052985399962 -0.12047964699566366 0.19536336214237271 0.12061682390217994 0.24657527255885145 -0.088166736135795967 0.049116064287800958 -0.12985201523562925 -0.096975036615295315 0.063795686207520658 -0.031819680824668871 0.087785201563706838 0.015292120031241713 -0.047550654447290161 0.1705930761496226 0.30425016407308908 -0.052959595349701974 0.038898876309394842 -0.079344134038547065 0.29013243913650516 0.083927889409043444 0.15225861828075724
leaf_count=27 21 56 173 421 36 49 22 20 20 20 42 193 47 59 189 305 146 39 36 36 29 122 90 29 22 24 32 20 123 68
internal_value=0 -2.01217 2.22083 -2.59353 2.98519 2.68354 2.43339 1.37911 0.832571 -0.153353 2.71376 2.90777 3.67273 -2.11642 0.75105 -2.36871 -0.867866 -1.05154 0.372708 2.91424 -1.08145 -0.489427 3.98723 4.91193 0.433744 -1.56077 -0.573371 4.1917 1.73972 2.1651
internal_count=2516 1312 1204 870 631 485 416 573 62 42 354 318 125 449 209 361 442 385 57 78 88 183 146 56 61 202 56 69 364 191
shrinkage=0.05


Tree=3
num_leaves=31
num_cat=0
split_feature=16 16 20 16 2 107 61 134 96 96 16 88 0 112 16 128 96 5 69 16 8 77 88 154 105 97 101 167 66 166
split_gain=10153 826.053 668.246 190.615 178.145 156.974 143.909 290.638 153.134 165.64 142.963 105.81 101.148 108.394 99.5148 98.4854 102.411 92.5079 90.6156 85.171 78.8209 76.8931 86.1643 76.2454 75.1294 74.5038 71.3323 71.0375 70.957 66.9954
threshold=1.6363916944840764 1.6633299933146082 2.6132516298417072 1.6996731711976676 1.1972189997394185 4.3384000000000009 6.0183208913752066 -0.13724029777535685 4.3917700000000002 4.2216700000000005 1.5491933384829115 0.71035000000000015 2.2798192379168882 -2.2854949192126903e-06 1.6465452046968407 0.83932878694201563 4.6690200000000006 4.317402200000001 0.42912803227850521 1.5238839267549913 2.414135050919056 23.500000000000004 0.6896566666666667 36.500499999994652 4.6325699912154882e-06 4.228600000000001 1.6324982301213296e-05 -6363.8239158757415 4.955000000000001 5418.9860141158342
decision_type=2 2 2 2 2 2 2 2 2 2 2 2 2 2 2 2 2 2 2 2 2 2 2 2 2 2 2 2 2 2
left_child=2 14 4 11 5 19 7 -6 9 -8 20 17 26 -14 18 16 -10 -3 -2 -1 -7 -16 -23 -11 -13 -15 27 -4 -5 -22
right_child=1 3 12 28 6 10 8 -9 15 23 -12 24 13 25 21 -17 -18 -19 -20 -21 29 22 -24 -25 -26 -27 -28 -29 -30 -31
leaf_value=0.16452228588362536 -0.06966021958281074 -0.053444635462281967 0.10069285962422514 -0.084869911303607437 -0.10159597143530846 0.24861737926801047 0.10529556164035091 0.10978370268839872 0.045088967590345419 0.19825665825469929 0.0812053517214264 -0.083758400178561787 -0.059118946045637139 0.12249587806722811 -0.13720155254006386 0.16297577076416087 0.13906305883571787 -0.12335941214602991 0.0037580267945304517 0.28259715001054464 0.10318765679962541 -0.081258547420813038 -0.016522233156781446 0.331452342300188 0.014527512958337522 0.037045083174921778 0.016825182192228935 0.038329599513248963 -0.15410477022493357 0.1838176612183452
leaf_count=24 57 56 269 41 20 30 27 87 64 22 54 59 25 31 30 69 53 305 160 42 38 112 95 21 29 144 37 55 380 80
internal_value=0 -1.89325 2.12994 -2.46385 2.83593 3.45431 2.37938 1.40547 2.78644 4.04718 3.01685 -2.0106 1.33586 0.765389 -0.799822 2.31197 1.75317 -2.25028 -0.310539 4.79322 3.52501 -1.24782 -1.03097 5.26611 -1.02737 1.04364 1.65191 1.80213 -2.94724 3.15704
internal_count=2516 1324 1192 870 631 268 363 107 256 70 202 449 561 200 454 186 117 361 217 66 148 237 207 43 88 175 361 324 421 118
shrinkage=0.05


Tree=4
num_leaves=31
num_cat=0
split_feature=18 18 20 2 140 13 107 134 101 18 1 18 146 170 5 21 137 20 113 62 43 32 97 18 125 167 81 28 101 29
split_gain=9048.38 708.293 689.174 160.776 146.268 144.984 141.669 136.588 123.19 120.422 115.249 106.523 96.293 92.1201 107.412 103.438 94.6089 89.1777 87.7078 83.3078 79.5627 94.0579 77.3272 75.1759 83.2291 74.6244 80.8523 90.7516 73.566 71.1876
threshold=2.4613374043762022 2.5168924161515345 2.6132516298417072 1.1972189997394185 0.0037771452870282982 4.0720583333333344 4.3384000000000009 -0.16694780464751402 -1.2512056858204039e-06 2.4824840931468688 2.0153702319219398 2.5703731591122172 4.3964086846328954 15599.581283560474 4.2759100000000005 0.093613942471692427 0.010473984822155918 2.5758315912451346 18.087057695715831 -42.499999999999993 2.9946493127855605 3.2298764889795941 4.2547400000000009 2.446911060372591 0.95467112225740169 -5700.015380951897 5.6245000000000003 13.795000000000002 1.6324982301213296e-05 0.0024813588999183251
decision_type=2 2 2 2 2 2 2 2 2 2 2 2 2 2 2 2 2 2 2 2 2 2 2 2 2 2 2 2 2 2
left_child=2 9 3 6 7 -3 20 -5 -6 -2 23 22 18 16 -15 -16 -9 -8 -11 -19 -1 -22 -7 25 -25 26 27 28 -4 -20
right_child=1 5 10 4 8 11 17 13 -10 12 -12 -13 -14 14 15 -17 -18 19 29 -21 21 -23 -24 24 -26 -27 -28 -29 -30 -31
leaf_value=0.14731605178898288 -0.019716378591227823 -0.015367141802763119 0.091650258617845315 0.0079647078489263855 -0.037629470407962801 -0.065422108490020045 0.16540847545090531 0.10349351037944948 0.094476082821687069 0.045829962939023972 -0.014777190703898669 -0.15965934697856629 -0.085544318162338692 0.23704696041955189 0.069092473195030771 0.21689927190542224 0.2171463218473253 0.15520490569158876 -0.10727139551861165 0.039045980234037748 0.33587822240331899 0.19126809808340939 -0.12448713817874975 -0.0041020077919321401 0.076515155752836655 0.0044134722514586012 0.0267767511037263 0.17092458864278867 0.0063838402341519079 -0.021823775733892735
leaf_count=21 205 29 262 21 25 64 140 143 60 28 48 205 249 44 29 20 21 29 39 33 23 22 413 70 59 33 55 33 28 65
internal_value=0 -1.82633 1.9683 2.69413 2.26041 -2.49722 3.2816 2.61141 1.11243 -1.01233 1.18939 -2.59033 -1.34485 2.81178 3.60682 2.58844 2.36093 2.866 -0.654377 1.86757 4.55356 5.3036 -2.33125 1.32138 0.655388 1.53041 1.65631 1.84716 1.66835 -1.07733
internal_count=2516 1297 1219 631 363 711 268 278 85 586 588 682 381 257 93 49 164 202 132 62 66 45 477 540 129 411 378 323 290 104
shrinkage=0.05


Tree=5
num_leaves=31
num_cat=0
split_feature=18 18 20 7 16 166 107 164 2 107 1 111 96 136 106 135 104 107 7 104 36 119 78 19 0 29 21 134 18 71
split_gain=8465.46 787.21 656.199 173.221 160.471 123.722 112.685 122.172 111.832 108.808 105.904 101.384 101.233 97.4842 97.0035 94.8001 94.3647 88.5597 126.73 88.3448 87.5994 82.7943 79.7303 80.5401 79.4247 79.1933 70.7632 69.0902 67.0159 66.4041
threshold=2.4613374043762022 2.37144204519895 2.7447362490868024 2.5727716871179491 1.6465452046945848 4072.5805108463505 4.330350000000001 1.0000000180025095e-35 1.1972189997375575 4.0921500000000011 1.9177796505018994 5.4250000000000007 4.456900000000001 0.078665787041459975 4.7195000000000009 -0.44922480839751128 7.4896138803357603e-06 4.3645500000000004 2.5427167375299198 1.524292673818385e-06 -7.2612338669895631e-08 12.914462177130119 53.944666580719975 -1.6499999999999997 2.3804549263879076 0.10932741432328044 0.047352646274077495 -0.14917040856982142 2.4454038517789276 4.6637500000000012
decision_type=2 2 2 2 2 2 2 2 2 2 2 2 2 2 2 2 2 2 2 2 2 2 2 2 2 2 2 2 2 2
left_child=1 5 4 10 26 -1 7 13 -8 -5 12 -6 19 -7 -4 -13 17 -10 27 -3 22 -12 -11 -24 -16 -9 -2 -19 -22 -17
right_child=2 3 14 9 11 6 8 25 16 20 21 15 -14 -15 24 29 -18 18 -20 -21 28 -23 23 -25 -26 -27 -28 -29 -30 -31
leaf_value=0.034745162077572035 -0.024591168544237624 0.11863876722105171 -0.058852960734882144 0.13499243129044772 -0.021691194638820754 0.08373290993273258 0.19617251943458211 0.20038522784748386 0.036246287361496973 0.097588639387062623 -0.017032751607997665 -0.059866680491541049 0.086863327572743107 0.20919062411412598 -0.11496472514320846 -0.15091993805021048 0.036492919309863023 0.050407627530395988 0.23711085363381332 0.23394724795451532 0.082490713539577668 0.074701241260095516 0.010678036695656678 -0.086389751846973728 -0.1526634192397428 0.32442472639747644 0.057405512535146308 0.14045482954372548 0.020115379251743837 -0.07653128179411095
leaf_count=23 106 46 55 28 106 30 66 31 21 21 29 256 135 32 399 60 28 25 31 26 105 162 120 26 215 22 35 144 73 60
internal_value=0 1.90833 -1.76161 1.29361 -1.0231 2.95457 3.07544 3.92267 2.76613 0.803985 1.75247 -1.2976 2.24798 2.96971 -2.44934 -1.54111 2.45937 2.67849 2.88361 3.20556 0.650118 1.21546 0.129891 -0.13216 -2.56331 5.03747 -0.0847476 2.54268 1.1382 -2.27451
internal_count=2516 1224 1292 771 623 453 430 115 315 373 398 482 207 62 669 376 249 221 200 72 345 191 167 146 614 53 141 169 178 120
shrinkage=0.05


Tree=6
num_leaves=31
num_cat=0
split_feature=18 7 20 20 37 134 82 130 73 38 18 137 26 134 117 106 18 135 146 65 50 51 0 100 96 119 29 3 22 63
split_gain=7640.08 713.215 592.22 211.528 119.863 119.521 218.659 189.065 101.002 113.148 100.54 95.9839 94.3751 142.243 91.4591 87.5457 87.4082 91.0015 80.8095 83.8787 76.7081 73.4038 71.6808 71.2433 71.0669 69.7213 62.734 66.1761 61.3374 60.7254
threshold=2.4613374043762022 2.5603876825386993 2.7447362490868024 2.5725402742346097 7.7500000000000009 -0.13868461009376454 3.4050000000000007 0.98831040064881137 40.500000000000007 4.6720207003266871 2.3766541273941351 -0.034919805611681683 6.5000000000000009 -0.078791461441622926 1.1781746500000003 4.7195000000000009 2.4824840931468688 -0.44853630815519624 4.3272378205402147 4.1172512548773925 75010.960757586974 -75.499999999999986 2.3804549263879076 7.9865771812080555e-07 4.1867200000000002 12.396638962939795 -0.19544006144478551 0.42163702135562248 0.0063519833019378526 -88.499999999999986
decision_type=2 2 2 2 2 2 2 2 2 2 2 2 2 2 2 2 2 2 2 2 2 2 2 2 2 2 2 2 2 2
left_child=1 3 4 12 -2 6 -5 -8 11 -10 -9 -7 13 20 -13 -4 -6 -18 21 25 -1 24 -17 26 -3 -20 -11 -28 -19 -21
right_child=2 18 15 5 16 8 7 10 9 23 -12 14 -14 -15 -16 22 17 28 19 29 -22 -23 -24 -25 -26 -27 27 -29 -30 -31
leaf_value=0.2488382828914944 -0.011289652256818954 0.0080894418738105094 -0.055910312523218722 0.20098531631414188 -0.02186318006122781 0.13729193686158397 -0.079876983621767886 0.13615423321061826 0.19244543064025144 0.056327939098700888 0.0064182128890284476 -0.049893875250762165 0.12714212291428578 0.072727611288428307 0.086337820021435627 -0.10921648877455777 -0.05727051055443514 -0.15123174494275682 -0.010253427323439847 0.089987438531785188 0.15496088030049579 0.16522860416899557 -0.1450302477891362 0.082174439886686115 0.1056376525482466 0.085249989720440553 0.23504973731935028 0.13573819082230329 -0.074058871729043782 0.013661396790817671
leaf_count=68 160 33 55 22 107 32 29 32 62 20 28 22 92 20 28 399 253 52 23 29 32 23 215 92 43 113 20 104 51 257
internal_value=0 1.81291 -1.67353 2.47005 -0.971949 2.10961 1.19674 0.498924 2.37627 2.64671 1.51222 1.39345 3.30485 3.88905 0.527917 -2.32687 -1.2298 -1.46801 0.926206 0.735452 4.37595 1.73932 -2.43514 2.33088 1.26562 1.38197 2.77005 3.03512 -2.2604 0.428015
internal_count=2516 1224 1292 703 623 491 111 89 380 298 60 82 212 120 50 669 463 356 521 422 100 99 614 236 76 136 144 124 103 286
shrinkage=0.05


Tree=7
num_leaves=31
num_cat=0
split_feature=18 20 20 20 16 166 109 107 76 26 47 23 58 164 136 38 0 45 5 106 107 21 1 113 100 22 140 0 18 100
split_gain=6895.17 645.456 534.478 198.569 137.021 115.3 96.5254 90.388 85.2062 99.3869 116.178 84.1804 85.6116 89.2258 105.964 85.2601 79.3515 82.8406 120.446 79.01 77.5183 75.6628 71.2388 67.1791 82.668 66.4239 65.1346 64.6919 62.7626 61.2585
threshold=2.4613374043762022 2.6236666378543654 2.7447362490868024 2.5725402742346097 1.6465452046960305 4359.4584618107647 3.6840000000000006 4.1318500000000009 2.9035149142363705 6.5000000000000009 74983.128802725245 0.11580622927824448 0.097168740908018358 -5.5475170580131881 0.10543750239726592 5.319774021287822 2.2140734432540392 4.7149500000000009 4.1119720000000006 4.7195000000000009 4.9106500000000013 0.047352646274077495 1.9813269709103329 10.395030445347798 5.8724832214764761e-07 0.06748685173307474 -0.00040597616840289959 2.3804549263879076 2.5005049995000301 -7.6174496644295398e-07
decision_type=2 2 2 2 2 2 2 2 2 2 2 2 2 2 2 2 2 2 2 2 2 2 2 2 2 2 2 2 2 2
left_child=1 3 4 8 21 -5 -6 -3 -1 10 -10 12 13 14 25 -16 23 -18 -19 -4 26 -2 -23 24 -15 -7 -8 -21 -28 -20
right_child=2 7 19 5 6 11 20 -9 9 -11 -12 -13 -14 16 15 -17 17 18 29 27 -22 22 -24 -25 -26 -27 28 -29 -30 -31
leaf_value=0.058766238540410999 -0.026107673081295458 0.1108595740727403 -0.053114797231656588 -0.015293692194280171 -0.00486079177216572 0.075025230474356164 -0.053701017622592717 0.035818036578877999 0.27177400555875569 0.1250991342290316 0.16250121315630775 0.016790627888762035 0.20788859356017342 0.054669156315780822 0.16986834286270958 0.065906799212098119 0.028898537109295526 0.21011418250078956 0.14310952456047138 -0.10375566530067074 -0.0097788241885912921 0.1201076826453209 -0.013345336429774764 0.22062394944950939 0.1967075974866748 -0.01609550373007854 -0.072045510105305799 -0.13777873511751032 -0.12986660933638194 0.076665060408413421
leaf_count=20 119 44 55 21 68 45 157 456 36 81 75 26 21 21 38 41 30 30 54 399 48 20 20 32 20 36 108 215 83 97
internal_value=0 1.72226 -1.58986 2.32574 -0.923351 1.98875 -1.19788 0.848434 3.1396 3.34422 3.95882 2.08689 2.1848 2.09148 1.49423 2.31827 2.42796 2.11704 2.37214 -2.21053 -1.38688 -0.12221 1.06762 3.32662 2.47912 0.690543 -1.5512 -2.31339 -1.94344 2.00853
internal_count=2516 1224 1292 724 623 512 464 500 212 192 111 491 465 444 160 79 284 211 181 669 396 159 40 73 41 81 348 614 191 151
shrinkage=0.05


Tree=8
num_leaves=31
num_cat=0
split_feature=16 7 20 20 16 71 68 1 56 138 166 76 71 88 5 6 86 2 1 23 73 20 86 68 111 107 168 8 79 102
split_gain=6214.23 559.25 512.863 169.617 145.77 93.932 91.6956 86.3882 117.224 96.5638 82.0104 76.8986 130.588 76.1624 90.2447 118.671 111.983 87.0119 77.6473 102.259 87.4982 72.9991 68.8586 68.4937 66.6964 85.4282 65.5536 76.7406 80.3521 64.6208
threshold=1.6363916944840764 2.5603876825386993 2.7447362490868024 2.5725402742346097 1.6465452046968407 4.9845500000000014 3.6350000000000002 1.9559673005033811 2.9383329254107609 0.012274434035611547 4468.7511938079615 2.9035149142363705 4.2688500000000014 0.70261333333333342 4.1541171500000011 5.9140484357351282 4.8495000000000008 1.197218999737842 1.9306145983267331 0.041353524522219791 32.500000000000007 2.7859319655763786 4.8805000000000005 3.4150000000000005 5.4250000000000007 4.9106500000000013 8.1557595976906843 2.4621717627541257 0.2362962379347254 -3.0020013342228143e-06
decision_type=2 2 2 2 2 2 2 2 2 2 2 2 2 2 2 2 2 2 2 2 2 2 2 2 2 2 2 2 2 2
left_child=1 3 4 11 6 10 -2 8 -3 29 -5 -1 -13 17 15 -15 -16 -12 20 -20 -19 23 -8 -4 -6 -26 27 -22 -29 -9
right_child=2 7 21 5 24 -7 22 9 -10 -11 13 12 -14 14 16 -17 -18 18 19 -21 26 -23 -24 -25 25 -27 -28 28 -30 -31
leaf_value=0.055827925503253939 0.059575500134832975 0.16238382019847633 -0.0023396111315204986 0.0036612621375492643 -0.02092906149925404 -0.0078559062798463173 -0.070189771594272726 0.0687768236375772 0.049619434550404552 0.087631260223586027 0.16576254817346733 0.24186208899083891 0.13836689356279064 0.10174036178866337 0.011226255876513628 0.23851299113460953 0.12631338472865458 0.00080930885104906001 -0.06430512618273497 0.070262213094004752 0.053462560098956939 -0.12320749553642081 -0.0008217572238964012 -0.095339144111713237 -0.078429214665976674 -0.0059312461241287119 0.18539722445808973 0.076469504235622793 0.20725147766263588 -0.018106304718689483
leaf_count=20 41 25 21 21 93 21 54 26 295 37 30 38 154 29 26 35 113 21 20 48 55 302 106 346 300 47 24 24 23 121
internal_value=0 1.65832 -1.48754 2.23532 -0.848321 1.912 -0.142762 0.854644 1.16858 0.308662 2.00465 2.98262 3.17701 2.09518 2.54815 3.53076 2.09573 1.71987 1.49726 0.613672 1.90599 -2.1 -0.484669 -1.80035 -1.17063 -1.37219 2.22096 1.87108 2.80938 -0.0547844
internal_count=2516 1206 1310 702 641 490 201 504 320 184 469 212 192 448 203 64 139 245 215 68 147 669 160 367 440 347 126 102 47 147
shrinkage=0.05


Tree=9
num_leaves=31
num_cat=0
split_feature=18 20 18 20 97 166 117 107 71 107 106 51 167 73 134 16 7 26 134 137 50 111 23 14 0 103 1 136 29 134
split_gain=5626.43 529.84 440.524 160.186 99.9645 96.6297 81.5788 79.3272 77.8782 77.1312 140.107 107.487 143.465 85.727 81.1621 76.4545 74.4635 71.5436 119.951 70.3539 64.2756 63.3149 79.8704 65.8929 62.0302 57.803 57.1116 76.3968 66.8507 65.8112
threshold=2.4613374043762022 2.6236666378543654 2.510583657843787 2.5725402742346097 4.2372300000000012 4359.4584618107647 1.5586325500000002 4.1318500000000009 5.0449000000000011 4.3232000000000008 4.642500000000001 -73.499999999999986 -7857.7380797989135 32.500000000000007 -0.15390748087720188 1.6465452046945848 2.5983343392556972 6.5000000000000009 -0.078791461441622926 -0.042038055638377453 75010.960757586974 5.4650000000000007 -0.022885025333601119 0.00042512913161550631 2.3804549263879076 -3.3335555703712322e-06 1.9073488925680639 0.072579023891061398 0.0158811427160503 -0.11766790352384331
decision_type=2 2 2 2 2 2 2 2 2 2 2 2 2 2 2 2 2 2 2 2 2 2 2 2 2 2 2 2 2 2
left_child=1 3 15 17 -4 -5 9 -3 24 10 -7 12 -12 -11 -15 19 -17 18 20 -2 -1 22 -18 -23 -6 -24 27 -16 -29 -28
right_child=2 7 4 5 8 6 -8 -9 -10 13 11 -13 -14 14 26 16 21 -19 -20 -21 -22 23 25 -25 -26 -27 29 28 -30 -31
leaf_value=0.21696212297195899 0.030826183703417581 0.10231565525755287 -0.054038756819708017 -0.015040342154956999 -0.096166729458878941 0.02862680672571577 0.18858453858305108 0.032015336109039359 -0.027695314766782705 0.0061652811999256549 0.17169609430478885 0.23047593763218291 0.010309409642858166 0.016076769659088719 0.054800896217703766 -0.12131776867374298 -0.056642931826751342 0.10850170991869401 0.055326855219900606 -0.039568996519914697 0.13102842461375985 -0.11210686295497707 -0.023728337852905193 -0.042047553754134763 -0.13013078127963557 0.080377689537902683 0.11462938641672266 0.090789333964849631 0.17139965802634835 0.04282306242996875
leaf_count=68 72 44 126 21 443 29 22 456 33 37 40 31 21 36 36 31 44 92 20 70 32 41 24 185 193 30 54 43 64 78
internal_value=0 1.55575 -1.43617 2.10251 -1.89786 1.79983 1.88968 0.764035 -2.05175 1.80139 2.48914 3.09328 2.32273 1.56227 1.73346 -0.697658 -0.945717 2.83349 3.34215 -0.0775133 3.78927 -0.80405 -0.132743 -1.09515 -2.12947 0.682167 1.91829 2.35613 2.7801 1.44397
internal_count=2516 1224 1292 724 795 512 491 500 669 469 121 92 61 348 311 497 355 212 120 142 100 324 98 226 636 54 275 143 107 132
shrinkage=0.05


Tree=10
num_leaves=31
num_cat=0
split_feature=16 18 18 117 130 168 106 1 167 14 65 7 102 20 26 20 7 104 62 101 146 50 58 112 87 56 8 23 28 137
split_gain=5393.34 424.765 344.558 127.806 142.152 149.49 111.098 104.044 128.951 119.963 100.259 150.965 90.7889 86.7155 84.6765 89.054 120.566 113.804 84.3848 83.286 80.3388 123.271 112.825 78.1964 83.8397 81.4567 71.4831 76.4271 68.3076 94.6862
threshold=1.6363916944840764 2.3707817403984026 2.5168924161515345 1.4477718500000001 0.97335529392424414 2.6962086859012944 4.7465000000000011 1.9188327680963344 -5306.0178731510578 0.081817665896318295 3.1157706972855572 2.5181164406983805 -3.0020013342228143e-06 2.6383514540695732 6.5000000000000009 2.5777014071735525 2.5307552671442761 1.8467452289662582e-07 -24.499999999999996 -1.5506915815659996e-06 4.3999823311864548 75012.261317325014 0.011845335413133758 -2.3331759254370345e-06 11.500000000000002 3.5807647403937479 2.5327221879286612 -0.016294532556828858 13.305000000000001 0.022115740121227596
decision_type=2 2 2 2 2 2 2 2 2 2 2 2 2 2 2 2 2 2 2 2 2 2 2 2 2 2 2 2 2 2
left_child=1 3 20 4 5 -1 -4 13 9 12 11 -6 19 28 15 -12 -17 -18 23 -9 21 26 -22 -14 25 -25 -2 -28 29 -3
right_child=2 7 6 -5 10 -7 -8 8 -10 -11 14 -13 18 -15 -16 16 17 -19 -20 -21 22 -23 -24 24 -26 -27 27 -29 -30 -31
leaf_value=-0.075773100466245705 -0.025437988487160387 0.070582498698743321 -0.034674504526878057 0.17817748094003805 0.12477401471422876 0.10689683759895463 -0.099848757249316536 0.011898092418909073 -0.071820370994508262 0.14908035080163526 0.19624766924817649 -0.039012011388937638 -0.051690623998641973 0.041157810120772916 0.099966860320123418 0.031288848444819453 0.24676479819146069 0.081968626510351902 -0.073807508621830498 0.12330388499825609 -0.091563184326174718 -0.077509071677923203 -0.036189842366147786 0.020046591309979909 0.0098241350447516099 0.099970443809870635 0.002387759297908772 0.10903243188347136 0.16564119590510584 0.18085707597519188
leaf_count=21 74 169 73 71 34 24 627 25 25 26 70 24 25 119 126 26 22 20 20 51 137 58 280 53 115 80 42 28 29 22
internal_value=0 1.55125 -1.38042 2.33542 2.09783 0.433017 -1.86104 1.09873 0.766095 0.905494 2.33049 1.14001 0.759209 1.51084 2.59204 3.13319 2.31815 3.36581 0.506585 1.73314 -0.8369 -0.319282 -1.08764 0.65184 0.821765 1.36242 0.176498 0.900913 1.88281 1.66569
internal_count=2516 1197 1319 438 367 45 700 759 420 395 322 58 369 339 264 138 68 42 293 76 619 202 417 273 248 133 144 70 220 191
shrinkage=0.05


Tree=11
num_leaves=31
num_cat=0
split_feature=18 20 0 20 165 28 38 130 106 1 69 69 68 129 68 134 20 33 138 165 81 65 131 138 18 157 146 168 125 102
split_gain=4745.22 422.863 316.936 135.133 100.569 128.483 113.334 98.5953 100.835 97.8231 92.8452 108.161 88.1691 85.8574 85.6458 112.11 84.2586 83.7518 79.3267 71.6684 64.6385 64.5837 78.1606 63.5037 64.186 68.8729 104.839 61.3823 59.5139 64.9553
threshold=2.4613374043762022 2.6236666378543654 2.3279917206905529 2.5758315912451346 1003.1150412914445 7.2150000000000007 4.5436151316210802 0.98024028200406399 5.0155000000000003 2.0118211211134938 0.37488873222341845 0.41867014605579972 3.5650000000000004 1.0209611842892419 3.9950000000000006 -0.081160305214884446 2.5906220917963578 11.500000000000002 0.0015811705876274164 977.7030922117134 5.3185000000000011 3.310118708127872 0.99345124588526712 -0.019007386416242059 2.446911060372591 2076.1370975307395 4.4621453607183499 -1.8216031129933441 0.96315871053196234 -8.005336891260885e-07
decision_type=2 2 2 2 2 2 2 2 2 2 2 2 2 2 2 2 2 2 2 2 2 2 2 2 2 2 2 2 2 2
left_child=1 3 12 14 5 -5 -6 8 -8 23 -9 -12 18 16 15 21 -13 20 -2 -16 -4 -1 -23 -3 25 -25 27 -27 29 -28
right_child=2 9 17 4 6 -7 7 10 -10 -11 11 13 -14 -15 19 -17 -18 -19 -20 -21 -22 22 -24 24 -26 26 28 -29 -30 -31
leaf_value=0.13286792322689175 -0.03282335662386484 0.000190312663714091 -0.068958514438647978 0.081836331965002632 0.18273461685826384 -0.084091481044888505 -0.058878418973282637 0.1798552962552224 0.072508586589246998 -0.035544456179838542 0.061801965860889978 0.061587493760245186 -0.041412860977227531 0.053789345965240945 0.016662971658632158 0.074228876311745906 0.17678946204196949 -0.090461321239784426 0.07288847077105727 0.11767603393833517 0.0089419436213132499 0.14781193246266672 0.26062033161082687 0.0011731785158381651 0.018149170815013351 0.1956830664821293 0.10699969544297172 0.090533504134842333 -0.0080053362995386127 0.041100693178241665
leaf_count=49 36 72 95 28 30 20 23 28 40 43 194 21 380 33 25 36 65 717 35 59 37 28 34 38 106 23 63 35 31 92
internal_value=0 1.43359 -1.31459 1.92889 1.62751 0.253995 1.77942 1.64017 0.490838 0.731497 1.85251 1.69644 -0.637137 2.44701 2.55775 3.01804 2.97317 -1.67446 0.385762 1.75225 -0.942456 3.51538 4.19349 0.866329 1.02638 1.27575 1.47078 2.64461 1.10474 1.35771
internal_count=2516 1216 1300 713 482 48 434 404 63 503 341 313 451 119 231 147 86 849 71 84 132 111 62 460 388 282 244 58 186 155
shrinkage=0.05


Tree=12
num_leaves=31
num_cat=0
split_feature=16 18 20 117 130 168 18 134 106 65 7 64 107 13 47 79 109 88 88 134 71 117 109 45 86 71 142 139 88 113
split_gain=4409.17 357.694 273.423 114.207 123.859 132.627 92.7089 116.195 91.8192 86.5824 132.161 80.2498 74.2326 120.773 73.7966 84.3607 73.1535 74.4552 72.1951 70.6896 70.769 70.0035 68.7158 67.2558 66.3381 80.3057 91.6904 64.7083 59.2419 58.7991
threshold=1.6363916944842136 2.3707817403984026 2.7438133157177647 1.4477718500000001 0.97335529392424414 2.6962086859012944 2.4328559099928908 -0.17584455335680824 4.7465000000000011 3.1157706972855572 2.5181164406983805 -11.499999999999998 4.3527000000000013 4.1261375000000013 74919.664031489097 0.25977926859742301 3.6840000000000006 0.71701000000000004 0.72267666666666674 -0.021806612963999796 4.818950000000001 1.2924953000000001 3.8015000000000003 4.7261466666666676 4.7625000000000002 4.3990000000000009 5.1095000000000015 0.0054740557109687312 0.69629000000000019 17.958995399638958
decision_type=2 2 2 2 2 2 2 2 2 2 2 2 2 2 2 2 2 2 2 2 2 2 2 2 2 2 2 2 2 2
left_child=1 3 16 4 5 -1 7 -3 -4 10 -6 14 13 -11 -8 -16 29 19 21 20 -18 28 -15 -9 25 26 -25 -19 -14 -2
right_child=2 6 8 -5 9 -7 11 23 -10 12 -12 -13 18 22 15 -17 17 27 -20 -21 -22 -23 -24 24 -26 -27 -28 -29 -30 -31
leaf_value=-0.075097917481547316 0.067412607573593658 -0.051621427725661889 -0.028371314578238993 0.16364444729832697 0.11332290500731153 0.096960922237485647 0.087887481429303693 -0.0010825357838932957 -0.092382856700733706 0.054248707387596379 -0.039923702677090965 -0.063230832728246852 0.13081790714192074 0.26364989980407388 0.036964011363180956 -0.045850653389934451 -0.055503176027774305 -0.033407773365351286 0.16031898558139801 -0.09615009745066784 -0.002681456804753114 0.011814160920955517 0.15034710392355921 0.035780200184810727 0.061587779368873843 0.18149817541793542 0.16373835584991392 0.070081909583962487 0.060362610549558528 -0.022650501637946113
leaf_count=21 24 22 62 71 34 24 48 35 581 20 24 24 70 23 133 40 339 44 40 83 78 27 32 42 378 27 21 23 52 74
internal_value=0 1.39045 -1.25925 2.11194 1.88734 0.333336 0.980041 1.21708 -1.72421 2.10451 0.99821 0.472102 2.34757 3.18934 0.660705 0.356322 -0.809669 -0.947557 2.01353 -1.08021 -0.912457 1.6933 3.95457 1.31547 1.41547 2.18705 1.56866 0.0423707 2.01576 -0.0118846
internal_count=2516 1208 1308 438 367 45 770 525 643 322 58 245 264 75 221 173 665 567 189 500 417 149 55 503 468 90 63 67 122 98
shrinkage=0.05


Tree=13
num_leaves=31
num_cat=0
split_feature=16 18 16 117 130 168 1 45 131 102 65 20 109 129 165 28 26 152 103 168 45 21 129 117 36 86 138 16 112 55
split_gain=3979.27 322.819 248.455 103.072 111.783 119.696 90.9817 94.7621 90.5029 90.4209 78.1406 120.773 74.0099 83.8823 69.6006 99.5127 68.1384 81.7066 74.6679 72.7377 67.4939 66.6662 62.8931 60.3367 59.0435 64.2605 73.1414 58.7775 60.636 58.7724
threshold=1.6363916944842136 2.3707817403984026 1.6865480854195529 1.4477718500000001 0.97335529392424414 2.6962086859012944 1.9188327680963344 4.9059833333333343 0.99266334666530642 -3.0687124749833194e-06 3.1157706972855572 2.5663181776543329 3.6840000000000006 1.0322671732907767 2581.3677265214315 13.305000000000001 6.5000000000000009 -5.0716587053413553 -2.0001333422229342e-06 -2.762164595520443 5.1358733333333344 -0.0035400295599687858 1.0377117056581768 1.0570548500000003 -2.2108820240982599e-06 4.9995000000000003 -0.0088394782713451907 1.6465452046960305 -2.3331759254370345e-06 1.6050043635261912
decision_type=2 2 2 2 2 2 2 2 2 2 2 2 2 2 2 2 2 2 2 2 2 2 2 2 2 2 2 2 2 2
left_child=1 3 12 4 5 -1 14 8 -8 20 11 -6 13 -2 15 23 17 18 -12 -20 -9 -11 -15 -3 -25 26 -26 28 -14 -19
right_child=2 6 -4 -5 10 -7 7 9 -10 21 16 -13 27 22 -16 -17 -18 29 19 -21 -22 -23 -24 24 25 -27 -28 -29 -30 -31
leaf_value=-0.071343020917404271 0.064094329385885176 0.027751112041684491 -0.081539490064833228 0.15546222563150902 0.11711929260442655 0.092112879400762418 0.018314263841935567 0.15047770089336807 -0.11501749255461619 -0.037166300804487296 0.15955174602568151 -0.02726819455606996 0.062286915853619576 -0.090200450906047114 -0.018401382847324663 0.14877415533001359 0.084925550758276902 0.13539426178671418 0.14455035431754024 0.02551391695936521 0.052796882127101222 0.036354906829865107 0.010163722992748828 0.033897925294669611 0.045560058765113355 0.058953536742112858 0.15777746692370131 -0.055256335440339838 -0.030999656003658418 0.25660939574241642
leaf_count=21 35 90 656 71 30 24 35 28 20 35 44 28 20 27 23 37 126 20 21 33 48 259 37 56 20 66 53 398 135 20
internal_value=0 1.32093 -1.19629 2.00634 1.79297 0.316669 0.931039 0.621335 -0.6034 0.803391 1.99929 0.9483 -0.759119 0.037161 1.31256 1.4326 2.23019 2.71563 2.22404 1.43612 1.77569 0.552048 -0.643548 1.2323 1.54488 1.89415 2.54066 -0.901672 -0.379254 3.92004
internal_count=2516 1208 1308 438 367 45 770 425 55 370 322 58 652 99 345 322 264 138 98 54 76 294 64 285 195 139 73 553 155 40
shrinkage=0.05


Tree=14
num_leaves=31
num_cat=0
split_feature=16 18 20 117 130 58 106 167 18 102 112 88 112 52 140 5 88 2 156 81 50 79 41 46 51 105 111 58 77 140
split_gain=3593.55 282.768 238.086 93.0226 100.884 110.578 80.6068 79.4154 100.469 89.0906 81.2586 71.8866 90.3588 71.905 73.2663 89.7313 65.8829 71.9608 58.9261 64.432 58.0417 66.5591 70.2589 74.8842 76.6719 60.9213 55.9697 91.7468 60.8068 62.7412
threshold=1.6363916944840764 2.3707817403984026 2.7438133157177647 1.4477718500000001 0.97335529392424414 0.081517998637756078 4.7465000000000011 -5098.2274909125808 2.4183640851788391 -3.0020013342228143e-06 -2.1432114303174775e-06 0.72267666666666674 -1.0767325360478543e-06 50.500000000000007 0.0061223853526553036 3.9981412999999999 0.72168666666666681 1.2649110640673336 3.0000000000000031 5.2275000000000009 75060.641692278397 0.24586232369316258 3.9760933500000006 2.3341658447939659 -96.499999999999986 -6.10502220977603e-06 5.4650000000000007 0.012338953261600056 22.500000000000004 0.00030326350305600361
decision_type=2 2 2 2 2 2 2 2 2 2 2 2 2 2 2 2 2 2 2 2 2 2 2 2 2 2 2 2 2 2
left_child=1 3 26 4 5 -1 -4 8 20 -10 -11 13 -13 14 15 -6 17 18 19 -12 21 25 -23 -24 -25 -3 28 -28 -2 -30
right_child=2 7 6 -5 11 -7 -8 -9 9 10 16 12 -14 -15 -16 -17 -18 -19 -20 -21 -22 22 23 24 -26 -27 27 -29 29 -31
leaf_value=-0.065098607599396605 -0.089053968728884408 -0.011257177119453749 -0.023929109790873145 0.14768911379743629 0.15201823892267913 0.091697813011705875 -0.083905080584376387 -0.027630539600633913 0.076254701549808179 -0.067732801716084839 0.10346906640651553 0.23125178247690201 0.10053420451660761 0.14374789286937034 -0.0047899510297510356 0.06633642423593511 0.089344333225127429 0.062259062220605468 -0.02594706229865551 -0.02053024459630251 0.1088129017014916 0.0049472890084698087 0.19194674998521807 0.12147861809192345 0.015754688379389269 0.054374854577084387 -0.070625348017783848 -0.026416001646307259 0.029354461969198359 -0.031628113707120063
leaf_count=22 23 45 62 71 38 23 581 36 75 27 22 20 39 42 27 156 33 54 102 20 65 21 20 47 27 165 200 284 81 88
internal_value=0 1.26621 -1.12682 1.90602 1.70332 0.300836 -1.56244 0.896993 0.969173 0.565753 0.286874 1.89932 2.8969 1.67553 1.44759 1.66239 0.478742 0.260718 -0.108456 0.888436 1.31363 1.14111 1.75264 2.12209 1.65807 0.806217 -0.712456 -0.893687 -0.255605 -0.0479956
internal_count=2516 1197 1319 438 367 45 643 759 723 333 258 322 59 263 221 194 231 198 144 42 390 325 115 94 74 210 676 484 192 169
shrinkage=0.05


Tree=15
num_leaves=31
num_cat=0
split_feature=16 0 16 165 18 79 18 107 167 84 165 164 79 81 88 23 3 1 16 168 103 87 79 162 107 140 83 94 87 16
split_gain=2842.05 304.391 224.06 124.128 151.399 91.7913 102.503 84.2424 80.6346 97.2671 96.4916 137.154 81.9954 80.9705 80.1988 74.1918 89.9216 82.2345 72.7527 70.7206 98.8187 66.1501 62.7446 67.8692 56.4636 77.7894 61.9702 58.6127 60.4984 54.5615
threshold=1.6363916944842136 2.2151338967768051 1.6633299933146082 1031.8436630105955 2.434215281710677 0.19744686818973883 2.3634207360852701 4.1252500000000003 -4932.0043518393641 2.6761586844439211 1219.3509739294007 -7.8125043245784083 0.23586487259156427 5.5585000000000013 0.69982333333333346 0.062281370581558734 0.51639777949346277 1.8623733089210057 1.7029386365885475 1.9032084057983869 2.6668444562969108e-06 -8.4999999999999982 0.24614830749547245 12299.611389487187 4.2253500000000006 0.0020284870456314277 -51.499999999999993 36.968057446459959 33.500000000000007 1.5491933384827625
decision_type=2 2 2 2 2 2 2 2 2 2 2 2 2 2 2 2 2 2 2 2 2 2 2 2 2 2 2 2 2 2
left_child=1 5 24 -3 8 -1 15 -4 9 -5 11 -11 -12 21 -9 22 -17 -18 19 20 -16 -14 23 -7 25 -2 27 -26 -29 -19
right_child=2 3 7 4 -6 6 -8 14 -10 10 12 -13 13 -15 18 16 17 29 -20 -21 -22 -23 -24 -25 26 -27 -28 28 -30 -31
leaf_value=-0.010613576229661704 0.062623388513457043 -0.049111999799378026 -0.018396120370598509 0.10831259593752951 0.0088416993308858757 0.11183792484613758 -0.0071715452220468302 -0.083674032990838698 -0.035798283439615497 -0.10056015482793253 0.035644962294411241 0.048641122548386109 0.017945998728923176 0.023341338351989788 0.051416058299389292 0.11403239806609267 0.12662967502732167 0.056019662872984488 -0.081439826519132785 -0.063171925130803649 -0.060487451711121736 0.10909221160490652 0.090668499195838692 0.22165638657615469 0.06249699871987105 -0.051240088976919652 -0.069035567711275753 -0.038682863339727619 0.017378911952818595 -0.0484013434838165
leaf_count=20 40 39 80 87 241 24 21 518 23 24 187 43 23 48 47 143 22 29 107 74 34 148 34 34 20 24 83 215 62 22
internal_value=0 1.07971 -1.04736 0.761016 0.843524 1.86777 1.99421 -1.3452 1.11912 1.19449 1.01575 -0.0960822 1.19923 1.6145 -1.44543 2.13996 1.81965 0.916601 -0.994565 -0.556741 0.0888843 1.93666 2.89199 3.52429 -0.470458 0.398492 -0.616807 -0.403325 -0.522695 0.219506
internal_count=2516 1212 1304 863 824 349 329 860 583 560 473 67 406 219 780 308 216 73 262 155 81 171 92 58 444 64 380 297 277 51
shrinkage=0.05


Tree=16
num_leaves=31
num_cat=0
split_feature=16 2 16 18 165 134 105 126 86 96 88 63 107 88 117 62 126 169 16 129 96 105 132 8 102 4 107 87 97 146
split_gain=2564.95 277.082 202.214 112.28 142.226 205.89 78.2535 110.755 77.8046 150.863 88.4038 81.4885 76.0287 72.3794 70.1864 88.6282 99.0332 76.7071 65.6593 66.7532 62.5822 62.4113 58.7308 57.615 52.8404 59.6183 58.0546 53.9035 51.7161 50.8163
threshold=1.6363916944842136 1.2292725943042548 1.6633299933146082 2.434215281710677 1016.3657756460699 -0.13517661108928439 -1.0044813858445449e-05 0.30130166386746843 4.4225000000000003 4.3917700000000002 0.72380000000000011 -28.499999999999996 4.1252500000000003 0.69982333333333346 1.4058277000000001 -42.499999999999993 0.30999985436165051 1778.4883427819934 1.7029386365885475 1.0389441391529899 4.4225500000000011 -1.7004069775654496e-06 0.93526187602896493 2.5756473849947654 -1.0673782521681121e-06 3.4822064452553829 4.473650000000001 33.500000000000007 4.2336600000000013 4.3146065163771778
decision_type=2 2 2 2 2 2 2 2 2 2 2 2 2 2 2 2 2 2 2 2 2 2 2 2 2 2 2 2 2 2
left_child=1 14 23 4 5 -3 7 -6 -8 10 11 29 -4 -14 15 17 -17 -1 19 -15 -11 -13 -9 24 26 28 -2 -28 -26 -10
right_child=2 3 12 -5 6 -7 8 22 9 20 -12 21 13 18 -16 16 -18 -19 -20 -21 -22 -23 -24 -25 25 -27 27 -29 -30 -31
leaf_value=0.17378647526105245 0.034387761021130968 -0.14707382781939074 -0.017476314721861855 0.0083996146390817421 -0.060357797948424434 0.06687948719962783 -0.029059699405511116 0.11761663007465276 0.19975762899965049 -0.023457848660958312 0.19129787438682147 0.11852797799743714 -0.079490330681639909 -0.064548536423932421 0.14064201022227926 -0.026828777592939636 0.077119151694392887 0.084188293833547923 -0.077367835679900979 0.001811229166564312 0.05534351181130194 0.0065925367176532749 0.003346129409644915 0.034894215904641895 0.0053711247963032557 0.0027584249446927396 -0.045711877734654328 0.038823935001467663 -0.068537910489572418 0.090782656957921773
leaf_count=36 57 22 80 241 34 23 23 22 20 27 28 20 518 66 62 30 97 71 107 89 377 33 23 40 28 54 88 24 153 23
internal_value=0 1.02572 -0.994991 0.753922 0.963121 -0.754398 1.0858 0.155028 1.21925 1.29768 2.26252 1.80651 -1.27794 -1.37316 1.86684 1.61619 1.05129 2.28667 -0.944837 -0.528904 1.00154 0.976647 1.18423 -0.446935 -0.560283 -0.866975 -0.133819 -0.551941 -1.14209 2.82937
internal_count=2516 1212 1304 916 675 45 630 79 551 528 124 96 860 780 296 234 127 107 262 155 404 53 45 444 404 235 169 112 181 43
shrinkage=0.05


Tree=17
num_leaves=31
num_cat=0
split_feature=16 18 16 98 165 117 165 60 88 43 130 76 90 81 156 105 65 1 78 160 164 7 165 8 107 58 9 72 125 1
split_gain=2314.87 253.404 182.499 82.6102 135.321 81.4997 97.6731 107.778 70.8909 69.6932 105.202 88.7577 163.84 69.0632 66.879 65.9566 64.5383 68.5348 77.7788 58.8173 59.1803 58.6264 57.8675 51.9975 51.618 56.2204 48.3959 70.3786 64.1089 48.0652
threshold=1.6363916944842136 2.37144204519895 1.6633299933146082 3.0871741265238497 1084.6471324575293 1.4477718500000001 948.2348607873721 74466.091376500335 0.71536000000000011 3.0987210044919169 0.98876584374328547 3.3494765186168212 4.1635000000000009 5.6245000000000003 3.0000000000000075 4.6325699912154882e-06 4.1801660646986045 1.9415707452653457 54.9278799851134 -1.152026622245709e-15 15.042389134596592 2.5372475477383207 1449.0941797763523 2.5756473849947654 4.1252500000000003 0.010258077043365132 25.821670889124665 1.4550000000000003 0.97081386579974682 1.9299735696706948
decision_type=2 2 2 2 2 2 2 2 2 2 2 2 2 2 2 2 2 2 2 2 2 2 2 2 2 2 2 2 2 2
left_child=1 5 23 13 -5 6 7 -1 24 -8 11 -11 -13 14 -3 -10 26 18 -18 -12 21 -21 -20 29 -4 -26 27 -6 -28 -2
right_child=2 3 8 4 16 -7 9 -9 15 10 19 12 -14 -15 -16 -17 17 -19 22 20 -22 -23 -24 -25 25 -27 28 -29 -30 -31
leaf_value=-0.084746140588540589 -0.00069774962293224474 0.13944014501240518 -0.025394873422287079 -0.10507713675498963 0.0089070457874027929 0.12856816057773199 0.11451725342310966 0.059318355822029545 -0.052405845802277334 0.11005678262029375 0.010615348359569907 -0.075094425335134329 0.085993616089776723 -2.3620981664862484e-05 0.056882477924227716 0.024378435296374699 0.11361718375097823 -0.0078635848433976727 -0.022012351367336053 0.092179157629447145 0.030286164140409751 0.17162567184971911 0.039939787032177848 0.033149504836183043 -0.078288760345436248 -0.042649853279581297 0.11705953987671974 0.089793586828990996 0.011978354034501882 -0.038090411382727327
leaf_count=20 124 36 69 20 92 68 100 37 80 21 20 38 27 32 77 43 27 175 52 69 23 35 137 40 528 140 47 38 21 280
internal_value=0 0.974437 -0.945241 0.618066 0.456553 1.56113 1.38498 0.175388 -1.21404 1.59203 1.29232 0.413821 -0.163619 1.29642 1.66368 -0.511251 0.543416 0.307859 0.684701 1.80628 2.0573 2.37832 0.457895 -0.424588 -1.33133 -1.41639 1.00858 0.651016 1.69216 -0.532269
internal_count=2516 1212 1304 754 609 458 390 57 860 333 233 86 65 145 113 123 589 391 216 147 127 104 189 444 737 668 198 130 68 404
shrinkage=0.05


Tree=18
num_leaves=31
num_cat=0
split_feature=16 0 16 18 134 131 168 79 18 117 86 23 3 1 83 1 88 20 168 86 79 112 103 72 104 127 88 135 47 107
split_gain=2089.17 233.583 164.705 86.1709 131.689 256.484 81.5963 79.7269 85.1753 67.1431 76.7046 66.2802 77.0677 69.5477 65.9108 65.402 64.5524 60.9757 61.8757 59.7757 58.3216 60.6953 55.4265 52.9808 52.5485 55.3862 52.1134 51.1117 60.2296 57.8135
threshold=1.6363916944842136 2.2151338967768051 1.6633299933146082 2.434215281710677 -0.15859183117712131 0.99248354842643061 -1.4986774694178366 0.19744686818973883 2.3634207360852701 0.90682870000000015 4.8085000000000013 0.062281370581558734 0.51639777949346277 1.8623733089210057 -24.499999999999996 1.816284363443434 0.69982333333333346 2.7904397599222146 1.9032084057983869 4.6245000000000003 0.24614830749547245 1.6145164445161945e-07 2.6668444562969108e-06 -4.504999999999999 1.8576030950906583e-06 0.9573557905038067 0.71814333333333347 -0.45123572628877079 75186.814060763223 4.1252500000000003
decision_type=2 2 2 2 2 2 2 2 2 2 2 2 2 2 2 2 2 2 2 2 2 2 2 2 2 2 2 2 2 2
left_child=1 7 -2 4 5 -3 9 -1 11 -6 19 20 24 -14 15 -8 27 18 22 -11 21 -9 -18 -24 25 -13 -20 28 29 -4
right_child=2 3 16 -5 6 -7 14 8 -10 10 -12 12 13 -15 -16 -17 17 -19 26 -21 -22 -23 23 -25 -26 -27 -28 -29 -30 -31
leaf_value=-0.01612383933737874 -0.020167935241238208 0.05509535442380345 0.00010303069575456902 0.0069446578629593142 -0.010191975541048399 -0.1640051763166081 0.12721854907693342 0.22023710999637844 -0.010735545859816262 0.075308556896473824 0.061462950359644719 0.098518981606551884 0.11070545302195983 0.0043459265474595282 -0.039080498251935533 0.033536277285378779 0.029110643748139993 -0.074902280283773812 -0.080570400968915046 0.17441984177567066 0.07688260604627431 0.11638476156136568 0.012679121289402247 -0.10240865409374239 0.14734619549225744 0.0057188152335584169 -0.0049375399222804442 -0.090581820863631701 0.001298785897401663 -0.070267579257376048
leaf_count=20 444 34 32 241 23 22 20 24 21 29 161 82 22 51 29 272 69 82 62 32 34 34 20 20 41 20 36 168 39 332
internal_value=0 0.925715 -0.897979 0.64654 0.843233 -0.619597 0.987965 1.61605 1.7339 1.42257 1.59107 1.86676 1.56401 0.72799 0.656256 0.799057 -1.15334 -0.768239 -0.479137 2.54603 2.57756 3.18716 0.0392741 -0.897295 1.99079 1.60646 -1.05574 -1.34825 -1.15508 -1.28162
internal_count=2516 1212 1304 863 622 56 566 349 329 245 222 308 216 73 321 292 860 289 207 61 92 58 109 40 143 102 98 571 403 364
shrinkage=0.05


Tree=19
num_leaves=31
num_cat=0
split_feature=16 20 16 138 165 18 20 88 168 38 6 7 77 109 119 117 165 87 71 6 75 111 71 111 13 21 8 105 71 100
split_gain=1885.48 213.96 148.646 78.4696 72.5071 65.6958 60.2459 68.414 58.7011 57.7665 95.6886 137.15 126.797 97.5885 70.1816 62.7876 57.2715 59.3048 53.8572 53.2435 63.3925 71.1468 52.617 68.3685 80.4369 53.944 52.6842 51.9726 57.7483 51.7984
threshold=1.6363916944842136 2.6132516298417072 1.6633299933146082 0.026862777381641997 1131.0122436918205 2.434215281710677 2.7880259299333479 0.71536000000000011 7.4363516794377711 4.4752401399669361 5.8927900685269003 2.5168428631556989 21.500000000000004 3.8055000000000008 7.2097295412055251 1.2059144000000004 1124.6366491166443 14.500000000000002 4.3990000000000009 5.9547318086365646 45.500000000000007 5.535000000000001 4.8218500000000004 5.1850000000000014 4.3220041666666678 0.058140341057182084 2.5173121300809176 -1.1122561487601184e-06 4.1033500000000007 1.3355704697986598e-06
decision_type=2 2 2 2 2 2 2 2 2 2 2 2 2 2 2 2 2 2 2 2 2 2 2 2 2 2 2 2 2 2
left_child=1 3 -2 9 -3 8 7 27 22 14 11 -11 -13 -12 -1 -14 17 -16 -9 -15 21 -21 23 -6 -25 26 -26 28 -4 -24
right_child=2 4 6 -5 5 -7 -8 18 -10 10 13 12 15 19 16 -17 -18 -19 -20 20 -22 -23 29 24 25 -27 -28 -29 -30 -31
leaf_value=0.01277394242799626 -0.019159538497118416 -0.053264431661615777 0.03303406507259718 -0.028239683679897678 -0.021324219740927221 0.006713990068965359 -0.074722294599179021 0.044192090482615375 0.0047511851187886263 0.12691621929407121 0.13722736298552027 -0.10647281901565966 0.090804363996721815 0.12327418691877808 0.08922038866913172 -0.030066075921058658 0.040136517395148986 0.15498456552624704 -0.036736150229206455 -0.066083168509331616 0.065141088154164264 0.049312887944774154 -0.030214023543521762 0.15732252746820452 0.013879552097205306 0.09929753154385508 0.10514788854689826 -0.067773985848031321 -0.044648298715196905 0.072360565401613716
leaf_count=26 444 30 27 22 20 240 263 34 82 20 46 27 22 28 91 21 32 55 52 22 174 34 32 26 64 57 21 274 210 20
internal_value=0 0.879429 -0.85308 1.28999 0.449447 0.530305 -1.09567 -0.920001 0.825479 1.35823 1.13459 0.228859 -0.430988 1.40273 1.79017 0.635492 2.01433 2.27989 -0.0948253 1.16349 1.00499 0.0795745 1.07505 1.3213 1.52937 1.23329 0.728564 -1.05888 -0.715968 0.184755
internal_count=2516 1212 1304 620 592 562 860 597 322 598 394 90 70 304 204 43 178 146 86 258 230 56 240 188 168 142 85 511 237 52
shrinkage=0.05


Tree=20
num_leaves=31
num_cat=0
split_feature=16 20 16 79 106 58 15 6 117 111 72 166 109 1 130 117 57 165 143 140 139 138 137 164 168 82 97 22 22 126
split_gain=1799.02 195.475 154.949 125.135 83.4078 119.411 147.813 124.517 86.062 72.7937 75.7541 70.7383 66.9063 64.0523 75.7737 56.6022 63.6577 56.5306 62.1094 60.2008 106.355 63.3426 58.8254 59.9104 55.8341 53.9864 53.3309 58.0895 52.1929 51.3889
threshold=1.6363916944840764 2.6132516298417072 1.6865480854195529 0.19744686818973883 4.8480000000000008 0.061831443665378856 677705.50000000012 5.9012474004511413 1.5586325500000002 5.1150000000000011 1.4950000000000003 9620.2649680372142 4.2870000000000017 1.926398219737772 1.0057333804789634 1.1003597500000002 75028.412687611359 1131.0122436918205 2.9365508535137139 -0.00062600469635037406 -0.010107911337005006 1.0000000180025095e-35 0.034448326482486434 13.943038131350844 5.0824783996493847 3.1750000000000003 4.2468600000000007 -0.022057660155142201 0.018165686121118799 0.30309059492303636
decision_type=2 2 2 2 2 2 2 2 2 2 2 2 2 2 2 2 2 2 2 2 2 2 2 2 2 2 2 2 2 2
left_child=1 3 13 -1 9 7 15 -6 -8 10 25 -9 26 14 -2 -7 -17 -3 19 21 -21 22 23 -19 -23 -5 27 -4 -22 -15
right_child=2 17 12 4 5 6 8 11 -10 -11 -12 -13 -14 29 -16 16 -18 18 -20 20 28 24 -24 -25 -26 -27 -28 -29 -30 -31
leaf_value=-0.038151434076757272 -0.067910356749780479 -0.040890599170586829 -0.051051633652220943 0.10164710737410046 -0.065521499142050743 0.18480132392817927 0.048633200955676859 0.017113845380690863 0.15370175881045206 0.1693755135556464 0.16005265293177218 0.12058015957203072 -0.014218938824805348 -0.013057753810090994 0.01704440744201436 0.14764774254252833 0.039182595093734562 -0.043006424183646835 -0.043372511795168982 -0.039806891713411584 0.10585052027030195 0.018955338903917717 0.066777477413415914 0.045902792736887937 0.099219854983190692 -0.0081278483228137098 -0.070328542239198585 0.041934851082888525 0.046878216170295278 -0.046324209171045273
leaf_count=29 32 33 71 21 34 31 271 53 21 34 20 24 77 191 146 31 24 90 30 31 47 78 21 24 30 24 494 22 186 296
internal_value=0 0.874778 -0.819111 1.26482 1.36484 1.19537 1.46316 0.283464 1.12379 2.20189 1.58172 0.987262 -1.16082 -0.477914 0.0354328 2.61542 2.00635 0.452571 0.530639 0.613366 0.943963 0.2542 -0.202457 -0.485774 0.825021 0.862009 -1.27579 -0.581097 1.17548 -0.665544
internal_count=2516 1187 1329 617 588 489 378 111 292 99 65 77 664 665 178 86 55 570 537 507 264 243 135 114 108 45 587 93 233 487
shrinkage=0.05


Tree=21
num_leaves=31
num_cat=0
split_feature=16 20 18 79 106 146 4 136 16 165 134 16 106 7 48 20 167 79 132 22 23 29 21 8 87 165 143 140 139 138
split_gain=1623.61 176.416 146.746 112.934 75.2755 73.7991 109.974 72.5191 91.7012 120.092 127.255 67.089 65.8153 63.9543 64.412 63.3519 59.7598 59.5218 58.9239 63.3537 72.4445 72.7562 54.0798 52.9202 57.2233 51.0189 56.0537 54.3832 96.3905 59.2753
threshold=1.6363916944840764 2.6132516298417072 2.5703731591122172 0.19744686818973883 4.8480000000000008 4.3964086846328954 3.5163888787737911 0.13274322461338187 1.5491933384827625 1003.1150412914445 -0.11725047465128718 1.6465452046960305 4.7405000000000017 2.5372475477383207 5.0683708947738788 2.5927495728651757 -5821.5930876054563 0.24091960482156824 0.9538675754888728 -0.022991421925601652 -0.0017852785498076974 0.10932741432328044 0.037145293202187568 2.4641691560132837 10.500000000000002 1131.0122436918205 2.9365508535137139 -0.0005785332490962561 -0.010107911337005006 1.0000000180025095e-35
decision_type=2 2 2 2 2 2 2 2 2 2 2 2 2 2 2 2 2 2 2 2 2 2 2 2 2 2 2 2 2 2
left_child=1 3 5 -1 12 18 11 8 -6 10 -10 17 22 14 -11 -15 -16 -7 19 -2 -21 -22 -5 -9 -25 -3 27 29 -29 -27
right_child=2 25 -4 4 7 6 -8 23 9 13 -12 -13 -14 15 16 -17 -18 -19 -20 20 21 -23 -24 24 -26 26 -28 28 -30 -31
leaf_value=-0.036243860975935543 -0.041511911216798723 -0.038846069258270846 -0.077045016534591337 0.10540157171922762 0.082275520855006931 -0.05346600123225375 -0.0074896838773729256 0.11533501966336331 -0.12775986664321112 0.09071696395985783 0.044689840497449042 -0.059572123866997929 0.15208252648867313 0.14863140066868669 0.021021722875196824 0.051991092997628288 -0.077637303955852999 0.02569301932817325 0.053793386792143183 -0.019041062581799623 0.0038683624998215706 0.12618744999170303 0.0033525058068335058 0.10201572479951818 -0.0083504109602907436 -0.0098168399897130103 -0.041203885457168021 -0.037816547109715402 0.056080304134588733 0.039671999185320439
leaf_count=29 165 33 212 37 116 47 187 77 23 24 20 466 42 22 66 74 20 48 30 123 31 20 20 24 23 136 30 31 231 109
internal_value=0 0.831039 -0.778155 1.20158 1.2966 -0.633391 -0.813926 1.1356 0.911146 0.569032 -0.951014 -1.0353 2.09179 0.886323 0.365799 1.48276 -0.0384447 -0.269397 -0.267428 -0.386304 0.0346687 1.03673 1.3919 1.79631 0.960135 0.429942 0.504107 0.582698 0.899407 0.244013
internal_count=2516 1187 1329 617 588 1117 748 489 365 249 43 561 99 206 110 96 86 95 369 339 174 51 57 124 47 570 537 507 262 245
shrinkage=0.05


Tree=22
num_leaves=31
num_cat=0
split_feature=16 20 18 79 107 1 130 146 58 18 152 112 62 134 102 134 21 73 87 22 0 135 137 141 141 64 2 36 132 128
split_gain=1465.31 159.216 132.475 101.923 75.0532 75.7413 79.471 68.2183 117.979 68.1298 82.7442 65.6647 83.8501 65.2073 63.8492 62.2164 59.5645 69.2392 57.5942 60.502 55.8654 55.3149 54.3487 52.6131 60.1091 58.3661 61.6325 76.0817 86.9403 72.0025
threshold=1.6363916944840764 2.6132516298417072 2.5716991199661541 0.19744686818973883 4.3527000000000013 1.9073488925680639 0.97387078750336398 4.3964086846328954 0.010491866152792614 2.3505318544875715 -5.6418330058912654 8.3460407470375974e-07 -32.499999999999993 -0.10084954165861675 9.3395597064709667e-07 -0.15390748087720188 0.090837992023288128 34.500000000000007 58.500000000000007 -0.022057660155142201 2.1885607096441562 -0.49000084928717103 -0.045623267616379345 0.011271660013166832 0.008623624575407822 -20.499999999999996 1.2649110640673336 4.8225062091031991e-06 0.93163853996322465 0.82983384113923109
decision_type=2 2 2 2 2 2 2 2 2 2 2 2 2 2 2 2 2 2 2 2 2 2 2 2 2 2 2 2 2 2
left_child=1 3 7 -1 11 15 -7 18 -9 -8 -11 13 -13 -5 -12 -6 17 -17 19 -2 -18 -21 -10 24 25 26 27 28 -3 -30
right_child=2 23 -4 4 5 6 9 8 22 10 14 12 -14 -15 -16 16 20 -19 -20 21 -22 -23 -24 -25 -26 -27 -28 -29 29 -31
leaf_value=-0.034431668011278942 -0.040116278934543448 -0.039851845362438604 -0.074358814000267892 0.15143947837416805 -0.014389481218088241 -0.061684212218160221 0.091257526735277039 -0.059820282944485929 0.00021040572592333044 0.05606773762758506 -0.087524701273534455 0.087695811481260877 -0.02814300365391232 0.058261930358795712 0.029267927039075981 -0.032494911998510366 0.041414521527118414 0.068785184109583494 0.056106333168489599 0.046989439705348746 0.12661438814892964 -0.01528267874897863 -0.03700782069249705 0.083764442669287814 -0.064163849164139142 0.039286866551780236 0.055937098406255249 -0.067110167280202956 -0.023804911332471031 0.055071005434478806
leaf_count=29 167 65 201 57 21 23 43 357 179 59 25 61 21 28 22 20 26 108 28 49 74 131 217 31 22 226 50 41 42 93
internal_value=0 0.789487 -0.739247 1.1415 1.23177 1.00675 0.496408 -0.605973 -0.779519 0.763469 0.332787 1.79902 1.1606 2.41491 -0.657116 1.35927 1.51098 1.0592 -0.257493 -0.368817 2.08925 0.0333835 -0.403689 0.408445 0.335584 0.404472 0.108369 -0.101252 0.153143 0.610637
internal_count=2516 1187 1329 617 588 421 172 1128 753 149 106 167 82 85 47 249 228 128 375 347 100 180 396 570 539 517 291 241 200 135
shrinkage=0.05


Tree=23
num_leaves=31
num_cat=0
split_feature=16 20 16 79 107 58 119 144 4 117 134 36 21 134 109 71 22 4 136 109 146 167 78 17 72 8 7 98 117 100
split_gain=1322.44 143.692 120.122 91.9857 67.7355 60.9555 143.203 91.2904 76.2651 67.4681 60.6397 59.883 59.1167 59.053 55.224 55.0498 62.9535 56.3537 49.5787 48.4768 77.7533 46.9272 75.2468 61.6738 54.2534 58.7504 73.43 63.7735 77.3139 57.5682
threshold=1.6363916944840764 2.6132516298417072 1.6865480854195529 0.19744686818973883 4.3527000000000013 0.061831443665378856 12.519115572908769 4.5185655650317065 3.2054551992083082 1.5495098000000003 -0.15485039135858147 -1.8748445440833191e-06 0.063360577146141087 -0.15390748087720188 4.2870000000000017 4.2688500000000014 -0.022991421925601652 3.5163888787737911 0.1481288504588604 4.0125000000000002 4.5794664321930929 -6507.3124214567933 52.408639431438296 1.9500000000000002 1.4550000000000003 2.4740171297057274 2.5921562978961652 3.6220596631231419 0.95822423000000012 2.7885906040268447e-06
decision_type=2 2 2 2 2 2 2 2 2 2 2 2 2 2 2 2 2 2 2 2 2 2 2 2 2 2 2 2 2 2
left_child=1 3 10 -1 11 6 -6 -7 -8 12 -2 -5 -9 -14 -4 16 -12 19 -15 20 -17 24 -23 -24 25 -3 27 -27 -29 -28
right_child=2 21 14 4 5 7 8 9 -10 -11 15 -13 13 18 -16 17 -18 -19 -20 -21 -22 22 23 -25 -26 26 29 28 -30 -31
leaf_value=-0.032710087193368841 -0.092109388352920568 -0.012741067292168737 -0.055380112240313084 0.14943628124892713 -0.10665918726474047 0.1147099503026954 0.1196520803415257 -0.0072086602381684559 0.0085379925655557753 0.13404434228315951 -0.018388760282265906 0.07144267157325182 -0.015894943808338471 0.049970240658980668 -0.010344770969218249 -0.026667002026570609 0.050780241558296163 0.010625123509997003 0.12080028472468257 -0.053119931099770062 0.07626384392380714 0.050112717648347217 0.013940917126213512 -0.090745260610299958 0.088437086503836332 0.086998560498158142 -0.0078797030263544569 0.11618691725390298 0.011008283739479688 0.083241677479818477
leaf_count=29 28 100 587 30 20 58 23 55 47 20 76 137 28 140 77 222 58 93 30 168 20 30 24 34 32 75 130 21 104 20
internal_value=0 0.750013 -0.702285 1.08443 1.17018 0.956412 0.226689 1.15483 0.900938 0.912761 -0.40187 1.70907 0.772989 1.02776 -1.00315 -0.338559 0.231001 -0.490291 1.24939 -0.649705 -0.363206 0.388023 -0.283494 -0.948537 0.510624 0.421158 0.614294 1.01097 0.573566 0.0853963
internal_count=2516 1187 1329 617 588 421 90 331 70 273 665 167 253 198 664 637 134 503 170 410 242 570 88 58 482 450 350 200 125 150
shrinkage=0.05


Tree=24
num_leaves=31
num_cat=0
split_feature=16 7 18 134 130 167 146 58 117 147 149 1 168 106 73 132 88 21 71 1 138 140 56 159 76 105 149 38 137 105
split_gain=1193.5 121.877 114.232 87.6093 218.154 62.3735 60.8458 100.564 59.3391 67.0948 78.2618 53.5598 81.5132 59.7594 53.3688 53.0414 55.9562 51.9006 51.5688 50.0195 75.4303 55.3961 54.4726 49.921 55.6206 49.3707 48.688 49.9386 61.9783 48.6721
threshold=1.6363916944840764 2.5603876825386993 2.5716991199661541 -0.15390748087720188 0.98831040064881137 -5700.015380951897 4.3964086846328954 0.010491866152792614 0.8865728650000001 4.0424129457239379 -7.0166826162134166 1.9113562775499344 0.98072726480782479 5.1355000000000013 35.500000000000007 0.9538675754888728 0.6578900000000002 0.044974095242702121 4.4305500000000011 1.9551537695603636 0.015309967535547893 0.0095161054726667065 3.0109284036746486 -12290.547859599004 3.752697232790895 6.6754694415173316e-06 -5.5499014047862882 4.9542350009304963 -0.039607619567367122 -3.9140645400237864e-06
decision_type=2 2 2 2 2 2 2 2 2 2 2 2 2 2 2 2 2 2 2 2 2 2 2 2 2 2 2 2 2 2
left_child=1 3 6 4 -1 19 15 29 -5 10 -10 14 13 18 23 16 -2 -14 -13 21 25 22 -3 -12 -25 -21 27 -16 -29 -8
right_child=2 5 -4 8 -6 -7 7 -9 9 -11 11 12 17 -15 26 -17 -18 -19 -20 20 -22 -23 -24 24 -26 -27 -28 28 -30 -31
leaf_value=-0.12976217091731404 -0.086793355747627532 0.092487240533034018 -0.068084721107832827 -0.0074506871987666413 0.055171792015719867 -0.044567572455363053 -0.029612674831693608 -0.018016372610476207 0.14440445963825499 -0.028095033445528578 0.093787802794637776 0.061280388111638766 -0.051975680548431616 0.025370749125772335 0.0016090524800378701 0.053054076973348852 -0.010511429550353918 0.028736353608901088 0.15216087988681265 -0.029448326647673786 0.071107720502186569 0.11528414741158487 0.020975082470221989 0.049118358351600666 -0.05852745560929179 0.038442561328411104 0.10277453032390707 0.038583231054335122 0.13015020101359395 -0.068245173547138743
leaf_count=23 26 30 201 35 52 38 126 396 28 21 24 37 28 47 29 30 319 69 27 114 32 20 237 30 20 35 136 42 33 231
internal_value=0 0.712512 -0.667171 0.988721 -0.0308258 0.340777 -0.543413 -0.707313 1.1149 1.19238 1.25936 1.17199 0.778426 1.36363 1.4327 -0.214301 -0.325204 0.108761 1.99241 0.440821 0.0291522 0.700446 0.580203 0.690246 0.121201 -0.270016 1.66162 1.14656 1.57745 -1.0922
internal_count=2516 1187 1329 681 75 506 1128 753 606 571 550 522 208 111 314 375 345 97 64 468 181 287 267 74 50 149 240 104 75 357
shrinkage=0.05


Tree=25
num_leaves=31
num_cat=0
split_feature=20 18 69 16 134 102 165 20 97 165 126 1 88 5 147 63 102 159 35 22 135 130 15 134 22 23 50 108 137 20
split_gain=1125.36 170.455 95.7788 92.7936 115.462 82.5658 77.0152 74.3259 72.4788 71.9321 70.4083 72.4104 64.7166 120.487 67.6212 66.0147 64.4745 63.2663 72.3523 59.7863 58.5084 57.1348 54.221 53.6648 53.297 51.8216 56.4373 51.606 51.5605 51.1825
threshold=2.6578773130500601 2.5005049995000301 0.34853311691088423 1.5491933384829115 -0.18681645857112048 7.1380920613742516e-06 1670.3540570500129 2.792209237329724 4.2510000000000003 993.01816921392299 0.30888559507336083 1.8602025517922389 0.71761000000000008 4.1975945000000001 4.1601958457197368 -35.499999999999993 -3.7358238825883888e-06 -18373.155420590901 -91.34999999999998 0.0037803756625073735 -0.50814791127167458 1.0001582933368824 652281.00000000012 -0.10813092718592197 0.071696545022844713 -0.01107280710059259 75010.960757586974 28.270430058683818 0.022115740121227596 2.7055509598588205
decision_type=2 2 2 2 2 2 2 2 2 2 2 2 2 2 2 2 2 2 2 2 2 2 2 2 2 2 2 2 2 2
left_child=2 5 -1 10 -5 16 -3 8 -8 -6 11 -4 14 -14 28 24 21 18 29 20 25 -2 -22 -12 -15 -10 -27 -9 -11 -18
right_child=1 6 3 4 9 -7 7 27 19 12 23 -13 13 15 -16 -17 17 -19 -20 -21 22 -23 -24 -25 -26 26 -28 -29 -30 -31
leaf_value=-0.06235066517477944 0.095411158725619324 -0.10251097169290815 -0.048053171262145047 -0.075282208384437999 -0.03368105937636668 0.072435407679189337 0.011466651427272325 0.0070630272367486245 -0.064826753615800828 0.036021432550244287 0.12923962794124119 0.067992404959641581 0.15258454138206112 -0.03941758309234062 -0.0213447358657388 0.078971927891174964 -0.018409471263617482 -0.04784703768214317 0.0090286910645936518 -0.012497536082305395 -0.019229374571066157 0.007007458751623551 -0.075883805802366214 0.068215666642022693 0.062502592899229215 0.085058588013052938 -0.024119913366077276 -0.066110036342329953 0.088514095788391742 -0.096142200076331702
leaf_count=21 23 45 20 22 31 33 107 27 28 466 62 41 36 29 47 75 72 123 239 196 57 89 163 86 23 20 29 224 52 30
internal_value=0 -0.497817 0.866316 0.911144 0.752768 -0.0896088 -0.77527 -0.707852 -0.516706 0.818229 1.50297 0.598894 0.881756 1.43686 0.721611 0.979109 -0.177742 -0.342115 -0.120345 -0.678625 -0.961521 0.503236 -1.2241 1.8756 0.11325 -0.211287 0.408855 -1.16478 0.825819 -0.825441
internal_count=2516 1505 1011 990 781 609 896 851 600 759 209 61 728 163 565 127 576 464 341 493 297 112 220 148 52 77 49 251 518 102
shrinkage=0.05


Tree=26
num_leaves=31
num_cat=0
split_feature=20 20 69 20 165 90 64 165 111 66 81 96 102 117 98 16 167 4 62 96 79 60 4 2 168 28 35 88 54 7
split_gain=1015.63 154.517 86.4404 86.8595 100.326 71.9731 71.8212 60.2425 59.1224 144.582 57.7377 72.8732 54.7745 50.0469 48.8718 71.022 63.8313 53.0296 56.6639 60.6991 54.1846 52.6473 47.2069 46.7161 46.3969 49.0746 55.2034 48.5912 49.4607 50.5975
threshold=2.6578773130500601 2.7584439477754814 0.34853311691088423 2.5725402742346097 962.87179612944192 4.6265000000000009 -14.499999999999998 1687.9238551903757 5.1150000000000011 4.9450000000000012 5.0805000000000016 4.456900000000001 7.1380920613742516e-06 0.82503607000000023 3.4827057724667205 1.5776212754900152 -5919.0050652010241 3.299806835199623 -57.499999999999993 4.2998000000000012 0.24447192177744434 74587.923951490768 3.2054551992083082 1.2692955176437095 -28.904772662450423 8.0950000000000006 -39.449999999999996 0.69075000000000009 53.650000000000013 2.605304322056234
decision_type=2 2 2 2 2 2 2 2 2 2 2 2 2 2 2 2 2 2 2 2 2 2 2 2 2 2 2 2 2 2
left_child=2 12 -1 -4 -5 6 14 -3 -8 -10 -11 -12 13 -2 16 21 -6 18 19 -17 -20 -16 -9 -14 -15 26 -26 -27 -29 -30
right_child=1 7 3 4 5 -7 8 22 9 10 11 -13 23 24 15 17 -18 -19 20 -21 -22 -23 -24 -25 25 27 -28 28 29 -31
leaf_value=-0.059233135357499127 -0.069830672238022085 -0.13096432477235795 0.072993563420610821 -0.071932412790400649 0.023479537030037207 -0.054783093705773361 -0.01131419744521666 0.024498396664857865 0.18750964765963349 -0.025024968851357701 0.13349705329164863 0.051998048316424197 0.09204888716340065 -0.067473960818873871 0.044405186589807272 0.02923887014727701 -0.075099872704595338 0.0056567725079804338 -0.037233459949493411 0.14208424919499801 0.070357434045184741 0.11543592818081379 -0.046016299574082889 0.00092662361760934204 -0.027487888612668033 -0.025830409601126883 0.079059380701472684 -0.066608045313127903 0.035949705539342874 -0.0067846702213965136
leaf_count=21 40 20 197 21 52 20 26 25 23 20 32 192 22 37 75 22 24 173 25 26 22 40 469 39 20 394 31 27 91 290
internal_value=0 -0.472926 0.823 0.865587 0.717952 0.776616 0.826411 -0.917839 1.21321 1.35339 1.12746 1.27282 -0.242163 -0.302374 0.579497 0.724852 -0.153016 0.442768 1.04305 1.80727 0.262565 1.38223 -0.848955 0.675808 -0.253195 -0.205642 0.745523 -0.266128 -0.0242426 0.0684446
internal_count=2516 1505 1011 990 793 772 752 514 293 267 244 224 991 930 459 383 76 268 95 48 47 115 494 61 890 853 51 802 408 381
shrinkage=0.05


Tree=27
num_leaves=31
num_cat=0
split_feature=20 18 69 2 134 165 102 20 135 97 165 37 126 137 107 125 132 139 47 102 8 171 105 28 101 61 126 88 50 56
split_gain=916.609 141.102 78.0124 82.9059 125.793 68.4608 67.9212 62.2829 65.7771 68.2287 59.9836 61.6325 58.9522 62.1527 67.5933 57.641 67.4342 75.203 63.0489 57.5539 62.8377 65.6573 57.3747 55.7404 52.7858 54.8427 76.2542 63.0714 51.5991 51.1956
threshold=2.6578773130500601 2.5005049995000301 0.34853311691088423 1.1972189997379197 -0.18681645857112048 1518.7483483497551 7.1380920613742516e-06 2.792209237329724 -0.44535482046324443 4.2372300000000012 957.39428491736408 7.3250000000000002 0.21898158700060308 0.015797704397620422 4.5731000000000011 0.91865608320995185 0.93032545565171432 -0.0018140449894326217 74891.790518885813 -3.7358238825883888e-06 2.5661128056602793 -18373.155420590901 -3.6839643646029156e-06 13.485000000000001 -3.0620128041019831e-06 9.3991322626180533 0.38452449227874425 0.71910666666666678 74975.753340039126 2.8718134933046562
decision_type=2 2 2 2 2 2 2 2 2 2 2 2 2 2 2 2 2 2 2 2 2 2 2 2 2 2 2 2 2 2
left_child=2 6 -1 29 -5 -3 19 8 9 -7 -6 12 -12 15 -15 -14 17 -17 -19 -2 21 23 -11 -21 -18 26 27 -26 -10 -4
right_child=1 5 3 4 10 7 -8 -9 28 22 11 -13 13 14 -16 16 24 18 -20 20 -22 -23 -24 -25 25 -27 -28 -29 -30 -31
leaf_value=-0.0562714770946297 0.024278932761600508 -0.12655482903122903 0.044368643315233797 -0.083651914464479143 -0.045800990540356863 0.026141389996894165 0.06586796049818848 -0.053860666214004455 -0.029862959398001078 0.0015128354043270468 0.11659920275660939 0.011807878245002568 -0.040253754292169347 0.12497842565178872 0.031569208467707915 0.010838666351305114 -0.0077011118121445184 0.1657486878335476 0.07130208938007257 0.0039006031117279809 0.04266895846508089 -0.05368432030081749 -0.038097274649189786 -0.043543132383722899 0.0200086324793451 -0.036159417778253558 0.096510076330139721 0.10227324366569519 -0.091824410483241081 0.097572447483738278
leaf_count=21 112 20 88 22 21 81 33 254 84 141 29 156 23 45 34 36 75 24 67 221 42 115 260 86 170 22 58 27 56 93
internal_value=0 -0.44928 0.78185 0.822307 0.685427 -0.701716 -0.0778783 -0.65995 -0.489556 -0.314296 0.751356 0.797068 0.940514 0.87106 1.69554 0.741311 0.815563 1.44022 1.92422 -0.157814 -0.313115 -0.429212 -0.483391 -0.187796 0.59019 0.791691 0.922387 0.62567 -1.09295 1.43411
internal_count=2516 1505 1011 990 809 896 609 876 622 482 787 766 610 581 79 502 479 127 91 576 464 422 401 307 352 277 255 197 140 181
shrinkage=0.05


Tree=28
num_leaves=31
num_cat=0
split_feature=20 18 82 2 134 88 5 52 56 47 134 151 117 105 1 165 102 28 66 58 105 102 8 171 35 130 135 20 79 29
split_gain=827.24 127.344 70.7832 84.6446 113.72 67.1688 158.968 64.8418 63.8193 74.7226 117.857 68.4009 76.0657 69.7522 64.0551 61.7859 61.2988 61.2558 56.6228 60.4745 52.0458 51.9424 56.711 59.2557 52.4535 50.4245 49.7595 58.5345 49.5038 48.5466
threshold=2.6578773130500601 2.5005049995000301 3.0050000000000003 1.197218999737842 -0.18681645857112048 0.71761000000000008 4.1975945000000001 24.500000000000004 3.5882464172454873 75003.826018893727 -0.13781875263530077 16.685929311102612 1.2109609500000003 3.9766700058204326e-06 1.9299735696706948 1518.7483483497551 7.1380920613742516e-06 6.6550000000000011 5.0250000000000012 0.010849379719245622 -4.8706132216777009e-06 -3.7358238825883888e-06 2.5661128056602793 -18373.155420590901 -75.749999999999986 1.0001582933368824 -0.49323430760049086 2.7746195258379527 0.22573273914294598 0.24752633261371329
decision_type=2 2 2 2 2 2 2 2 2 2 2 2 2 2 2 2 2 2 2 2 2 2 2 2 2 2 2 2 2 2
left_child=2 16 -1 -4 -5 8 -7 -8 9 10 -6 12 -10 14 20 -3 21 -11 26 -20 -14 25 23 24 -23 -2 27 -17 -25 -9
right_child=1 15 3 4 5 6 7 29 11 17 -12 -13 13 -15 -16 18 -18 -19 19 -21 -22 22 -24 28 -26 -27 -28 -29 -30 -31
leaf_value=-0.055990374814718961 0.089060287801143917 -0.12022708699107171 0.07282489392278084 -0.079469319407574165 -0.10106748397191685 0.15227502790781169 0.095718716292509012 -0.0084899295386500085 0.075691995561075753 0.11529350460506976 0.010385869180963439 -0.024707826287035023 0.092733104199370642 0.0880898629348459 -0.055244940475505946 0.05855214469967053 0.062574563017397208 0.023454897937738351 -0.045762534077641449 -0.0090928255993558069 -0.01858566524017425 -0.031791689827282359 0.040535511799334067 0.003000572041398095 0.0097556856444336957 0.0060100209428353259 -0.028501206395904657 -0.029120833938941361 -0.070928925182670355 0.066742209135554731
leaf_count=20 23 20 156 22 31 39 35 65 158 20 101 31 21 28 34 47 33 197 540 142 21 138 42 31 169 89 115 32 84 32
internal_value=0 -0.426816 0.742757 0.780347 0.654024 0.714731 1.27167 0.747585 0.566388 0.277499 -0.315776 0.91049 1.07669 0.412555 -0.0845347 -0.66663 -0.0739844 0.638386 -0.626952 -0.76255 0.741474 -0.149923 -0.29746 -0.407751 -0.178407 0.4613 -0.150263 0.460781 -1.02 0.326578
internal_count=2516 1505 1011 991 835 813 171 132 642 349 132 293 262 104 76 896 609 217 876 682 42 576 464 422 307 112 194 79 115 97
shrinkage=0.05


Tree=29
num_leaves=31
num_cat=0
split_feature=20 20 69 20 62 134 65 97 66 97 164 13 150 137 134 36 131 131 127 107 88 78 1 126 101 57 112 75 100 165
split_gain=746.584 115.835 69.8789 70.9758 88.063 94.35 88.3293 51.6656 50.6331 73.2153 70.5333 49.2653 48.0032 55.8064 66.495 104.454 74.9797 77.9831 51.5096 46.1439 46.1027 63.8474 63.4113 56.1062 53.0399 50.1545 47.4531 45.8204 59.9029 44.0872
threshold=2.6578773130500601 2.7584439477754814 0.34853311691088423 2.5725402742346097 -24.499999999999996 -0.11279774830212794 3.2547567000514497 4.0609400000000013 4.6750000000000007 4.228600000000001 -5.4460114738578396 4.4789625000000006 4.006025570129629 0.020214468210767382 -0.13781875263530077 -2.4622887689983228e-06 0.99168213897072544 0.99270970216636112 0.95877180831735298 4.5731000000000011 0.69369333333333338 63.631096685318418 1.9720265943660615 0.30440531213895045 -1.9950523034746223e-06 75080.852537961022 3.0224293423565445e-06 38.500000000000007 -6.0738255033557054e-07 1687.9238551903757
decision_type=2 2 2 2 2 2 2 2 2 2 2 2 2 2 2 2 2 2 2 2 2 2 2 2 2 2 2 2 2 2
left_child=2 20 -1 -4 6 -6 -5 -3 -8 10 -10 -7 13 14 15 -11 -17 -18 27 -15 21 25 -22 24 -24 -2 -23 28 -16 -9
right_child=1 7 3 4 5 11 8 29 9 12 -12 -13 -14 19 18 16 17 -19 -20 -21 22 26 23 -25 -26 -27 -28 -29 -30 -31
leaf_value=-0.054974863079509564 0.041061063074845486 0.03727272763138726 0.064055808187287469 0.1287117813527584 -0.077421526792081641 -0.026761997025460005 -0.036820590414106846 -0.11552042387425901 0.033237205186615819 -0.0939348800778389 0.15576831338306268 0.071998328635735173 -0.0033467573113739493 0.12723064825966443 -0.048525816116195462 0.10423445624432393 -0.074072305594260493 0.047771512884004365 -0.0086934336597788275 0.041376938320258086 0.021057392852509627 -0.030840056469784823 -0.033172904856895148 -0.039722072816365361 0.043931059249573287 -0.047655127108806657 0.037418271173481586 0.056411317283312529 0.059872415900230402 -0.039731809776079458
leaf_count=21 66 21 197 25 37 23 25 20 23 25 24 28 87 29 26 21 24 29 46 34 217 447 38 121 54 21 27 262 25 473
internal_value=0 -0.405475 0.705619 0.74391 0.610455 -0.332766 0.72819 -0.790694 0.660321 0.713631 1.91613 0.549187 0.620675 0.735497 0.614113 -0.111477 0.485557 -0.148061 0.814206 1.61794 -0.205674 -0.394508 0.0406879 -0.346917 0.241675 0.392936 -0.539038 0.959419 0.0922114 -0.856128
internal_count=2516 1505 1011 990 793 88 705 514 680 655 47 51 608 521 458 99 74 53 359 63 991 561 430 213 92 87 474 313 51 493
shrinkage=0.05


Tree=30
num_leaves=31
num_cat=0
split_feature=16 2 88 45 134 131 69 101 2 2 3 75 0 64 103 63 18 88 126 137 108 5 90 131 139 139 134 168 103 77
split_gain=735.842 98.2756 68.5896 104.938 78.3465 134.026 67.4066 92.2913 70.8763 61.5466 74.4116 58.0765 56.7269 52.9695 57.4235 51.9099 50.9441 55.0458 61.2252 62.3057 51.0851 50.5212 57.018 50.1868 49.0852 46.6842 46.1053 46.0759 52.7254 45.4116
threshold=1.6363916944863346 1.2292725943042548 0.7209066666666667 4.965533333333334 -0.16184401589952119 0.99248354842643061 0.37488873222341845 -5.6127662315341189e-07 1.2292725943057314 1.2292725943055258 0.51639777949292831 58.500000000000007 2.2127956630616752 -88.499999999999986 -3.1335422361490865e-05 -37.499999999999993 2.5510940386368843 0.69175000000000009 0.25163590751855541 -0.012564471001397921 24.202080567982698 4.7252372500000011 3.6585000000000005 0.98729387768156474 0.0077857838395201211 0.010842305723530812 -0.10813092718592197 0.54176099900022689 5.000333355557087e-06 44.500000000000007
decision_type=2 2 2 2 2 2 2 2 2 2 2 2 2 2 2 2 2 2 2 2 2 2 2 2 2 2 2 2 2 2
left_child=1 24 4 -4 5 -3 7 -6 -9 10 -8 -5 -11 -14 -15 -13 17 21 29 27 -18 22 -2 -16 26 -26 -1 28 -20 -19
right_child=16 2 3 11 6 -7 9 8 -10 12 -12 15 13 14 23 -17 20 18 19 -21 -22 -23 -24 -25 25 -27 -28 -29 -30 -31
leaf_value=0.087493190377950669 0.042485742988064887 0.021166182016687737 0.12916533643146977 -0.022048217162955554 -0.008888744829843441 -0.14830318152904512 0.010800173341496182 0.050387248789359421 0.17190226231302536 0.086474401103677587 -0.11370850968218985 -0.0022995050455774028 -0.041124568255834805 0.088994346659343984 0.09093348886817694 0.077382310914496585 0.024024445265531543 0.0036436290277735046 0.047824510059912097 -0.052474531197183573 -0.050172115969059489 0.0092709401877558179 -0.04407491091059712 0.010358555174032861 -0.034340238545475334 0.052614833792728001 0.041943911837041381 -0.026669262282558961 -0.021469897473666899 0.086314787113895786
leaf_count=100 20 28 32 40 30 20 28 28 21 27 21 31 43 26 20 60 25 46 66 91 322 60 390 573 29 33 125 108 47 26
internal_value=0 0.509284 0.364838 0.959879 0.252709 -0.988921 0.325657 1.20358 2.0493 0.231679 -0.851214 0.563317 0.308692 0.250744 0.325298 1.00476 -0.573429 -0.442145 -0.161268 -0.353085 -0.896531 -0.671627 -0.797049 0.261522 1.02667 0.238846 1.24376 -0.0663301 0.380059 0.669942
internal_count=2516 1315 1028 163 865 48 817 79 49 738 49 131 689 662 619 91 1201 854 384 312 347 470 410 593 287 62 225 221 113 72
shrinkage=0.05


Tree=31
num_leaves=31
num_cat=0
split_feature=16 2 165 134 88 45 142 111 164 1 146 142 142 65 98 87 96 103 63 4 115 161 107 134 104 70 75 115 19 167
split_gain=664.097 88.6938 64.4191 130.862 61.43 83.5488 53.1893 119.132 97.5739 48.4255 56.7583 54.6302 48.0003 57.3613 55.322 55.1747 76.8317 53.0014 47.7179 46.797 55.6122 72.831 45.9262 97.2391 42.772 77.469 42.6529 40.5327 60.699 39.0423
threshold=1.6363916944863346 1.2292725943042548 1016.3657756460699 -0.13517661108928439 0.7209066666666667 4.965533333333334 4.8245000000000013 5.2250000000000005 -4.4979835999543996 1.9031871195759493 4.858821609652705 5.738500000000001 5.0805000000000016 4.5974895743848618 3.0723045298347729 -1.0000000180025095e-35 4.4916300000000007 -3.3668911260750665e-05 -37.499999999999993 3.2572262799937781 19.172289817619035 1816.263309393511 4.319700000000001 -0.10174585908730133 8.6410888713016648e-07 75019.709817541283 60.500000000000007 23.245882144793967 -7.0049999999999946 -11003.156877208225
decision_type=2 2 2 2 2 2 2 2 2 2 2 2 2 2 2 2 2 2 2 2 2 2 2 2 2 2 2 2 2 2
left_child=1 22 3 -3 6 -6 -4 8 -8 24 19 -12 13 -9 15 -14 -17 -16 -7 20 -11 -22 23 -1 27 -26 -10 -2 -29 -20
right_child=9 2 4 -5 5 18 7 12 26 10 11 -13 14 -15 17 16 -18 -19 29 -21 21 -23 -24 -25 25 -27 -28 28 -30 -31
leaf_value=0.1424840700945684 -0.062280191557529646 -0.12221876839951923 -0.038206540988240806 0.039689944075563782 0.12375828739255668 -0.0071031557396054271 0.0062558087140873637 -0.079700988940894613 0.080043761906298735 0.041523396057125767 0.078471695631742486 -0.013692981392292806 -0.014761252930531136 0.0087932753911677836 0.083583132776877164 0.14875724281777034 0.039522639368660753 0.0059453117232057652 0.11372993442983854 -0.040390053939374511 -0.064391834147082758 0.0057899471941507529 0.037836499876612417 0.020880166152792593 0.076113565442593484 -0.029474859533365816 0.18093246787786485 -0.055595151018351323 0.063506038195413103 0.03416395565687582
leaf_count=35 39 24 45 26 30 50 27 30 22 38 20 82 26 47 23 22 60 497 21 760 68 81 221 31 38 32 20 20 23 58
internal_value=0 0.48382 0.346596 -0.760525 0.403198 0.972004 0.29277 0.354218 1.60827 -0.544757 -0.621194 0.0875705 0.231481 -0.5137 0.322849 0.974116 1.37659 0.187586 0.622431 -0.697533 -0.249387 -0.524786 0.975338 1.70734 -0.0172463 0.556891 2.56172 -0.507364 0.162203 1.10629
internal_count=2516 1315 1028 50 978 159 819 774 69 1201 1049 102 705 77 628 108 82 520 129 947 187 149 287 66 152 70 42 82 43 79
shrinkage=0.05


Tree=32
num_leaves=31
num_cat=0
split_feature=16 2 165 134 88 5 81 111 164 21 81 31 156 20 108 68 89 88 137 125 139 125 168 63 139 107 114 72 79 154
split_gain=599.348 80.0461 58.1382 118.103 55.4406 68.3529 48.0033 107.517 88.0605 53.8752 53.987 64.9969 48.4058 45.5694 71.6142 53.5822 50.9904 52.4733 46.9373 63.8226 58.578 50.0415 47.6804 44.9723 43.6131 45.8577 43.2079 42.9706 61.1995 56.7041
threshold=1.6363916944863346 1.2292725943042548 1016.3657756460699 -0.13517661108928439 0.7209066666666667 4.1851604000000009 4.8245000000000013 5.2250000000000005 -4.4979835999543996 -0.012107682882915052 5.0805000000000016 67.250000000000014 9.0000000000000142 2.8060522851375405 28.270430058683818 3.4050000000000007 3.0160000000000005 0.69175000000000009 1.0000000180025095e-35 0.96601629755474427 0.0069515734265766871 0.93399338301201928 1.2895494558792835 -37.499999999999993 0.0077857838395201211 4.6407000000000007 4.5000000000000009 1.5850000000000002 0.24035804842877281 30.000499999994648
decision_type=2 2 2 2 2 2 2 2 2 2 2 2 2 2 2 2 2 2 2 2 2 2 2 2 2 2 2 2 2 2
left_child=1 24 3 -3 6 -6 -4 8 -8 -9 11 -11 27 15 -15 -2 -17 -18 19 20 21 -19 -23 -7 -1 -26 -22 29 -29 -12
right_child=13 2 4 -5 5 23 7 9 -10 10 12 -13 -14 14 -16 16 17 18 -20 -21 26 22 -24 -25 25 -27 -28 28 -30 -31
leaf_value=0.056560104848273722 0.023923292498631007 -0.11610783215922614 -0.036296214152049894 0.037705446629283518 0.11415063545107842 -0.0067479975186288364 0.0059430167561879861 -0.032747660580207595 0.12168170186646639 0.0099213522998616108 -0.043379492769864476 -0.095564147959584789 0.073945374789241805 0.033633112907409668 -0.058345225726009746 -0.067160901400762113 -0.032339111546631709 -0.042928288314253729 -0.040563510023605302 -0.033701814289440163 0.10689920012194376 0.053474585074358261 -0.012461131766181568 0.053847320598573722 0.041088355225510902 -0.048784931647506635 0.020713740282438019 0.10671787177522979 0.014104716513644568 0.016274065576546832
leaf_count=225 61 24 45 26 30 50 27 64 42 40 44 23 39 24 179 65 480 47 85 91 26 52 58 79 40 22 33 30 44 421
internal_value=0 0.459629 0.329267 -0.722499 0.383038 0.923403 0.278132 0.336507 1.52785 0.219907 0.307257 -0.571785 0.403069 -0.517519 -0.949419 -0.429668 -0.488789 -0.425099 -0.153649 0.0284281 0.324374 0.00513417 0.37417 0.607215 0.926571 0.183957 1.17388 0.325226 1.03301 0.212589
internal_count=2516 1315 1028 50 978 159 819 774 69 705 641 63 578 1201 203 998 937 872 392 307 216 157 110 129 287 62 59 539 74 465
shrinkage=0.05


Tree=33
num_leaves=31
num_cat=0
split_feature=18 7 101 69 165 164 102 3 97 106 14 99 21 52 47 128 128 52 57 72 23 87 101 101 98 28 167 156 36 83
split_gain=543.475 83.0614 52.0923 59.4949 75.9248 53.377 64.1865 50.9236 49.6015 65.8016 62.573 54.9294 50.9714 48.0673 44.1313 53.0867 65.8087 49.6561 50.6108 49.4165 50.1985 74.6821 52.6917 48.3649 80.2147 46.8598 44.8075 53.5624 42.5078 59.2355
threshold=2.4824840931468688 2.5603876825386993 -1.6294314237335578e-06 0.3589753036094539 1053.3621895218093 12.902822335012265 -1.8679119412941967e-06 0.48304589153885386 4.228600000000001 4.6645000000000012 0.013414447873160392 9.4500000000000011 -0.024314805772756628 37.500000000000007 75169.513144016397 0.84192307603450656 0.83916884452945018 57.500000000000007 74916.481020529958 2.4250000000000003 0.068902659108442219 16.500000000000004 1.7686120525993192e-06 8.2211011058111148e-07 3.1710795238304166 8.1350000000000033 -6839.9519206894902 4.999999999999992 6.6115224740716185e-06 -54.499999999999993
decision_type=2 2 2 2 2 2 2 2 2 2 2 2 2 2 2 2 2 2 2 2 2 2 2 2 2 2 2 2 2 2
left_child=1 2 3 -1 7 6 -6 -5 9 -3 13 -12 -13 -10 15 16 17 19 -19 20 21 22 -4 26 -25 -17 27 -22 29 -14
right_child=-2 8 14 4 5 -7 -8 -9 10 -11 11 12 28 -15 -16 25 -18 18 -20 -21 23 -23 -24 24 -26 -27 -28 -29 -30 -31
leaf_value=0.088366864479723431 -0.026604098974253844 -0.00019047279492951931 -0.019039942133121004 -0.11706332482397558 -0.081077402234077459 0.069787830735246345 0.022571389509712238 -0.0042320448532700543 -0.068222509605928947 0.089947699192093652 -0.068017277352157096 -0.03828449297164168 0.038074322726072342 -0.0030359799422743456 0.095994253418243983 -0.037637535649805501 0.11705700617283583 0.028410578719698466 0.12108097718754673 0.08526883634428184 0.048899496030062439 0.11073452703880543 0.069099990619967383 -0.1132909705862403 0.010994012794784598 0.031112854736035363 0.066858414031173055 -0.066818222813308237 -0.028795418923809414 -0.00052221888512414495
leaf_count=21 1104 40 39 20 20 36 59 20 47 41 21 42 271 71 34 39 30 26 34 36 20 33 30 20 37 68 38 20 42 157
internal_value=0 0.404494 0.656136 0.187764 -0.0262428 0.386526 -0.0733762 -1.21295 0.170728 0.9087 0.078907 0.224782 0.289797 -0.580002 0.819695 0.740107 0.922573 0.794774 1.61848 0.613741 0.447923 0.977389 0.385635 0.0478821 -0.652295 0.121086 0.55955 -0.179187 0.384117 0.478325
internal_count=2516 1412 680 176 155 115 79 40 732 81 651 533 512 118 504 470 363 333 60 273 237 102 69 135 57 107 78 40 470 428
shrinkage=0.05


Tree=34
num_leaves=31
num_cat=0
split_feature=18 2 88 26 52 61 56 134 165 88 21 56 21 157 168 126 79 79 73 28 139 113 18 1 35 146 4 168 135 40
split_gain=490.486 77.9068 57.8539 72.4117 67.5071 69.1397 59.4745 64.2815 178.811 53.572 52.5818 50.9311 67.9926 78.6489 65.4954 61.1226 49.024 88.9694 44.7641 43.5865 43.1878 42.5571 52.8279 42.3677 41.992 40.3536 52.1104 48.4208 54.1969 55.5967
threshold=2.4824840931468688 1.2292725943042548 0.71761000000000008 6.5000000000000009 24.500000000000004 7.2547754138415153 2.7882673980450945 -0.16184401589952119 1219.3509739294007 0.71613666666666675 0.031177753399824679 3.5807647403937479 -0.013026196075446641 2187.4174840061473 5.3719611401752854 0.31452809764635326 0.22573273914294598 0.23228619692490829 67.500000000000014 10.065000000000003 0.0027111438129143743 11.225293850031539 2.41254088724205 1.8370898038433008 -88.34999999999998 4.8530859984476953 3.3286823852599299 24.758214345372654 -0.49000084928717103 3.8924917341704881
decision_type=2 2 2 2 2 2 2 2 2 2 2 2 2 2 2 2 2 2 2 2 2 2 2 2 2 2 2 2 2 2
left_child=1 24 6 10 -5 -6 -3 8 -8 11 -4 16 13 -13 -14 19 -9 -18 -17 -16 21 -19 -23 -2 -1 26 27 28 29 -25
right_child=23 2 3 4 5 -7 7 9 -10 -11 -12 12 14 -15 15 18 17 20 -20 -21 -22 22 -24 25 -26 -27 -28 -29 -30 -31
leaf_value=-0.023911671888675878 0.031418545301130509 0.073683049121984479 0.03396959014236927 0.080602963455021381 -0.080659314268268653 0.020265196438413114 -0.13971982291684701 0.024824202197037407 0.053962353278290145 -0.066681517854980804 0.1437421086554726 0.043603142093343199 0.017077891644216095 -0.054659577439139996 -0.03051260510135604 0.13433545949784192 -0.096354119311417311 -0.086802353314124059 0.051339011825621131 0.066828642542595448 0.020961672635200362 0.037739703322158147 -0.044079613241743532 0.054675702615641059 0.047976925676723702 0.0026299085642676801 -0.039553006380965476 0.056182330760004173 -0.034698473856631863 -0.016170230636166204
leaf_count=22 32 33 20 38 20 112 26 97 22 23 24 32 289 56 23 33 31 23 32 23 87 34 47 40 265 104 584 22 232 90
internal_value=0 0.38427 0.265629 0.733517 0.43758 0.0994721 0.155718 0.106183 -1.01898 0.171252 1.87691 0.214143 0.417257 -0.378554 0.592335 1.24526 -0.0965775 -0.355708 1.86951 0.36316 -0.100668 -0.535586 -0.194714 -0.505478 0.849326 -0.539324 -0.602919 -0.316788 -0.404328 0.11257
internal_count=2516 1412 1125 214 170 132 911 878 48 830 44 807 488 88 400 111 319 222 65 46 191 104 81 1104 287 1072 968 384 362 130
shrinkage=0.05


Tree=35
num_leaves=31
num_cat=0
split_feature=148 131 81 156 137 139 83 139 149 7 38 19 136 105 162 0 20 5 159 99 104 88 38 96 56 126 127 104 47 21
split_gain=482.428 60.5529 64.0039 87.5228 69.8798 66.9486 57.1122 57.026 61.7197 70.4685 69.1454 70.1136 66.2384 59.7746 57.0214 60.3184 54.6364 54.0259 53.5473 58.5762 51.1459 61.4768 50.6093 49.4314 48.7314 52.6359 60.9213 45.512 45.1332 44.4982
threshold=17.024077227148805 0.9885401634859069 5.6995000000000013 -1.999999999999996 -0.11951674936429195 0.012690452269492865 -49.499999999999993 -0.0060878876297923877 -8.1490557897424534 2.56108046193151 5.6808645453952495 -1.2049999999999952 0.081260310772111849 -8.3824848136430688e-06 11025.163103214947 2.2324851389854845 2.7038866473136101 4.2922490000000009 -14498.641558860347 10.905000000000294 3.9399405583555456e-06 0.71701000000000004 7.5003702149285187 4.8552300000000015 3.5261558008494016 0.33449618301403011 0.95488968057271617 -2.4487536372128238e-06 74977.152352143123 0.017992445542642621
decision_type=2 2 2 2 2 2 2 2 2 2 2 2 2 2 2 2 2 2 2 2 2 2 2 2 2 2 2 2 2 2
left_child=1 -1 3 -3 -5 7 -7 -6 -9 10 11 -10 14 -11 -13 -16 20 -12 19 -4 23 22 -22 -2 25 -14 -27 28 -15 -29
right_child=16 2 18 4 5 6 -8 8 9 13 17 12 24 27 15 -17 -18 -19 -20 -21 21 -23 -24 -25 -26 26 -28 29 -30 -31
leaf_value=-0.058359284694729889 -0.024343052864916045 0.1248643972951433 -0.11895398586988448 0.07332487937624324 -0.002741297142593269 0.012683243232850845 -0.08191699760931509 0.11437973984601824 -0.046675523851998156 -0.04975722583108827 0.16078706972301007 0.053396107330253087 0.072462140664677419 0.0048141601245151842 -0.022271833753006329 0.070085485685955393 -0.025905113386401824 0.052363640894354496 0.037297130019768428 0.0020586531981825829 -0.052348740011453634 0.10488837469369172 0.032120673013393018 0.046441977484417814 0.085874221890055114 -0.064865928639968248 0.044733397150412205 -0.035157966930815514 0.10391333449493956 0.02244185930452286
leaf_count=22 207 23 20 73 142 39 27 22 25 38 20 70 51 20 90 22 1063 27 23 20 25 20 61 28 94 21 32 47 27 117
internal_value=0 0.475358 0.50851 0.568527 0.524342 0.450468 -0.520337 0.524541 0.63833 0.58657 0.821896 0.688656 0.795378 0.159393 0.359906 -0.0826043 -0.406373 1.97003 -0.469864 -1.16895 -0.0580778 0.518568 0.151312 -0.318182 1.19566 0.72401 0.026145 0.367319 1.23487 0.118692
internal_count=2516 1112 1090 1027 1004 931 66 865 723 701 452 405 380 249 182 112 1404 47 63 40 341 106 86 235 198 104 53 211 47 164
shrinkage=0.05


Tree=36
num_leaves=31
num_cat=0
split_feature=148 81 14 165 2 22 82 52 140 166 128 89 166 22 126 136 139 102 10 56 130 0 61 130 62 162 126 7 13 28
split_gain=435.392 54.414 63.8647 95.404 100.758 96.4176 60.1897 58.4157 54.0401 80.3596 83.2178 70.6659 84.843 51.0445 48.3789 47.9292 47.2653 52.6589 54.2705 48.1991 47.0241 61.6098 50.1749 61.0784 46.3763 55.2067 43.2519 49.6065 43.6161 42.1827
threshold=17.024077227148805 5.6995000000000013 0.043933767403276709 1209.7968195871522 1.229272594305632 0.047816330303056813 3.5450000000000004 47.500000000000007 0.0038300498565839269 7015.5981280274691 0.8432103883391876 4.0005000000000015 5418.9860141158342 0.066752346185642145 0.29773456141026339 0.15656231441610932 -0.005956399447752325 -3.0687124749833194e-06 -1.0000000180025095e-35 4.3117967038000407 1.0194152179333011 2.339299731185287 9.9526427359184098 1.02257555674509 -48.499999999999993 14196.142559262671 0.2472885118312306 2.6230156711688304 4.9251750000000003 8.9350000000000005
decision_type=2 2 2 2 2 2 2 2 2 2 2 2 2 2 2 2 2 2 2 2 2 2 2 2 2 2 2 2 2 2
left_child=1 2 3 4 -1 -6 7 -4 9 10 -8 12 -10 20 -3 24 -5 -18 -19 -20 -2 22 -22 -24 -11 -26 27 -25 -28 -12
right_child=13 14 6 16 5 -7 8 -9 11 15 29 -13 -14 -15 -16 -17 17 18 19 -21 21 -23 23 26 25 -27 28 -29 -30 -31
leaf_value=0.025773018642671799 -0.035188913069989371 -0.073067124215541054 0.048801278943397308 -0.015498923351271796 -0.019472724990919232 -0.15763525800860448 0.078736662002055785 0.13206328445902238 -0.10878357368966807 -0.025581163478288035 -0.05168762440194509 0.054552038620488769 0.0034164976032953413 0.056259347633882011 0.014957670726486155 0.077257847112531849 0.078279993467032905 -0.0054096614792943009 0.021595195564113455 0.091978797014500652 -0.046386361211749189 -0.025852844032637282 0.078018894570845154 -0.0074648319876619755 -0.012124096113774512 0.064962781472907724 -0.012777507429432084 0.085838872965039892 0.060328040509061376 0.04977462124079466
leaf_count=38 391 27 111 65 28 23 141 26 23 73 21 39 63 22 37 26 50 100 71 37 53 551 27 28 45 48 281 29 22 20
internal_value=0 0.45159 0.506255 0.199544 -0.717185 -1.63563 0.704942 1.29206 0.543751 0.734002 1.2101 -0.0254805 -0.53181 -0.386054 -0.443556 0.282699 0.452141 0.644148 0.422645 0.914162 -0.410111 -0.294245 -0.0152235 0.109745 0.0849644 0.553254 0.000947185 0.800109 -0.14939 -0.0438769
internal_count=2516 1112 1048 412 89 51 636 137 499 374 182 125 86 1404 64 192 323 258 208 108 1382 991 440 387 166 93 360 57 303 41
shrinkage=0.05


Tree=37
num_leaves=31
num_cat=0
split_feature=151 138 14 165 2 141 82 104 117 141 29 136 1 168 72 1 73 71 21 21 53 88 137 88 127 136 126 156 4 100
split_gain=389.892 54.991 54.9953 88.0987 86.546 99.4632 64.8878 75.7938 70.7156 66.6254 58.2729 53.6333 75.6881 68.1948 67.5969 51.8836 50.1801 49.4117 44.9825 44.9873 44.8148 42.7239 41.6739 43.5378 49.9722 49.2452 44.6265 49.0912 46.0708 40.9649
