tree
version=v2
num_class=1
num_tree_per_iteration=1
label_index=0
max_feature_idx=142
objective=regression
feature_names=q01_roll_std_100 min_roll_std_100 q01_roll_std_10 min_roll_std_10 hmean gmean Hilbert_mean q01_roll_std_1000 min_roll_std_1000 max_roll_std_1000 mean_change_abs iqr iqr1 ave10 mean_change_rate_first_50000 sum q05_roll_std_10 q05_roll_mean_10 q05_roll_std_100 q01_roll_mean_10 q05_roll_std_1000 mean_change_rate_last_10000 mean_change_rate_last_50000 mean_change_rate_first_10000 q99 max_roll_std_100 q75Audio q25Audio abs_max_roll_mean_100 skew q01 abs_max_roll_mean_10 abs_std q95 q05 min_roll_mean_10 abs_trend q95_roll_mean_10 q95_roll_std_10 abs_q95 ave_roll_std_10 stdAudio ave_roll_mean_10 ave_roll_std_100 ave_roll_std_1000 abs_mean std_roll_std_10 av_change_rate_roll_std_10 q95_roll_std_100 std_roll_std_100 av_change_rate_roll_std_100 minAudio max_first_10000 maxAudio max_roll_mean_10 std_roll_mean_10 std_first_10000 av_change_rate_roll_mean_10 mean_change_rate std_roll_std_1000 av_change_rate_roll_std_1000 q95_roll_std_1000 min_first_50000 min_first_10000 min_last_10000 std_first_50000 q95_roll_mean_100 max_roll_mean_100 q05_roll_mean_100 std_roll_mean_100 av_change_rate_roll_mean_100 avg_last_10000 min_roll_mean_100 max_first_50000 ave_roll_mean_100 max_last_50000 std_last_50000 max_last_10000 max_roll_std_10 std_roll_mean_1000 av_change_rate_roll_mean_1000 max_roll_mean_1000 q01_roll_mean_100 min_last_50000 mad ave_roll_mean_1000 q95_roll_mean_1000 max_to_min_diff stdAudioIncrease min_roll_mean_1000 q05_roll_mean_1000 count_big abs_max_roll_std_1000 abs_max_roll_std_10 abs_max_roll_std_100 meanAudio avg_last_50000 avg_first_50000 std_last_10000 q99_roll_mean_10 av_change_abs_roll_mean_1000 av_change_abs_roll_std_1000 av_change_abs_roll_mean_100 av_change_abs_roll_mean_10 av_change_abs_roll_std_100 av_change_abs_roll_std_10 q99_roll_mean_1000 avg_first_10000 kurt q01_roll_mean_1000 abs_q99 q99_roll_mean_100 trend q99_roll_std_10 modeAudio q99_roll_std_1000 medianAudio max_to_min abs_q01 q99_roll_std_100 abs_q05 Hann_window_mean_50 Hann_window_mean_150 Hann_window_mean_1500 Hann_window_mean_15000 classic_sta_lta1_mean classic_sta_lta2_mean classic_sta_lta3_mean classic_sta_lta4_mean classic_sta_lta5_mean classic_sta_lta6_mean classic_sta_lta7_mean classic_sta_lta8_mean autocorr_1 autocorr_5 autocorr_10 autocorr_50 autocorr_100 autocorr_500 autocorr_1000 autocorr_5000 autocorr_10000 abs_max_roll_mean_1000
feature_infos=[2.1596857234890563:2.7247277688133651] [1.6353111093129162:2.285218200132721] [1.1737877907770979:1.5491933394333202] [0:0.69920589878719175] [2.808187044609483:4.9279681359544769] [3.6064336000000004:9.4654179999999997] [5.2416192431429085:50.671826806405754] [2.4676142567508617:3.1754412964868104] [2.348598713257751:2.8712650806154763] [4.8355721231057736:1499.5107317474015] [-0.00086000573337155582:0.00074000493336622247] [3:13] [9:89] [3.5898666666666665:5.3939500000000002] [-0.1123902064913862:0.15226135404146793] [207622:808799] [1.5055453054179335:2.0548046683733907] [-24.5:3.2000000000000002] [2.3001097909676078:3.0633710882548937] [-225.44999999999999:2.2000000000000002] [2.5301289596683496:3.5298695413545298] [-0.13450542413890712:0.17506373156509591] [-0.12138340097115838:0.14384169659808008] [-0.12061458111762373:0.17580883963915803] [11:337] [9.3362495444131728:2286.8340229419468] [6:11] [-2:3] [5.6399999999999997:496.20999999999998] [-4.0918262207255873:4.2194288243558846] [-336:-2] [14.300000000000001:4135.8999999999996] [2.6058269391594551:150.43236825417767] [9:50] [-39:0] [-3332.0999999999999:-3.7999999999999998] [-0.00048049042291024413:0.0006645023224953106] [5.9000000000000004:34.799999999999997] [3.8643671323170965:76.123072854786386] [9:93] [2.5770610949964445:26.10412483750418] [2.8029102999999997:153.67862] [3.6009814177517319:5.3923822164663209] [2.7458798005504281:39.153994265819065] [2.7738650369230067:42.577828501521637] [4.2168999999999999:32.762073333333333] [0.80504528916587281:109.41231004547069] [22760.625151912885:76007.607221321436] [3.3042824982562697:117.38549589478352] [0.51868129988620981:148.94719266801354] [22666.935073186229:75964.828312551603] [-4621:-15] [13:587] [23:5444] [14.300000000000001:4135.8999999999996] [1.1379450083588551:110.67245002955292] [2.619534912215455:49.020283007900076] [22757.964557269526:75991.57755571774] [-0.094633783545346128:0.14276451945282165] [0.34821426740922212:148.73028532188806] [22209.016092182377:75448.015440714022] [3.4065930012075651:122.7692608204763] [-3905:-7] [-512:-5] [-2592:-4] [2.7023615164435917:257.2780212666969] [4.2599999999999998:8.4700000000000006] [5.6399999999999997:496.20999999999998] [0.57999999999999996:4.6799999999999997] [0.33857309411200648:15.966909976346299] [22665.474270634804:75960.699736103081] [3.3631000000000002:5.5812999999999997] [-440.50999999999999:3.5600000000000001] [17:4281] [3.6009214749067717:5.3925197963989575] [18:5444] [2.7071704444745084:247.19259169875261] [13:2030] [12.908223046656051:3362.4702047420105] [0.17507304168817828:3.5770345912695567] [22209.174352479571:75448.557242090814] [4.258:73.841999999999999] [-26.629999999999999:4.3099999999999996] [-4392:-8] [2.1993207651559508:31.724965651468612] [3.5995481842403736:5.3925303387225583] [3.9730000000000003:6.6670000000000007] [-1369:1740] [0.42807827616534738:0.78298666666666672] [-48.777999999999999:4.6020000000000003] [2.206:4.9689999999999994] [0:2082] [4.8355721231057736:1499.5107317474015] [12.908223046656051:3362.4702047420105] [9.3362495444131728:2286.8340229419468] [3.6012266000000004:5.3919934999999999] [3.4218999999999999:5.4859599999999995] [3.6521599999999999:5.5157999999999996] [2.6213149065276227:277.80284855245156] [7:251.11000000000058] [-2.0114093959731574e-05:1.5785234899328862e-05] [-0.00034561151083391402:0.00054616711306101321] [-5.5370246831220726e-05:3.4823215476984652e-05] [-0.00074738315887725858:0.00027135142342822859] [-0.00045353238754379082:0.00063078538269458753] [-0.000526060371849054:0.00055023140163027687] [4.1269999999999998:12.222000000000001] [3.5886:5.5401999999999996] [0.64860172765145352:631.15892683450727] [-4.4809999999999999:4.8780000000000001] [11:674.0100000000092] [4.5199999999999996:34.219999999999999] [-5.9022405104845568e-06:9.5287343273578634e-06] [5.081557066709153:567.73378416663945] [4:6] [4.4308002653009293:981.88165275608367] [4:5] [0.52605044999999995:2.4761906000000002] none [5.0976227376844454:968.04971129346211] [0:1] [3.6009082919357933:5.3919520818605724] [3.6005126222615487:5.3914864318308737] [3.5955137613879566:5.3843482565412053] [3.547121287769329:5.3107105679209869] [0.79537139351946329:1.1229264331263005] [0:1.3614629039057966] [0.85078181227039007:0.97955739052546076] [0.46177994256079569:0.97645873226967161] [0:1.0813394125717235] [0.89192471016597963:1.1492392326629788] [0:0.99733447848836521] [0.78573122964120579:0.99818155493660121] [0.4110141992768549:0.97068665069093996] [-0.24123998597588259:0.48291697350869228] [-0.65425857193019576:-0.078152212712938277] [-0.078080552262811687:0.55470845964870197] [-0.44404260707617865:0.45475068418122472] [-0.13143743274742986:0.13829295169436345] [-0.081867765385133046:0.072693322193793694] [-0.036742308581583685:0.063626192355735398] [-0.039262153376697688:0.060117222569058472] [4.258:73.841999999999999]
tree_sizes=4830 4956 5003 4958 4965 4968 4990 4996 5030 4969 5018 5030 4972 5041 5034 4997 5015 5020 5013 5040

Tree=0
num_leaves=64
num_cat=0
split_feature=18 20 20 81 106 18 5 18 18 48 134 138 50 62 127 134 101 98 28 29 75 5 107 18 87 81 58 138 8 18 29 90 71 3 135 117 2 88 103 71 3 76 76 22 138 78 136 46 112 7 137 87 8 6 109 88 2 20 29 112 117 102 56
split_gain=10607.1 1154.11 738.26 226.485 167.477 190.975 136.003 134.861 118.908 113.026 112.028 104.435 123.046 98.1207 104.661 94.4755 82.2824 81.2561 79.3022 78.949 74.6575 92.0398 73.2974 71.3155 64.9054 67.7191 87.7081 95.9309 62.3287 62.1533 61.9225 62.4206 74.8056 68.8788 64.886 61.2781 60.6058 63.6552 56.4108 56.2517 56.1034 50.1546 65.5836 54.39 49.8749 55.1838 49.7489 48.165 47.2327 47.1641 43.6311 42.5836 41.5161 38.7722 36.7981 45.0699 41.2256 35.0857 33.4384 44.683 31.2261 28.2489 28.0746
threshold=2.4661547380323827 2.6186620418977635 2.7487827843709196 5.0355000000000008 4.8425000000000002 2.3376583293215432 4.408022250000001 2.4818024565649046 2.4407628344908905 6.1637052648770663 -0.15439785738320708 0.0017609608242795118 75028.630305493585 -59.499999999999993 0.95486739471791238 -0.096931051849850444 3.4259114061722359e-06 3.7792746833098705 9.7850000000000019 -0.0092246313680441078 52.500000000000007 4.2346611000000012 4.7565500000000007 2.3897402756059658 1.0000000180025095e-35 5.1335000000000006 0.081620257680785527 -0.0051313196116970069 2.4754060545488152 2.3599991439818098 -0.28134646814325642 3.8855000000000004 4.6838000000000006 0.48304589154394556 -0.45864465558971218 1.0771939500000003 1.2516655570356006 0.68878666666666677 -1.2000800053336886e-05 4.4723500000000014 0.51639777949438781 5.0281281069022059 5.7030270610721923 0.017337290465959814 -0.0033469242847771244 83.814079187327351 0.09982237539256289 2.8765281596679171 -7.8509007025711409e-07 2.6222917280389777 -0.046154404482904914 12.500000000000002 2.5696421059131342 7.0493824476380311 4.1555000000000009 0.70337333333333352 1.2516655570346666 2.7694304911068328 0.036780904244429286 6.2542793691668721e-07 1.3421190000000003 -3.8692461641094048e-06 9.9605239545509914
decision_type=2 2 2 2 2 2 2 2 2 2 2 2 2 2 2 2 2 2 2 2 2 2 2 2 2 2 2 2 2 2 2 2 2 2 2 2 2 2 2 2 2 2 2 2 2 2 2 2 2 2 2 2 2 2 2 2 2 2 2 2 2 2 2
left_child=1 4 3 18 13 19 15 44 9 -3 -7 23 22 -1 -15 -4 20 36 -2 -6 -10 -22 29 24 -12 -26 27 -27 -19 -13 -9 -32 33 34 -33 -18 37 -11 50 -23 -39 -34 -43 -44 -5 -46 -31 -41 -20 -35 52 -16 -8 -49 55 56 -30 -17 -21 60 -60 -51 -40
right_child=2 8 6 7 5 10 38 30 16 17 11 12 -14 14 51 57 35 28 48 58 21 39 -24 -25 25 26 -28 -29 54 46 31 32 41 49 -36 -37 -38 40 62 47 -42 42 43 -45 45 -47 -48 53 -50 61 -52 -53 -54 -55 -56 -57 -58 -59 59 -61 -62 -63 -64
leaf_value=6.0119956751270287 5.7971056231308751 5.6981743192069789 5.5464327153922923 5.6334566138999635 5.8343864942993013 5.7623610998629262 5.6557632304374792 5.5396103118222761 5.6822091514452335 5.9269690776501633 5.9662537451791726 5.8894774124243812 5.7184068966271289 5.8097147951031394 5.8960781224644281 5.70857543932651 5.6241319092042277 5.7033906574104352 5.6255623206855665 5.9873167031170738 5.8642449616708685 5.7010078598505745 5.920799971984442 5.8142635852983817 5.7952533167960061 5.8812489596955073 5.8390169381958055 6.0257267934443366 5.7913793072321962 5.7332749502177656 5.6833664735579799 5.6683966975979345 5.5723517061206937 5.6220304103619885 5.5690868759925767 5.729803151506716 5.7731085241945399 5.7910699628466675 5.5243829028861189 5.7245867009522327 5.8929031221147472 5.7244168150555135 5.5794059068570112 5.6798352814309379 5.6540678226344845 5.7491938284140556 5.8351688765646825 5.8561347708076745 5.7269402402557299 5.5875499940819804 5.5460846476380992 5.9967705249294312 5.5671027298709195 5.7609460461499102 5.7325490509333026 5.7538436445823686 5.8904531265516038 5.6170728184642211 5.8472108868123902 5.973840153451941 5.9335340458514105 5.5199614137655919 5.5620457112870714
leaf_count=29 23 30 28 46 23 39 23 30 27 22 26 21 25 21 21 22 23 26 20 25 23 34 23 34 20 27 36 20 21 23 30 38 21 23 29 34 32 38 262 25 21 26 28 26 30 31 25 23 27 22 76 21 31 20 20 23 21 20 22 24 20 52 61
internal_value=0 2.31043 -2.28133 -1.41508 3.32541 3.06506 -3.1128 -1.68546 1.15954 1.61923 2.66805 2.88922 2.16837 4.55072 3.85005 -1.81555 0.600862 1.86336 0.253549 4.17599 0.985096 1.31081 2.70295 3.40664 3.74622 3.38984 3.78787 4.68754 1.25567 2.18762 -2.00606 -1.86686 -2.02163 -2.43858 -1.6588 -0.423763 2.46029 2.9206 -3.31325 0.903343 2.37927 -1.3446 -0.983561 -1.61182 -0.711705 -0.11883 1.55985 1.42846 -0.491027 -2.97719 -2.75701 4.76145 -2.06973 2.07018 1.6701 2.03508 2.65128 -0.866985 4.59437 4.22129 3.5993 -3.36593 -3.53713
internal_count=2013 988 1025 502 525 433 523 432 463 254 319 280 117 92 63 70 209 224 70 114 152 125 92 163 129 103 83 47 111 69 325 295 265 164 67 57 113 81 453 102 59 101 80 54 107 61 48 68 47 97 130 42 54 43 85 65 42 42 91 66 42 74 323
shrinkage=1


Tree=1
num_leaves=64
num_cat=0
split_feature=18 20 20 81 40 130 45 134 4 18 18 56 48 88 81 14 23 140 60 97 21 115 98 136 62 0 125 2 139 8 56 90 71 87 9 103 140 139 79 49 20 139 138 78 7 83 125 4 89 35 125 38 21 98 109 61 128 73 0 3 8 55 128
split_gain=9572.88 1041.59 666.279 204.403 151.36 144.311 172.54 170.801 136.657 121.712 107.314 105.551 102.006 99.8287 99.0437 90.7392 80.0635 79.7855 96.1438 78.9908 81.1677 75.0545 73.3336 62.0349 66.5996 60.9154 59.4266 90.6541 88.9297 56.2516 56.0541 56.0065 76.7741 55.09 53.9644 57.875 52.3034 55.6475 62.0633 51.4766 49.4182 48.4805 45.0121 49.8034 44.7772 51.3713 44.0331 41.7314 41.1478 60.7733 35.6571 35.3402 49.6341 49.4637 33.2103 42.773 28.2477 27.4629 25.8457 25.6892 29.4902 25.4693 24.9798
threshold=2.4661547380323827 2.6186620418977635 2.7487827843709196 5.0355000000000008 2.8664924527463733 0.98830982418668523 4.9358800000000009 -0.14029982341777458 3.2545311723958892 2.4818024565649046 2.4407628344908905 3.86893976377926 6.1637052648770663 0.70312333333333343 5.1595000000000004 0.069406091487741309 0.033020364243373714 0.0051322414858527635 74575.116005040487 4.182900000000001 -0.0089655764838889301 18.873281278257046 3.7792746833098705 0.1356889771831512 -69.499999999999986 2.3672001106030023 0.94487802404533228 1.2516655570347208 0.00051159594187820824 2.4754060545488152 4.1949477976548541 3.9515000000000007 4.9458000000000011 7.5000000000000009 33.034482374430702 -2.1334755650376659e-05 -0.00074627113576202994 0.00011304879745389488 0.25651402964719139 3.3191436403541132 2.5899315130813281 0.00051159594187820824 -0.0033469242847771244 83.814079187327351 2.6401715776952543 -111.49999999999999 0.94199131562378324 3.4520864193658585 3.9295000000000004 -52.149999999999999 0.95399998868377867 8.0291135719716209 0.010713507371718658 4.0432872343652342 4.1555000000000009 8.6408483206553566 0.83427036727151838 77.500000000000014 2.3284689554833773 0.63245553203545957 2.5498621130571029 2.6199319826075356 0.81945786560221989
decision_type=2 2 2 2 2 2 2 2 2 2 2 2 2 2 2 2 2 2 2 2 2 2 2 2 2 2 2 2 2 2 2 2 2 2 2 2 2 2 2 2 2 2 2 2 2 2 2 2 2 2 2 2 2 2 2 2 2 2 2 2 2 2 2
left_child=1 4 3 21 11 7 16 -6 41 42 12 17 -3 14 -9 46 -7 18 36 -12 57 -2 26 24 -22 34 28 -28 -14 -24 44 33 51 -32 -10 -36 -1 -38 -39 -25 -18 -4 -5 -44 45 -11 -8 -41 49 -17 -37 -33 58 -54 55 -31 -23 -21 -53 60 -27 -48 -62
right_child=2 10 8 9 5 6 15 13 25 30 19 -13 22 -15 -16 48 40 -19 -20 20 23 56 29 39 -26 59 27 -29 -30 54 31 32 -34 -35 35 50 37 38 -40 47 -42 -43 43 -45 -46 -47 61 -49 -50 -51 -52 52 53 -55 -56 -57 -58 -59 -60 -61 62 -63 -64
leaf_value=0.17117078688583875 0.093904989883303647 -0.0096688215062022218 -0.025393217146396637 -0.071150643763172886 -0.041990041285753253 0.30415319014679304 0.14572435023263097 0.005248440895229578 -0.16790580589198667 -0.150258597612381 0.1138834120084842 0.28625011037175474 0.021741192713379862 0.19995801570238891 0.13499083290562819 0.13956230075463005 0.2464920928080877 0.10826351421348977 0.12152637558824875 -0.077484470730026567 -0.055895583562809853 -0.061419739169271098 -0.004713298838872176 0.00080604269391014471 0.045919524886024493 -0.13587786081162365 0.20852057489100845 0.078381999776415204 0.14564019628534361 0.14478425024836153 -0.089285267740488061 -0.14857654208556201 -0.018762156007618741 0.025372789012776183 -0.053651056651558199 -0.093781622126698494 0.17674250602722169 0.32628092490709748 0.21071228924251739 0.12950817218516023 0.14422346680183654 -0.1141517492919229 -0.051569994327922669 0.038799711208670373 -0.16327552232477402 -0.054600320203462616 0.016537043669571479 0.040051694612272759 0.12622213802085475 0.25580278577875687 -0.15714330803602936 -0.079899302158843388 -0.10705397999286653 -0.0085527704742092356 0.022987173423171043 0.062477056907587925 0.013985315768944998 0.00081060170417740236 -0.14737051494419576 -0.12035344369709491 -0.21136826263631092 0.09351946874098345 -0.17354953701867434
leaf_count=38 20 30 25 46 20 22 20 24 89 25 24 26 30 27 38 23 21 33 34 24 29 23 26 21 36 33 32 23 28 27 20 39 29 22 28 34 21 26 21 32 27 40 30 31 45 32 21 22 39 22 64 22 25 26 20 38 27 21 40 20 68 22 122
internal_value=0 2.19491 -2.16726 -1.34433 3.15914 2.73962 3.21117 1.80086 -2.95716 -1.60119 1.10156 3.84638 1.53827 2.39427 1.69536 2.59584 4.50335 3.56404 3.89375 0.570819 0.349389 0.240871 1.77019 0.724922 0.00988645 -3.14973 2.33728 3.08198 1.63109 1.19288 -1.90575 -1.62488 -1.86629 -0.584526 -2.76201 -2.34095 4.36308 4.88819 5.49288 1.34462 3.77932 -1.60028 -0.676119 -0.112888 -2.51982 -1.93111 1.68863 1.86126 3.27625 3.92782 -2.70321 -2.15076 -1.86749 -1.13675 1.5866 1.93332 -0.41402 -0.818935 -2.46858 -3.49277 -3.59014 1.11847 -3.74169
internal_count=2013 988 1025 502 525 326 217 109 523 432 463 199 254 89 62 147 70 173 140 209 185 70 224 140 65 458 113 55 58 111 325 223 181 42 215 126 106 68 47 75 48 65 107 61 102 57 63 54 84 45 98 152 113 51 85 65 50 45 62 243 223 43 190
shrinkage=0.05


Tree=2
num_leaves=64
num_cat=0
split_feature=16 20 16 18 106 58 4 77 134 2 0 3 141 0 25 36 141 25 69 128 36 8 101 140 76 127 101 36 1 111 63 105 86 71 131 97 108 61 29 96 135 117 139 71 128 16 106 103 3 111 105 82 103 23 104 141 40 139 18 20 72 131 58
split_gain=8737.21 771.799 734.839 179.614 165.225 161.903 157.09 129.182 109.105 93.6298 84.2803 84.2506 84.0308 83.0497 76.41 75.6778 72.3736 70.2584 63.0327 62.1946 65.2522 62.4523 85.0385 72.3983 74.6946 59.9136 59.1654 58.9681 57.043 53.8844 52.1048 51.4263 54.5246 53.726 50.3497 49.8947 48.938 50.7242 48.7217 48.17 48.0064 69.5201 42.0618 40.529 40.4752 39.9497 38.791 38.4991 51.0222 37.8903 35.8924 34.1814 47.4268 40.0823 33.2762 30.9599 43.0311 29.8185 28.3881 28.3577 25.6454 25.1113 24.8048
threshold=1.6363916944842136 2.6138209662297629 1.6865480854209851 2.4818024565649046 4.8480000000000008 0.061452193462190295 3.2185947591602884 34.500000000000007 -0.14265248982833645 1.2516655570356006 2.3672001106030023 0.52704627669474047 -0.0015232862255468115 2.2228382984391444 54.400474382099652 2.9287496712412417e-07 -0.0018246775318924771 50.433119238658797 0.43061508921903091 0.82603941631841049 -2.8839377414614987e-06 2.4814359790801626 8.6872236994557282e-07 0.0036725400200815347 5.1304048964458415 0.95446437776259019 -6.449619048319142e-07 -3.876727927283401e-06 1.9080901657954319 5.4450000000000012 -23.499999999999996 2.8068429293087281e-05 4.7525000000000004 4.900850000000001 0.99399666581335244 4.3362000000000007 15.987884874340383 6.9000367037821411 0.0084188908303112469 4.7384100000000009 -0.47108771512778908 1.1766874000000003 -0.0034649925774448789 4.5286000000000008 0.83117132053909304 1.5951314818571454 4.7280000000000006 6.6671111407425729e-06 0.48304589153963834 5.6650000000000009 -2.7635489742034953e-06 3.5750000000000006 -4.000266684445759e-06 0.0017388901724027038 -6.2942599305652549e-06 -0.0047074094640494257 4.3191018791552729 0.0039316616970237845 2.5459613492580528 2.6880206381631724 0.39500000000000007 0.98607933488551303 0.01642196681276677
decision_type=2 2 2 2 2 2 2 2 2 2 2 2 2 2 2 2 2 2 2 2 2 2 2 2 2 2 2 2 2 2 2 2 2 2 2 2 2 2 2 2 2 2 2 2 2 2 2 2 2 2 2 2 2 2 2 2 2 2 2 2 2 2 2
left_child=1 4 3 35 12 14 42 9 17 27 51 15 -1 -14 25 29 -11 -7 -8 20 -9 22 -21 24 60 -6 -17 -3 45 34 31 32 -20 54 -10 -2 -31 -38 -18 44 59 -42 -5 -32 -30 -29 -12 48 -28 -26 -44 52 53 58 -34 56 -48 -45 -4 -37 -23 -54 -56
right_child=2 7 10 6 5 8 18 19 11 16 46 -13 13 -15 -16 26 38 -19 30 21 -22 23 -24 -25 49 -27 47 28 39 36 43 -33 33 -35 -36 40 37 -39 -40 -41 41 -43 50 57 -46 -47 55 -49 -50 -51 -52 -53 61 -55 62 -57 -58 -59 -60 -61 -62 -63 -64
leaf_value=0.14638476800173522 0.034132339815432962 0.042237678860935074 -0.095370291182327843 0.051719683834484644 -0.015230360424712951 0.016248825211077927 -0.15334905111475994 0.059353254139423377 0.29161648356488773 0.10658997237268422 -0.094088564966805288 0.10112245652155999 0.3055049290880561 0.18387754282355309 0.16089474245905877 0.092460680333897483 -0.029748375630327339 0.13644992992762597 -0.019005802081477258 0.063208372163353496 -0.055101443705798107 0.088918315246701241 -0.076390999369323254 0.0081789981792954845 0.19206595301628115 0.088079957247504767 0.24295901081391744 0.039126271490628528 0.14528653076575959 0.24844944089651111 -0.14932773528827561 0.0063461881875991819 -0.060303888771811434 -0.017311499603092671 0.18774530522525312 -0.029063920805347157 0.11984387214694706 0.21542969676463503 0.059730835656228012 0.091455204327675441 -0.081966700715323304 0.0029753214225937161 -0.080952799958842137 -0.12027251519586729 0.23357355257584933 0.13480878919363024 -0.17687889933586121 0.11719378601937068 0.14245310571530592 0.095904400518962318 0.01263919094344601 -0.08073666576634754 -0.11879933260773357 -0.050944244001920408 -0.14083113354026228 -0.17562203573197435 -0.085005534432828433 -0.036795273721218109 -0.15682861860841513 0.053198880363594409 0.010688326778736983 -0.16891955985394244 -0.081095001511275772
leaf_count=28 37 24 42 21 23 20 38 20 28 36 20 39 32 25 20 32 29 31 31 24 33 20 20 34 20 36 28 24 34 20 45 20 29 20 20 20 35 23 32 22 63 39 21 23 21 20 26 21 23 21 20 44 38 26 57 194 25 20 34 22 22 73 25
internal_value=0 2.20092 -1.97493 -1.16945 3.08044 2.81077 -1.56878 1.26739 3.12727 1.7679 -2.82516 3.38152 4.34632 5.04319 1.52873 3.61197 1.00741 1.78624 -1.86112 0.701384 -0.23822 1.01069 -0.00491775 1.39263 1.8961 0.956129 2.98059 2.27665 2.56066 4.13311 -1.69141 -1.38594 -1.57271 -1.85493 4.96674 -0.353135 3.6201 3.15497 0.343831 3.07969 -0.619273 -0.989777 -0.116488 -2.32316 3.57992 1.65237 -3.22086 3.48343 3.95266 2.85625 -0.705963 -2.41714 -2.58289 -2.09064 -2.12677 -3.33018 -2.63686 -1.62892 -2.4573 0.280522 0.958814 -3.03523 -2.45238
internal_count=2013 940 1073 551 484 399 370 456 320 242 522 269 85 57 79 230 97 51 308 214 53 161 44 117 83 59 104 145 121 126 270 182 162 131 48 181 78 58 61 77 144 102 62 88 55 44 265 72 51 41 41 257 213 102 111 245 51 43 76 42 42 111 82
shrinkage=0.05


Tree=3
num_leaves=64
num_cat=0
split_feature=16 18 16 18 106 18 4 86 83 98 50 141 71 15 5 98 97 86 0 65 69 7 29 71 29 0 107 119 29 141 89 103 16 16 130 130 79 137 132 66 66 72 130 41 97 141 87 139 21 126 73 125 105 18 65 62 131 132 129 98 16 69 131
split_gain=7885.33 694.462 663.193 162.101 153.32 152.518 141.774 107.951 128.053 92.4101 92.9353 86.2545 97.9114 79.8505 167.541 106.088 86.0725 86.0298 76.063 75.0573 69.4321 98.2545 68.9477 68.5847 60.1754 60.1585 58.8338 57.9862 53.5458 61.831 49.0336 61.1404 48.0313 65.0661 46.7063 46.529 44.5732 44.0539 43.5302 43.4105 42.4297 39.7954 50.4879 43.7552 38.959 38.5778 38.4091 37.9608 37.1402 35.6975 35.1523 32.448 32.3929 31.2566 34.3111 31.0922 30.0898 28.9642 28.6296 28.0673 25.9432 24.6148 24.5013
threshold=1.6363916944842136 2.3897402756059658 1.6865480854209851 2.4818024565649046 4.8530000000000006 2.3376583293215432 3.2185947591602884 4.8255000000000008 -45.499999999999993 3.7546053919027718 74917.74149446284 -4.5906805500985585e-05 4.2043500000000007 682127.50000000012 4.3258891000000004 2.9691771015105379 4.4449200000000006 5.3060000000000009 2.3672001106030023 4.0765482691002095 0.38851696467497782 2.573968689502284 -0.0092246313680441078 4.4303500000000016 -0.10173177452357335 2.2228382984391444 4.405050000000001 21.461805294128492 0.26000957790401519 -0.0035578132346662824 4.0275000000000007 -1.9334622308153974e-05 1.6363916944844703 1.6465452046968432 0.99894019737659556 1.031453081991615 0.22856661535937217 -0.056334731952110105 0.92973217393866547 5.6050000000000013 4.9150000000000009 -3.1149999999999998 1.0359666446020872 6.3701355000000008 4.243310000000001 0.0033088771365208289 7.5000000000000009 -0.0034649925774448789 0.050325082281302898 0.3669548857566145 77.500000000000014 0.92882730495820953 -2.7635489742034953e-06 2.4931218500291101 5.1987635360782383 -43.499999999999993 0.98748046220676788 0.93495681692373533 1.0615599297419316 4.8119119208173631 1.7511900715417001 0.38162562172439635 0.98644810595686527
decision_type=2 2 2 2 2 2 2 2 2 2 2 2 2 2 2 2 2 2 2 2 2 2 2 2 2 2 2 2 2 2 2 2 2 2 2 2 2 2 2 2 2 2 2 2 2 2 2 2 2 2 2 2 2 2 2 2 2 2 2 2 2 2 2
left_child=1 4 3 32 11 22 47 8 -7 20 38 12 -1 16 15 -15 -9 37 39 46 -3 24 -6 -18 -22 -13 -21 53 29 -23 31 -29 -2 45 -31 -35 -28 -16 -11 44 -20 56 -43 -44 -4 49 -12 -5 -26 -34 -40 -46 -49 -8 -55 -24 -33 -39 60 -38 -42 -57 -53
right_child=2 9 18 6 5 7 27 13 -10 10 19 25 -14 14 17 -17 23 -19 40 26 21 28 55 -25 48 -27 36 30 -30 34 -32 41 33 35 -36 -37 59 57 50 -41 58 42 43 -45 51 -47 -48 52 -50 -51 -52 62 -54 54 -56 61 -58 -59 -60 -61 -62 -63 -64
leaf_value=0.074487469941377643 -0.076982625041689193 0.020728732997344602 -0.069048938155174253 0.049133700416201638 0.10492899634915849 -0.023998913248734818 -0.076265494752189397 0.093404864244486976 0.14165107833221555 0.042039002508852931 0.061783755783523832 0.30655095791816711 0.22291276912391186 0.12652831479907037 0.11621597618968399 -0.019409683775721175 0.14810073622079059 0.052566540539264683 -0.086498293145136407 0.089833546419804164 0.058585234088379713 0.10882112747513811 0.24803993736322108 0.2703216296931108 0.21074162107847988 0.19020806131884457 0.06336765214979935 -0.025819026120007041 0.13122582199839167 -0.049501039125025272 -0.011011906426686507 -0.08750817186598267 0.073840299973057383 -0.090009642440465193 0.048503728138823671 0.0050678049976175489 0.023757542893290521 0.1628956086212589 -0.082718031927943234 -0.049268137631209005 -0.1588365440160199 -0.11341947731448383 0.015991708917898081 -0.082835337271293011 -0.079253705130291313 -0.025286015747662857 0.15057358392112857 -0.076905159084569852 0.13173500310775696 -9.437594562768937e-06 0.0017823354923166335 -0.11431161725627526 0.012007230781018735 -0.10635827471102988 -0.18463329289640701 0.2096889166413127 -0.14932181311978235 0.2369503809058148 -0.11494111684150994 -0.057231404130225594 -0.2105160171964339 0.14690107379660564 -0.1525007680413269
leaf_count=20 28 36 31 21 23 28 23 23 20 34 21 25 25 20 27 33 22 20 22 37 21 23 26 24 21 20 26 37 21 20 26 35 36 31 31 22 20 31 20 23 183 41 21 24 28 34 29 21 51 30 32 70 20 28 28 37 45 23 32 23 28 27 105
internal_value=0 2.09087 -1.87618 -1.11097 2.94312 2.66778 -1.49034 2.26082 0.900438 1.224 0.795564 4.11789 3.13892 2.55364 2.1531 0.713225 3.44761 2.90867 -2.6839 1.25568 1.68686 1.93049 3.64376 4.23736 2.66115 5.09686 0.779288 -1.76806 1.2152 0.815265 -1.51321 -1.67882 -0.335478 -0.115106 0.20141 -1.01087 0.233736 3.36727 -0.0390697 -2.29628 -3.05982 -1.93791 -1.46568 -0.734321 -2.42513 0.359649 2.26564 -0.110663 3.09557 0.805445 -0.614356 -2.58458 -0.670665 -2.5068 -2.90992 4.03863 -2.44557 3.88875 -3.18022 -0.391243 -3.31389 3.66401 -2.7445
internal_count=2013 940 1073 551 474 384 370 271 48 466 242 90 45 223 154 53 69 101 522 156 224 188 113 46 93 45 106 308 95 74 229 203 181 153 51 53 69 81 86 257 265 166 86 45 234 100 50 62 72 66 52 203 41 79 56 90 80 54 243 43 211 64 175
shrinkage=0.05


Tree=4
num_leaves=64
num_cat=0
split_feature=18 20 20 81 18 86 71 139 4 18 138 112 3 115 18 48 138 58 15 5 138 139 117 101 75 5 2 140 117 141 98 3 140 29 36 132 47 107 103 71 135 0 129 29 139 128 25 21 19 8 9 24 112 61 21 134 71 8 8 56 45 45 60
split_gain=7059.69 751.022 511.451 157.873 117.998 137.945 117.784 172.27 106.77 97.7645 92.3167 117.746 102.59 79.8727 75.9638 88.1519 69.8797 67.2899 84.6123 103.837 65.597 65.8626 65.9879 62.9536 66.1137 64.9607 59.2274 56.3719 53.8154 53.319 50.4681 50.1746 47.9373 55.0425 56.9578 60.2215 123.099 44.935 43.5408 42.561 43.5367 42.1224 45.7959 41.9703 41.1607 40.0027 39.1552 44.95 37.6116 37.61 33.2604 37.3183 46.2012 41.7848 29.4741 27.7322 26.8513 26.0785 25.5351 25.4751 24.7045 45.8437 24.5734
threshold=2.4651817759571952 2.6186620418977635 2.7487827843709196 5.0355000000000008 2.3376583293215432 4.7295000000000007 4.0724500000000008 0.00082105830569345823 3.2545311723958892 2.4782691907490686 0.01438667645046144 4.3349668446372038e-08 0.52704627669474047 18.781782536954832 2.4407628344908905 6.1637052648770663 -0.0033469242847771244 0.061452193462190295 682127.50000000012 4.3258891000000004 -0.017590480439086557 0.00051159594187820824 1.0552503500000003 3.4259114061722359e-06 52.500000000000007 4.2346611000000012 1.1972189997383516 -0.0014751415633823789 1.0771939500000003 -0.00040651760372750761 3.1780429096494354 0.4830458915422971 -6.7437142242057066e-05 0.31592291361754715 5.7143279593650881e-06 0.93824867441490445 75028.12304667235 4.897800000000001 2.2001466764451016e-05 4.4723500000000014 -0.42166087429293558 2.3672001106030023 1.0515461178586731 -0.036892823139816643 0.00051159594187820824 0.83567319984965904 41.288875432759745 0.088798743564183311 -2.4049999999999949 2.4132470369195187 33.034482374430702 25.00500000000466 -6.9665525425318623e-07 13.055020691721049 0.0076367849088851986 -0.092200454837700327 4.6976500000000003 2.5366979194891637 2.4361046993122093 3.3162235060757626 5.7476633333333345 5.915890000000001 74443.721570689333
decision_type=2 2 2 2 2 2 2 2 2 2 2 2 2 2 2 2 2 2 2 2 2 2 2 2 2 2 2 2 2 2 2 2 2 2 2 2 2 2 2 2 2 2 2 2 2 2 2 2 2 2 2 2 2 2 2 2 2 2 2 2 2 2 2
left_child=1 4 3 13 26 6 -6 -8 44 16 12 -12 17 -2 15 -3 -5 59 29 -20 27 31 -23 24 -16 -26 43 -17 -25 -19 -14 62 33 34 35 36 -11 38 60 -27 -41 42 50 -1 -4 -24 -21 -48 -33 -45 56 52 -52 -54 -35 58 -10 -18 -51 -7 -34 -62 -22
right_child=2 14 8 9 5 10 7 -9 41 32 11 -13 30 -15 23 20 57 18 19 46 21 22 45 28 25 39 -28 -29 -30 -31 -32 48 37 54 -36 -37 -38 -39 -40 40 -42 -43 -44 49 -46 -47 47 -49 -50 55 51 -53 53 -55 -56 -57 -58 -59 -60 -61 61 -63 -64
leaf_value=0.096033616997301577 0.097109891660511496 -0.014318249771992368 -0.016846908718347552 -0.068492258284240964 0.0752863988110965 0.041097271620579391 0.12642421236995496 0.28565907518778533 -0.16884823071459931 -0.082281344592571262 0.11023947595117184 -0.051129649281501766 0.10788319507613778 -0.020785922177282035 -0.028262843060548659 -0.031747010828036333 0.054888494387985425 0.14442081258166581 0.052496156756367013 0.19442407215634983 0.062529386766254899 0.056046863072193587 0.119909143362295 -0.078694477353406997 0.13597125732763246 -0.0086881165004645787 0.25509156972169877 0.080205105702308099 0.020936973447290563 0.25395065176486969 0.0013218910694122316 0.051291840037573949 -0.13730128860101104 -0.052492535669632537 -0.14196003223104137 -0.12260847265254066 0.055478421629716959 -0.039417652937549133 -0.041248939959332348 0.10388095845101458 0.023261745183673854 -0.14991719704044701 -0.051184878523715518 0.22988131250410029 -0.098630856694653643 0.20504808344624262 0.073179083452983337 0.17212473978288473 0.13988854321837427 0.14452307906001807 -0.037537836862934965 -0.15448587732389571 -0.15602466175953547 -0.062723158374428753 0.024532092812106665 0.12284731888212264 -0.10627179115545005 -0.02105468399822712 0.22346475095975971 0.11635631145062773 -0.034749094061553479 -0.13724710767467815 -0.010629134702806672
leaf_count=20 20 30 25 40 22 23 33 35 60 50 26 20 20 51 27 23 26 20 35 36 22 26 37 23 22 30 20 22 33 25 25 23 80 27 28 29 24 27 20 33 34 243 22 24 40 22 22 24 25 20 27 32 30 20 23 32 24 20 21 22 20 24 24
internal_value=0 1.89825 -1.84837 -1.13477 2.7137 2.43199 3.51697 4.16767 -2.54287 -1.359 2.10431 0.80158 2.34211 0.248483 0.959417 1.3234 -0.403182 2.6396 2.94009 2.49189 1.53899 1.81032 2.44822 0.501737 0.847479 1.16802 3.51153 0.459703 -0.399662 4.10541 0.973649 1.2335 -1.59253 -1.23383 -1.57452 -1.23072 -0.75205 -1.9722 -2.19417 0.81615 1.25939 -2.71308 -2.39068 3.23969 -1.34351 3.03312 3.10737 2.49606 1.94872 3.51165 -2.5465 -2.18207 -1.80486 -2.37408 -0.341224 3.15461 -3.01938 0.437394 3.69913 1.55781 -2.415 -1.81314 0.487194
internal_count=2013 981 1032 509 525 388 90 68 523 438 298 46 252 71 456 254 86 207 162 117 224 179 85 202 146 119 137 45 56 45 45 94 352 181 131 103 74 171 144 97 67 458 215 117 65 59 82 46 48 97 193 109 77 50 50 73 84 46 41 45 124 44 46
shrinkage=0.05


Tree=5
num_leaves=64
num_cat=0
split_feature=16 16 20 20 16 73 6 38 88 97 100 20 8 88 132 4 54 105 96 98 50 2 140 128 82 102 140 76 127 63 97 111 71 19 117 101 7 63 73 47 61 90 50 81 117 36 20 101 96 134 1 63 103 3 36 109 9 129 0 76 101 23 61
split_gain=6831.64 555.836 540.373 143.321 121.8 93.3198 158.599 154.816 134.577 91.4113 81.1792 79.5428 68.7047 108.709 92.4397 76.3692 72.8162 66.8167 65.1104 63.4768 64.4284 65.4474 70.3763 87.1645 62.5152 57.8074 85.4787 73.7 56.1468 64.3893 55.5538 72.3912 67.4036 54.5732 54.8182 53.0867 59.4124 51.9344 50.5591 52.2879 48.5819 47.1098 45.9841 45.7195 45.1273 45.0534 41.0927 37.9411 35.024 34.6172 41.4084 37.4845 34.7744 33.6368 32.5751 32.1648 32.1434 32.1261 35.356 29.4372 26.2213 26.807 24.9264
threshold=1.6363916944842136 1.6865480854209851 2.6248899998475523 2.5638606387706182 1.6465452046968432 38.500000000000007 5.898456288336356 4.6951511631090783 0.68707666666666678 4.2287500000000007 -3.9597315436241413e-07 2.7694304911068328 2.4620433902101211 0.67809333333333344 0.93642180958500865 3.2753415015041791 79.65000000000002 1.5856645339466289e-06 4.3470900000000006 4.0432872343652342 74846.688155165786 1.2866839377097024 0.00016665040900875838 0.85747232908208126 3.1550000000000007 -2.2014676450967285e-06 0.009358432382760639 5.4590719871179685 0.95286727787561187 -25.499999999999996 4.1662300000000014 5.5650000000000004 4.5886500000000003 -1.2049999999999952 1.3173840000000003 -3.1532683648793104e-06 2.5921138196545686 -19.499999999999996 65.500000000000014 74904.204332821784 11.82124510513632 3.8125000000000004 74959.596104779761 5.331500000000001 1.3686906500000002 2.9287496712412417e-07 2.6917034135940949 -4.6467064808689209e-07 4.6052100000000005 0.011108096168145195 1.958702414191863 -42.499999999999993 1.3334222281484135e-06 0.48304589153805982 -1.5214012276231728e-06 3.6995000000000005 33.725026419768909 1.0615599297419316 2.3912192052304682 3.1768210082758306 9.7782297397931301e-07 0.00070682917979097558 13.158182965082519
decision_type=2 2 2 2 2 2 2 2 2 2 2 2 2 2 2 2 2 2 2 2 2 2 2 2 2 2 2 2 2 2 2 2 2 2 2 2 2 2 2 2 2 2 2 2 2 2 2 2 2 2 2 2 2 2 2 2 2 2 2 2 2 2 2
left_child=2 4 3 18 30 6 8 10 -5 24 -7 41 14 -14 16 17 54 -15 -1 55 -21 22 23 28 -4 27 33 47 -22 -30 -2 46 -33 34 35 53 42 -12 -17 -40 -23 -3 -37 -8 59 -24 -32 -11 -47 50 52 -52 -43 -27 -9 -6 -34 58 -13 -20 61 -57 -42
right_child=1 11 9 5 19 7 43 12 -10 25 37 57 13 15 -16 38 -18 -19 44 20 21 40 45 -25 -26 26 -28 -29 29 -31 31 32 56 -35 -36 36 -38 -39 39 -41 62 49 -44 -45 -46 48 -48 -49 -50 -51 51 -53 -54 -55 -56 60 -58 -59 -60 -61 -62 -63 -64
leaf_value=0.25791967255728587 0.059505371536527366 -0.027724027931690216 0.069229771271347995 0.082177148629789767 -0.042574189478764318 0.11882055808023058 0.075891814425425697 -0.033681538117968521 -0.095164402090013034 0.069911053527845074 0.26880562483118131 -0.13376458842558256 0.035434465934164251 0.2597794946121133 0.14441924744418688 0.16512174033692906 0.11074031878794943 0.13642208074175177 0.097243909910321238 0.015081611892272688 -0.056769163889641122 -0.16785065450451592 -0.12112475351283425 -0.10677018137205214 0.18004390811547638 0.009443965979984828 0.11993001226801425 0.0096802305824194978 0.088634501332749749 -0.028829150237143043 -0.025763174978395306 0.074314101430354648 -0.060510280927022299 -0.038640929173145981 0.087881207827365762 -0.013843152299523355 -0.048634552574434949 0.17606807065506777 0.14784536354243757 0.041993806431336066 -0.035876157321035863 -0.017037816500912111 0.0723224519751966 0.16959068025151891 0.21989646022734433 -0.08426356699995019 -0.1072171744890511 0.15702142709493638 -0.0048805736160526672 -0.15323582074471884 -0.08395277960027786 -0.14585056071918387 -0.10406636257063261 0.091401397809386262 0.048006842743891942 -0.056998752057552338 0.020144599501578514 -0.09471667324028471 -0.17089555095347653 0.16628847431979682 -0.15289248387728419 -0.12252291902094276 -0.11481667574495079
leaf_count=21 21 20 35 23 20 34 23 23 20 25 26 193 26 23 35 35 28 21 26 29 22 22 38 21 20 21 23 26 28 20 30 24 30 35 33 32 43 36 20 28 20 24 30 30 23 33 32 25 24 35 47 51 22 31 26 27 21 34 96 38 28 37 20
internal_value=0 -1.76925 1.9223 2.54197 -1.06484 2.29712 1.42084 2.53015 -0.00614587 0.998529 3.61819 -2.5074 2.136 2.57164 1.54088 2.95304 0.928372 4.01809 3.57801 -1.36558 -1.10871 -1.27363 -0.977041 -0.348552 2.19052 0.796186 0.562356 1.55921 0.187503 0.793826 -0.324426 -0.556581 0.104338 0.374651 0.586027 0.339767 -0.0694463 4.29916 2.38843 1.72197 -2.16341 -2.01008 0.556998 2.57858 3.19653 -1.57907 -1.35608 2.26932 -1.01678 -2.17271 -1.95591 -2.3233 -1.1732 1.16606 0.193266 -2.00085 -0.545989 -2.8138 -2.92197 2.76478 -2.25072 -1.8976 -1.50693
internal_count=2013 1069 944 565 547 457 96 361 43 379 96 522 265 153 112 127 77 44 108 389 277 248 186 91 55 324 248 76 70 48 158 137 75 225 190 157 105 62 83 48 62 199 62 53 87 95 62 50 57 179 144 98 46 52 49 112 51 323 289 64 92 64 40
shrinkage=0.05


Tree=6
num_leaves=64
num_cat=0
split_feature=16 18 20 20 18 97 73 6 44 97 23 113 20 71 69 0 127 71 14 4 140 139 75 105 99 56 102 140 76 3 102 125 3 109 140 128 21 29 64 138 89 8 117 72 107 125 0 140 106 100 101 14 18 102 139 127 102 141 0 16 8 3 14
split_gain=6166.81 559.28 464.33 129.347 124.653 103.304 84.2211 143.136 137.546 112.755 96.4656 87.8349 77.8583 82.8866 73.2301 114.688 94.3717 57.712 54.7252 66.8989 53.8355 91.1948 53.5822 54.5634 54.4155 57.0281 52.2497 77.7237 66.5142 49.2877 57.8656 59.4244 56.6026 49.1795 49.2594 58.6659 48.6456 50.3507 46.9945 46.2365 42.7785 41.2491 40.4955 40.4029 39.5261 46.1506 37.7491 37.4767 37.331 36.5045 34.2418 33.5273 32.6362 30.8686 25.4491 24.9469 24.3551 24.3052 27.5554 23.3158 28.4004 49.7497 21.8879
threshold=1.6363916944840755 2.5168924161515345 2.6248899998475523 2.5638606387706182 2.4835621208419476 4.2287500000000007 38.500000000000007 5.898456288336356 3.2705718443612288 4.4109200000000008 0.11334206806398098 8.3021749394791176 2.7581876475188998 4.2746000000000004 0.39087696101818759 2.2196550828604749 0.95178875001716035 4.3178500000000009 -0.027322370393532382 3.4283109263942189 0.0023273561265111254 0.0064428090737073456 47.500000000000007 1.323082854575273e-05 14.15 5.5135159732274461 -2.2014676450967285e-06 0.009358432382760639 5.4590719871179685 0.56764621219275269 -1.0000000180025095e-35 0.9468033923329856 0.48304589153135685 3.9085000000000005 -0.00052816763728758605 0.8388093163086433 0.035346091742450965 0.029725492827445108 -22.499999999999996 -0.001350208769382396 3.3550000000000004 2.464152907094372 1.3686906500000002 1.3050000000000004 4.405050000000001 0.95104390366095404 2.1946445298887576 0.00060095632828472724 5.0915000000000008 -1.1677852348993297e-06 -4.6467064808689209e-07 0.021257153910713322 2.3707817403984923 2.2014676450967336e-06 0.0024336698177674868 0.95316737757003855 -6.6711140760506975e-07 0.0089869390264968891 2.3454016907371149 1.6865480854231316 2.6276403849739416 0.51639777948581933 -0.01034397394621347
decision_type=2 2 2 2 2 2 2 2 2 2 2 2 2 2 2 2 2 2 2 2 2 2 2 2 2 2 2 2 2 2 2 2 2 2 2 2 2 2 2 2 2 2 2 2 2 2 2 2 2 2 2 2 2 2 2 2 2 2 2 2 2 2 2
left_child=2 4 3 17 22 40 7 11 9 -8 14 -5 13 49 16 41 -10 -1 47 33 21 36 -2 24 25 39 28 29 50 30 31 -28 -32 34 35 -20 -17 -38 51 -24 -4 -16 46 -18 -34 -46 54 -6 -41 -3 -7 -21 -9 57 -19 -22 -36 58 -14 -60 -61 -62 -15
right_child=1 12 5 6 18 26 8 52 10 -11 -12 -13 53 62 15 20 43 42 19 38 55 -23 23 -25 -26 -27 27 -29 -30 -31 32 -33 44 -35 56 -37 37 -39 -40 48 -42 -43 -44 -45 45 -47 -48 -49 -50 -51 -52 -53 -54 -55 -56 -57 -58 -59 59 60 61 -63 -64
leaf_value=0.24434987157583238 -0.090018248297274117 -0.070647024246864018 0.078096273896517243 0.066345838522133618 0.029462912275145456 0.066415500962175439 0.26955985784530639 0.16905730122869667 -0.014627141691744328 0.13353250783223372 0.0025500307125704631 -0.076925359927117826 -0.060220827517055334 -0.1352487731569757 0.14568270885131576 0.042149503140345865 0.075951946086838459 0.14267706076304118 0.018745960108935835 0.035937369242310523 0.098161358796060083 0.22292077973484994 -0.028334379931673027 -0.081187018342316161 0.071034110968725556 -0.063628907061435966 -0.083728480376303205 0.11393350923190947 0.0091962194500061194 -0.036163782478413647 -0.0010673940093034789 0.024311558029481345 0.12758130011233418 -0.12234104985836894 -0.065178317627446219 -0.08747038543224335 0.0660865135025233 0.15985125361873609 -0.097286490124204886 0.010724972350572265 0.17131312340497973 0.23791482084327276 0.20890163558980693 0.16236923883358639 0.013861112178278132 0.10078546542387744 0.18460572419518775 -0.061999231306392524 0.097295679897069942 0.020816740542650224 0.14917035447806121 -0.041257824939795032 0.08942934916985612 -0.14984763111856023 0.06483545044348353 0.019188403822481631 -0.13604951506411586 -0.16772677103678388 -0.068145353943109513 -0.13318444141544974 -0.13922332782379312 -0.03278008522909312 -0.092923568424192221
leaf_count=21 20 24 32 23 24 25 25 22 22 39 21 20 21 48 22 23 38 21 26 22 20 20 39 20 27 33 20 23 26 36 42 35 22 72 22 26 22 41 23 33 20 27 23 21 37 26 22 21 20 20 25 39 31 118 21 20 27 24 20 182 23 21 84
internal_value=0 -1.66462 1.84506 2.41487 -0.881161 0.972588 2.18227 1.3498 2.40365 3.73336 2.11711 -0.00583856 -2.32622 -1.77008 2.27431 2.60629 1.47509 3.39911 -1.28169 -1.45982 2.16201 2.53503 -0.251161 -0.0710205 0.133285 -0.144793 0.75829 0.530303 1.48125 0.345842 0.557316 -0.299515 0.928384 -1.81534 -1.36517 -0.687244 2.08773 2.54216 -0.727624 0.259738 2.27898 3.93009 3.03996 2.13421 1.39766 0.994693 2.63097 -0.264388 0.867863 -0.581452 2.15586 -0.268339 2.44965 -2.56553 2.07513 1.1735 -2.0846 -2.39059 -2.30394 -2.3978 -2.48939 -1.76842 -2.16629
internal_count=2013 1079 934 565 494 369 457 96 361 64 297 43 585 176 276 195 81 108 302 257 146 106 192 172 152 125 317 241 76 218 182 55 127 173 101 52 86 63 84 92 52 49 87 59 85 63 64 45 53 44 50 61 53 409 42 40 49 291 267 246 226 44 132
shrinkage=0.05


Tree=7
num_leaves=64
num_cat=0
split_feature=16 18 20 20 18 97 73 38 56 52 16 20 71 69 0 127 124 136 135 71 5 23 101 102 75 105 99 56 136 136 140 136 139 87 22 29 82 58 140 29 117 117 14 1 72 0 140 52 89 127 107 108 36 103 35 49 136 102 132 68 139 29 140
split_gain=5565.54 504.751 419.058 116.736 112.5 93.2317 76.192 79.5696 103.033 89.0778 87.2878 70.2671 74.8052 69.8447 94.2561 87.7697 58.0883 55.7995 52.755 52.0851 49.8298 48.9506 64.0238 78.3505 48.3579 49.2434 49.11 51.4678 48.9996 75.2771 47.9906 44.3102 47.0503 41.7305 41.4696 41.1262 39.5495 39.4541 37.3713 53.3546 57.1821 36.5472 35.2536 36.3618 34.4636 34.0685 33.4525 32.586 32.5054 30.4405 30.1469 29.9903 28.148 29.8058 39.4072 43.3043 27.581 24.5067 24.1827 35.2381 22.9678 22.3795 21.5631
threshold=1.6363916944840755 2.5168924161515345 2.6248899998475523 2.5638606387706182 2.4835621208419476 4.2287500000000007 29.500000000000004 4.6951511631090783 3.86893976377926 16.500000000000004 1.5491933384820447 2.7581876475188998 4.2746000000000004 0.39087696101818759 2.2142559230880745 0.95178875001716035 4.2993684749444183 0.09982237539256289 -0.45163190454477592 4.3178500000000009 4.3127310000000003 0.094790020282528614 -2.8001342600596153e-06 -3.0020013342228143e-06 47.500000000000007 1.323082854575273e-05 14.15 5.5135159732274461 0.12932214998006444 0.15816075194429113 0.0030290743853394289 0.16072608908994021 -0.0014141799846578587 -22.499999999999996 0.021012902099091322 0.47548897236428761 3.1550000000000007 0.044604248002422443 -0.00021950573546184948 0.18254306929215794 1.0960886000000001 1.3686906500000002 -0.027322370393532382 1.9678604488107161 -4.2449999999999992 2.1946445298887576 -0.0023753563468205657 54.500000000000007 3.8465000000000003 0.95611108346846174 4.6615000000000011 48.443941568111988 -1.9330829220414714e-05 -1.2667511167410934e-05 -93.699999999999974 7.1856288245624187 0.12423694778374532 4.6697798532354579e-07 0.92969248769578161 3.7450000000000006 0.0024336698177674868 0.085852698001033886 -0.00085248090136942091
decision_type=2 2 2 2 2 2 2 2 2 2 2 2 2 2 2 2 2 2 2 2 2 2 2 2 2 2 2 2 2 2 2 2 2 2 2 2 2 2 2 2 2 2 2 2 2 2 2 2 2 2 2 2 2 2 2 2 2 2 2 2 2 2 2
left_child=2 4 3 19 24 36 -5 8 10 -9 -8 12 44 15 -15 -11 -12 -17 33 -1 -20 22 30 -24 -2 26 27 28 -26 -30 56 32 51 -6 -22 38 -4 -34 46 40 -40 45 -35 47 -3 60 -25 49 -39 -44 -18 -16 -13 54 55 -54 -7 58 59 -55 -21 -58 -56
right_child=1 11 5 6 18 21 7 9 -10 13 16 52 -14 14 31 17 50 -19 20 41 34 -23 23 35 25 -27 -28 -29 29 -31 -32 -33 37 42 -36 -37 -38 48 39 -41 -42 -43 43 -45 -46 -47 -48 -49 -50 -51 -52 -53 53 57 62 -57 61 -59 -60 -61 -62 -63 -64
leaf_value=0.23213237889465832 -0.085517335264012229 -0.076093634422868497 0.073778486961964526 0.027976131282987135 -0.11395217522978783 0.0032289844871099503 0.03701989200587074 0.018040626021948728 0.23176580756329576 -0.021447846382146793 0.21262868668722068 -0.17971118483459578 -0.10289882412744743 0.20008358717896046 0.042971702085600964 0.060902787488885224 0.07645442908008894 0.15864035169715468 -0.030657105823909798 0.13554320817901974 -0.13471144095484941 0.10041148254164943 0.083847918519468032 -0.013188540160136167 -0.029267263250658287 -0.077127668112516409 0.06748240614930788 -0.060447461949661378 0.11743350153168042 -0.0051727744089739942 0.12007969485388861 0.044894892573356632 0.18352862189203734 0.012647091067428218 -0.057616872806102039 0.066448831800371408 0.16340822678059341 0.064882812453877364 -0.0043263233814607649 -0.057320470362901693 0.096475611689190069 0.19845655482748281 -0.08491056240521945 -0.073054594070547152 0.012776608827213445 0.1753754377514104 -0.09017788966496787 0.019390713436795132 0.14494015394011514 -0.0039733017728264845 0.15656153446306353 0.12375334486365319 -0.034132797350840911 -0.044243032972400009 -0.16794924627650867 -0.11528353429129046 0.10533085664734246 -0.14127322334577055 -0.13067070365333083 -0.12826038748025895 0.061593677623507884 0.030531907156109813 -0.10364553590770811
leaf_count=21 20 20 32 31 20 28 24 33 26 21 23 20 132 32 27 40 24 23 27 21 53 27 33 43 40 20 27 33 21 31 27 25 32 29 26 20 20 21 34 20 24 23 26 72 24 22 21 28 32 21 23 20 35 26 22 31 20 153 66 24 21 20 32
internal_value=0 -1.58139 1.75281 2.29412 -0.837103 0.923958 2.07316 2.1833 2.87344 1.91266 2.38612 -2.2099 -1.68158 2.10024 2.43745 1.34153 2.95037 1.9317 -1.21761 3.22915 -1.78594 0.720376 0.600472 0.272515 -0.238603 -0.0674695 0.12662 -0.137553 0.246752 0.886826 1.27365 2.11863 2.34982 -0.910243 -2.18677 -0.0135748 2.16503 2.79377 -0.202667 0.262028 0.747696 2.88796 -0.754698 -0.953484 -0.552379 2.49942 -0.769013 -0.46618 2.26439 -0.974942 2.31312 1.54694 -2.43725 -2.37777 -1.96333 -1.44498 0.825784 -2.56265 -2.21601 -1.69143 1.97137 1.35863 -2.59687
internal_count=2013 1079 934 565 494 369 457 426 120 306 94 585 176 273 189 84 70 63 302 108 106 317 290 195 192 172 152 125 92 52 95 157 132 196 79 162 52 85 142 78 58 87 176 147 44 64 64 75 53 47 47 47 409 389 120 66 68 269 116 50 42 40 54
shrinkage=0.05


Tree=8
num_leaves=64
num_cat=0
split_feature=16 18 18 18 7 130 14 106 139 81 107 102 71 64 15 23 69 130 141 15 18 6 135 81 105 81 29 130 7 115 21 35 129 132 89 96 23 102 132 16 102 136 135 139 127 13 131 140 80 103 1 117 139 136 23 23 106 103 140 21 75 12 103
split_gain=5022.9 455.537 365.962 102.058 76.6464 106.314 112.272 106.853 77.8431 73.6569 73.2187 81.3496 67.3365 63.8951 63.3576 60.5914 58.1915 77.575 72.3314 68.2439 51.2565 49.6357 47.8588 44.7443 80.5944 64.2177 43.2953 42.6589 60.5516 75.9803 48.5571 45.8542 42.5607 41.2409 40.0979 82.1166 70.7697 43.2679 39.4471 39.329 38.8862 50.1681 37.7641 37.3636 42.3366 39.3158 34.283 59.0351 37.1813 33.792 31.7585 29.968 28.9278 26.8643 26.0842 49.5893 33.7618 25.9187 23.4829 21.4165 20.7337 20.2626 22.9949
threshold=1.6363916944840755 2.5168924161515345 2.3923066929493957 2.4841619519422324 2.5167625220884067 0.97457545872557561 0.077011827411866338 4.8565000000000014 0.00011304879745389488 5.0765000000000011 4.3942000000000005 -4.3695797198132095e-06 4.3051000000000004 -9.4999999999999982 614584.50000000012 0.090645221031885284 0.39140753247282711 0.98867339284335221 0.00034155195957039048 689501.00000000012 2.5705991126548171 6.2222358505813373 -0.45163190454477592 5.3695000000000013 -4.5094699958422094e-06 5.4495000000000013 -0.021251508793092448 1.0053461141489988 2.6053228604327399 19.8853316552993 -0.006241962203919889 -50.449999999999996 1.0615599297419316 0.93578675975854486 3.6375000000000006 4.1501900000000012 0.02239323227007391 1.801200800533687e-06 0.92509743444233372 1.5696712462301126 -2.0013342228152115e-07 0.067709470100891192 -0.4128064481576002 0.0086944813298644296 0.95780341346714049 4.418379166666667 0.98600643845713853 -0.0019798843792849757 74450.051550190648 -9.3339555970396882e-06 2.034487997692382 1.1277395500000003 -0.0031783678817082625 0.086831620093974313 0.0011411543352713471 0.0090827718828845379 5.3275000000000015 -1.3334222281489291e-06 0.00085771219199385219 -0.012266819323247869 113.50000000000001 20.500000000000004 -1.2000800053336743e-05
decision_type=2 2 2 2 2 2 2 2 2 2 2 2 2 2 2 2 2 2 2 2 2 2 2 2 2 2 2 2 2 2 2 2 2 2 2 2 2 2 2 2 2 2 2 2 2 2 2 2 2 2 2 2 2 2 2 2 2 2 2 2 2 2 2
left_child=2 3 4 27 12 6 -6 8 -7 -9 34 -12 -1 16 -3 23 17 -11 39 -20 46 -15 26 24 42 -25 33 31 30 -30 -29 -2 61 -5 35 -4 -36 -37 -24 -18 41 -14 -13 44 45 -28 47 48 -16 -40 -49 -26 -31 -42 -48 -56 59 -27 -59 -57 -47 62 -22
right_child=1 14 10 22 5 7 -8 9 -10 13 11 15 40 21 20 -17 18 -19 19 -21 32 -23 38 25 51 57 43 28 29 52 -32 -33 -34 -35 36 37 -38 -39 49 -41 53 -43 -44 -45 -46 60 54 50 -50 -51 -52 -53 -54 -55 55 56 -58 58 -60 -61 -62 -63 -64
leaf_value=0.21545020460530565 -0.10202139889200529 -0.019695562088773363 0.036650975855688259 -0.036832289621233937 -0.051709243587472226 0.1071830492753249 0.10316258225217462 0.011770604757349128 0.2228641274752039 0.00012870819279641818 0.11380947457548851 0.097767021134495743 0.14418573042170868 0.19792583877670356 0.005800556883215905 0.089188697232919584 0.10505961489218932 0.11328010460627931 0.21544991345703601 0.10080584786935815 -0.096237854336698847 0.096990433734442508 -0.03007500233749549 0.095548664586884643 -0.08110075057656678 -0.017135645903504661 -0.016762633989128518 -0.016987405293842867 0.041405457429467669 -0.017696441411972047 0.079713048829751859 -0.0042821762462457022 -0.077600757753656768 -0.11906745068488583 -0.010798340450440135 0.093622863965907271 0.10757005114270293 0.17620947826011429 -0.047334624335635456 0.020188494594324202 0.12607966665968751 0.046876697571804897 0.0028360345824198288 0.019336563069373369 0.0203633808907831 -0.060033403061054369 -0.12124562071493039 -0.13663309536874296 -0.074036410395056013 -0.12270400215197226 -0.059466232376871632 -0.012206682548122972 -0.084606243489044053 0.19479363381862641 -0.02418609008031047 -0.086829115805171789 -0.062931990226109832 0.0062880774614987554 0.074262119461006179 -0.1491838600113988 -0.1272010758140823 -0.18636550767855212 -0.14671531801859103
leaf_count=27 24 21 36 30 22 26 25 23 33 33 30 20 27 29 25 34 39 28 25 27 30 21 24 35 27 36 32 21 31 30 34 24 31 31 28 35 23 29 20 21 33 26 22 32 21 27 156 40 35 58 20 38 35 25 23 21 30 27 24 40 20 22 91
internal_value=0 -1.50232 1.66517 -0.795248 2.26102 2.01338 0.613388 2.22912 3.43772 1.93925 1.00758 0.716058 2.89267 2.11498 -2.09941 0.538096 1.82721 1.04134 2.25523 3.11846 -2.16291 3.11066 -1.16856 0.353148 -0.118849 0.767113 -0.87575 -0.241841 0.0192007 -0.460113 0.855821 -1.06304 -2.61424 -1.57248 1.57325 1.94126 0.85167 2.6209 -1.72261 1.50709 2.54816 1.92898 0.960825 -0.553777 -0.854739 -1.19021 -1.96155 -1.51682 -0.81542 -2.06757 -2.21822 -0.816484 -1.0745 3.11396 -2.15921 -1.79562 -2.12719 0.306939 0.765517 -2.55435 -1.77231 -2.84451 -2.684
internal_count=2013 1079 934 494 490 352 47 305 59 246 444 293 138 223 585 263 173 61 112 52 564 50 295 229 107 122 193 199 151 96 55 48 174 61 151 100 51 64 102 60 111 53 42 132 100 79 390 120 60 78 60 65 65 58 270 114 91 87 51 61 47 143 121
shrinkage=0.05


Tree=9
num_leaves=64
num_cat=0
split_feature=18 20 20 20 5 107 20 73 58 38 63 16 52 130 18 135 87 4 21 139 140 7 125 117 97 140 59 115 102 9 137 96 128 38 88 139 45 68 141 5 71 140 66 124 82 61 87 25 23 71 60 56 138 107 88 102 104 16 2 61 81 138 72
split_gain=4538.18 495.838 282.948 96.2717 89.1455 73.3209 75.6001 67.9379 66.6224 65.1628 96.4426 91.3437 80.2466 59.5797 69.7349 58.5328 66.3259 56.0018 62.8791 73.9514 62.0621 54.0165 51.5803 50.2339 80.9578 49.3952 49.2377 61.2293 56.6036 50.0863 47.7397 47.5668 47.2406 85.4458 46.3911 46.1017 41.4404 53.2554 40.9175 46.737 37.3998 36.9598 36.4608 36.0189 35.3885 48.2086 35.1622 35.0513 34.3623 33.5622 33.4312 33.3239 32.3075 29.1961 28.9255 38.1141 42.417 28.1022 26.9175 25.5231 25.3959 22.0168 19.0323
threshold=2.4703800875244801 2.6248899998475523 2.7581876475188998 2.5638606387706182 4.224690250000001 4.2665500000000014 2.6718990520870207 29.500000000000004 0.024194783162544104 4.6951511631090783 -18.499999999999996 1.5491933384820447 16.500000000000004 0.97889582645600604 2.3697589699706998 -0.43537831432124735 -17.499999999999996 3.3238178144661465 0.0034540252191002188 0.001788853558651026 0.0017392149305624613 2.5431255346421402 0.9468033923329856 1.2798305000000003 4.2287500000000007 0.00080008661097478713 2.556704653097349 14.326578580067833 3.0020013342228152e-06 34.314091539209805 -0.019267814481710849 4.3470900000000006 0.83895630872198967 7.2345608747513657 0.69490666666666678 -0.00025045918865090048 4.9434233333333344 4.0650000000000004 -0.00020700244656631116 4.2691793000000002 4.5852500000000012 -0.0009874347133489276 5.3750000000000009 4.2993684749444183 3.1550000000000007 11.153973396689141 9.5000000000000018 42.616228467901841 0.015917595830439075 4.5716500000000009 74463.648077331236 5.0443251589550018 0.0035911358536448198 4.5988000000000016 0.70114333333333345 4.6697798532354579e-07 -3.4836563552956178e-06 1.7029386365924561 1.2692955176460767 9.7967703967460693 5.4495000000000013 0.00094449976978645161 -0.6349999999999999
decision_type=2 2 2 2 2 2 2 2 2 2 2 2 2 2 2 2 2 2 2 2 2 2 2 2 2 2 2 2 2 2 2 2 2 2 2 2 2 2 2 2 2 2 2 2 2 2 2 2 2 2 2 2 2 2 2 2 2 2 2 2 2 2 2
left_child=1 3 4 31 35 23 26 -5 15 10 46 -12 -11 21 47 16 -6 20 -19 48 44 -14 -10 24 34 38 27 53 29 30 41 -1 52 -34 -3 -2 -27 50 49 -40 61 -28 -21 -13 -18 -46 -9 -15 -20 -16 -38 -22 -8 -7 62 56 -56 -58 -24 -17 -42 -33 -4
right_child=2 5 54 7 8 6 32 9 22 12 11 43 13 14 25 59 17 18 19 42 51 -23 58 -25 -26 36 28 -29 -30 -31 -32 40 33 -35 -36 -37 37 -39 39 -41 60 -43 -44 -45 45 -47 -48 -49 -50 -51 -52 -53 -54 -55 55 -57 57 -59 -60 -61 -62 -63 -64
leaf_value=0.21369318224134901 0.065983687398402255 0.14988046464000254 -0.1215544080826082 0.022198958858667364 -0.117547122055707 0.0027574916109442712 -0.073841016821097588 0.23915894865989684 -0.080143126845359805 0.012972516747135105 0.0080559607595205307 0.18410276003181936 -0.018958142362534999 0.20329381817758657 0.039050547042014924 -0.058706856377068017 -0.036494661143847876 -0.10348530972932841 -0.04936557310819626 0.037603648246399002 -0.11913901021083195 0.097249124124646202 0.035824529776970544 0.14115603431349708 -0.011455059449734359 0.12662397710606457 0.020492976928210779 -0.040619574363032984 -0.00046293753034928263 0.024239821218558263 0.153644010083129 0.13211844783453716 0.10073952505534345 -0.028991858847439291 0.047093043411555499 -0.028695863508619371 -0.03626868618652225 0.10277975630760193 0.20482380042473475 0.099335176794834085 0.2016769207659222 0.10163500158944064 -0.050787736168131238 0.10081972930882428 -0.02050493418831717 0.085407105726855143 0.14755668928000062 0.12181680641475728 -0.13729465338401498 0.12296139884453555 0.052120889982451568 -0.028957918807864191 -0.0033317683377500741 0.075380775832661229 -0.11425027505805095 -0.1187383916091036 0.011739286753581837 -0.072079194188117979 -0.028303417998055622 -0.12211127424326081 0.12638590621451537 0.059716127937038746 -0.082834551074645602
leaf_count=21 20 21 268 31 44 25 32 20 28 33 21 20 20 22 22 21 35 77 25 28 21 20 30 21 29 20 23 36 34 37 24 21 22 30 23 36 20 25 21 21 21 36 20 37 22 21 22 33 20 26 23 20 33 31 24 54 20 20 36 65 24 21 36
internal_value=0 1.4475 -1.55581 2.07394 -1.09564 0.673024 0.469194 1.87327 -1.22642 1.97728 2.60183 1.94399 1.73236 1.91041 2.10397 -1.39711 -1.20716 -1.03302 -1.40132 -0.847932 -0.506882 0.78291 -0.465573 1.46015 1.06806 1.79987 0.783921 0.205095 1.12971 1.45242 1.88377 2.92307 -0.192538 0.51789 1.92301 0.102365 1.26713 0.894971 2.32077 3.04159 2.59701 1.40007 0.0154781 2.60084 0.0166994 0.624391 3.82354 3.08815 -1.7689 1.69005 0.220189 -1.50296 -0.76088 0.859193 -2.17627 -1.75605 -1.234 -0.603399 0.016913 -2.13258 3.23043 1.91835 -2.33938
internal_count=2013 1022 991 565 569 457 363 457 513 426 120 78 306 273 233 419 333 289 170 93 119 40 94 94 73 178 246 92 154 120 83 108 117 52 44 56 88 68 90 42 87 59 48 57 78 43 42 55 45 48 43 41 65 56 422 118 64 40 66 86 45 42 304
shrinkage=0.05


Tree=10
num_leaves=64
num_cat=0
split_feature=16 18 20 23 124 117 75 100 32 21 13 73 8 100 45 22 36 137 135 20 36 135 97 101 20 139 70 141 14 51 88 102 84 68 130 106 142 77 88 127 51 112 72 129 65 126 136 96 21 29 77 14 19 17 16 20 62 40 6 135 139 131 140
split_gain=4148.31 347.488 269.443 90.2887 83.3528 82.0878 79.344 140.608 74.1327 74.4846 72.8222 71.8563 124.869 85.8723 71.8535 64.8596 61.5526 63.6655 60.1514 83.2092 59.2886 56.4396 53.2707 52.6951 61.1658 47.9807 47.8452 45.8448 45.7298 43.0511 42.6964 42.1022 39.3083 37.4481 37.3668 37.3663 83.844 36.0343 35.84 58.9102 65.919 35.6099 34.3753 38.7597 38.8924 34.2952 32.5871 31.7099 40.4347 32.4344 31.6733 29.7508 28.5862 28.2882 27.4014 27.0263 26.5473 26.4914 26.209 26.0423 24.7528 23.704 21.6251
threshold=1.6363916944828125 2.5220442245740835 2.6138209662297629 0.066953220827504697 4.1717656595135244 1.5286137500000001 34.500000000000007 -2.9865771812080668e-07 3.1757697725610305 0.080024705553285114 4.084175000000001 38.500000000000007 2.4585731780412199 -2.7013422818791938e-06 5.5815166666666673 0.02783941463866808 -5.5242894224681081e-08 -0.10329853208884844 -0.50300722758559846 2.6775396762583825 2.9116277396849618e-06 -0.43399797559030501 4.3059400000000005 9.420188918833227e-06 2.6599237901659616 0.0068776301872691863 74945.906497816395 0.0010623383489197734 0.020530346612291719 -92.499999999999986 0.71701333333333339 -5.4703135423615799e-06 2.5908618598668478 3.6850000000000005 1.006890433577855 5.0185000000000004 5.3565000000000014 41.500000000000007 0.69984333333333348 0.95345509587122346 -151.49999999999997 -2.9348868267971048e-07 -3.1149999999999998 1.0237913392256994 4.5360732777028518 0.31665627233028176 0.17813206449691971 4.4301200000000005 -0.0035316707358945118 0.0084188908303112469 26.500000000000004 0.033348390722878776 -0.6499999999999998 0.65000000000000002 1.6363916944863346 2.7588927106700205 -45.499999999999993 3.9069654226643826 6.3571193369183536 -0.46841288621376598 0.0023376654735477328 0.98631483717117108 0.0035066860598450826
decision_type=2 2 2 2 2 2 2 2 2 2 2 2 2 2 2 2 2 2 2 2 2 2 2 2 2 2 2 2 2 2 2 2 2 2 2 2 2 2 2 2 2 2 2 2 2 2 2 2 2 2 2 2 2 2 2 2 2 2 2 2 2 2 2
left_child=2 4 3 6 26 11 -1 22 -9 33 -3 12 50 -13 16 18 23 -18 25 -20 35 -15 -8 24 27 53 41 58 37 -22 32 -21 56 -10 -26 -19 -37 -17 55 45 -41 -2 -33 -44 -45 46 -40 49 -49 -46 -5 -29 -24 -6 -30 57 -23 -12 -4 -56 -28 -59 -57
right_child=1 10 14 5 15 -7 7 8 9 -11 38 13 -14 21 -16 28 17 20 19 31 29 30 52 -25 34 -27 60 51 54 -31 -32 42 -34 -35 -36 36 -38 -39 39 40 -42 -43 43 44 47 -47 -48 48 -50 -51 -52 -53 -54 -55 59 62 -58 61 -60 -61 -62 -63 -64
leaf_value=0.053905146683175725 0.0015540893003344537 9.6554495394229894e-05 0.059094768190490345 0.051648374482129639 -0.085694502378729262 0.17994727776164102 0.25026431512087582 0.17336233963569006 0.092567165978252888 0.14531417794525622 -0.045549677981233057 0.0024949726055968893 -0.040738495150881432 0.029830477251671258 -0.019850979504339838 -0.091146397060499748 0.1387421196436181 0.13179886894244139 0.028638179706675666 -0.011962204573986432 0.060402007913216954 0.16513371174705441 0.12566537927091123 -0.030759770408272741 -0.027133537539177473 0.045550527635284443 0.010728385169059038 -0.011289641024036842 0.046973737326240349 -0.023095540881443485 0.17738898287598903 -0.10773895873147765 0.065936897972073305 0.0097089729954799031 0.053410201581815878 -0.013835060383592333 0.11396656329884675 -0.0018765010638162494 -0.020914388962444807 -0.088504481613636027 0.039868968278169631 0.095906971143558617 -0.128372346135703 0.0056639429536603746 -0.079035710319876676 -0.12924692116000436 -0.098169400963263639 -0.14206917298336824 -0.059977037506178027 0.01101202822988853 0.13420823493174144 0.06177239438616916 0.2047965754089611 -0.012042695144191385 0.024371066175046422 -0.12218849113860322 0.10196484719426968 -0.060029671447617672 0.12321160800150924 -0.054372451844669524 -0.067936663879081607 -0.12722381974969593 -0.09317424887946496
leaf_count=31 20 20 28 26 22 21 27 30 25 30 33 22 31 20 34 26 34 33 21 24 38 29 25 25 36 22 20 22 31 26 26 81 39 30 24 21 33 20 21 20 20 20 22 21 20 44 39 24 40 20 21 38 21 32 21 194 39 21 37 21 20 35 96
internal_value=0 -1.30381 1.57743 2.08171 -0.742032 1.69912 2.56039 2.80481 2.11578 1.63879 -1.87077 1.54142 0.743163 1.89722 0.997917 -0.903279 1.11799 1.53857 -1.12066 -1.33971 1.2602 2.16285 3.89027 0.747477 0.931622 -0.333825 0.201264 1.32999 -0.265744 0.529623 2.39837 -1.49908 2.11907 0.947436 0.101679 1.79764 1.28532 -1.04667 -1.94238 -1.51769 -0.486355 0.974611 -1.63169 -1.34346 -1.12804 -1.91436 -1.4226 -1.3787 -1.81523 -0.680237 1.77074 0.69966 3.23581 -0.84098 0.226344 -2.10374 2.57809 -1.62171 1.91184 -0.300014 -0.572083 -2.04052 -2.25168
internal_count=2013 1091 922 493 548 274 219 188 115 85 543 253 78 175 429 468 395 185 349 273 151 153 73 210 185 76 80 125 119 64 133 252 107 55 60 87 54 46 523 144 40 40 228 147 125 104 60 104 64 40 47 60 46 54 73 379 68 89 65 42 40 56 290
shrinkage=0.05


Tree=11
num_leaves=64
num_cat=0
split_feature=16 18 7 134 140 21 107 10 124 13 20 48 22 135 20 104 139 89 88 54 37 20 1 70 88 102 100 60 3 132 109 1 75 57 112 44 58 103 14 34 102 101 88 127 51 10 36 72 58 29 13 20 2 103 36 131 16 20 40 135 131 128 112
split_gain=3743.85 313.608 257.826 87.3979 79.0197 108.267 101.954 79.6795 75.2259 65.7221 61.6869 79.0915 58.5358 54.2867 75.0963 53.69 76.9964 56.2285 57.9674 59.28 53.6533 53.5792 82.9908 71.8011 51.0835 50.7434 54.996 46.9014 46.5354 45.9375 64.1412 44.9741 47.6481 44.8375 51.9045 44.4489 57.4371 45.7589 41.2711 40.6767 37.9973 37.3764 32.3456 53.1664 59.4919 31.6491 31.6284 31.0237 32.6084 39.9279 30.212 36.6317 29.6731 29.5956 26.9068 25.3606 24.7298 24.3912 23.9085 23.5032 21.3929 20.9428 20.8505
threshold=1.6363916944828125 2.5220442245740835 2.5588648436912247 -0.16833739686680607 0.0051322414858527635 0.085929398349459826 4.3352000000000013 1.0000066667111116e-05 4.1717656595135244 4.084175000000001 2.6599237901659616 6.1637052648770663 0.02783941463866808 -0.50300722758559846 2.6775396762583825 1.3502869284156795e-06 0.0089213399692470129 4.1130000000000004 0.71701333333333339 32.850000000000001 7.6500000000000012 2.5906786012699681 1.9045400237220169 74923.694381254856 0.67243666666666668 -3.6024016010673766e-06 3.1879194630872707e-07 74512.332638193999 0.48304589154623873 0.92775779204774989 4.0085000000000006 1.8943696458001937 59.500000000000007 75122.914507757887 -5.2700159557897779e-07 4.1574511824802896 0.068486341024441982 4.0002666844454965e-06 0.020530346612291719 -1.0000000180025095e-35 -5.4703135423615799e-06 9.1695853940642146e-07 0.69984333333333348 0.95345509587122346 -151.49999999999997 1.0000066667111116e-05 -4.450331593086677e-06 -3.1149999999999998 0.00054349920343554914 0.0084188908303112469 4.5965791666666673 2.6732107201421225 1.2649110640672805 -5.333688912594257e-06 2.1320473156503282e-07 0.99231031399011005 1.6363916944863346 2.7588927106700205 3.9069654226643826 -0.46841288621376598 0.98631483717117108 0.83298771394363536 -2.485372657888243e-06
decision_type=2 2 2 2 2 2 2 2 2 2 2 2 2 2 2 2 2 2 2 2 2 2 2 2 2 2 2 2 2 2 2 2 2 2 2 2 2 2 2 2 2 2 2 2 2 2 2 2 2 2 2 2 2 2 2 2 2 2 2 2 2 2 2
left_child=2 8 3 -1 6 7 21 -6 33 -3 11 27 13 28 -15 17 31 18 19 -8 24 22 -5 -23 -13 -12 52 -4 -10 -21 -31 32 -17 34 -2 36 37 55 45 -32 -16 -30 57 46 -45 -14 -44 53 49 -49 51 -28 -27 -42 -39 61 -40 58 -11 -58 -60 -26 -59
right_child=1 9 10 4 5 -7 15 -9 12 42 25 20 38 14 40 16 -18 -19 -20 29 -22 23 -24 -25 35 26 50 -29 41 30 39 -33 -34 -35 -36 -37 -38 54 56 -41 47 -43 43 44 -46 -47 -48 48 -50 -51 -52 -53 -54 -55 -56 -57 59 62 60 -61 -62 -63 -64
leaf_value=0.020563538449213787 -0.022798900187015535 9.1726072132587429e-05 -0.053030607578429312 0.13279183964815833 -0.020061625396976104 0.13820958631734054 0.1222713378450737 0.10268850341439247 0.035370049998164177 -0.043272195474216436 0.081444777217176231 0.1410561414808035 -0.091190346459979602 0.027206268675980118 -0.011364095743435125 0.13477665499473612 0.048987944945693022 0.1607908331602812 0.13764210322073528 -0.02461135257035494 -0.0012681826949119568 0.1680302650534681 0.25392273446688285 0.043990184026770296 0.07264788992969054 -0.055589994592101954 0.014478569539884726 0.052763379700481894 0.0022259830751202325 0.10899529911888142 0.07811115995049478 0.10902976133909666 0.23790632230894909 -0.053182510641359149 0.072106120143743124 0.12340638704838292 0.13194717725827582 0.042874721348995254 0.044625051379684477 -0.012786914196476575 -0.052857669273560698 -0.086324613168835648 -0.05605405742535368 -0.084079258590936665 0.037875519283115867 -0.0082431088809085933 -0.11273089565802366 -0.077519822741548228 -0.080721895496802629 0.01191379799006077 -0.010325775092298334 0.10680192160335454 0.019651707112789157 -0.12080752728349071 0.12390884594991802 -0.028771173780445348 0.023152513478306078 -0.057694366537034518 -0.057028189869154068 -0.051653828862167545 -0.12086262898785727 0.0011564064398407936 -0.11060349318440316
leaf_count=34 25 20 22 31 39 30 29 20 28 33 27 30 23 21 24 24 25 20 28 21 22 28 26 20 21 38 21 20 22 36 20 38 21 21 34 31 21 21 31 32 22 26 40 20 20 23 64 24 97 26 22 22 20 59 20 22 21 20 21 21 35 20 270
internal_value=0 -1.23862 1.49856 1.96146 2.06947 1.21745 2.25952 0.430972 -0.70493 -1.77723 0.894466 1.19865 -0.858115 -1.06463 -1.27272 1.95743 2.51824 1.6318 1.44095 1.17477 1.4514 3.10537 3.76089 2.32694 1.62607 0.387486 0.114982 -0.0530504 -0.317133 0.836704 1.15383 2.98164 3.65808 0.191201 0.637843 1.39626 1.13043 0.82583 -0.252457 0.443478 -1.42413 -0.914778 -1.84526 -1.44181 -0.462037 -0.994335 -1.81864 -1.55011 -1.27629 -0.620287 0.746623 1.23428 -0.592892 -2.04704 1.64807 0.29072 0.215027 -1.99855 -1.54062 -0.285013 -1.93849 0.75548 -2.13909
internal_count=2013 1091 922 522 488 89 399 59 548 543 400 250 468 349 273 294 108 186 166 138 208 105 57 48 186 150 123 42 76 109 88 83 45 80 59 156 125 104 119 52 252 48 523 144 40 46 104 228 147 50 65 43 58 81 41 63 73 379 89 42 56 41 290
shrinkage=0.05


Tree=12
num_leaves=64
num_cat=0
split_feature=16 16 7 134 13 23 140 125 67 125 81 20 140 99 141 68 61 134 15 117 130 67 16 130 73 2 141 20 15 45 50 68 1 115 88 81 76 16 76 102 45 31 4 55 140 76 88 68 69 65 6 64 20 128 133 67 72 102 130 140 89 117 67
split_gain=3378.83 285.039 232.688 78.8766 76.1527 72.3489 59.1453 60.2921 70.4521 80.4116 95.7236 55.6724 67.1827 79.7219 70.8424 61.4789 56.8545 55.1954 55.1801 54.5682 83.1009 84.7117 53.7621 55.8997 52.1673 46.8736 49.0765 48.1276 45.4723 45.2465 39.7853 38.2176 38.1121 81.9648 48.3664 37.5919 37.2245 57.9335 50.7066 35.4377 50.0214 35.3825 33.3492 61.7151 35.4187 32.4245 28.4361 36.542 27.9896 50.1006 27.838 31.4109 31.9803 25.5956 24.7365 24.6535 43.1892 23.4638 20.2193 19.4664 19.1045 33.5122 22.2971
threshold=1.6363916944828125 1.6865480854202091 2.5588648436912247 -0.16833739686680607 4.1889208333333343 0.066314068416962232 0.0060248540414617113 0.92718484547781987 6.9500000000000011 0.94510571109692243 5.0565000000000007 2.6599237901659616 0.0049012793386449408 10.105000000000294 0.0012195841918090924 3.8150000000000004 7.6098965969393113 -0.10653821355659172 618318.00000000012 1.5286137500000001 0.97376673779117451 7.1750000000000007 1.646545204696044 1.0202442402766494 37.500000000000007 1.2649110640673342 -0.0025242428989664151 2.6752013373305745 617160.00000000012 5.7368266666666683 74965.63225754461 4.1150000000000011 1.9080901657954319 15.986372240651702 0.71035000000000015 5.3015000000000017 6.8468414221265208 1.6633299933164645 7.8280203019167667 1.4009339559706426e-06 5.576386666666667 54.650000000000013 3.3810411130926665 3.6468965086154674 0.0013100883193399256 4.2790154724849065 0.69984333333333348 3.8750000000000004 0.62367211756987995 8.2591196451528752 6.83727202437393 -48.499999999999993 2.6401032451637936 0.82863895822705469 0.79570447933824318 10.685 -2.9349999999999996 4.5030020013342179e-06 1.038444762933991 0.00073917874544509438 3.6425000000000005 1.1028724500000002 14.585000000000003
decision_type=2 2 2 2 2 2 2 2 2 2 2 2 2 2 2 2 2 2 2 2 2 2 2 2 2 2 2 2 2 2 2 2 2 2 2 2 2 2 2 2 2 2 2 2 2 2 2 2 2 2 2 2 2 2 2 2 2 2 2 2 2 2 2
left_child=2 4 3 -1 18 6 7 -5 -9 10 -10 12 13 14 -4 -14 -15 -11 59 20 -7 -22 42 29 -23 26 -13 -27 -3 41 -28 46 34 -34 45 -12 39 38 -38 55 -41 -24 43 54 -44 53 57 48 49 -48 51 -18 -53 -26 -6 -25 -57 60 -33 -2 62 -62 -30
right_child=1 28 11 5 22 19 -8 8 9 17 35 25 15 16 -16 -17 50 -19 -20 -21 21 24 23 36 32 27 30 -29 31 -31 -32 58 33 -35 -36 -37 37 -39 -40 40 -42 -43 44 -45 -46 -47 47 -49 -50 -51 -52 52 -54 -55 -56 56 -58 -59 -60 -61 61 -63 -64
leaf_value=0.019535361942561235 0.012751828639635018 -0.015112544020468539 0.043084501342049671 0.067116904024395255 -0.02887129101061052 0.0014644941287663053 0.061552400917217545 0.068416207684920391 0.28389841699529267 0.16907146368175746 0.19358347248414468 -0.050160494775456546 0.16389849819988012 0.1293225406239239 -0.075344710035816498 0.056023178854957223 0.015102423958737274 0.070992976566776639 0.082332148793197821 0.1579787802128565 0.15927040966396983 0.018291340369938149 -0.032271010072334953 -0.10920415505253037 0.097427668487653149 0.00028714262658641453 -0.012752569104943956 0.099677357822656631 -0.12257860105613794 -0.0066923351585865022 0.065031112886724932 -0.078308366185852463 0.098252812259503317 -0.027380596892908216 0.16892929418498409 0.10574319463755405 0.080590647526762704 -0.057172770695760849 -0.018663377459010772 0.041200135163962842 -0.070627214610576625 -0.10131692369080458 0.054498914256691934 0.038720722995432361 -0.02369278500477473 0.13415524423831987 -0.070648347677008533 -0.12445096556373217 -0.09074573140591384 0.02757465668022633 -0.0045211433477344966 0.10799970758196556 0.040158493425042255 0.017434574370272456 -0.092035873282340266 -0.089065223142053146 0.00018942347201316256 -0.13466677841213015 -0.017075528691594417 -0.050930942555091209 -0.048769562220086861 -0.10786581893867636 -0.087574858183248172
leaf_count=34 28 22 28 31 31 34 37 26 21 26 29 34 25 26 23 28 29 32 21 21 33 36 23 29 20 21 35 29 92 20 31 28 37 20 23 21 22 40 31 20 20 96 28 21 30 21 37 27 40 20 21 38 32 20 31 33 23 45 26 21 49 47 90
internal_value=0 -1.17669 1.42363 1.86339 -0.686217 1.966 2.38573 2.61543 2.87005 3.17272 3.88631 0.849743 1.13872 0.869839 -0.206495 2.13816 1.24582 2.29918 0.290422 1.61278 1.47966 1.71448 -0.823496 -1.02999 1.44024 0.368112 -0.0271664 1.15867 -1.70937 -1.52554 0.475644 -1.77116 1.71456 1.08342 2.14283 3.13381 -0.714013 -0.234942 0.450728 -1.07044 -0.294271 -1.75944 -0.300681 -0.707226 0.281099 1.67689 -1.86715 -1.46008 -1.17368 -0.723683 0.955348 1.17718 1.53973 1.14862 -1.20907 -1.4357 -1.04814 -2.02343 -0.976518 -0.290816 -1.91499 -1.55404 -2.10538
internal_count=2013 1091 922 522 568 488 223 186 155 129 71 400 250 197 51 53 146 58 70 265 244 210 498 357 177 150 100 50 523 139 66 501 141 57 84 50 218 93 53 125 40 119 141 83 58 61 447 124 97 57 120 99 70 40 62 85 56 323 54 49 278 96 182
shrinkage=0.05


Tree=13
num_leaves=64
num_cat=0
split_feature=16 16 7 134 13 140 23 10 18 10 112 20 48 65 42 59 100 141 75 0 16 135 100 102 100 37 88 115 102 42 42 130 40 140 20 42 13 29 23 137 22 87 28 134 107 88 102 102 55 88 141 102 36 83 13 20 103 138 5 53 79 38 6
split_gain=3049.39 257.247 210.001 71.1862 68.7278 67.3172 75.2194 52.577 57.6408 55.5415 62.0097 50.2444 65.7662 64.1215 49.8 49.4644 70.7521 91.2815 83.8652 83.443 48.5203 53.0106 48.4722 45.9216 48.6983 44.9576 45.9444 56.7229 44.6491 41.1873 42.5304 44.8567 45.9416 48.3075 54.5807 41.0387 37.8797 45.8456 41.6736 35.5325 35.3756 33.1501 33.0678 32.9553 32.1521 31.8962 31.6163 46.2881 43.5977 39.0888 29.1606 29.6188 37.7969 28.1213 27.2757 31.553 27.1737 25.3665 24.9662 20.824 18.7116 22.9011 27.0766
threshold=1.6363916944828125 1.6865480854202091 2.5588648436912247 -0.16833739686680607 4.1889208333333343 0.0087939898299406252 0.066314068416962232 -1.0000000180025095e-35 2.3673601149365751 1.6666777778518527e-05 -4.6698151468741928e-07 2.6599237901659616 6.1637052648770663 3.9409889899960837 4.123117396943818 3.4392707743517983 6.8456375838925961e-07 -0.00020700244656631116 53.500000000000007 2.2173557826085832 1.646545204696044 -0.42709818310182712 5.7382550335570565e-07 -3.6024016010673766e-06 3.1879194630872707e-07 7.6500000000000012 0.67243666666666668 21.343823776145268 -1.3342228152101395e-06 4.7537048961937733 4.6446610192944933 1.0202442402766494 3.963489860271872 0.00011274823270135283 2.7115778899601208 4.1154432778633394 4.679754166666668 0.16565743437254324 0.035650660723669202 -0.041273180373827621 0.021012902099091322 2.5000000000000004 11.975000000000003 -0.097853592616318805 4.5253000000000005 0.69984333333333348 -3.9026017344896573e-06 8.0053368912608564e-07 3.2368261627765915 0.6955366666666668 -0.0046000627467272489 4.6697798532354579e-07 -6.0659258491584647e-07 -75.499999999999986 4.5965791666666673 2.6732107201421225 -3.3335555703711695e-06 0.0043225836520117368 4.4753735000000008 75.500000000000014 0.27427915865940378 9.2742173342798448 7.7398646049419577
decision_type=2 2 2 2 2 2 2 2 2 2 2 2 2 2 2 2 2 2 2 2 2 2 2 2 2 2 2 2 2 2 2 2 2 2 2 2 2 2 2 2 2 2 2 2 2 2 2 2 2 2 2 2 2 2 2 2 2 2 2 2 2 2 2
left_child=2 4 3 -1 14 6 15 8 28 10 -9 12 13 -4 -2 16 17 18 -5 -19 46 29 56 -13 57 26 -14 36 -8 30 31 44 33 34 -33 -3 37 38 -28 -18 45 -35 -42 -41 -22 60 -6 48 -48 -49 -47 52 -52 -31 55 -26 -11 -25 -23 -30 61 -37 -63
right_child=1 35 11 5 20 -7 7 9 -10 22 -12 23 25 -15 -16 -17 39 19 -20 -21 21 58 -24 24 54 -27 27 -29 59 53 -32 32 -34 41 -36 40 -38 -39 -40 43 42 -43 -44 -45 -46 50 47 49 -50 -51 51 -53 -54 -55 -56 -57 -58 -59 -60 -61 -62 62 -64
leaf_value=0.018558593455921202 -0.01381374758345132 -0.014356916736472736 0.055924055691469798 0.047833742301624557 0.039345831075764226 0.015103614745804898 0.08758752084736314 -0.037630052551627158 0.05113085812806864 0.07243817610045275 0.066766663087588371 0.076533084721476949 0.13027476901809373 -0.067776069194078456 0.078215541690588003 0.055573770633110635 0.053731770973536187 0.2816083570321401 0.17609320664405825 0.14976008948537387 -0.10445262147365392 -0.065015893873121386 0.038987806263835141 -0.065465793815942905 0.013571170460255372 -0.001977379535409537 0.10689226207323373 0.11583964536456687 0.19762103750624441 0.029405835625948385 -0.097329159433904452 -0.037580157248746783 -0.070114978118554536 -0.089910528170210988 0.064942917972803119 -0.11503363739646658 0.086704715713858613 -0.022788953632116318 0.014933060881282604 0.15434853435804449 -0.0018553495319793001 -0.0030215035638083585 -0.084021915316581736 0.071489057838916778 -0.03413785405794223 -0.013576418870971316 -0.091439510049032321 0.046941426744063701 -0.0059631128580524377 -0.035984592691615774 -0.017163791705388575 -0.10514265276634922 -0.10017018659661214 -0.04505729196327074 -0.011039383167570289 0.099255920849232515 0.14659631835917633 0.0010236884932965042 -0.12935197830200196 0.12712727915029973 -0.12087440868982902 -0.045775895072828705 -0.09176122944751014
leaf_count=34 49 22 22 26 23 26 35 25 34 21 33 27 30 20 21 26 32 21 25 28 37 38 34 26 21 22 22 38 22 32 38 21 38 21 34 71 38 30 28 30 24 23 25 20 29 21 35 30 26 27 32 52 24 21 22 22 30 32 25 20 65 41 146
internal_value=0 -1.11786 1.35245 1.77022 -0.651906 1.8677 1.9558 1.59067 2.10707 1.18982 0.435362 0.807256 1.08179 -0.0596153 0.275901 2.4017 2.58601 3.15061 2.21412 4.12533 -0.782321 -0.978486 1.70463 0.349707 0.0904725 1.31226 1.47215 1.2542 2.58591 -0.800107 -0.975632 -0.793877 -0.467607 -0.108836 0.515955 -1.6239 0.912011 0.521522 1.1079 1.89748 -1.6826 -0.889825 -0.875541 2.42409 -1.47113 -1.77009 -0.285647 -0.494706 -1.10014 0.153214 -1.34974 -1.5594 -1.05476 -0.00196845 0.684849 1.1482 2.32121 -0.575639 -1.81092 3.28105 -1.93797 -1.81716 -1.63358
internal_count=2013 1091 922 522 568 488 462 254 111 143 58 400 250 42 70 208 182 100 51 49 498 357 85 150 123 208 186 156 77 294 241 203 137 99 55 523 118 80 50 82 501 44 49 50 66 452 141 118 61 57 129 108 56 53 65 43 51 58 63 42 323 258 187
shrinkage=0.05


Tree=14
num_leaves=64
num_cat=0
split_feature=16 18 7 1 134 73 117 132 21 82 138 85 69 54 13 22 117 2 20 0 140 135 142 130 102 100 136 21 29 101 57 112 138 139 79 79 138 101 141 89 97 103 58 87 72 87 3 60 54 3 100 102 20 21 5 2 136 13 20 129 89 50 100
split_gain=2752.08 234.804 189.526 64.6744 136.988 70.4155 85.8291 83.859 83.9064 67.7297 58.1117 56.1955 54.3276 52.9745 50.7563 47.2398 47.842 45.4043 45.3455 61.1807 43.3683 42.1887 41.6204 53.4185 41.4442 43.9502 39.4384 51.8031 59.1161 55.2753 36.9833 46.0144 36.0257 32.9661 34.4298 46.3146 50.5835 44.3872 36.0172 32.5642 61.7892 32.2478 31.7336 28.1076 52.9416 44.8646 34.1197 39.1067 30.5503 29.1442 27.9301 26.7559 26.399 25.9496 25.81 24.7489 24.7487 24.6163 28.4766 24.5687 23.0892 35.7618 23.0886
threshold=1.6363916944828125 2.5220442245740835 2.5588648436912247 1.9227505550564004 -0.15667275638684194 50.500000000000007 1.3145503000000003 0.93424556992235586 0.078537327065144616 3.4150000000000005 0.0066080472177570586 4.2348630411876451 0.37338989064759343 72.65000000000002 4.084175000000001 0.02783941463866808 1.1526221000000001 1.1972189997378122 2.6599237901659616 2.2360566841700273 0.009358432382760639 -0.51026121237826472 5.3125000000000009 1.0319753035663897 -3.6024016010673766e-06 3.1879194630872707e-07 0.058366932309769089 0.078537327065144616 0.029725492827445108 1.3668480718516507e-06 75122.914507757887 -4.8329127735481322e-07 -0.0021814944315178921 -0.006517453875207491 0.24536592593688722 0.21304412185851382 -0.0048686402032932447 2.2809332040919774e-06 0.0012195841918090924 3.7275000000000005 4.3722900000000013 -1.3334222281486767e-06 0.023371678223467616 9.5000000000000018 -2.7549999999999994 1.0000000180025095e-35 0.63245553202649851 74547.197335530145 112.55000000000003 0.47140452080750733 -1.3926174496644324e-06 3.3355570380253826e-07 2.8200394361858541 0.083584251405506779 4.5397232000000001 1.3165611772109611 0.11298303123771522 4.5965791666666673 2.6732107201421225 1.053030495677312 3.8675000000000006 74953.843150506043 3.5906040268456151e-07
decision_type=2 2 2 2 2 2 2 2 2 2 2 2 2 2 2 2 2 2 2 2 2 2 2 2 2 2 2 2 2 2 2 2 2 2 2 2 2 2 2 2 2 2 2 2 2 2 2 2 2 2 2 2 2 2 2 2 2 2 2 2 2 2 2
left_child=2 11 3 5 -5 6 7 8 -1 -6 13 30 32 50 -3 16 21 -9 19 -4 33 -13 39 -24 -20 56 -14 29 -29 41 31 -2 -7 -21 35 -35 -37 38 -36 40 -18 -28 -17 44 46 51 47 52 -45 -50 -11 -46 55 -8 -51 -16 -26 58 -27 -56 -44 -62 -23
right_child=1 14 18 4 9 12 53 17 -10 10 -12 15 26 -15 43 42 22 -19 24 20 -22 62 23 -25 25 57 27 28 -30 -31 -32 -33 -34 34 37 36 -38 -39 -40 -41 -42 -43 60 48 45 -47 -48 -49 49 54 -52 -53 -54 -55 59 -57 -58 -59 -60 -61 61 -63 -64
leaf_value=-0.072806240278093723 -0.01998300125339517 0.0017713283374905587 -0.018262520691912091 -0.064599698171950881 0.14333399636670949 0.12234419326743354 0.16658915249969475 0.041697975981139369 0.062251265444185425 0.15144943296909333 -0.00065949516250721869 -0.013009065983665958 0.044056487709283831 0.010934285189779033 -0.084468320260445276 -0.052055858387029731 -0.027397016351195898 0.12798433763285477 0.072706429991457197 0.0073378923264416779 0.12853956123193105 -0.055447569565768254 -0.088496969137340786 -0.0057139410000098386 -0.069123159619894889 0.012892613023342121 0.086841721770664071 0.081190657276998868 0.18369549130782103 0.13806662527223429 -0.048670744416969169 0.068031374523133945 0.21409959189593791 0.10421159588731826 0.16926837787032128 -0.023395587585400793 0.05883601519796583 0.035317430404635773 0.077523837076581059 -0.044798641430125352 0.092508599871680863 0.0030749301658943295 0.053322292845696208 -0.10639792859068953 -0.029072323052779486 0.0042069027821222942 -0.023856773413717749 -0.12869581747055056 -0.11496827496272144 -0.012955305776135488 0.079659666635450876 -0.1037974350452423 -0.11620119735598565 0.091410060071696844 -0.093119937312184722 -0.017819159334668749 -0.0018104299075073667 -0.010487414083697579 0.094293122162873111 -0.038375044986605648 -0.037908035134896635 0.036566019278123148 -0.092645409738024084
leaf_count=23 27 20 28 20 29 23 22 31 23 20 31 37 25 21 30 32 22 30 27 33 21 94 40 38 22 21 27 22 39 30 21 33 20 24 20 32 45 24 23 21 21 20 20 142 23 39 20 50 33 22 42 25 24 24 57 26 36 22 22 32 40 27 75
internal_value=0 -1.06196 1.28483 1.68171 1.15933 1.91889 1.40499 0.913907 -0.10555 1.50218 1.15506 -0.600169 2.30057 1.5914 -1.52801 -0.733534 -0.91952 1.68268 0.766893 1.0277 1.20338 -1.22736 -0.472934 -0.963336 0.332221 0.0859489 2.0368 2.24617 2.93453 1.70084 0.168743 0.568498 3.30042 1.06052 1.24001 0.871295 0.493237 1.79583 2.40391 0.124742 0.623231 1.02393 -0.189644 -1.5878 -1.33313 -0.712536 -1.69308 -1.88015 -1.79883 -1.47428 2.05635 -1.35983 -1.44654 2.54731 -1.22898 -1.07048 -0.546857 0.650606 1.09079 -1.46873 0.123542 -0.157922 -1.43911
internal_count=2013 1091 922 522 163 359 153 107 46 143 114 548 206 83 543 467 348 61 400 250 222 206 142 78 150 123 163 138 61 77 81 60 43 201 168 101 77 67 43 64 43 47 119 523 237 87 150 130 286 144 62 48 80 46 111 56 58 65 43 89 87 67 169
shrinkage=0.05


Tree=15
num_leaves=64
num_cat=0
split_feature=16 16 2 134 6 46 89 29 5 58 71 59 130 28 60 130 0 131 62 130 139 55 10 100 64 56 100 0 0 1 101 61 76 63 57 18 141 139 75 72 55 1 8 103 21 128 66 79 1 136 21 2 13 1 48 88 100 2 1 36 0 22 125
split_gain=2273.31 253.688 193.579 90.4791 57.643 56.2676 59.6247 85.3273 60.1519 98.55 58.962 58.0788 55.849 85.2097 77.8798 57.6686 78.8769 59.472 68.8876 55.2184 54.4141 54.1769 69.2808 52.3788 48.8513 57.193 56.8349 45.1592 43.9436 54.0975 43.7942 49.9253 60.5517 57.4012 41.6242 38.5281 36.4044 36.2646 45.1072 38.2142 36.1804 35.7599 34.9972 44.1246 34.9351 40.1526 55.9523 32.483 31.3959 38.8938 35.2501 26.5595 25.239 38.9566 44.6079 26.5307 25.0677 23.8315 22.4367 21.1989 46.9342 26.8955 20.9014
threshold=1.6363916944840755 1.5670212364724356 1.2866839377085033 -0.17383101991219654 7.0961851359641397 1.7666950690140053 3.1930000000000001 0.47548897236428761 4.1187139000000004 0.014145048689304026 4.4777000000000013 4.0922139202683594 0.97457545872557561 7.2150000000000007 74458.839085935833 0.99431139642450883 2.2173557826085832 0.99345694852162947 -35.499999999999993 0.99301304126450773 -0.0082037840719714015 1.5893437811748956 1.0000066667111116e-05 3.892617449664448e-07 -28.499999999999996 3.7373705636422589 -3.5973154362416106e-06 2.3709308575564454 2.3028090005315391 2.0222000220785215 2.4167311454275786e-05 9.3373063804710963 5.5692387641759113 -32.499999999999993 75023.048571171224 2.5019386422723842 -0.0012292673368938638 -0.0048133548026616955 91.500000000000014 1.7250000000000003 3.1746543705561465 1.9093999257451872 2.4868235338251545 -1.0000666711113906e-05 0.0038680957159294076 0.82643379374406667 5.3450000000000006 0.22240562697896751 1.9505761794505971 0.18726155177062814 0.022821151526794151 1.2472191289246466 4.3567125000000013 2.0001010075496133 11.616863390878756 0.71321333333333348 1.0000000180025095e-35 1.2692955176471468 1.8949694101322592 -1.9330829220414714e-05 2.4262037520498003 -0.034702832999844592 0.97712922689072634
decision_type=2 2 2 2 2 2 2 2 2 2 2 2 2 2 2 2 2 2 2 2 2 2 2 2 2 2 2 2 2 2 2 2 2 2 2 2 2 2 2 2 2 2 2 2 2 2 2 2 2 2 2 2 2 2 2 2 2 2 2 2 2 2 2
left_child=1 12 19 -3 5 -5 -7 8 9 -8 -9 20 14 23 -1 17 41 18 58 -2 -10 -19 -23 -14 25 57 -27 40 -28 48 31 32 37 -33 -16 36 -26 -22 39 42 -4 -17 51 -44 52 46 -46 -38 50 -50 -30 -39 53 54 -42 -54 -37 -21 -15 -29 61 -61 -47
right_child=2 3 27 4 -6 6 7 10 11 -11 -12 -13 13 15 34 16 -18 21 -20 24 30 22 -24 -25 35 26 28 59 29 -31 -32 33 -34 -35 -36 56 47 38 -40 -41 44 -43 43 -45 45 62 -48 -49 49 -51 -52 -53 55 -55 -56 -57 -58 -59 -60 60 -62 -63 -64
leaf_value=-0.017182126365202881 -0.09382812366155642 -0.054428894693652786 -0.11452520185938249 -0.031091005719887717 -0.020135320723056793 -0.035127950069450201 0.028883272281847894 0.15880993792209133 -0.023371948201674972 0.1739827759563923 0.051609887020743421 0.11039068941771985 0.2006525242834219 0.091680632971904499 0.13793067312376067 0.11752263918105099 0.0486093626582417 0.032883137068711224 -0.035749450667450826 -0.015985350967163133 0.093614673547978922 0.1711584023811156 0.060069945797324178 0.10556528297563395 -0.063538117533506341 -0.07501537870615721 0.06237842299648233 -0.13115907324397044 -0.017228766131613935 0.063372085882084705 -0.029362630166790707 0.031955108362616912 -0.044824982078179074 0.12209372249873061 0.038265970936045057 -0.1153049906094869 0.048691273629665383 0.008482268976944464 0.096971469534480048 0.081994010846723211 -0.1258398169820959 0.19631549615102512 0.049765812559053303 -0.038363847026259321 0.041886210325174034 -0.041627415103068083 -0.052366410093682425 -0.024887481729189559 -0.0813715586374546 0.0079767711549287752 0.06211014531907582 0.081599363231140642 -0.091739791206488716 -0.003219708978113803 -0.027271398591498536 -0.028602566886693239 -0.045074578284941338 -0.087004343861783004 0.024566344413906337 -0.11919658828865398 -0.021367879366052563 -0.07809354778663774 -0.10124839861832916
leaf_count=28 28 27 26 24 38 21 25 29 40 22 23 25 28 33 22 36 29 24 24 21 28 32 25 30 43 20 37 23 42 28 22 33 23 38 20 24 20 27 23 22 22 24 20 49 32 49 31 60 29 21 21 23 99 33 24 20 27 27 20 55 29 144 21
internal_value=0 1.11233 -1.01563 0.69905 0.786016 0.873388 0.946177 1.01953 0.869926 1.93604 2.22789 0.735589 1.75375 1.93863 0.948198 1.6825 2.32631 1.31985 0.690598 -0.516845 0.629826 1.91803 2.44871 3.02939 -0.426198 -0.13937 0.0980358 -1.38315 0.277625 0.0231007 0.772328 0.876911 0.636813 1.60397 1.80943 -0.831712 -0.528709 0.820491 0.640915 0.429101 -1.15463 2.9808 0.20526 -0.25638 -1.06541 -0.669016 -0.0898413 -0.129856 -0.285232 -0.876905 0.184351 0.842323 -1.33167 -0.893478 -1.48826 -1.62257 -1.56248 -1.11867 1.32709 -1.70818 -1.61587 -1.78907 -1.19027
internal_count=2013 957 1056 582 555 517 493 472 420 47 52 373 375 305 70 247 89 158 77 448 348 81 57 58 420 246 198 608 178 141 308 286 215 71 42 174 123 192 164 141 357 60 119 69 331 133 63 80 113 50 63 50 198 79 46 119 51 48 53 251 228 199 70
shrinkage=0.05


Tree=16
num_leaves=64
num_cat=0
split_feature=16 16 2 134 102 1 55 28 130 28 139 14 130 20 139 100 29 139 1 134 81 140 23 2 89 109 75 6 101 81 16 136 10 115 101 112 77 129 16 65 2 8 87 140 136 104 65 72 7 136 56 55 50 65 89 72 130 107 60 83 47 60 28
split_gain=2051.66 228.953 174.705 81.6573 54.587 58.4544 53.3195 66.5329 50.4037 76.9018 71.4922 102.665 52.0459 61.9965 52.8085 47.2719 45.3817 48.2955 48.589 68.698 44.8162 54.806 43.7258 41.3365 48.3169 43.2425 39.7655 39.7236 40.6253 39.1084 44.4589 38.5935 55.7073 48.1404 38.0058 35.6733 38.4935 37.0547 45.3903 40.5964 33.0445 35.6966 33.0017 32.2161 30.6909 30.6771 30.282 28.8607 26.5729 34.2997 30.317 25.2474 24.6864 24.2218 21.6798 21.4068 27.3105 21.0187 24.1033 21.6342 20.0077 19.1497 18.7289
threshold=1.6363916944840755 1.5670212364724356 1.2866839377085033 -0.17383101991219654 2.8352234823215454e-06 1.9279444219753643 3.9001083169034687 13.295000000000002 0.97457545872557561 7.2150000000000007 -0.0010602888008444122 0.079571135349215408 0.99431139642450883 2.586666163586135 -0.0052067417320492406 3.892617449664448e-07 0.47548897236428761 -0.0086879608687967774 1.9917760208352355 -0.15439785738320708 5.0565000000000007 0.00042815483026810544 0.023682018214426354 1.2649110640673342 3.4765000000000006 3.8435000000000001 89.500000000000014 6.4079147345364014 7.3721828782640772e-06 5.3695000000000013 1.5776212754932872 0.11695987583520225 1.0000000180025095e-35 11.362116583944902 3.2508624816485662e-06 2.6134154330050401e-06 129.50000000000003 1.0615599297419316 1.7029386365948085 8.4512183901242803 1.2692955176436398 2.5547834381935703 35.500000000000007 0.00073917874544509438 0.12163952904882698 5.2410614297916371e-08 3.6624486033195267 -3.4449999999999998 2.6091579494518027 0.15347789569590872 5.2662155127405663 3.1835119724888368 74822.871493222716 5.3693733467960021 3.8185000000000007 -1.3549999999999998 1.0738532792999769 4.5343500000000008 74475.666461452143 -98.499999999999986 75022.653890929956 74696.894372317372 8.0350000000000019
decision_type=2 2 2 2 2 2 2 2 2 2 2 2 2 2 2 2 2 2 2 2 2 2 2 2 2 2 2 2 2 2 2 2 2 2 2 2 2 2 2 2 2 2 2 2 2 2 2 2 2 2 2 2 2 2 2 2 2 2 2 2 2 2 2
left_child=1 8 4 -3 5 22 7 16 10 15 -1 -12 14 45 -11 -10 17 -5 19 -19 21 -7 26 24 -21 -26 -2 29 54 30 -27 33 -33 -16 40 36 37 38 39 51 -6 -42 48 -41 -20 -14 -35 -9 -22 -50 -51 -4 -53 61 -29 56 -40 58 -55 -59 -56 -54 -31
right_child=2 3 35 6 34 20 -8 47 9 12 11 -13 13 -15 31 -17 -18 18 44 23 42 -23 -24 -25 25 27 -28 28 -30 62 -32 32 -34 46 -36 -37 -38 -39 55 43 41 -43 -44 -45 -46 -47 -48 -49 49 50 -52 52 53 57 60 -57 -58 59 -60 -61 -62 -63 -64
leaf_value=0.11727238933596273 -0.020877255159227746 -0.051707449389828575 -0.10331164449453355 -0.021059506513723514 0.035250198371984343 0.04789680982753635 -0.022400008503879822 0.061988007627201802 0.19061989709734917 -0.0073391325933777774 -0.05963102325797081 0.088466847260397941 0.1069747253805399 0.062154450836150267 0.093620875655588784 0.10028702019403378 0.088992786777412736 0.13379749419167639 -0.041557992018502334 0.085113137774169456 -0.028720215130974919 -0.060309256816452196 -0.038640363653038828 0.094827457645843771 -0.025971909033486975 -0.02204508469828094 0.065893941156325797 0.07051320216901924 -0.042419020659648456 0.058569589294493199 0.070694744354113936 0.16442869060362381 0.051440824980090838 -0.023809207319503742 0.062738395622000107 -0.10853846367862491 -0.10013010571400326 0.0042359744077143466 -0.10930052235906507 0.01333670650775998 -0.067887827620531124 0.018349064774811269 -0.012767245130879538 -0.060290550192197173 0.027140470724112381 0.18454685695469381 0.056917034634030785 0.13404868847380083 -0.10631388342340611 -0.078439820713053152 -0.01221188665367663 -0.015719408283217086 -0.054009091026253175 -0.056068676945410283 0.035500112274395569 -0.037102186344563963 -0.057452513801084987 -0.016800206032549513 -0.10845716503950267 -0.073824956545080894 -0.027190345898270608 0.0070118819177150725 0.12617682123645432
leaf_count=23 23 27 29 41 27 25 35 33 28 23 25 22 25 38 44 30 36 20 29 37 37 22 43 29 37 24 31 23 26 20 28 24 20 21 24 45 60 23 81 39 30 20 35 24 37 26 26 24 56 48 27 36 36 38 35 20 37 29 52 39 20 20 21
internal_value=0 1.05672 -0.964845 0.664098 -0.491003 -0.679325 0.746715 0.827129 1.66606 1.8417 0.900789 0.193828 1.59837 2.20999 1.25386 2.87792 0.701623 0.610718 0.720325 0.881453 -0.934984 -0.0550568 -0.0204124 0.76182 0.640392 0.472489 0.578717 0.65879 0.234155 1.13365 0.557835 1.49248 2.26141 1.1207 0.156005 -1.31399 -1.24551 -1.1552 -1.21461 -1.01928 -0.186467 -0.667861 -1.13871 -0.294235 -0.0609043 2.93043 0.416957 1.84659 -1.32274 -1.53411 -1.09196 -1.183 -1.08054 -1.20943 0.595 -1.69871 -1.86086 -1.40972 -1.72675 -0.990112 0.254072 -0.644318 1.86395
internal_count=2013 957 1056 582 448 347 555 520 375 305 70 47 247 89 158 58 463 427 386 320 250 47 97 300 271 234 54 197 104 93 52 135 44 91 101 608 563 503 480 342 77 50 203 63 66 51 47 57 168 131 75 279 250 214 78 138 118 158 90 68 55 56 41
shrinkage=0.05


Tree=17
num_leaves=64
num_cat=0
split_feature=16 16 2 134 6 46 130 141 22 5 130 60 28 3 20 107 139 58 20 109 32 100 71 16 94 119 110 76 76 56 78 112 29 105 98 0 57 100 129 136 55 21 140 98 68 106 127 3 56 48 104 87 138 128 77 88 50 132 60 31 54 132 94
split_gain=1851.63 206.63 157.671 73.6958 50.3332 48.4821 48.3812 46.3593 51.1084 67.8907 45.4893 69.5413 69.4038 49.5161 54.0315 71.5447 45.1931 44.3207 43.9507 51.1114 49.4826 42.6629 42.5216 56.2108 44.2105 40.7809 51.1529 50.8893 51.7411 48.939 46.1645 46.9205 45.4432 49.4759 39.1199 38.4164 37.4725 37.2701 35.4078 32.2179 30.0013 29.9604 36.3082 35.0646 32.5352 28.9382 28.4223 30.6083 33.3604 26.9068 26.0682 25.7999 24.6284 23.8854 23.0052 22.1808 22.0458 21.95 20.8619 20.5451 20.4561 19.8265 18.0037
threshold=1.6363916944840755 1.5670212364724356 1.2866839377085033 -0.17383101991219654 7.0961851359641397 1.7666950690140053 0.99301304126450773 0.012011805948097741 -0.002510075566853274 4.1015370000000013 0.97457545872557561 74458.839085935833 7.2150000000000007 0.51639777949450683 2.5899315130813281 4.3188000000000004 -0.0046024743619247173 0.061452193462190295 2.670802160739258 3.6695000000000002 4.7483235917859652 3.892617449664448e-07 4.6748500000000011 1.6465452046973128 66.346373961771334 18.740550373967071 18.500000000000004 5.5247315519283413 3.5417917779103152 6.301414089680959 65.554260734641858 5.7154914135873551e-07 -0.011598354035471449 -6.8162270125231877e-07 3.3207648845809534 2.3709308575564454 75023.048571171224 1.5100671140939606e-06 1.0615599297419316 0.073096978051169034 3.1746543705561465 0.0038680957159294076 -0.00040106139570125001 4.6564512704811705 3.4050000000000007 5.5165000000000015 0.96443077942366495 0.51639777948581933 4.6334118133217466 10.374918707581333 5.0959438882212259e-07 7.5000000000000009 -0.0074141312723272788 0.83965699791709947 41.500000000000007 0.71363666666666681 74953.843150506043 0.93424556992235586 74563.055993746399 98.65000000000002 124.05000000000001 0.93384535874104857 52.689801135029434
decision_type=2 2 2 2 2 2 2 2 2 2 2 2 2 2 2 2 2 2 2 2 2 2 2 2 2 2 2 2 2 2 2 2 2 2 2 2 2 2 2 2 2 2 2 2 2 2 2 2 2 2 2 2 2 2 2 2 2 2 2 2 2 2 2
left_child=1 10 6 -3 5 -5 -2 8 -7 -10 11 -1 21 14 15 -14 -17 -16 -8 20 -20 -12 46 24 -24 26 27 28 -11 32 31 -30 33 -27 -32 40 -13 53 45 -18 -4 44 43 -43 -42 62 47 48 -21 -25 61 -50 -49 -34 -28 -46 -22 -15 -54 -44 -61 -41 -37
right_child=2 3 35 4 -6 7 18 -9 9 25 12 36 13 57 17 16 39 -19 19 22 56 -23 23 49 -26 29 54 -29 30 -31 34 -33 37 -35 -36 38 -38 -39 -40 50 41 42 59 -45 55 -47 -48 52 51 -51 -52 -53 58 -55 -56 -57 -58 -59 -60 60 -62 -63 -64
leaf_value=-0.018248805047811144 -0.086960389132478416 -0.049122077281828283 -0.10359315327726877 -0.029844632746486851 -0.020070801959618145 -0.017008009529043293 0.043883470223786747 0.10926832935214044 0.12098879168430965 -0.011611370613862729 0.1810889010982854 0.1285086315125227 0.1506430241728908 0.15531724174506964 -0.025160448773441691 0.0017565119545906783 0.028466025465362085 0.068079384369775661 0.080851901695132261 -0.062382614992558962 0.022250142941872279 0.095272668537994223 -0.0097487826738506568 -0.076591408749421441 0.081297755738099428 0.090140905808657412 0.016191890205749692 -0.035429767500609159 0.073676405944980872 0.0090581765700433713 0.14756530875509435 -0.0054822648358013905 0.051486585480826241 -0.018517996108328754 0.064179856549852934 -0.036567632335683574 0.033944932445883751 0.15469519765604112 -0.026433284630378091 0.10686941068796885 -0.0013001440713802973 0.033000100995687877 -0.015566139825834678 -0.048011608049273492 -0.074134166094054488 -0.13740852941637455 0.0072710181741664813 -0.10654456468694139 0.039328300952911378 -0.0097347609917907158 0.13415286284353997 -0.031157270534517795 -0.077948298305273056 0.11998307929374277 -0.043880236732463045 -0.02243376470093305 -0.051099927648901949 0.087693899136502301 -0.014284428615461697 -0.10802770938192095 -0.043685428760945805 0.039672971970361209 -0.08362211609738214
leaf_count=28 28 27 26 24 38 37 26 25 27 29 28 22 29 24 26 24 24 25 21 50 21 30 30 27 24 20 34 20 39 37 22 36 35 22 39 23 20 21 30 21 21 34 26 22 153 23 24 33 20 34 27 37 31 20 30 24 20 24 22 21 30 23 175
internal_value=0 1.00388 -0.916603 0.630893 0.709379 0.791024 -0.466453 0.85859 0.787715 0.884539 1.58276 0.855749 1.74961 1.51846 1.29856 1.60444 1.26121 0.410907 -0.381603 -0.464702 0.368756 2.73402 -0.620348 -0.128742 0.614327 0.781937 0.531266 0.797853 0.980453 1.18463 1.23904 0.713605 1.49927 0.664487 1.88507 -1.24829 1.66957 1.9606 -1.54807 1.57096 -1.03752 -0.956275 -0.58919 0.0234814 -1.20285 -1.68645 -0.880876 -1.0085 -0.651474 -0.786541 1.90954 -0.12851 -1.4527 1.52789 -0.239338 -1.34248 -0.270608 2.43011 -1.03044 -1.03477 -1.40359 1.43488 -1.56312
internal_count=2013 957 1056 582 555 517 448 493 468 431 375 70 305 247 199 148 119 51 420 394 62 58 332 115 54 404 249 185 165 155 136 75 118 42 61 608 42 76 251 95 357 331 133 56 198 221 217 193 107 61 71 57 86 55 64 177 41 48 53 77 51 44 198
shrinkage=0.05


Tree=18
num_leaves=64
num_cat=0
split_feature=16 16 2 134 55 28 102 1 130 117 101 28 130 0 139 89 29 139 1 134 8 97 100 1 0 2 89 109 6 101 5 126 105 0 64 53 3 129 55 21 128 66 68 2 106 31 1 90 13 139 72 127 88 6 16 54 82 3 109 76 31 8 140
split_gain=1671.09 186.484 142.299 66.5104 46.563 58.4774 46.4992 50.7018 41.0541 66.1279 89.7803 62.637 46.2538 66.3313 46.1467 39.9897 39.2973 43.1628 43.5008 59.178 38.9013 51.917 38.5033 37.2726 37.3069 36.9433 42.3446 38.7325 35.5447 35.287 35.2186 35.202 35.1139 34.6708 34.5351 56.5349 32.1819 31.9555 27.0762 27.0393 33.6179 48.2668 29.363 26.927 26.1167 25.9345 25.8001 25.5668 32.2529 29.5245 25.2499 22.2017 20.7883 27.6728 24.7715 20.2671 19.0198 19.1768 18.9043 18.5369 17.3561 17.1799 22.2677
threshold=1.6363916944840755 1.5670212364724356 1.2866839377085033 -0.17383101991219654 3.9001083169034687 13.295000000000002 2.8352234823215454e-06 1.9279444219753643 0.97457545872557561 1.3686906500000002 3.1183613072738394e-07 7.2150000000000007 0.99457130035626407 2.2173557826085832 -0.0054259344014766656 3.4835000000000007 0.47548897236428761 -0.0086879608687967774 1.9917760208352355 -0.15439785738320708 2.5715318929137712 4.2337300000000004 3.892617449664448e-07 2.0075488848579983 2.3064249304053148 1.2649110640673342 3.4765000000000006 3.8435000000000001 6.4079147345364014 7.3721828782640772e-06 4.3339127000000008 0.34280057056653335 1.7014578882610387e-06 2.3709308575564454 -9.4999999999999982 75.500000000000014 0.51639777950094556 1.0615599297419316 3.1746543705561465 0.0038680957159294076 0.82643379374406667 5.3450000000000006 3.4050000000000007 1.2472191289240644 5.5165000000000015 54.250000000000007 1.8881876297798474 4.3595000000000015 4.519375000000001 -0.0025434311486829619 -3.4449999999999998 0.95446437776259019 0.6760666666666667 7.5094774718123221 1.6633299933173549 93.950000000000017 3.6050000000000004 0.51639777949445209 4.2165000000000008 6.6949984796813116 135.00000000000003 2.5487970429908722 0.0033002077112530624
decision_type=2 2 2 2 2 2 2 2 2 2 2 2 2 2 2 2 2 2 2 2 2 2 2 2 2 2 2 2 2 2 2 2 2 2 2 2 2 2 2 2 2 2 2 2 2 2 2 2 2 2 2 2 2 2 2 2 2 2 2 2 2 2 2
left_child=1 8 6 -3 5 16 7 15 9 10 -1 22 14 32 -13 -2 17 -5 19 -19 21 -9 -10 24 -8 26 -21 -28 30 56 43 -20 -14 38 35 -16 46 44 -4 42 41 -41 -40 -29 61 -37 -17 48 49 -23 -7 -36 59 54 -54 -42 -30 -58 -32 -44 -57 -35 -63
right_child=2 3 33 4 -6 50 23 20 11 -11 -12 12 13 -15 34 36 -18 18 31 25 -22 47 -24 -25 -26 -27 27 28 29 -31 58 -33 -34 37 51 45 -38 -39 39 40 55 -43 52 -45 -46 -47 -48 -49 -50 -51 -52 -53 53 -55 -56 60 57 -59 -60 -61 -62 62 -64
