tree
version=v2
num_class=1
num_tree_per_iteration=1
label_index=0
max_feature_idx=171
objective=regression
feature_names=q01_roll_std_100 min_roll_std_100 q01_roll_std_10 min_roll_std_10 hmean gmean Hilbert_mean q01_roll_std_1000 min_roll_std_1000 max_roll_std_1000 mean_change_abs iqr iqr1 ave10 mean_change_rate_first_50000 sum q05_roll_std_10 q05_roll_mean_10 q05_roll_std_100 q01_roll_mean_10 q05_roll_std_1000 mean_change_rate_last_10000 mean_change_rate_last_50000 mean_change_rate_first_10000 q99 max_roll_std_100 q75Audio q25Audio abs_max_roll_mean_100 skew q01 abs_max_roll_mean_10 abs_std q95 q05 min_roll_mean_10 abs_trend q95_roll_mean_10 q95_roll_std_10 abs_q95 ave_roll_std_10 stdAudio ave_roll_mean_10 ave_roll_std_100 ave_roll_std_1000 abs_mean std_roll_std_10 av_change_rate_roll_std_10 q95_roll_std_100 std_roll_std_100 av_change_rate_roll_std_100 minAudio max_first_10000 maxAudio max_roll_mean_10 std_roll_mean_10 std_first_10000 av_change_rate_roll_mean_10 mean_change_rate std_roll_std_1000 av_change_rate_roll_std_1000 q95_roll_std_1000 min_first_50000 min_first_10000 min_last_10000 std_first_50000 q95_roll_mean_100 max_roll_mean_100 q05_roll_mean_100 std_roll_mean_100 av_change_rate_roll_mean_100 avg_last_10000 min_roll_mean_100 max_first_50000 ave_roll_mean_100 max_last_50000 std_last_50000 max_last_10000 max_roll_std_10 std_roll_mean_1000 av_change_rate_roll_mean_1000 max_roll_mean_1000 q01_roll_mean_100 min_last_50000 mad ave_roll_mean_1000 q95_roll_mean_1000 max_to_min_diff stdAudioIncrease min_roll_mean_1000 q05_roll_mean_1000 count_big abs_max_roll_std_1000 abs_max_roll_std_10 abs_max_roll_std_100 meanAudio avg_last_50000 avg_first_50000 std_last_10000 q99_roll_mean_10 av_change_abs_roll_mean_1000 av_change_abs_roll_std_1000 av_change_abs_roll_mean_100 av_change_abs_roll_mean_10 av_change_abs_roll_std_100 av_change_abs_roll_std_10 q99_roll_mean_1000 avg_first_10000 kurt q01_roll_mean_1000 abs_q99 q99_roll_mean_100 trend q99_roll_std_10 modeAudio q99_roll_std_1000 medianAudio max_to_min abs_q01 q99_roll_std_100 abs_q05 Hann_window_mean_50 Hann_window_mean_150 Hann_window_mean_1500 Hann_window_mean_15000 classic_sta_lta1_mean classic_sta_lta2_mean classic_sta_lta3_mean classic_sta_lta4_mean classic_sta_lta5_mean classic_sta_lta6_mean classic_sta_lta7_mean classic_sta_lta8_mean autocorr_1 autocorr_5 autocorr_10 autocorr_50 autocorr_100 autocorr_500 autocorr_1000 autocorr_5000 autocorr_10000 abs_max_roll_mean_1000 Kalman_correction exp_Moving_average_300_mean exp_Moving_average_3000_mean exp_Moving_average_30000_mean MA_700MA_std_mean MA_700MA_BB_high_mean MA_700MA_BB_low_mean MA_400MA_std_mean MA_400MA_BB_high_mean MA_400MA_BB_low_mean MA_1000MA_std_mean q999 q001 Rmean Rstd Rmax Rmin Imean Istd Imax Imin Rmean_last_5000 Rstd__last_5000 Rmax_last_5000 Rmin_last_5000 Rmean_last_15000 Rstd_last_15000 Rmax_last_15000 Rmin_last_15000
feature_infos=[2.1564092863137225:2.7247277688133651] [1.5987368751486206:2.285218200132721] [1.1737877907770979:1.56347191994115] [0:0.69920589878028683] [2.808187044609483:4.9279681359544769] [3.5825385999999999:9.4654179999999997] [5.2415348333391645:50.671826806405754] [2.4676142567508617:3.1754412964868104] [2.348598713257751:2.8725268337143879] [5.2154218069706131:1390.8448870437765] [-0.00078667191114607446:0.00074000493336622247] [3:13] [9:89] [3.6503666666666663:5.3939500000000002] [-0.1123902064913862:0.14179176504282859] [207622:808799] [1.5055453054180146:2.0682789409983808] [-24.5:3.2000000000000002] [2.3001097909675363:3.0633710882548937] [-225.44999999999999:2] [2.5269961831608474:3.5298695413545298] [-0.11978344602523246:0.17506373156509591] [-0.097603141946637939:0.16094230601280834] [-0.12061458111762373:0.17580883963915803] [11:337] [10.010923326975675:2098.2074370492751] [6:11] [-2:3] [5.6100000000000003:496.20999999999998] [-3.1260406962635265:4.2194288243558846] [-336:-2] [17.100000000000001:4380.1000000000004] [2.5890852183163084:150.43236825417767] [9:50] [-39:0] [-4380.1000000000004:-6.4000000000000004] [-0.00069577447282736886:0.00033072905569114314] [5.7000000000000002:34.799999999999997] [3.8887301554905362:69.78204161013764] [9:90] [2.5995048583961702:26.10412483750418] [2.8492028999999999:153.67862] [3.654187929009074:5.3923822164663209] [2.7769614010329824:39.153994265819065] [2.8066035499020558:42.577828501521637] [4.1477066666666671:32.762073333333333] [0.86960087362884642:109.41231004547069] [22760.625151912885:76007.607221321436] [3.3588568281364446:97.310916887340284] [0.60042555574391887:148.94719266801354] [22666.935073186229:75964.828312551603] [-5515:-16] [13:3479] [30:3747] [17.100000000000001:2862.1999999999998] [1.1644689700041688:110.67245002955292] [2.6211690545863835:436.46745261486467] [22757.964557269526:75991.57755571774] [-0.086712172309210481:0.14276451945282165] [0.44320040487404921:148.73028532188806] [22209.016092182377:75448.015440714022] [3.428222821187632:109.17343026980178] [-5515:-7] [-5515:-4] [-1699:-4] [2.6819279287013469:226.39000726393243] [4.2599999999999998:8.2300000000000004] [5.6100000000000003:496.20999999999998] [0.17999999999999999:4.6799999999999997] [0.3365529160040725:15.966909976346299] [22665.474270634804:75960.699736103081] [3.3631000000000002:5.5568] [-372.54000000000002:3.23] [17:3479] [3.6541352626066534:5.3925197963989575] [17:3243] [2.7071704444745084:128.66221248693822] [13:1456] [14.523544103741806:2971.0269904155671] [0.16992810842302414:3.5770345912695567] [22209.174352479571:75448.557242090814] [4.258:73.841999999999999] [-26.629999999999999:4.3099999999999996] [-1897:-8] [2.2281416604445821:31.724965651468612] [3.6548011288514841:5.3925303387225583] [4.0510000000000002:7.226] [-2036:1346] [0.42807827616534738:0.78298666666666672] [-48.777999999999999:4.54] [1.8730000000000002:4.9689999999999994] [0:2082] [5.2154218069706131:1390.8448870437765] [14.523544103741806:2971.0269904155671] [10.010923326975675:2098.2074370492751] [3.6542332000000002:5.3919934999999999] [3.5514600000000001:5.4859599999999995] [3.4480599999999999:5.5157999999999996] [2.6203623394254056:136.45070471434622] [7:251.11000000000058] [-1.508724832214765e-05:1.1420863309352514e-05] [-0.00036587584990985559:0.0003382371510771906] [-3.8025350233489003e-05:3.8625750500333555e-05] [-0.00074738315887725858:0.00040469364624308332] [-0.00045353238754379082:0.00063078538269458753] [-0.000526060371849054:0.00055023140163027687] [4.1379999999999999:12.222000000000001] [2.7618999999999998:5.5696000000000003] [0.99424744457449965:631.15892683450727] [-4.641:4.8780000000000001] [11:674.0100000000092] [4.5199999999999996:34.219999999999999] [-6.5007629549555673e-06:9.5287343273578634e-06] [5.1897334549409644:567.73378416663945] [4:6] [4.4874907881324386:953.24831232420559] [4:5] [0.51063829999999999:2.4761906000000002] none [5.1132231033909008:968.04971129346211] [0:1] [3.6540197183311034:5.3919520818605724] [3.653660529384458:5.3914864318308737] [3.6488397009490479:5.3843482565412053] [3.6016285672822272:5.3107105679209869] [0.79537139351946329:1.0891537392056918] [0:1.2302991128655421] [0.85078181227039007:0.97955739052546076] [0.46177994256079569:0.95137909336644555] [0:1.0783298082733859] [0.89192471016597963:1.1547550071184729] [0:0.99733447848836521] [0.78573122964120579:0.98048774422255558] [0.42331645950434976:0.97018863573686065] [-0.2412399859758825:0.40555209443842583] [-0.64179140125033241:-0.078152212712938263] [-0.088714748341982952:0.55470845964870197] [-0.44404260707617865:0.45475068418122472] [-0.092417865830609139:0.14751454150797566] [-0.098716652647818676:0.072693322193793694] [-0.030099631471133606:0.063626192355735398] [-0.039262153376697688:0.060117222569058472] [4.258:73.841999999999999] [1.9518508285961798:25.276520938497239] [3.654479591185984:5.392367527999169] [3.656859179464901:5.3911399712353214] [3.6706801454677822:5.4042483199718987] [2.8002052810032625:41.527308976396725] [12.616862665040252:129.2238751124863] [-119.93997874589407:-3.6492618859508177] [2.7918263322122701:40.489373848144453] [12.581264487024908:126.1100697277295] [-116.82617336113724:-3.6241250395778386] [2.8066035499020381:42.57782850152185] [15:1740.0019999999786] [-1693.0079999999998:-6] [-106:74.000000000000014] [1093.878421032246:42126.253061481744] [207621.99999999997:808799] [-514814.91433320154:-4709.1643751332786] [-2.9928438986341166e-14:4.5013924439748135e-14] [491.2575699162303:42094.98967810777] [4389.1229210148049:541129.40686954814] [-541129.40686954814:-4389.122921014804] [-754.31490491109957:532.36592136057743] [814.34971907746228:96095.569257410476] [3588.7316406701088:439570.45858373435] [-442618.99550136545:-3103.8333571431622] [-282.4743705510578:222.33834814737281] [583.7653026576271:93811.160245564606] [5136.8975317467393:559463.70466397249] [-514814.91433320154:-4709.1643751332767]
tree_sizes=2387 2434 2449 2441 2455 2449 2477 2465 2443 2459 2467 2470 2467 2446 2489 2471 2488 2472 2476 2509 2491 2521 2492 2506 2528 2507 2513 2507 2504 2496 2506 2512 2507 2500 2500 2504 2506 2500 2509 2531 2502 2517 2485 2506 2515 2524 2523 2505 2527 2537 2516 2529 2532 2502

Tree=0
num_leaves=31
num_cat=0
split_feature=18 20 20 20 166 109 86 160 7 18 168 157 115 155 29 43 77 58 22 164 88 109 20 88 87 23 102 140 31 98
split_gain=10306.7 1404.17 665.332 268.62 273.644 196.01 185.983 147.378 126.538 114.168 112.663 119.508 103.106 125.683 102.933 100.131 88.5379 86.5239 86.2205 82.612 79.7275 98.0253 89.2067 79.693 72.3614 70.4684 67.8878 65.2218 62.7084 59.2556
threshold=2.4656734220559122 2.6246349659720978 2.7442496070048126 2.5730198984846031 4482.3382756554875 3.6975000000000002 4.6050000000000013 -3.9411437076826884e-16 2.5735494275921673 2.5676109981576594 -3.3774590096098742 2015.9837536294478 16.147825547084036 -33.000499999999995 0.062882047892216977 4.0470075696660777 40.500000000000007 0.034723726486573993 0.046456330272033393 -8.6899345071638177 0.67842333333333349 3.8655000000000004 2.5937959199735965 0.72332333333333343 19.500000000000004 0.040148587715991106 -3.3355570380253815e-07 0.0031963791407422556 60.95000000000001 3.2068046048252201
decision_type=2 2 2 2 2 2 2 2 2 2 2 2 2 2 2 2 2 2 2 2 2 2 2 2 2 2 2 2 2 2
left_child=1 3 5 18 -5 -2 -4 10 16 -8 14 -12 20 -14 -6 19 25 -7 -1 -10 22 -22 -9 29 -20 -3 -21 28 -28 -13
right_child=2 8 6 4 7 17 9 12 15 -11 11 23 13 -15 -16 -17 -18 -19 24 26 21 -23 -24 -25 -26 -27 27 -29 -30 -31
leaf_value=5.9745391804076524 5.6552188097273701 5.7322911180088898 5.5926740201105485 5.6213022081650585 5.7569067019227678 5.5633520608026998 5.5137546580272474 5.8764601922131865 5.6611181054481481 5.4613393649994926 5.6384978396880818 5.8002844159525919 5.8484318542577114 5.727411274370839 5.9136346780503803 5.6463128473007842 5.6835962116469023 5.6293555834375884 5.8414722370281034 5.691772120534794 5.9502774950107078 5.8497594486198166 5.7305562557715373 5.8565094417430252 5.9192326506501294 5.8279639362522824 5.6673521037345074 5.8224436526428285 5.7774932897041209 5.6970297958425968
leaf_count=20 88 39 56 20 20 345 311 20 68 156 22 24 45 41 22 100 35 58 104 70 35 79 22 20 42 38 24 27 28 33
internal_value=0 2.34402 -2.18277 3.37397 2.933 -1.34676 -2.96763 3.1213 0.977953 -3.17413 2.30863 1.72641 3.5948 2.71568 3.68101 0.655132 1.89165 -1.64201 4.44454 1.03666 4.07944 4.51337 2.90165 2.31369 4.1778 2.49109 1.45348 2.08887 1.43414 1.71107
internal_count=2012 998 1014 569 403 491 523 383 429 467 141 99 242 86 42 317 112 403 166 217 156 114 42 77 146 77 149 79 52 57
shrinkage=1


Tree=1
num_leaves=31
num_cat=0
split_feature=16 7 16 16 18 165 87 66 89 16 130 164 108 165 16 18 51 37 90 82 104 5 45 165 97 21 140 83 20 134
split_gain=9605.3 890.866 804.055 250.639 164.928 149.735 142.123 138.78 128.899 122.517 117.16 132.468 117.27 105.247 103.38 103.188 101.894 82.9921 81.59 88.3213 77.0583 70.3288 69.9028 67.2251 65.7787 86.633 76.0743 82.9185 79.4271 73.9559
threshold=1.6363916944828045 2.5604788713295301 1.6865480854206176 1.5491933384829417 2.4850868326190345 986.91741665109146 13.500000000000002 4.8450000000000006 3.6675000000000004 1.581138830084279 0.98817485665811267 -3.4103341673724827 37.483917408587779 1165.0603634268441 1.5811388300849571 2.5642846086197033 -90.499999999999986 6.6250000000000009 3.8620000000000005 3.6350000000000002 9.7383741781172141e-06 4.2581883000000005 4.9048666666666678 1097.9318795920424 4.8263100000000003 0.016569738447834808 -0.0017051640927421114 -53.499999999999993 2.6592084140115921 -0.13510545340590327
decision_type=2 2 2 2 2 2 2 2 2 2 2 2 2 2 2 2 2 2 2 2 2 2 2 2 2 2 2 2 2 2
left_child=1 3 4 6 18 -5 -1 -4 20 10 11 -7 22 -3 -15 -9 21 -13 -2 -20 -6 -14 -12 -8 25 29 -27 28 -28 -16
right_child=2 13 7 5 8 9 23 15 -10 -11 12 17 16 14 24 -17 -18 -19 19 -21 -22 -23 -24 -25 -26 26 27 -29 -30 -31
leaf_value=0.16598668726200755 0.04319011178847991 -0.020121711836610406 -0.02512418020050973 0.014323405403157938 -0.062939562696091675 0.18438878948258799 0.28229704291101487 -0.13135629484124364 -0.10906582131026162 0.070003646087792262 0.31805021241307263 -0.013423017114400866 0.23464615274416772 0.12641148351132869 0.10494102703576738 -0.17910854043811561 0.076983587208932502 0.10857887271305788 -0.059208033310810676 0.015098929797348224 0.026554762424323065 0.15056962665532614 0.19958708856932142 0.18918471001088621 -0.015028310264460743 0.043718382202345751 0.2282141729541447 0.062666386079329714 0.10177155542704795 -0.00091473603988009877
leaf_count=94 38 36 24 23 141 43 63 320 172 46 20 20 38 65 22 175 31 46 134 57 29 72 33 28 29 58 23 39 27 66
internal_value=0 2.43518 -1.95003 3.2309 -1.1312 2.75785 4.18212 -2.85091 -1.57098 2.92072 3.15157 2.322 3.61767 1.22089 1.39852 -2.96477 3.141 1.43217 -0.474412 -0.740653 -0.953458 3.59228 4.8858 5.07294 1.12037 1.29572 1.7655 2.34624 3.1987 0.510984
internal_count=2012 922 1090 557 571 372 185 519 342 349 303 109 194 365 329 495 141 66 229 191 170 110 53 91 264 235 147 89 50 88
shrinkage=0.05


Tree=2
num_leaves=31
num_cat=0
split_feature=16 18 16 16 165 125 18 138 139 87 106 89 16 106 148 58 170 169 90 82 18 47 97 141 160 125 98 139 165 81
split_gain=8668.78 807.328 725.659 188.564 193.27 192.227 148.848 146.593 144.485 128.266 124.541 116.331 113.338 111.165 109.595 102.444 84.9507 103.968 73.6349 79.7099 72.3572 71.3401 80.2185 72.3768 67.5162 61.2082 66.3033 101.21 60.6707 59.7492
threshold=1.6363916944828045 2.3923594703973916 1.6865480854206176 1.5491933384829417 1139.0042133438258 0.93707287651223659 2.4850868326190345 0.0010017236311784671 0.0011638988792320468 13.500000000000002 4.7185000000000006 3.6675000000000004 1.5811388300849571 4.8855000000000013 15.144431469447975 0.013856716328001775 14739.1956713864 2271.6659397444255 3.8620000000000005 3.6350000000000002 2.5634375582410631 75145.281777855518 4.81698 -0.0053601450799758031 1.0307606620093189e-16 0.94329919390857186 3.9023625274895757 -0.0048398136014615274 1097.9318795920424 5.1685000000000008
decision_type=2 2 2 2 2 2 2 2 2 2 2 2 2 2 2 2 2 2 2 2 2 2 2 2 2 2 2 2 2 2
left_child=1 3 6 9 5 8 18 -7 -5 -1 -4 -8 14 -6 -3 20 24 -18 -2 -20 -12 22 23 -14 -15 -25 -27 -28 29 -11
right_child=2 12 10 4 13 7 11 -9 -10 28 15 -13 21 16 -16 -17 17 -19 19 -21 -22 -23 -24 25 -26 26 27 -29 -30 -31
leaf_value=0.15768735391345431 0.041030605951030003 0.010009629076177425 -0.048276986966313995 0.10457301504653077 0.25438186776253485 0.21751832112669947 -0.04528923836673665 0.072805213757923676 -0.049516014009714129 0.32626932492622962 -0.13389538638072876 -0.10361253063649285 0.12387286438183352 0.057618131428299579 0.13537191948797997 -0.079986799405566578 0.26739689427614216 0.14861171770840884 -0.056247630342841151 0.014343984268213573 -0.17607439352309004 -0.037254590828987681 -0.017332602472213861 0.011088913065366081 0.16585881552100182 0.11493735039882638 -0.025546356505065256 0.081170075385393031 0.17972547415910023 0.22736420695846149
leaf_count=94 38 22 38 29 31 35 170 35 32 26 253 172 44 34 84 58 25 70 134 57 170 22 33 61 25 54 33 68 28 37
internal_value=0 2.31342 -1.85253 3.17121 2.7018 1.77243 -1.07464 2.90324 0.474789 3.97302 -2.70836 -1.49243 1.29263 3.3599 2.18707 -2.84605 3.01211 3.59742 -0.450691 -0.70362 -3.01694 0.991645 1.12205 1.30846 2.06966 1.07033 1.40428 0.926047 4.81929 5.36364
internal_count=2012 922 1090 501 316 131 571 70 61 185 519 342 421 185 106 481 154 95 229 191 423 315 293 260 59 216 155 101 91 63
shrinkage=0.05


Tree=3
num_leaves=31
num_cat=0
split_feature=16 7 16 16 146 165 66 87 18 16 130 164 92 165 1 18 132 96 37 47 138 159 100 18 83 36 117 28 22 103
split_gain=7823.57 731.469 658.537 202.775 139.489 127.319 117.129 115.76 103.254 101.163 92.2818 113.565 104.232 91.6617 119.246 90.7049 87.3893 87.9801 75.9711 67.9474 69.2248 64.3452 57.9777 56.6546 63.4083 56.5346 64.3672 79.9691 59.6327 57.1505
threshold=1.6363916944828045 2.5604788713295301 1.6633299933178116 1.5491933384829417 4.2204609045201114 991.22247448649944 4.8050000000000006 13.500000000000002 2.4863668676140227 1.581138830084279 0.98817485665811267 -3.4103341673724827 19.249717567159532 1165.0603634268441 1.9695151424558197 2.5642846086197033 0.93164251970957135 4.548960000000001 6.6250000000000009 75072.392105927735 0.0040810199088402157 -20808.098874661413 3.6912751677852314e-07 2.337118142525477 -38.499999999999993 -4.2565549984114018e-06 1.1773172500000004 13.045000000000002 0.060613775102806695 4.0002666844457887e-06
decision_type=2 2 2 2 2 2 2 2 2 2 2 2 2 2 2 2 2 2 2 2 2 2 2 2 2 2 2 2 2 2
left_child=1 3 4 7 21 -5 -4 23 -6 10 11 -7 22 -3 25 -8 17 -14 -13 20 -18 -2 -12 24 -1 -15 27 28 -27 -28
right_child=2 13 6 5 8 9 15 -9 -10 -11 12 18 16 14 -16 -17 19 -19 -20 -21 -22 -23 -24 -25 -26 26 29 -29 -30 -31
leaf_value=0.23463950554529825 -0.016596366416500963 -0.020874574740365564 -0.019653615334071221 0.015685965001583101 -0.031483471810636002 0.16987299411779358 -0.11604708742360603 0.22891650290361476 -0.079355459089204675 0.063456520640655698 0.28936340138316158 -0.016697951182723044 0.25012473029394949 0.022744533210061493 0.020100225722934639 -0.15970292742558792 0.035262918935290405 0.13685320491960737 0.10042164945871467 0.17613363417152028 0.15009181539866231 0.084396947190786401 0.1717386374808848 0.093106892108917247 0.13386505254217096 0.029078495259293253 0.16324029542350521 0.15170903018116952 0.12313710810108619 0.065921431779861456
leaf_count=27 46 36 25 25 205 42 363 91 250 46 22 20 30 32 108 177 35 40 45 26 21 24 20 30 37 72 48 25 22 22
internal_value=0 2.19775 -1.7599 2.91878 -0.953557 2.49328 -2.50916 3.77437 -1.15574 2.65031 2.86139 2.11583 3.2726 1.09744 1.26321 -2.60713 2.8873 3.70796 1.2877 2.18673 1.56648 0.360598 4.66703 2.99606 3.52759 1.68407 1.89219 1.4446 1.02184 2.65309
internal_count=2012 922 1090 557 525 372 565 185 455 347 301 107 194 365 329 540 152 70 65 82 56 70 42 94 64 221 189 119 94 70
shrinkage=0.05


Tree=4
num_leaves=31
num_cat=0
split_feature=18 20 20 20 166 109 66 160 7 168 140 115 155 29 77 81 164 22 104 14 165 88 88 109 52 20 13 125 136 37
split_gain=6868.22 956.344 447.721 189.585 221.553 132.662 126.438 116.722 95.3561 90.3127 100.04 87.929 110.088 85.5594 84.7221 81.4542 107.699 74.9815 74.9703 72.9804 68.492 64.3103 63.641 77.867 71.8238 65.9568 62.0843 65.3837 61.961 61.259
threshold=2.4663390432218431 2.6246349659720978 2.7442496070048126 2.5730198984846031 4482.3382756554875 3.6975000000000002 4.955000000000001 -3.9411437076826884e-16 2.5725095345216475 -3.3774590096098742 -0.0019776076056997115 16.147825547084036 -33.000499999999995 0.062882047892216977 40.500000000000007 5.706500000000001 -8.6899345071638177 0.046456330272033393 -2.1745581497525663e-06 0.017957010993258759 950.64093360519064 0.71364666666666676 0.67842333333333349 3.8415000000000004 22.500000000000004 2.5937959199735965 4.6367000000000003 0.94051636179150422 0.099646944014317354 7.5500000000000007
decision_type=2 2 2 2 2 2 2 2 2 2 2 2 2 2 2 2 2 2 2 2 2 2 2 2 2 2 2 2 2 2
left_child=1 3 5 17 -5 -2 -4 9 14 13 -11 22 -13 -6 -3 16 21 -1 -19 -7 -20 -10 25 -24 -25 -9 27 -18 -12 -28
right_child=2 8 6 4 7 19 -8 11 15 10 28 12 -14 -15 -16 -17 26 18 20 -21 -22 -23 23 24 -26 -27 29 -29 -30 -31
leaf_value=0.27360870093107226 0.00094034601559584178 0.11181797882620717 -0.057524939459651259 -0.042910615243017675 0.078222807203419509 -0.086102630192596868 -0.13108468684349966 0.18434332326054573 -0.029330859338178444 -0.014467479754239322 0.052357707373999265 0.1622696930397716 0.049005794525146487 0.22111289176073942 0.014856598537528154 -0.041709388668338461 -0.01398284889641218 0.10888129850232822 0.11461166130459828 -0.043008651705724855 0.21174985520368397 0.064554476675887915 0.25977279917375806 0.2193172693045603 0.12589035161460441 0.058885417658496989 0.15220910064105331 0.061654943568632006 0.14585906793089473 0.041564611438661817
leaf_count=20 87 71 67 20 20 224 456 20 76 28 37 45 41 22 33 39 40 37 23 175 86 24 30 36 48 22 29 100 34 22
internal_value=0 1.90413 -1.79109 2.75692 2.38646 -1.10007 -2.43322 2.55589 0.78606 1.83267 1.31138 2.97728 2.16544 3.0614 1.62103 0.522919 0.704799 3.65631 3.40756 -1.34404 3.82506 -0.135968 3.42483 3.81252 3.31861 2.37255 1.14499 0.800883 1.94266 2.0896
internal_count=2012 1003 1009 569 403 486 523 383 434 141 99 242 86 42 104 330 291 166 146 399 109 100 156 114 84 42 191 140 71 51
shrinkage=0.05


Tree=5
num_leaves=31
num_cat=0
split_feature=16 20 16 0 165 90 86 81 18 109 165 149 149 4 100 87 137 87 149 126 21 149 166 87 71 2 13 86 5 9
split_gain=5982.8 656.176 497.976 141.422 167.771 119.338 107.141 176.579 104.811 97.02 96.5278 93.9165 91.0903 76.6284 76.1078 75.4494 86.7474 72.9333 79.4757 66.0891 65.2 64.9054 63.0506 65.5005 62.2113 61.8036 60.2886 63.096 60.5102 64.5921
threshold=1.6363916944842465 2.6246349659720978 1.6865480854206176 2.2140734432536413 1021.0677441235957 3.8455000000000008 4.730500000000001 4.9285000000000005 2.4863668676140227 4.2870000000000017 1170.7744034546324 -5.7541550272234963 -5.5373948229118986 3.2643947492435017 1.9664429530201354e-06 36.500000000000007 -0.11159163837052556 15.500000000000002 -5.1734192401906975 0.35958563535958232 0.056145256127846689 -8.5442139168024323 7331.6096562196126 11.500000000000002 4.6791500000000008 1.2649110640670129 4.313200000000001 4.7925000000000013 4.2967898500000006 25.774978894132079
decision_type=2 2 2 2 2 2 2 2 2 2 2 2 2 2 2 2 2 2 2 2 2 2 2 2 2 2 2 2 2 2
left_child=1 3 5 11 -5 -2 7 -6 24 13 -3 -1 -13 -4 15 16 -12 18 -14 22 25 -18 -8 -24 -7 -16 -23 -28 -29 -30
right_child=2 10 9 4 6 8 19 -9 -10 -11 14 12 17 -15 20 -17 21 -19 -20 -21 -22 26 23 -25 -26 -27 27 28 29 -31
leaf_value=0.23763426079281738 0.00097606555915417828 -0.067260448038578044 -0.075430690791578062 -0.011274411330620447 0.073977484670036509 -0.053038168390597801 0.14853062540394804 0.24312913972470496 -0.079723392529413115 -0.054209847016004377 0.11068259879015385 0.056145944456303755 0.048661760136485099 -0.13533674790063135 0.013081177067942918 -0.036276757051510844 -0.040463190259678025 0.19010287335094733 0.14896768910136629 0.054340227905374308 0.15380648767145783 0.10489518242257256 0.0423069349183193 0.12719325268680745 0.010015534985089496 0.12194593841718003 -0.052066807466603464 0.12141096288454718 -0.0040060413030109238 0.068776076487093066
leaf_count=28 94 20 62 30 27 106 73 36 280 51 40 28 25 384 32 34 28 78 94 65 26 31 44 47 62 22 21 20 70 54
internal_value=0 1.78285 -1.66781 2.46607 2.02647 -1.00487 2.25784 3.41271 -1.21981 -2.39077 0.795786 3.02556 2.81063 -2.54018 0.909066 0.676576 0.857151 3.05051 2.5579 1.94013 1.77509 0.614918 2.27833 1.72299 -0.595367 1.14867 0.818373 0.577976 0.814126 0.553788
internal_count=2012 973 1039 575 322 542 292 63 448 497 398 253 225 446 378 298 264 197 119 229 80 224 164 91 168 54 196 165 144 124
shrinkage=0.05


Tree=6
num_leaves=31
num_cat=0
split_feature=18 20 18 0 165 66 66 142 103 23 149 162 109 18 146 8 164 106 18 36 166 145 106 52 137 126 0 138 160 60
split_gain=5246.7 740.118 367.949 127.633 151.413 123.406 94.2763 140.398 92.5812 88.8442 84.7597 82.9125 80.521 76.8482 76.3442 69.3196 99.9435 67.7756 72.1131 67.1172 66.9496 66.2377 70.3958 81.9061 66.2682 70.8977 72.4439 70.3009 63.1361 62.5468
threshold=2.4674650632537882 2.6246349659720978 2.5181964044372309 2.2140734432536413 1021.0677441235957 4.8550000000000013 4.9850000000000012 4.9285000000000005 -1.2667511167411317e-05 0.034401380440219127 -5.7541550272234963 15975.760177942919 3.7085000000000004 2.48172105429903 4.8529699549687013 2.5758573392128672 -6.3126365965066178 5.0455000000000014 2.5634375582410631 3.9790950668435207e-07 10655.708394598028 4.3217225360309932 4.8905000000000003 19.500000000000004 -0.018462991763272058 0.32317050136549419 2.279941076007225 0.0046313507874670822 -1.2732925824820992e-16 74613.6159360163
decision_type=2 2 2 2 2 2 2 2 2 2 2 2 2 2 2 2 2 2 2 2 2 2 2 2 2 2 2 2 2 2
left_child=1 3 12 10 -5 -4 7 -6 -3 -9 -1 19 -2 -14 17 16 29 18 -7 -12 -17 -10 -23 -24 25 26 -25 -26 -13 -15
right_child=2 8 5 4 6 14 -8 9 21 -11 11 28 13 15 -16 20 -18 -19 -20 -21 -22 22 23 24 27 -27 -28 -29 -30 -31
leaf_value=0.22575254927256277 -0.0065685705798626927 -0.014679442147131672 -0.011199525147676468 -0.010710687786340715 0.070278610744410094 -0.082914794919802651 0.091593996013190404 0.29253424689173702 0.090981345052309981 0.14528539205590885 0.17731516423782237 0.0060895438864827164 -0.018531700181351467 -0.064794952491155036 -0.059345072431972734 0.04138284667084615 -0.10964430648807094 -0.14106181764199754 -0.14401403086286196 0.11652950821979635 -0.076718094308550158 -0.05103523219763504 0.11391798282663029 0.057481082613298366 -0.045556152619731921 0.08020751358320316 -0.039402460849710878 0.050119131937390198 0.12755815846764523 0.036318857595324515
leaf_count=28 91 88 30 30 27 151 224 20 59 21 95 20 88 65 54 24 141 233 71 87 24 23 33 43 48 84 35 32 23 20
internal_value=0 1.5934 -1.63659 2.34277 1.92515 -2.19492 2.14495 3.17624 0.625112 4.34228 2.87429 2.6701 -0.972261 -1.18365 -2.31109 -1.44476 -1.67656 -2.44451 -2.04911 2.96517 -0.353352 0.85157 0.659908 0.800469 0.598938 0.966671 0.280154 -0.145721 1.42122 -0.820069
internal_count=2012 1020 992 575 322 539 292 68 445 41 253 225 453 362 509 274 226 455 222 182 48 357 298 275 242 162 78 80 43 85
shrinkage=0.05


Tree=7
num_leaves=31
num_cat=0
split_feature=16 20 16 0 165 90 86 81 165 18 58 149 16 14 105 140 139 16 4 137 126 136 0 166 167 61 21 3 137 139
split_gain=4886.33 530.666 407.173 115.189 136.651 100.623 88.0313 144.577 86.0048 83.7013 83.1665 76.4956 78.0789 79.9265 71.7855 66.4507 101.016 67.3632 62.2721 59.785 59.4999 58.5426 58.0676 56.428 66.4005 83.7959 53.5935 53.2526 59.93 51.1019
threshold=1.6363916944842465 2.6246349659720978 1.6865480854206176 2.2140734432536413 1021.0677441235957 3.8455000000000008 4.730500000000001 4.9285000000000005 1170.7744034546324 2.4863668676140227 0.013856716328001775 -5.7541550272234963 1.5491933384829417 0.081820259313887825 5.8633612121460276e-06 0.0016511668805705363 -0.0089610859079167198 1.5811388300841871 3.2643947492435017 -0.1169636338422957 0.35958563535958232 0.095194859781485133 2.2386639215104855 7331.6096562196126 -8564.3106875270078 6.862138115668305 0.11705096716443124 0.56764621219197819 -0.082551867027624432 0.0044032090872712102
decision_type=2 2 2 2 2 2 2 2 2 2 2 2 2 2 2 2 2 2 2 2 2 2 2 2 2 2 2 2 2 2
left_child=1 3 5 11 -5 -2 7 -6 -3 -7 18 -1 14 -14 26 17 -17 -10 -4 -18 23 -19 -22 24 -8 -26 29 28 -23 -13
right_child=2 8 10 4 6 9 20 -9 15 -11 -12 12 13 -15 -16 16 19 21 -20 -21 22 27 -24 -25 25 -27 -28 -29 -30 -31
leaf_value=0.21446492062615499 0.0016426947958608892 -0.064868542551994327 -0.068469392442174495 -0.010175155202547709 0.066764679458854656 -0.027356704771296966 0.20441403241129594 0.21982268074320421 0.10599834118848261 -0.071998491533699319 -0.047564220800995829 0.17287886262767846 0.018843667774364869 0.13038142970763147 0.21392231026003439 -0.028435689826374469 0.16482419610023499 -0.03260776133586963 -0.12247301341509836 0.070429993897246621 0.0045863647169123089 0.10342095069813007 0.099656375365909836 0.077262153149234486 0.030467008460651746 0.16192478272649979 0.059999063837787386 -0.024162043969013863 0.024880006053860163 0.10217600629426714
leaf_count=28 94 20 62 30 27 168 24 36 23 280 51 63 29 36 31 23 20 48 384 104 36 33 29 91 22 27 23 35 92 43
internal_value=0 1.61122 -1.50725 2.22563 1.82889 -0.907789 2.0377 3.08453 0.723557 -1.10516 -2.16099 2.73057 2.5366 1.61237 2.91206 0.830484 1.35608 0.496015 -2.29932 1.7131 1.74971 0.316443 0.940044 2.07061 2.72553 2.05806 2.58371 0.607023 0.912296 2.88395
internal_count=2012 973 1039 575 322 542 292 63 398 448 497 253 225 65 160 378 147 231 446 124 229 208 65 164 73 49 129 160 125 106
shrinkage=0.05


Tree=8
num_leaves=31
num_cat=0
split_feature=16 20 16 160 4 86 86 111 20 45 21 14 109 109 165 87 128 100 87 137 139 6 32 35 129 21 4 127 8 2
split_gain=4409.91 478.926 367.474 106.772 92.3523 91.9963 147.137 100.02 83.7857 81.193 92.8267 100.136 84.6554 78.0067 77.6194 76.3317 71.3757 63.3247 65.1764 70.4232 62.4435 62.1034 89.1447 61.8399 59.6623 57.6026 56.5264 55.8039 80.9414 63.7864
threshold=1.6363916944842465 2.6246349659720978 1.6865480854206176 -4.4868405287464443e-16 3.2115914934914427 4.7355000000000009 4.8875000000000002 5.1450000000000005 2.7482908511511432 5.0017466666666675 0.030670089800483226 0.046573536944109609 3.8305000000000007 4.2870000000000017 1170.7744034546324 12.500000000000002 0.83375440114506427 1.9664429530201354e-06 36.500000000000007 -0.11159163837052556 0.0042000231012123889 6.1708558984322268 3.7287499866366214 -102.05 1.0171969850803195 0.056145256127846689 3.2643947492435017 0.95555833774714893 2.5773146006160732 1.2866839377057639
decision_type=2 2 2 2 2 2 2 2 2 2 2 2 2 2 2 2 2 2 2 2 2 2 2 2 2 2 2 2 2 2
left_child=1 3 4 5 -2 7 -7 -1 27 10 11 -5 16 26 -3 -14 -12 18 19 -16 -17 -11 -23 -21 -24 -19 -4 28 -6 -29
right_child=2 14 13 9 8 6 -8 -9 -10 21 12 -13 15 -15 17 20 -18 25 -20 23 -22 22 24 -25 -26 -27 -28 29 -30 -31
leaf_value=0.075615326687693607 0.001086737933693473 -0.061625116392970081 -0.065045924140741271 0.022082195135539977 -0.070060200491346994 -0.035580720871009608 0.083118264063447717 0.21597510149533097 -0.10771392643451692 0.03450360434208586 0.26424803389557477 0.16751057133078576 0.09113475396385734 -0.044068113100879332 0.098347220818977801 0.22764810786715578 0.15127929470294879 0.049506023657266744 -0.036313715959926517 -0.055357147786500194 0.12205156399203199 0.1780754926321762 0.047758296306948278 0.034773161280438593 0.13472880517894573 0.14009019741072104 -0.11649783415499163 0.014055253987685895 0.020492332668176721 -0.05144616587039752
leaf_count=30 97 20 62 29 208 33 125 22 60 34 29 20 53 51 40 28 27 54 34 21 28 35 49 203 33 26 384 71 28 78
internal_value=0 1.53066 -1.43189 2.11435 -0.8624 1.54624 1.16653 2.69997 -1.05512 2.44121 2.83739 1.62881 3.1963 -2.05294 0.687379 2.68289 4.19562 0.78896 0.576891 0.744723 3.497 1.87973 2.22544 0.526469 1.65517 1.57892 -2.18691 -0.883824 -1.18633 -0.404682
internal_count=2012 973 1039 575 542 210 158 52 445 365 214 49 165 497 398 109 56 378 298 264 56 151 117 224 82 80 446 385 236 149
shrinkage=0.05


Tree=9
num_leaves=31
num_cat=0
split_feature=16 20 16 0 165 4 18 86 81 165 149 162 47 124 36 137 86 1 138 113 71 140 79 5 57 47 53 72 3 36
split_gain=3979.94 432.231 331.645 102.164 122.66 83.348 79.0965 73.5473 114.234 70.0515 67.8771 67.9255 83.3768 63.0854 62.8742 59.3258 61.2054 58.4053 94.029 56.2359 55.1291 53.7095 52.8322 70.9697 52.7128 73.0117 50.5211 50.1477 49.6748 49.2825
threshold=1.6363916944842465 2.6246349659720978 1.6865480854206176 2.2140734432536413 1021.0677441235957 3.2115914934914427 2.4863668676140227 4.7455000000000007 4.9285000000000005 1170.7744034546324 -5.8138968324461766 15975.760177942919 74946.880246557921 4.7153754477179293 3.9790950668435207e-07 -0.11059856686552617 4.9065000000000012 1.9581479575595913 0.0090335170328697482 9.4769277390405993 4.6791500000000008 0.0016511668805705363 0.24650480257887208 4.4768025000000007 74996.512244514961 74899.479980191463 87.500000000000014 -2.4649999999999994 0.48304589154047667 2.8962633779064669e-07
decision_type=2 2 2 2 2 2 2 2 2 2 2 2 2 2 2 2 2 2 2 2 2 2 2 2 2 2 2 2 2 2
left_child=1 3 5 10 -5 -2 20 8 -6 -3 -1 14 -13 15 19 -4 -17 21 26 -12 -7 -11 -8 29 25 -23 -19 -25 -10 -24
right_child=2 9 13 4 7 6 22 -9 28 17 11 12 -14 -15 -16 16 -18 18 -20 -21 -22 24 23 27 -26 -27 -28 -29 -30 -31
leaf_value=0.20241959179937841 0.0010324016184613263 -0.058543859943747528 -0.058591149049669 -0.014527463937799138 0.058160743227711434 -0.045471544116735457 -0.08371100013308666 0.077948081466783253 0.24698523402214054 0.03304343575658928 0.12926502826786232 -0.0090041947127743206 0.12865213494409214 -0.055587841614492629 0.098450652899389923 -0.093421986000733023 -0.13463146468767753 0.058741750896331817 0.086902684916276493 0.20983724962129738 0.01424351970827769 0.10456882466872533 -0.047313729017972948 -0.11788173506431508 0.11767918009843147 -0.020096514017685599 -0.027762889790045486 -0.025999334068210041 0.13554598763585091 0.050110287633207108
leaf_count=25 97 20 59 30 27 100 170 225 20 143 63 22 22 76 88 193 169 21 32 33 63 24 25 33 49 23 86 27 20 27
internal_value=0 1.45412 -1.36029 2.00863 1.635 -0.81928 -1.00237 1.83283 2.75253 0.65301 2.48417 2.31265 1.19648 -1.95029 2.57956 -2.10166 -2.25321 0.749512 0.23408 3.13923 -0.44783 1.04928 -1.32289 -0.789633 1.62786 0.871248 -0.215707 -1.53069 3.82531 0.0654364
internal_count=2012 973 1039 575 322 542 445 292 67 398 253 228 44 497 184 421 362 378 139 96 163 239 282 112 96 47 107 60 40 52
shrinkage=0.05


Tree=10
num_leaves=31
num_cat=0
split_feature=16 7 16 20 156 166 15 20 21 107 8 107 160 87 104 104 109 99 72 40 13 54 72 164 50 129 146 154 104 83
split_gain=3856.03 345.46 293.907 131.767 115.714 166.469 116.752 114.144 103.538 95.6862 90.2968 87.3014 84.6245 94.9822 81.332 81.257 72.2292 71.1451 67.7799 64.31 63.6202 62.9411 61.4345 59.7254 69.8753 56.7955 53.8428 52.7681 49.6673 49.3467
threshold=1.6363916944841697 2.5626568653539112 1.6633299933150241 2.5572249402574387 5.0000000000000044 5269.3009200513798 650997.00000000012 2.8061143557653421 0.047172703202048867 4.1138000000000003 2.4676289616957923 4.0819500000000009 -3.9411437076826884e-16 15.500000000000002 1.3136538428748119e-06 1.6983448181396561e-06 3.7085000000000004 14.350000000000003 -3.9049999999999998 3.9040119852232347 4.9026083333333341 92.350000000000009 -3.4999999999999996 -8.0195938351188438 74926.895340749688 1.0102005552552 4.4507946790170028 33.500499999994652 -7.460085837857528e-07 -39.499999999999993
decision_type=2 2 2 2 2 2 2 2 2 2 2 2 2 2 2 2 2 2 2 2 2 2 2 2 2 2 2 2 2 2
left_child=1 3 16 26 6 -6 11 9 -8 -4 15 -5 13 -10 18 27 -2 -11 -3 21 -18 -19 -16 -24 -25 -20 -1 -7 -28 -27
right_child=2 14 7 4 5 10 8 -9 12 17 -12 -13 -14 -15 22 -17 20 19 25 -21 -22 -23 23 24 -26 29 28 -29 -30 -31
leaf_value=0.22596012326804074 0.018734347638383043 -0.004219217269226562 -0.0045145921160777416 0.085384017648175367 -0.057057889247382136 0.030027852991911314 0.019309238386562184 -0.12313733660652267 0.013714955897047755 -0.11763286030697591 0.036349093598003195 0.20217806552148737 0.13220029972398128 0.13195080123841763 0.07476051908272964 0.17160572411273334 -0.046772279471461405 -0.065855047851800921 0.00058070073525110888 -0.078443670087791656 0.038163023550684259 0.051172786070965232 -0.063563816730553904 -0.041160458116792142 0.056417835529807003 0.062196582617807986 0.073533996176861585 0.12766137951612475 0.17450149840322035 0.12730016708374023
leaf_count=22 64 43 45 24 27 31 42 154 41 103 75 48 117 29 26 34 271 27 30 341 24 20 36 32 43 152 21 25 29 36
internal_value=0 1.44915 -1.32215 1.95184 1.76729 1.16069 2.15422 -1.70395 1.80501 -1.48594 1.53735 3.26493 2.12367 1.25397 0.735527 2.21267 -0.588322 -1.61385 1.06304 -1.41773 -0.797246 -0.321119 0.111578 -0.212516 0.295689 1.28937 3.21552 1.47228 2.6419 1.49326
internal_count=2012 963 1049 565 493 192 301 690 229 536 165 72 187 70 398 90 359 491 261 388 295 47 137 111 75 218 72 56 50 188
shrinkage=0.05


Tree=11
num_leaves=31
num_cat=0
split_feature=18 7 0 20 13 156 166 15 22 20 8 107 104 104 11 103 166 97 126 46 146 105 69 65 75 75 146 154 52 50
split_gain=3322.79 404.911 253.97 120.758 101.169 100.563 150.238 108.932 143.548 84.1772 81.4928 78.7895 73.3345 73.2259 85.1965 74.7116 71.3187 66.2382 65.0125 58.5203 56.4568 56.1939 55.462 56.2263 51.9905 57.7234 48.5931 47.6232 47.4028 56.3802
threshold=2.4663390432218431 2.5626568653539112 2.3295965737131303 2.5572249402574387 4.1038666666666677 5.0000000000000044 5269.3009200513798 650997.00000000012 0.050273072323776001 2.8061143557653421 2.4676289616957923 4.0819500000000009 1.6983448181396561e-06 1.4850530645024855e-06 4.5000000000000009 -8.0005333688911267e-06 6868.1880538216292 4.0852900000000014 0.36323334597486356 3.3472110231428882 4.7202635554050625 -8.4584256836347066e-06 0.4162677929767048 4.1458301585351665 39.500000000000007 48.500000000000007 4.4507946790170028 33.500499999994652 43.500000000000007 74925.124541370795
decision_type=2 2 2 2 2 2 2 2 2 2 2 2 2 2 2 2 2 2 2 2 2 2 2 2 2 2 2 2 2 2
left_child=1 3 17 26 -4 7 -7 11 -9 -6 12 -5 27 14 21 -15 18 -2 -10 22 -19 -3 23 -16 -18 -26 -1 -8 29 -17
right_child=2 13 4 5 9 6 10 8 16 -11 -12 -13 -14 15 19 28 24 20 -20 -21 -22 -23 -24 -25 25 -27 -28 -29 -30 -31
leaf_value=0.21466211839155719 0.051175449650812277 0.010209767939522864 0.0075395181526740395 0.081114818008306125 -0.076270498820945387 -0.054204994716026168 0.028526460684295141 -0.019381237909968558 0.15319905204547418 -0.11902052119917034 0.034531639889348299 0.19206916219554843 0.16302543738309075 -0.052962482874484164 0.055373802920803433 -0.067935787986165716 0.13407532083243132 -0.046569715372646127 0.055300382029434492 -0.024305855532018646 0.0041606267002529248 0.090092464679291537 0.067984195709673331 -0.0604607376862656 -0.017491706799377095 0.07762692190770959 0.12549038966512308 0.1212783122509718 0.074194155132863676 0.029133848931926949
leaf_count=22 24 28 30 24 485 27 31 29 74 151 75 48 34 46 20 21 25 241 22 53 71 103 67 22 22 58 50 25 32 52
internal_value=0 1.28406 -1.28616 1.84485 -1.64376 1.66851 1.10265 2.02826 1.69224 -1.72841 1.46049 3.10169 2.10203 0.569176 0.860715 0.00347647 1.99231 -0.577362 2.61528 0.375811 -0.700506 1.46037 0.794914 -0.106029 1.42275 1.02939 3.05475 1.39867 0.469052 0.0241941
internal_count=2012 1010 1002 566 666 494 192 302 230 636 165 72 90 444 293 151 201 336 96 162 312 131 109 42 105 80 72 56 105 73
shrinkage=0.05


Tree=12
num_leaves=31
num_cat=0
split_feature=16 7 16 160 86 86 20 168 107 156 137 134 8 165 83 7 99 109 8 165 18 134 63 37 21 104 71 40 31 102
split_gain=3149.82 279.874 243.475 106.042 102.531 94.3327 91.8263 87.2947 83.3547 77.4855 101.446 96.1521 83.2796 65.4795 65.6773 65.375 64.801 62.4151 61.5939 61.422 69.15 61.1986 66.622 59.3068 83.063 61.6747 58.6062 57.199 55.7673 54.5954
threshold=1.6363916944841697 2.5604788713295301 1.6633299933150241 -4.4868405287464443e-16 4.7355000000000009 4.8585000000000012 2.8061143557653421 -1.4840228863394853 4.1138000000000003 5.0000000000000044 0.011377446461648085 -0.13066084336277414 2.4646151479832192 1209.0233772387339 -37.499999999999993 2.5932625206104984 14.350000000000003 3.7085000000000004 2.428095063611595 1067.6730822009074 2.366837381807136 -0.11954738493231849 -31.499999999999996 6.4500000000000011 0.058009652889440814 1.0123829578396279e-07 4.6510000000000007 3.9040119852232347 94.750000000000014 3.60240160106738e-06
decision_type=2 2 2 2 2 2 2 2 2 2 2 2 2 2 2 2 2 2 2 2 2 2 2 2 2 2 2 2 2 2
left_child=1 3 17 4 7 -6 8 -1 -4 23 11 -11 -13 -3 15 21 -10 -2 -7 -20 -21 22 -15 -5 25 -25 -19 28 -18 -17
right_child=2 13 6 9 5 18 -8 -9 16 10 -12 12 -14 14 -16 29 27 26 19 20 -22 -23 -24 24 -26 -27 -28 -29 -30 -31
leaf_value=0.19983562859484838 0.018407027042121629 -0.027388331083915175 -0.0022156298662432366 0.17414987891912462 -0.049224767163395883 0.12404307544024454 -0.11115271630273625 0.063912590675883826 -0.10857052029702741 -0.021436509098857644 0.17713237920776012 0.12425329848289646 0.015749106263475761 0.023446910896084527 0.088147963571255331 -0.012336612432537711 -0.065564108290709563 -0.055041137311542247 -0.030794811110051043 0.13567938305945559 0.030515959620889689 0.030646256369072946 0.13332029371648221 0.0083430583987917223 0.13475893840777797 0.10790210713233267 -0.0098925764918432486 -0.071084134397574883 0.043388895981985594 0.07147953974514773
leaf_count=21 64 39 45 45 25 27 154 27 103 30 20 48 28 22 61 102 24 171 24 22 54 126 37 28 118 35 124 341 23 24
internal_value=0 1.30974 -1.19497 1.77491 1.19345 0.791089 -1.54247 2.46758 -1.34693 2.10529 1.47693 1.08718 1.68556 0.684972 0.81421 0.628121 -1.46632 -0.527057 1.14061 0.778747 1.21916 1.0065 1.84701 2.45562 2.20019 1.27307 -0.721269 -1.27914 -0.244934 0.0725674
internal_count=2012 963 1049 552 200 152 690 48 536 352 126 106 76 411 372 311 491 359 127 100 76 185 59 226 181 63 295 388 47 126
shrinkage=0.05


Tree=13
num_leaves=31
num_cat=0
split_feature=16 7 0 20 156 117 130 134 4 37 62 165 129 9 14 79 20 165 83 7 79 77 138 103 82 11 102 50 1 64
split_gain=2842.71 252.586 223.997 99.8599 100.634 100.086 117.434 172.341 89.6964 84.8357 75.9906 72.0854 64.0242 64.7747 63.6902 101.656 60.6268 59.0952 59.2737 59.0009 59.0763 55.1205 55.8889 51.2478 50.6924 49.3856 49.2724 48.5754 45.4247 44.8213
threshold=1.6363916944841697 2.5604788713295301 2.3295965737131303 2.5572249402574387 3.3833202905952936e-15 1.4577381 0.98854946844066405 -0.13791894954790307 3.1879529864590963 6.8500000000000005 -66.499999999999986 1133.2474423300876 1.0154637629254248 35.706840338900001 0.097131624161679961 0.25638298625862149 2.8061143557653421 1209.0233772387339 -37.499999999999993 2.5932625206104984 0.22824740646641728 37.500000000000007 -0.00767983325181341 6.6671111407416502e-07 3.8150000000000004 4.5000000000000009 3.60240160106738e-06 74923.09336896833 1.938642134334893 -12.499999999999998
decision_type=2 2 2 2 2 2 2 2 2 2 2 2 2 2 2 2 2 2 2 2 2 2 2 2 2 2 2 2 2 2
left_child=1 3 25 -1 -5 6 7 -6 -4 23 -9 -7 24 -14 15 -12 -10 -3 19 20 -19 27 -23 -8 -11 -2 -21 -22 -20 -25
right_child=2 17 8 4 5 11 9 10 16 12 14 -13 13 -15 -16 -17 -18 18 28 26 21 22 -24 29 -26 -27 -28 -29 -30 -31
leaf_value=0.13921828243700374 0.019934993989765646 -0.026018914064535728 -0.0069963131545354501 0.17374119198322296 -0.075188478923613022 0.20268646751570962 0.15329495566812429 0.14028231047771195 -0.070501889046639774 -0.017947698348914 0.046004761771431993 0.081168331506733721 0.062240210576553129 0.16901882458478212 0.098805247067304508 -0.081813804833218456 -0.10703006489574909 0.012411905902748308 0.042665780545212334 -0.011719781375837093 0.053962941281497478 -0.02734825648367405 0.072552475138079553 0.032829871935688933 0.072037955039534071 -0.033336304926327359 0.067905562336090949 0.15324546955525875 0.12906446505723329 0.13517511762678622
leaf_count=72 50 39 46 25 31 23 55 22 468 34 70 26 49 20 33 20 150 72 32 102 22 21 42 23 29 335 24 28 29 20
internal_value=0 1.24425 -1.13522 1.68617 1.52144 1.41411 1.25117 0.636363 -1.48709 1.72164 1.09391 2.76415 1.19834 1.86381 0.787745 0.352013 -1.58736 0.650723 0.7735 0.596715 0.956174 1.40725 0.785045 2.42649 0.469485 -0.528359 0.068939 2.19122 1.67481 1.60865
internal_count=2012 963 1049 552 480 455 406 176 664 230 145 49 132 69 123 90 618 411 372 311 185 113 63 98 63 385 126 50 61 43
shrinkage=0.05


Tree=14
num_leaves=31
num_cat=0
split_feature=16 7 16 2 166 20 107 104 160 58 99 139 23 117 141 13 7 72 105 128 77 72 88 40 170 107 137 164 50 0
split_gain=2565.55 228.084 202.756 91.8291 106.563 74.2264 73.2345 65.0654 62.1722 66.7676 59.602 58.3712 56.1913 60.1614 56.0195 61.0943 55.9975 54.977 52.8696 52.7399 55.7705 52.3151 51.9578 50.9526 54.3549 48.9595 55.0072 48.8512 60.7022 48.1333
threshold=1.6363916944841697 2.5626568653539112 1.6633299933150241 1.1972189997378913 4569.0986355239766 2.8061143557653421 4.1138000000000003 1.3136538428748119e-06 -4.4868405287464443e-16 0.034723726486573993 14.350000000000003 0.008105803532037029 -0.043044504171321545 1.1107280500000001 0.004232603024247902 4.497300000000001 2.5480346249718688 -3.9049999999999998 3.1835411766357261e-06 0.84692906263377099 30.500000000000004 -3.4999999999999996 0.70729333333333344 3.9040119852232347 25132.904470729984 4.3149500000000005 0.00088714640624945335 -8.0195938351188438 74926.895340749688 2.3302143656535401
decision_type=2 2 2 2 2 2 2 2 2 2 2 2 2 2 2 2 2 2 2 2 2 2 2 2 2 2 2 2 2 2
left_child=1 3 12 11 -5 6 -4 17 9 -6 -8 18 13 -2 15 -11 25 -3 -1 20 -19 -9 -18 24 -12 -10 -27 -23 -29 -14
right_child=2 7 5 4 8 -7 10 21 16 14 23 -13 29 -15 -16 -17 22 19 -20 -21 -22 27 -24 -25 -26 26 -28 28 -30 -31
leaf_value=0.10657978912631234 0.093734773527830842 -0.0069133770941799989 6.0726083401176665e-05 -0.037192923786199615 0.12486940640956164 -0.10037349208512091 -0.10039454575953553 0.066046248748898514 0.15506591808705317 -0.054828914584915928 -0.059243669092655188 0.041586812166497115 -0.021490153469881857 -0.028904360679443925 0.097841935439242259 0.038038034029546891 0.015443744051565483 0.069129053771150181 0.17889064865452903 0.10763507663057402 0.013113824169083341 -0.060625083848006203 0.10807432594398658 -0.06433485222412301 0.048516180467876521 0.0741961205412041 0.15160518956595456 -0.041910933452891187 0.049037201130806014 -0.072542573564818927
leaf_count=91 20 43 45 23 24 154 103 26 37 23 25 24 263 20 27 77 41 97 35 39 82 36 24 341 22 110 29 32 43 56
internal_value=0 1.18204 -1.07846 1.5905 1.34812 -1.39558 -1.21977 0.602186 1.47087 0.967743 -1.33167 2.26107 -0.468952 0.648304 0.678677 0.333573 1.7861 0.895122 2.53332 1.09896 0.869369 0.0441094 0.992916 -1.15216 -0.176058 2.07904 1.80692 -0.254965 0.204653 -0.609047
internal_count=2012 963 1049 565 415 690 536 398 392 151 491 150 359 40 127 100 241 261 126 218 179 137 65 388 47 176 139 111 75 319
shrinkage=0.05


Tree=15
num_leaves=31
num_cat=0
split_feature=18 20 16 134 69 104 156 130 167 140 3 70 84 146 88 61 21 157 81 168 117 90 160 48 104 7 87 166 47 80
split_gain=2315.25 286.183 124.399 92.5361 97.3868 77.8091 110.144 94.8812 101.767 89.3877 78.1376 75.4295 78.2767 66.6062 62.7131 57.7155 60.5338 57.2121 56.9665 53.3322 52.33 51.9786 50.9866 49.7756 47.8145 47.6583 47.2788 46.7966 46.607 45.6006
threshold=2.4779736660336957 2.6246349659720978 1.6996731711974551 -0.15424332109445932 0.39105231663930956 1.0000000180025095e-35 3.0000000000000031 0.97461771578044143 -5388.8841644514723 8.4458711566919519e-05 0.42163702135996112 75062.271986247899 2.5819570873332842 4.2113718542354794 0.70706000000000013 9.0162206944697036 0.051237909668156091 2167.4193662046287 5.3095000000000008 23.88716214330621 0.92379333500000016 4.065500000000001 -9.7619097990294271e-16 8.754182718856919 5.5681947774727362e-06 2.6404958280947697 13.500000000000002 9477.1897434395032 74972.153282890547 74357.922737034663
decision_type=2 2 2 2 2 2 2 2 2 2 2 2 2 2 2 2 2 2 2 2 2 2 2 2 2 2 2 2 2 2
left_child=1 3 13 4 -1 6 9 -8 10 -5 -9 12 26 25 17 22 20 28 -18 -15 -17 -11 -3 -20 -16 -2 -7 -12 -14 -24
right_child=2 15 -4 5 -6 11 7 8 -10 21 27 -13 14 19 24 16 18 -19 23 -21 -22 -23 29 -25 -26 -27 -28 -29 -30 -31
leaf_value=-0.055447924599327431 0.050523195072109332 0.097922372178393696 -0.082797344805650652 0.041948494880363861 0.073492548265494409 0.08817005514405496 -0.039140691896600112 0.10402938943356276 0.15629313495962627 0.2052615985274315 -0.0050781492197859122 0.17522049141426882 -0.051865678788586105 -0.055177316054137393 0.14784701901177566 0.065406700968742376 0.11339904438196258 0.091194081572549685 -0.045064579397439963 0.0071181178898424725 -0.014379880123728298 0.10224556522071362 -0.027479714740599903 0.051542515689507129 0.049476586087119016 -0.03458785574491087 0.16072071827452711 0.07256560341489536 0.049929400800686814 0.041530418034755823
leaf_count=27 29 34 337 29 32 43 31 35 22 24 69 30 22 481 30 23 22 28 20 37 193 25 28 40 21 38 47 27 23 165
internal_value=0 0.980959 -1.17199 1.47489 0.289718 1.61308 1.23465 0.812499 1.13573 2.23049 0.801513 2.01943 1.81125 -0.893199 1.296 0.449397 0.160015 0.70158 0.891509 -1.01455 -0.117682 3.05405 0.829291 0.386803 2.14683 0.0450251 2.52115 0.335183 0.00325835 0.630372
internal_count=2012 1090 922 565 59 506 262 184 153 78 131 244 214 585 124 525 298 73 82 518 216 49 227 60 51 67 90 96 45 193
shrinkage=0.05


Tree=16
num_leaves=31
num_cat=0
split_feature=18 7 2 104 166 102 156 73 112 128 7 105 83 97 42 105 162 88 140 16 167 117 61 99 32 54 48 22 80 22
split_gain=2089.51 261.058 113.209 88.7587 87.6518 74.4697 68.8234 73.9089 82.3428 74.2102 67.7026 78.8455 63.2154 56.5201 96.5193 71.0959 52.6567 63.9416 50.8612 105.274 50.746 49.885 49.7739 48.554 57.0794 57.6321 46.3319 55.964 51.9202 48.9212
threshold=2.4779736660336957 2.5725095345216475 1.3165611772172197 1.0000000180025095e-35 4482.3382756554875 3.4022681787858691e-06 1.0000000000000029 41.500000000000007 -1.0328342880459043e-06 0.81488347347313084 2.5276851447582946 -6.0636972549331885e-06 -35.499999999999993 4.5200700000000014 4.7833540136741552 2.3498798355487155e-05 11231.758592268807 0.69424000000000008 0.0015461519248294918 1.6633299933109447 -5635.3923029054486 1.0478095500000002 5.9395796312425952 9.6050000000002935 3.8076220834186532 87.850000000000009 8.232158546407339 0.013004631799452054 74367.19021104413 0.021686531292398521
decision_type=2 2 2 2 2 2 2 2 2 2 2 2 2 2 2 2 2 2 2 2 2 2 2 2 2 2 2 2 2 2
left_child=1 3 13 4 -1 10 -6 16 -9 -10 -5 -12 -7 15 -15 18 -8 -18 19 21 -11 -2 -13 -24 -25 -26 27 -3 -29 -28
right_child=2 26 -4 5 6 12 7 8 9 20 11 22 -14 14 -16 -17 17 -19 -20 -21 -22 -23 23 24 25 -27 29 28 -30 -31
leaf_value=-0.04363037223617236 0.077624926986473219 0.091319925648470732 -0.082613276143241376 0.13402898477208688 0.11956571190542467 -0.005425746137326634 0.069551274468275637 0.11299198125489057 -0.046864157915115362 0.040806087959265595 -0.01181185825594834 0.15313019266834968 0.10490660182666034 -0.079231772516462684 -0.018357524085593852 0.043078361054261528 -0.065222392809774848 0.048077024240046742 -0.062591610930678318 -0.046253388203484451 0.11905695045223604 -0.013607790824507589 0.021447257198200662 0.16613938395272604 0.04338549665408209 0.12951634853116928 -0.019520651415635751 -0.040872112523626401 0.036238339756441987 0.024721276716942468
leaf_count=24 31 36 274 82 37 37 22 58 20 102 21 27 20 207 95 30 33 20 123 133 26 29 29 22 52 31 127 27 114 123
internal_value=0 0.931911 -1.11339 1.32466 0.97018 1.70232 1.10926 0.940447 1.2499 0.854111 1.92613 1.58621 0.665747 -0.885534 -1.20165 -0.609617 0.0904879 -0.449358 -0.749286 -0.429011 1.13402 0.670582 1.82393 1.57434 1.89069 1.5111 0.322095 0.713575 0.42945 0.0449275
internal_count=2012 1090 922 663 342 321 318 281 206 148 264 182 57 648 302 346 75 53 316 193 128 60 161 134 105 83 427 177 141 250
shrinkage=0.05


Tree=17
num_leaves=31
num_cat=0
split_feature=18 37 16 156 81 8 104 164 166 147 71 130 166 98 52 102 137 73 4 146 29 128 57 168 168 128 61 66 160 89
split_gain=1885.78 236.838 103.162 76.7793 92.9662 81.5736 95.9461 84.3017 92.8881 123.451 78.0135 67.5434 87.2137 63.4168 62.2192 73.2539 61.089 61.2111 77.4012 59.8629 53.6639 55.8164 60.8183 51.4196 50.1076 48.8425 57.8057 46.9426 45.914 43.636
threshold=2.4779736660336957 7.2500000000000009 1.6996731711991255 3.7956245553990215e-15 5.201500000000002 2.455219257114087 5.2410614297916371e-08 32.855566565799997 5269.3009200513798 3.2636686160923527 4.4676500000000017 0.97461771578044143 5932.3448360320735 2.843328600054376 20.500000000000004 -2.0013342228150188e-07 -0.034989063488075248 61.500000000000007 3.3909297623391379 4.2113718542354794 0.057227408760529314 0.82991580584522617 75039.473395843888 23.88716214330621 2.0416998956463166 0.82702138261160385 6.4563127994869136 5.4850000000000012 -3.516712846855322e-16 3.4035000000000006
decision_type=2 2 2 2 2 2 2 2 2 2 2 2 2 2 2 2 2 2 2 2 2 2 2 2 2 2 2 2 2 2
left_child=1 3 19 4 -1 6 11 8 9 -7 24 -5 -13 -12 15 -3 17 -16 -19 -2 28 -22 -23 27 -10 -8 -27 -21 -15 -26
right_child=2 14 -4 5 -6 7 25 -9 10 -11 13 12 -14 20 16 -17 -18 18 -20 23 21 22 -24 -25 29 26 -28 -29 -30 -31
leaf_value=0.18252245998010042 0.0024820750326450384 0.0055087915987574627 -0.076500253770016624 -0.016609928442229485 0.043353664023535597 0.062215123190121215 0.071717781345877391 0.13351990833568078 0.048219898429145168 -0.096059424217258188 0.15547350868582727 0.13281213254150417 0.037274617720788848 -0.032846279726141979 0.0755436375985543 0.11889098838999355 -0.018548417891274063 -0.025560422586622063 0.04146359129606382 -0.057937095777574887 0.15697517706589267 -0.004440772198140621 0.11603105879304083 0.0094533522074159836 0.034249584842473271 0.10680709582354342 0.20152082502221069 -0.018111616403588819 0.056689892891380524 -0.046896617205159086
leaf_count=28 70 28 308 29 21 22 45 24 79 28 20 36 71 21 45 29 142 81 92 416 22 20 22 38 30 49 24 90 45 37
internal_value=0 0.885315 -1.05772 1.25224 2.45757 1.15759 1.59397 0.858016 0.732302 -0.528372 0.945253 1.02148 1.38836 1.45174 0.293138 1.26389 0.139436 0.471901 0.201648 -0.820811 1.19671 1.84916 1.17327 -0.932818 0.424888 2.25379 2.75892 -1.01707 0.564022 -0.21125
internal_count=2012 1090 922 673 49 624 254 370 346 50 296 136 107 150 417 57 360 218 173 614 130 64 42 544 146 118 73 506 66 67
shrinkage=0.05


Tree=18
num_leaves=31
num_cat=0
split_feature=18 7 2 20 166 79 137 156 53 40 53 166 83 28 18 166 134 104 146 105 42 87 103 16 70 170 115 2 1 14
split_gain=1701.92 215.104 94.3256 76.8589 82.8649 74.9276 63.3835 60.9498 56.8869 72.4654 105.528 76.4963 63.2986 55.9702 56.9902 53.4815 52.7681 50.4071 45.0905 58.7495 58.0732 44.9272 44.3432 41.8194 69.3055 55.3694 59.6178 43.9925 41.7635 48.0256
threshold=2.4779736660336957 2.5725095345216475 1.3165611772172197 2.5720157006068414 4482.3382756554875 0.27132018223999538 -0.012601240926359301 7.0000000000000027 161.50000000000003 2.9198372565117192 80.500000000000014 5269.3009200513798 -28.499999999999996 8.3950000000000014 2.3826392289164748 6273.6152897665825 -0.083567144778914998 1.0000000180025095e-35 4.4201091472168175 2.3498798355487155e-05 4.7833540136741552 36.500000000000007 1.000066671111416e-05 1.6865480854227128 74815.545023424595 23705.997388701904 26.519280964164434 1.3165611772090438 1.9921816881970538 0.062781474338253554
decision_type=2 2 2 2 2 2 2 2 2 2 2 2 2 2 2 2 2 2 2 2 2 2 2 2 2 2 2 2 2 2
left_child=1 3 18 7 -5 8 -7 16 9 10 15 -11 13 14 -13 -6 22 -10 19 23 -20 28 -1 24 -2 -26 -27 -25 29 -3
right_child=2 21 -4 4 5 6 -8 -9 17 11 -12 12 -14 -15 -16 -17 -18 -19 20 -21 -22 -23 -24 27 25 26 -28 -29 -30 -31
leaf_value=0.13868870317841633 0.057592368082931417 0.021349121219816199 -0.07483592303877655 -0.04489746005697684 0.099900495288893582 0.14451825350809555 0.042530999362468722 0.021757625791776397 0.041372542738914497 -0.059496572301925524 0.16708102589845658 0.13715452767651656 -0.028001884776441489 0.03077522372333881 0.03714770561616336 -0.0097960886061191563 0.046174670988693836 0.13750423236439627 -0.061252581314604274 0.056682870217732023 -0.016377163362248162 -0.030671065758761704 0.066397932221599176 -0.097208941653370864 -0.067178545950255436 0.03826374098113397 -0.047534562479704619 -0.012658482640981676 -0.0099558083561450163 0.08098894910504803
leaf_count=79 26 251 274 22 20 39 25 28 25 23 25 29 34 170 28 25 32 30 299 21 95 49 29 40 61 41 40 25 88 39
internal_value=0 0.841049 -1.00484 1.19756 0.999201 1.08744 2.09359 1.78199 0.93 0.782997 1.69432 0.558375 0.71244 0.903031 1.76057 0.779159 2.05136 1.87616 -0.796848 -0.46831 -1.00865 0.287504 2.38555 -0.612693 -0.349174 -0.624009 -0.0821158 -1.29379 0.40429 0.587393
internal_count=2012 1090 922 663 495 473 64 168 409 354 70 284 261 227 57 45 140 55 648 254 394 427 108 233 168 142 81 65 378 290
shrinkage=0.05


Tree=19
num_leaves=31
num_cat=0
split_feature=18 37 20 20 164 45 117 89 137 156 160 156 4 52 102 137 168 90 165 6 14 139 134 103 159 138 112 107 140 36
split_gain=1535.98 198.4 87.6019 69.7282 77.7878 67.0642 64.7337 74.3629 62.5153 67.1963 61.15 55.0072 54.6303 54.4677 66.3647 54.5539 55.4061 56.5471 53.1933 109.868 51.8555 51.7923 71.4209 60.6246 44.3748 62.2083 57.8131 48.9379 42.1185 41.8284
threshold=2.4779736660336957 7.2500000000000009 2.7585084500247836 2.5720157006068414 35.044477210040505 5.1823633333333339 1.3931722000000002 3.7245000000000004 0.015737980033635423 3.7956245553990215e-15 -6.0026650317013254e-16 7.0000000000000027 3.1996123524857434 20.500000000000004 -2.0013342228150188e-07 -0.034989063488075248 13.200680686604693 4.2545000000000011 1067.6730822009074 5.729935788842627 -0.036091075375045877 0.008933919653227056 -0.091053249664112587 2.6668444562971433e-06 -33820.099148193622 0.011620381609753825 9.8666013604385115e-07 4.5572500000000007 0.00020220664491280929 2.3132517529917039e-06
decision_type=2 2 2 2 2 2 2 2 2 2 2 2 2 2 2 2 2 2 2 2 2 2 2 2 2 2 2 2 2 2
left_child=1 3 20 11 5 6 8 12 9 -5 -7 21 -8 14 -3 16 17 -15 19 -11 28 22 23 -1 -22 29 27 -27 -2 -26
right_child=2 13 -4 4 -6 10 7 -9 -10 18 -12 -13 -14 15 -16 -17 -18 -19 -20 -21 24 -23 -24 -25 25 26 -28 -29 -30 -31
leaf_value=0.18705197751924799 0.064605374480395217 0.0033573622815310958 -0.065181315854672434 0.099578228530784463 0.12845394437733507 0.026656220321144376 0.091172552538946988 0.13747000518825747 0.084961936527454276 0.057329001795986427 0.13458039865962099 0.020669745161597218 -0.024293394759297371 -0.013457399614764234 0.11127638621576902 -0.018457049019569138 0.083278470606573174 0.041882759144148199 0.023768657175281122 -0.081127846789987468 -0.077606364138773642 0.03375955488389501 0.061109241254107896 0.094564448820550331 -0.056099671400873602 -0.063197708611979209 0.068139279028400779 0.021635990765164884 -0.034606034527532761 -0.017539852494817404
leaf_count=37 23 28 404 24 28 21 21 31 41 23 35 28 20 104 29 142 31 83 223 38 64 26 43 34 213 34 25 34 20 105
internal_value=0 0.798997 -0.954594 1.13483 0.949171 0.854082 0.717328 1.58065 0.539223 0.384805 1.88218 1.69289 0.696954 0.257 1.16527 0.113191 0.42737 0.222107 0.249022 -0.578456 -0.682376 1.94879 2.23927 2.85524 -0.777572 -0.65696 0.0624481 -0.415617 0.369211 -0.867353
internal_count=2012 1090 922 673 505 477 421 72 349 308 56 168 41 417 57 360 218 187 284 61 518 140 114 71 475 411 93 68 43 318
shrinkage=0.05


Tree=20
num_leaves=31
num_cat=0
split_feature=16 20 2 138 141 117 130 112 146 10 78 135 100 164 166 20 138 117 127 90 50 1 168 127 165 139 103 134 16 139
split_gain=1344 139.879 97.1294 96.0648 78.9334 87.0167 85.2669 75.1374 75.0632 70.5234 71.1875 73.052 66.407 69.0417 66.8576 61.6744 62.9881 58.1 57.0736 56.2193 54.4547 117.453 66.3133 53.0037 51.0737 49.3477 54.4546 47.5754 46.7193 44.8608
threshold=1.6363916944839823 2.6246349659720978 1.3165611772172197 0.014227910026170089 0.010184324632800066 1.4577381 0.9728290088421615 -1.0328342880459043e-06 4.4009837865668695 -3.6666911112740746e-05 63.446082704881732 -0.4866897620355698 2.2550335570469808e-06 30.863129801517303 6999.9768037979638 2.5730198984846031 0.014004049394519713 1.2030117500000002 0.95573161754625591 4.2605000000000013 74956.053774383487 1.9207400618893953 1.7224244771586299 0.95148303865685557 1165.0603634268441 0.0038180103020701074 -3.3335555703714097e-06 -0.16009500398584312 1.6465452046970148 0.0044032090872712102
decision_type=2 2 2 2 2 2 2 2 2 2 2 2 2 2 2 2 2 2 2 2 2 2 2 2 2 2 2 2 2 2
left_child=1 4 8 24 5 6 17 18 9 29 -11 23 13 15 -14 -9 20 -1 25 -10 21 -17 -22 -12 -3 26 -8 -26 -21 -2
right_child=2 3 -4 -5 -6 -7 7 12 19 10 11 -13 14 -15 -16 16 -18 -19 -20 28 22 -23 -24 -25 27 -27 -28 -29 -30 -31
leaf_value=0.038618796207010753 0.090996996920555837 -0.070371306762099267 -0.065221562742744751 0.074606241105449583 0.1482286958590798 0.10952041938660606 0.19786908421665431 0.062576239811113252 -0.05712847711092376 0.068187310467474158 0.060836199782788758 -0.052288286194757186 0.1471142559670485 0.11782441001851113 0.045983918711797078 0.037494334020616055 -0.066295709847830814 -0.080457488323251405 0.041909966712979523 0.01649059325795282 0.0058471066493760143 -0.085463969965255071 0.10876768948189144 -0.026180767922085669 0.086649812012910846 0.066889694765867563 0.086158799752593052 0.0067586485290517797 -0.036680895745395174 -0.0028092766180634501
leaf_count=20 25 20 278 63 23 62 24 65 282 20 30 135 26 20 44 52 26 21 46 55 34 31 29 42 20 34 20 273 166 26
internal_value=0 0.840068 -0.796821 0.365472 1.14934 1.07397 0.933285 1.0588 -0.616135 -0.199122 -0.437857 -0.611925 0.807456 0.572268 1.67093 0.421701 0.108104 -0.44743 1.72164 -0.846611 0.363478 -0.168597 1.06446 0.201526 0.138702 2.24264 2.94183 0.244239 -0.468963 0.863484
internal_count=2012 953 1059 376 577 554 492 451 781 278 227 207 327 257 70 237 172 41 124 503 146 83 63 72 313 78 44 293 221 51
shrinkage=0.05


Tree=21
num_leaves=31
num_cat=0
split_feature=16 20 2 138 160 21 138 146 160 140 105 15 139 103 10 70 139 125 78 87 57 4 160 136 125 117 131 65 68 69
split_gain=1212.96 126.241 87.6593 86.6985 76.9972 73.8843 75.2943 67.7446 64.446 64.0558 55.304 82.4506 59.9134 55.1533 54.599 70.6257 54.3914 53.5249 81.0615 94.2054 52.2644 52.0859 51.9234 51.9714 45.7754 48.7326 45.4664 44.6919 42.3511 41.406
threshold=1.6363916944839823 2.6246349659720978 1.3165611772172197 0.014227910026170089 -4.4868405287464443e-16 0.030670089800483226 0.022354782866873847 4.4009837865668695 -8.3673512563109391e-16 0.0057134104765656458 -7.1942234044269134e-06 680318.50000000012 0.0077885982675387723 -1.3334222281484033e-06 -4.3333622224148155e-05 74985.512298282512 0.0063365458375912957 0.93772861289699116 63.935637493847928 12.500000000000002 75008.846571559698 3.5145241280345547 -1.4855080128957827e-15 0.19240725431617259 0.94349550647074298 1.2288845500000001 0.98763505670716611 4.1458301585351665 4.1150000000000011 0.42461687281765448
decision_type=2 2 2 2 2 2 2 2 2 2 2 2 2 2 2 2 2 2 2 2 2 2 2 2 2 2 2 2 2 2
left_child=1 4 7 22 17 20 9 8 13 10 11 -7 -12 26 -10 16 -16 18 19 -1 -6 27 -3 -24 25 -19 -2 -9 -4 -5
right_child=2 3 28 29 5 6 -8 21 14 -11 12 -13 -14 -15 15 -17 -18 24 -20 -21 -22 -23 23 -25 -26 -27 -28 -29 -30 -31
leaf_value=0.014518992055673153 0.033923275326163065 0.059041508269019244 -0.069245396209422688 0.020900911480188369 -0.036381796324768893 0.20518282461166382 -0.013655246075774945 0.017581071364490882 0.084957269299775373 0.028768698985434396 0.096206949409203435 0.072463400551879956 0.027176595316865504 -0.088281651837751274 -0.00044871146552437965 -0.049019220315597273 0.077741831839084632 0.042590966072332648 0.068099042000593968 -0.12381205899640918 0.059744656674804233 -0.013514299682383216 0.0059372686340036437 -0.06715501740022943 0.025813917957197924 0.14081594958577467 -0.065541078876703976 -0.054396275059196225 -0.0096805304412127431 0.10375423090483404
leaf_count=32 27 41 244 25 26 25 21 23 20 44 162 22 39 40 86 55 30 28 27 20 31 134 245 27 77 23 20 346 34 38
internal_value=0 0.798064 -0.75698 0.347198 1.09187 1.3651 1.5558 -0.585328 -0.189166 1.68733 1.88461 2.86118 1.65626 -0.902565 0.135786 -0.0470633 0.39546 0.603481 -0.0437872 -0.773705 0.31795 -0.804281 0.131767 -0.0263643 1.00297 1.73777 -0.16804 -0.998198 -1.23921 1.41752
internal_count=2012 953 1059 376 577 370 313 781 278 292 248 47 201 87 191 171 116 207 79 52 57 503 313 272 128 51 47 369 278 63
shrinkage=0.05


Tree=22
num_leaves=31
num_cat=0
split_feature=16 20 18 146 117 156 166 138 78 10 134 130 166 125 82 90 79 117 138 81 136 166 50 127 134 2 88 166 65 132
split_gain=1094.7 115.145 80.1677 81.9915 75.2446 76.2413 88.1015 70.0756 62.6148 66.8057 55.8466 108.96 77.5466 58.6916 52.4914 47.7813 47.562 64.4611 51.648 47.32 56.2435 71.877 58.1277 54.167 46.9794 46.2356 43.6225 43.1105 42.6037 40.5853
threshold=1.6363916944839823 2.6159952082608835 2.5634375582410631 4.3963993242179376 1.4219764500000001 3.7956245553990215e-15 13095.212219711733 0.013766458417597252 63.446082704881732 -3.0000200001333339e-05 -0.13791894954790307 0.98817485665811267 7071.0297807754241 0.94349550647074298 3.6250000000000004 4.4115000000000011 0.22679995131352046 1.2663121000000002 0.0024205739719711369 5.6895000000000016 0.11422421372898679 6215.4049762361947 74942.758733523617 0.95743420079151986 -0.10509725951412004 1.2866839377065109 0.72161000000000008 12920.054203599577 4.1640852313156129 0.93579785431333351
decision_type=2 2 2 2 2 2 2 2 2 2 2 2 2 2 2 2 2 2 2 2 2 2 2 2 2 2 2 2 2 2
left_child=1 4 3 8 5 -1 10 19 -2 27 11 -7 16 -13 28 -4 24 18 -18 20 21 -3 -23 -24 -12 -16 -11 -10 -5 -30
right_child=2 7 15 14 -6 6 -8 -9 9 26 12 13 -14 -15 25 -17 17 -19 -20 -21 -22 22 23 -25 -26 -27 -28 -29 29 -31
leaf_value=0.12463709357885067 0.071145006626054816 0.078644670882495119 -0.073931000986795503 0.017274168110452594 0.10165008676015366 -0.071518351836835567 0.1359288536336111 0.063631570630081721 -0.026101340285756371 -0.036210207787297548 0.14724238474154847 0.10013396191596985 0.020366059682932026 0.0014909422453983051 0.013933176735881717 0.0059864936130387446 0.033313159448535822 -0.025903968851674689 0.12027897628084305 -0.042093836153164893 0.033668522710274706 -0.063029827249164769 0.044308335630175395 -0.053811903382566841 0.05768676794272054 -0.03904944883839926 0.038222922994331887 0.060660437569476477 -0.040052988364240504 -0.073044123758118959
leaf_count=29 23 20 171 22 71 33 23 73 22 187 32 25 149 38 70 21 38 22 31 39 190 52 39 22 27 100 22 41 216 164
internal_value=0 0.758161 -0.719131 -0.589654 1.07669 0.924798 0.816018 0.378849 -0.161439 -0.295409 0.705236 0.0416457 0.918295 0.8127 -0.810499 -1.3038 1.42586 0.972453 1.4477 0.198611 0.324243 -0.17451 -0.483785 0.178414 2.12519 -0.344661 -0.567503 0.607253 -1.0075 -1.08583
internal_count=2012 953 1059 867 518 447 418 435 295 272 395 96 299 63 572 192 150 91 69 362 323 133 113 61 59 170 209 63 402 380
shrinkage=0.05


Tree=23
num_leaves=31
num_cat=0
split_feature=16 20 134 161 138 160 21 138 2 135 146 105 13 7 165 102 103 139 52 168 167 47 167 88 52 97 53 134 47 18
split_gain=987.963 104.17 74.4226 77.2505 71.5488 68.2591 66.0137 66.4033 55.6458 68.2551 52.8765 50.4729 50.1868 49.3211 93.5379 84.5598 48.2312 56.6251 45.9937 53.6087 45.8715 47.5517 44.1496 70.1958 40.4966 46.7748 40.9907 40.1342 39.3136 39.2387
threshold=1.6363916944839823 2.6246349659720978 -0.16863005306609649 1376.592258159598 0.014227910026170089 -4.4868405287464443e-16 0.030670089800483226 0.022354782866873847 1.3165611772172197 -0.50845461265133285 4.7815054797497245 1.7014578882610387e-06 4.8595000000000015 2.5114751652197564 1027.3130149539677 2.6684456304202899e-07 -1.5334355623708286e-05 0.008933919653227056 48.500000000000007 -6.6643856513383151 -5585.8841073735484 74839.003423129892 -12556.44774438783 0.70611000000000013 19.500000000000004 4.5392500000000009 144.50000000000003 -0.12274685658062852 74987.701595262988 2.366837381807136
decision_type=2 2 2 2 2 2 2 2 2 2 2 2 2 2 2 2 2 2 2 2 2 2 2 2 2 2 2 2 2 2
left_child=1 5 -2 -4 20 13 11 10 9 22 16 -7 -12 -1 -15 29 -8 18 19 -18 21 -3 -5 -24 25 -23 27 -26 -17 -16
right_child=2 4 3 8 -6 6 7 -9 -10 -11 12 -13 -14 14 15 28 17 -19 -20 -21 -22 24 23 -25 26 -27 -28 -29 -30 -31
leaf_value=0.077834876450268847 -0.12969473086297512 0.0706286923090617 0.041803889951723461 -0.022436465922182323 0.064150553983118794 -0.030359276170812306 0.14641839725275835 -0.014643648080527783 -0.054141306295915619 -0.034876875795396001 -0.02367519556504229 0.064105329490624946 0.07683360587667537 -0.057992578297853474 0.11415589105870044 0.023616612081726395 0.015873858412461622 0.02154713907899956 0.14260603388880982 0.093088626886080758 -0.063866017792712559 -0.0036542813462967223 -0.0063367328391625332 0.10234534037299454 0.039814909938722852 0.099450657482851645 -0.044947090912230162 -0.011187963166998494 -0.062239717226475477 0.040739728134268752
leaf_count=38 20 30 34 71 63 31 30 21 272 599 23 26 27 35 28 30 28 36 34 114 22 22 39 24 60 22 49 108 24 52
internal_value=0 0.720253 -0.683174 -0.646394 0.310692 0.987142 1.2444 1.42466 -0.696548 -0.553208 1.54818 0.254597 0.611991 0.527301 0.295839 0.676056 1.74161 1.57367 1.80741 1.55726 0.114985 0.220245 0.0919652 0.701319 0.083196 0.957964 -0.0941763 0.140547 -0.290835 1.32871
internal_count=2012 953 1059 1039 376 577 370 313 1005 733 292 57 50 207 169 134 242 212 176 142 313 291 134 63 261 44 217 168 54 80
shrinkage=0.05


Tree=24
num_leaves=31
num_cat=0
split_feature=16 18 103 140 69 151 66 97 28 159 156 103 104 82 105 21 140 138 115 7 50 128 135 140 22 57 22 167 140 139
split_gain=891.637 94.7727 82.6466 80.5931 73.3329 85.9995 67.8065 67.1311 65.6272 65.4905 64.0608 63.5198 82.5862 62.4676 60.1788 51.5936 47.9466 46.8313 46.418 42.4283 45.7919 48.0203 64.9903 54.3556 41.0343 40.7129 40.4431 40.3422 38.955 39.3472
threshold=1.6363916944839823 2.3864410755979026 -1.0000666711113884e-05 0.000134796485679756 0.4132484288083576 16.109982417653963 5.035000000000001 4.594380000000001 8.5750000000000011 -17405.579294221588 5.9999999999999982 -4.6669777985197933e-06 -6.2016160697882679e-07 3.6250000000000004 -5.3277856925480102e-06 0.030670089800483226 0.0068910806507777997 0.014227910026170089 16.714538551783683 2.6928368627688384 75011.690954471313 0.81488347347313084 -0.50556579885648778 -0.00053855498616860501 -0.029528436769710932 75163.275007548727 0.015689507776375119 -6399.6802299675828 0.0035393432440208451 0.0076419228482431838
decision_type=2 2 2 2 2 2 2 2 2 2 2 2 2 2 2 2 2 2 2 2 2 2 2 2 2 2 2 2 2 2
left_child=1 2 3 27 7 14 8 -3 -2 -9 -5 12 -4 -8 -6 -13 28 -7 -16 20 21 -10 -23 -24 25 -22 -15 -1 29 -17
right_child=6 4 11 10 5 17 13 9 19 -11 -12 15 -14 26 18 16 -18 -19 -20 -21 24 22 23 -25 -26 -27 -28 -29 -30 -31
leaf_value=-0.0059388782296861918 0.07628988156095147 -0.033467055701185015 -0.075384454727172867 0.20341515030179705 0.13797772405324157 0.0065503477609147216 -0.047640424876224052 0.091208100263719213 -0.038302284666164983 -0.0018658710259293752 0.086977026025178261 -0.0094749626354314401 0.037518167335783011 -0.051712371781468397 0.10117419646680355 0.066438509353701478 -0.00060929505815429078 0.06636165268573678 0.012980384404796201 -0.074699258650171338 -0.063226970732212062 0.10406152676790953 0.050638228846160142 -0.02864560020657686 -0.092558738037391952 0.037660277849063284 0.00034860768355429175 0.093285219892859469 0.10468041281215848 0.0080361054692831314
leaf_count=21 20 100 25 21 27 180 604 27 46 63 27 32 46 52 25 145 31 40 37 29 20 20 37 52 27 20 132 20 50 36
internal_value=0 0.68424 1.01485 1.8789 0.383444 0.684049 -0.649016 -0.105435 -0.21753 0.521126 2.75837 0.804167 -0.0447255 -0.797407 1.51349 1.00917 1.15557 0.348503 0.970848 -0.356441 -0.207842 0.0907573 0.452344 0.0863019 -0.898633 -0.255667 -0.287286 0.849262 1.31229 1.09645
internal_count=2012 953 454 89 499 309 1059 190 271 90 48 365 71 788 89 294 262 220 62 251 222 155 109 89 67 40 184 41 231 181
shrinkage=0.05


Tree=25
num_leaves=31
num_cat=0
split_feature=16 16 16 134 166 47 58 1 140 21 167 57 160 8 49 125 57 1 28 88 130 53 78 112 128 166 71 105 105 88
split_gain=775.282 109.046 103.221 87.3762 103.446 69.0023 64.3995 63.2553 56.6858 86.1057 55.6369 55.5274 52.7936 56.2404 57.4146 49.6649 48.5368 53.9347 77.3714 48.4895 57.9995 51.0859 48.433 49.8557 47.2408 46.6651 54.1241 50.6732 65.5667 47.5674
threshold=1.6363916944841697 1.5811388300849571 1.6865480854228447 -0.13791894954790307 4836.4164439461993 74925.97058747588 0.013856716328001775 1.8745369658777975 0.00073216098099512198 -0.052153337560443443 -6852.7315113157611 74896.007835865938 -5.7601331112285452e-16 2.4259685311723831 2.3979231107030929 0.93741503993639363 74929.739804331344 1.9720009834652938 13.540000000000001 0.66196333333333346 1.004974725209115 96.500000000000014 100.14056785798839 -5.7923067024796495e-07 0.81438709772382112 6215.4049762361947 4.4597500000000005 -7.1942234044269134e-06 7.1896618721062041e-06 0.69212333333333353
decision_type=2 2 2 2 2 2 2 2 2 2 2 2 2 2 2 2 2 2 2 2 2 2 2 2 2 2 2 2 2 2
left_child=1 3 8 4 -1 -6 -4 -7 19 -10 -9 22 13 -5 15 -15 -13 18 -18 -2 -21 -22 23 -3 -23 26 29 -27 -29 -14
right_child=2 11 6 12 5 7 -8 10 9 -11 -12 16 25 14 -16 -17 17 -19 -20 20 21 24 -24 -25 -26 27 -28 28 -30 -31
leaf_value=-0.096834572074003533 0.060779766232839649 0.0077563945736203871 -0.054036735141072378 0.092999574631966397 -0.036181125789880753 -0.014330064732095469 0.0094797821408561019 0.024662106972010364 0.045400665644856709 -0.043024820502567285 0.13232372251472302 -0.067097882509231571 0.087901107068838816 -0.059238356413940589 0.053392828052694158 0.026868080884656489 0.006817533204291207 -0.025101457785937815 0.095471352959672615 -0.058897879422503588 0.074496234547008169 -0.052332948572760413 -0.012964949488639833 0.10331311544928796 0.0063998904084742432 0.1045089937550457 0.060142879740431393 0.023533576647859329 0.098261562450543835 0.18614817109297624
leaf_count=20 28 21 429 29 30 23 44 21 31 246 28 25 28 33 55 34 137 91 30 47 22 43 25 39 168 38 58 129 38 22
internal_value=0 0.627963 -0.615197 0.895883 0.142828 0.550577 -0.962564 1.08149 -0.334334 -0.662577 1.72366 0.201328 1.09389 0.608244 0.310697 -0.310851 -0.0115574 0.117357 0.454867 -0.0391289 -0.164601 0.0398096 0.910111 1.39737 -0.111387 1.32817 1.86014 1.04791 0.810751 2.6226
internal_count=2012 954 1058 586 122 102 473 72 585 277 49 368 464 151 122 67 283 258 167 308 280 233 85 60 211 313 108 205 167 50
shrinkage=0.05


Tree=26
num_leaves=31
num_cat=0
split_feature=16 16 16 47 3 31 2 115 152 100 58 115 140 21 160 58 57 102 155 170 112 131 104 88 102 57 100 87 101 88
split_gain=699.692 98.4143 93.1572 59.3397 79.3191 70.1503 79.7682 74.9283 68.1505 77.4513 58.1205 52.3452 51.159 77.7104 50.8389 62.236 50.1134 47.789 87.4081 46.7737 55.4704 46.2399 57.6293 45.552 53.8434 45.4529 44.4138 56.2492 46.2938 43.7617
threshold=1.6363916944841697 1.5811388300849571 1.6865480854228447 74938.839095383955 0.56764621219777101 45.45000000000001 1.2292725943053411 15.43355157395783 -6.6739038369875177 -9.2281879194630675e-07 0.013856716328001775 18.130042225095767 0.00073216098099512198 -0.052153337560443443 -4.1836756281554695e-16 0.086575680767788141 74896.007835865938 1.8679119412941988e-06 -25.000499999999999 21485.153211135439 2.4253808801078125e-07 0.98860028425200686 5.5122019823542064e-05 0.71775666666666682 1.4676450967311534e-06 74881.356371468675 2.1275167785234901e-06 7.5000000000000009 4.1804942759806487e-07 0.66196333333333346
decision_type=2 2 2 2 2 2 2 2 2 2 2 2 2 2 2 2 2 2 2 2 2 2 2 2 2 2 2 2 2 2
left_child=1 3 12 5 8 6 -1 -7 -5 14 21 17 29 -14 -10 -16 19 26 -19 20 -3 22 -4 -18 -25 -9 27 -11 -29 -2
right_child=2 16 10 4 -6 7 -8 25 9 11 -12 -13 13 -15 15 -17 23 18 -20 -21 -22 -23 -24 24 -26 -27 -28 28 -30 -31
leaf_value=0.04109809391877868 0.057740777145539018 0.022902474146993722 -0.049244708875734094 0.13345745354890823 0.14573209448294208 0.071042174113130102 -0.08516015878974878 0.033077525879655567 0.038038838963355803 -0.018909080177545549 0.00900579336871901 -0.033497073286862085 0.043130630915684087 -0.040873579173235274 0.12848128037596193 0.027039959600993563 -0.009954251973600739 0.099464687846955807 -0.016290049220448081 -0.017666379070800285 0.11793628531907285 -0.090536726010032001 0.038055179733783008 -0.00074753575026988985 0.10364058925991966 -0.0551944085881114 0.12609779642894867 0.027548099595766803 0.12493010921322781 -0.0078185627830680473
leaf_count=22 28 34 345 22 22 76 29 35 59 25 44 33 31 246 54 21 232 21 73 23 28 64 20 30 21 25 20 26 23 280
internal_value=0 0.596565 -0.584437 0.851089 1.06894 0.386264 -0.613916 0.761332 0.961233 0.85539 -0.914436 0.491679 -0.317617 -0.629448 1.45524 2.00155 0.191262 0.695581 0.191401 0.864606 1.31642 -1.0267 -0.889223 -0.0109795 0.844716 -0.0740489 1.19976 0.84241 1.46516 -0.0371725
internal_count=2012 954 1058 586 399 187 51 136 377 355 473 221 585 277 134 75 368 188 94 85 62 429 365 283 51 60 94 74 49 308
shrinkage=0.05


Tree=27
num_leaves=31
num_cat=0
split_feature=16 16 20 134 166 140 134 126 112 105 105 28 165 4 15 98 130 109 88 87 21 131 149 69 111 57 157 73 1 73
split_gain=631.472 88.8496 85.194 68.6579 97.0218 54.0499 51.2624 50.8901 56.7473 78.7084 71.6746 50.5487 55.0276 50.1458 50.3346 49.3541 48.4342 46.8646 46.9415 46.0783 45.6901 47.074 45.8323 44.7105 54.6912 46.2569 74.4863 46.952 55.2151 61.9734
threshold=1.6363916944841697 1.5811388300840863 2.7442496070048126 -0.13791894954790307 4836.4164439461993 0.00073216098099512198 -0.15485039135858147 0.36839143697681015 -1.0328342880459043e-06 -1.8534971769710327e-06 7.1896618721062041e-06 8.9950000000000028 1403.6116472260603 3.2828134253445467 717484.50000000012 2.8052358919944091 0.98854946844066405 3.9385000000000003 0.6944300000000001 -17.499999999999996 0.05558532896897813 0.98763505670716611 -10.216436694638725 0.4132484288083576 5.5550000000000006 74888.647575937284 2282.9140346361023 80.500000000000014 1.968630245231699 50.500000000000007
decision_type=2 2 2 2 2 2 2 2 2 2 2 2 2 2 2 2 2 2 2 2 2 2 2 2 2 2 2 2 2 2
left_child=1 3 5 4 -1 20 -4 8 17 -10 15 -9 -13 -8 -15 -11 -6 18 -5 -7 21 -2 -23 24 -3 26 -25 28 29 -27
right_child=2 23 6 7 16 19 13 11 9 10 -12 12 -14 14 -16 -17 -18 -19 -20 -21 -22 22 -24 25 -26 27 -28 -29 -30 -31
leaf_value=-0.093226760602556177 0.027689850233138431 -0.043935812192794403 -0.11669240570203826 0.082327621945968044 -0.026823189340788745 -0.097585810558951436 -0.0039427615268978963 -0.023579612653702498 0.083826682454950757 -0.056086077040958186 0.078735340880446661 0.10142107350895038 -0.0024724817126989367 -0.053121323056707519 -0.004645700025416556 0.021402844100064319 0.050021805789853852 0.06128215703938622 0.18421628698706627 -0.023418419828546894 0.064939589232492906 -0.088587465740385507 -0.0096873315060573752 0.13045706852622654 0.025794860958418948 -0.0078001504577696326 0.015874406574545679 -0.014805480310460554 -0.0065199958235025411 0.099556894037054811
leaf_count=20 77 70 22 26 29 23 86 42 84 27 43 26 25 357 63 86 70 68 20 234 26 21 149 23 47 20 37 100 50 41
internal_value=0 0.566736 -0.555215 0.819411 0.14439 -0.271984 -0.839519 0.999114 1.17206 0.896115 0.47589 0.340816 1.00986 -0.774548 -0.917 0.0577558 0.550233 1.75299 2.53254 -0.601119 0.0378607 -0.0948689 -0.388676 0.198144 -0.318487 0.421192 1.19596 0.20088 0.648618 1.28716
internal_count=2012 954 1058 566 119 530 528 447 354 240 156 93 51 506 420 113 99 114 46 257 273 247 170 388 117 271 60 211 111 61
shrinkage=0.05


Tree=28
num_leaves=31
num_cat=0
split_feature=16 16 16 134 130 125 164 135 25 22 140 21 87 7 138 82 134 70 105 126 17 13 130 88 168 138 88 166 126 126
split_gain=569.904 80.5534 77.9139 71.3363 87.2062 76.5358 68.7171 53.7765 84.7716 50.7632 48.2926 55.8969 51.6173 60.0746 47.054 54.8987 46.272 71.8785 67.6543 45.2849 44.924 42.5781 42.1474 41.389 41.226 41.0509 47.4302 53.5743 38.4441 40.3869
threshold=1.6363916944841697 1.5811388300849571 1.6996731711991255 -0.13791894954790307 0.98854946844066405 0.93540039156018084 -11.466553201234881 -0.50845461265133285 69.359693414185273 -0.044191064313238444 0.00073216098099512198 0.05558532896897813 3.5000000000000004 2.6587491314917231 0.014227910026170089 3.5850000000000004 -0.12519220348528134 74959.736523159765 -5.473255833276851e-06 0.36839143697681015 0.92500000000000016 4.5326875000000006 1.0014882021011076 0.66046000000000016 18.55016255873489 0.012912201807732579 0.71031333333333346 9675.6571880337469 0.34015359854228666 0.32507178530061326
decision_type=2 2 2 2 2 2 2 2 2 2 2 2 2 2 2 2 2 2 2 2 2 2 2 2 2 2 2 2 2 2
left_child=1 3 7 4 5 -1 -6 8 -2 -9 11 12 13 20 24 -16 17 -5 21 25 -11 -18 -8 -14 -3 26 27 28 29 -20
right_child=2 14 -4 16 6 -7 22 9 -10 10 -12 -13 23 -15 15 -17 18 -19 19 -21 -22 -23 -24 -25 -26 -27 -28 -29 -30 -31
leaf_value=-0.10903482455015184 0.086706348100741362 -0.0038713725331748273 -0.047211571485395475 0.046662562376941032 -0.039642847382596567 0.020444871604974782 0.10107680208542769 0.043111457441140109 -0.0096707501735921221 -0.058178453370928765 -0.042646013634028229 0.059622654388658707 0.033450535933176678 0.071640895563980636 0.090609790488858435 -0.010756693594157696 0.10815754883671896 0.15067134700142421 0.035657397939809668 -0.0086898572427491026 0.034701683356062225 0.037419786376671663 0.010984562869582859 -0.040600597298633995 0.068668528397878015 0.083505266852850146 0.069631208224153071 -0.048801598946253466 0.085753928252961492 -0.036775316720552467
leaf_count=25 29 291 315 46 21 21 34 27 107 30 267 24 21 29 34 22 52 26 67 62 23 36 21 186 21 43 54 27 24 27
internal_value=0 0.538399 -0.527454 0.768672 0.0882392 -0.998491 0.745997 -0.350759 0.217605 -0.478103 -0.540497 -0.273989 -0.39577 0.2757 0.171715 1.01574 0.947579 1.68443 0.81224 0.588724 -0.35744 1.58439 1.33356 -0.661763 0.0202224 0.784081 0.592628 0.294698 0.585459 0.297045
internal_count=2012 954 1058 586 122 46 76 743 136 607 580 313 289 82 368 56 464 72 392 304 53 88 55 207 312 242 199 145 118 94
shrinkage=0.05


Tree=29
num_leaves=31
num_cat=0
split_feature=44 134 57 16 16 130 3 130 104 139 86 106 18 81 104 48 2 1 2 1 64 90 47 52 135 119 168 154 88 131
split_gain=517.417 83.6524 75.1965 68.7179 68.0667 52.456 51.5311 49.5966 68.137 79.5689 55.1419 69.0718 52.7488 60.9223 49.0736 47.4464 45.8138 60.5758 45.0142 50.0702 47.1708 43.8508 41.9342 52.6597 40.8056 43.9927 45.2343 47.1657 40.3751 38.8984
threshold=4.3913017568913517 -0.16599515366259562 74973.46337221768 1.6865480854228447 1.5811388300849571 1.0094967035325453 0.63245553202885862 0.97518748494407492 -1.2438792740047926e-07 7.8608746043373255e-05 4.730500000000001 4.6945000000000006 2.3338527560386235 5.0935000000000006 -9.1581940197600182e-07 9.2553860916683863 1.2472191289246577 1.9614337139194524 1.2649110640679064 1.9002923684742423 -21.499999999999996 4.0565000000000007 75078.5341316267 25.500000000000004 -0.50845461265133285 32.593924250500883 16.327785614191601 65.500499999994659 0.7269500000000001 0.98860028425200686
decision_type=2 2 2 2 2 2 2 2 2 2 2 2 2 2 2 2 2 2 2 2 2 2 2 2 2 2 2 2 2 2
left_child=1 2 -1 15 6 22 7 8 9 -3 11 -9 -12 -14 -13 -2 17 21 19 -7 -21 -15 23 -6 -17 26 27 -26 -23 -5
right_child=3 4 -4 29 5 18 -8 10 -10 -11 12 14 13 16 -16 24 -18 -19 -20 20 -22 28 -24 -25 25 -27 -28 -29 -30 -31
leaf_value=-0.10631758824773981 -0.052679537352768403 0.035328607430512256 0.013021230319458427 -0.033408773706023152 0.056650589876808224 0.077096983877321085 0.11684877879562833 0.021273144375300035 0.05000932915352805 -0.091739450060828995 0.083720211213221776 0.17614150014705957 -0.054873841628432278 -0.030894811370450522 0.077960799677031387 0.019589569278567739 0.075241483122391525 -0.042571335136890411 0.085604232572244879 -0.020961352743542019 0.050658776015043261 0.031290019739189767 -0.050389483533799656 -0.0090741167528904047 -0.022282089220921269 -0.06689237179724794 0.040518714153231716 0.047995752282440664 0.095290186445539202 -0.072663717277348036
leaf_count=22 69 22 33 398 40 30 21 32 43 28 48 20 21 23 35 103 53 30 33 67 35 138 40 128 292 38 39 26 30 75
internal_value=0 0.503583 -0.694286 -0.511227 0.575429 0.246405 0.801028 0.739356 0.0771884 -0.71659 0.882569 1.59361 0.702217 0.544031 2.27326 -0.276449 0.66984 0.469593 0.667454 0.406296 0.0722836 0.677084 -0.0876003 0.131492 -0.168772 -0.314945 -0.206064 -0.330722 0.854372 -0.792663
internal_count=2012 972 55 1040 917 373 544 523 93 50 430 87 343 295 55 567 274 221 165 132 102 191 208 168 498 395 357 318 168 473
shrinkage=0.05


Tree=30
num_leaves=31
num_cat=0
split_feature=16 81 156 1 134 107 140 134 166 58 162 62 69 160 104 140 112 88 75 138 137 130 3 58 29 21 167 9 16 38
split_gain=495.005 73.5805 69.9875 75.5455 72.9121 146.693 67.2831 56.5299 84.5946 72.227 57.3382 63.3899 56.2582 54.6011 59.9215 52.3637 51.9407 49.1066 49.0765 48.1046 46.7532 46.3582 44.147 44.0572 41.2266 40.4734 53.597 43.4211 41.6987 39.7925
threshold=1.6363916944843659 5.7005000000000008 3.0000000000000013 1.8997873352539931 -0.11705703665343815 4.6297000000000006 -0.0008840036400210319 -0.13873874925079602 5269.3009200513798 0.064134896192567695 15975.760177942919 -55.499999999999993 0.42062795972373085 2.0615213240186375e-16 -2.4792521548715169e-06 0.0037006298186567617 -6.5275135114012283e-08 0.71011333333333349 76.500000000000014 -0.0046776259480752784 -0.027028816563228805 0.99301304126450773 0.48304589153864447 0.0094225303080374533 0.13381097508636083 0.037262053564055812 -11320.36548838102 32.355420327727316 1.6193277068662855 8.2443582113063769
decision_type=2 2 2 2 2 2 2 2 2 2 2 2 2 2 2 2 2 2 2 2 2 2 2 2 2 2 2 2 2 2
left_child=1 2 4 13 5 21 16 8 -5 -10 11 -9 -12 14 -4 22 -6 -2 -8 -16 -3 -1 -15 -19 -13 26 -14 -27 -28 -25
right_child=17 20 3 7 6 -7 18 10 9 -11 12 24 25 15 19 -17 -18 23 -20 -21 -22 -23 -24 29 -26 27 28 -29 -30 -31
leaf_value=0.20154900416731836 -0.029349710762470782 0.011752997918261423 -0.031711566380358172 -0.1075830779645754 0.04009891064571483 -0.0056517753526568416 0.088013311633366662 0.11365819899020371 -0.034816268888285123 0.061265394524220501 -0.035096487731701043 0.0036305460671428591 -0.065948870194994888 0.15592873299663718 -0.0015921662824276168 0.011899477678040664 -0.054589827408393223 -0.017640662974146248 0.016795467367259467 0.067190428266352784 -0.067303894343785947 0.10391017547057523 0.068846114027465502 -0.023423122750087219 0.072432019926297164 0.094486203851799178 -0.022702699899673464 0.0062052045339861745 0.074747843003791323 0.058934674213047739
leaf_count=20 831 45 35 23 28 25 59 27 53 31 66 64 23 22 39 24 30 148 41 73 32 31 43 22 33 30 21 26 23 44
internal_value=0 0.51578 0.596917 0.429433 1.06644 1.87129 0.679301 0.175053 -0.45242 0.0128488 0.389556 0.917965 0.0428754 0.882144 0.507878 1.50032 -0.17756 -0.476988 1.17628 0.864787 -0.422036 2.844 1.9664 -0.0498132 0.540745 0.442527 -0.0819046 1.06997 0.564747 0.629642
internal_count=2012 967 890 656 234 76 158 420 107 84 313 124 189 236 147 89 58 1045 100 112 77 51 65 214 97 123 67 56 44 66
shrinkage=0.05


Tree=31
num_leaves=31
num_cat=0
split_feature=16 142 156 1 134 107 140 134 166 58 162 62 69 160 104 138 18 88 71 140 112 75 56 105 73 157 29 23 156 134
split_gain=446.742 66.4064 63.1638 68.1798 65.8032 132.39 60.723 51.0182 76.3466 65.1848 51.7477 57.2094 50.773 49.2775 56.012 67.6625 48.5797 49.3864 49.54 47.2583 46.8765 44.2915 39.9371 39.304 57.5906 38.5873 37.207 37.0091 36.628 35.5615
threshold=1.6363916944843659 5.7005000000000008 3.0000000000000013 1.8997873352539931 -0.11705703665343815 4.6297000000000006 -0.0008840036400210319 -0.13873874925079602 5269.3009200513798 0.064134896192567695 15975.760177942919 -55.499999999999993 0.42062795972373085 2.0615213240186375e-16 -1.3626321921654759e-06 -0.0042886000068991159 2.5634375582410631 0.71031333333333346 4.0135000000000014 0.0037006298186567617 -6.5275135114012283e-08 76.500000000000014 4.392693928886195 -1.5656964960488466e-06 84.500000000000014 2111.8185157569869 0.13381097508636083 0.094390012007845234 6.7787671772142269e-15 -0.11705703665343815
decision_type=2 2 2 2 2 2 2 2 2 2 2 2 2 2 2 2 2 2 2 2 2 2 2 2 2 2 2 2 2 2
left_child=1 2 4 13 5 25 20 8 -5 -10 11 -9 -12 14 -4 -16 17 18 -2 -15 -6 28 -19 -14 -25 -1 -13 -3 -8 -24
right_child=16 27 3 7 6 -7 21 10 9 -11 12 26 23 19 15 -17 -18 22 -20 -21 -22 -23 29 24 -26 -27 -28 -29 -30 -31
leaf_value=0.17609437047331422 0.039506907363732663 -0.042669514970233045 -0.014658288269614182 -0.10220392430606096 0.038093965623660818 -0.0053691854327917107 0.13660737464115733 0.10797528685243041 -0.033075455235282207 0.058202123882309088 -0.03334166320379485 0.0034490181249566378 0.056961308767464247 0.093404220941548169 -0.0082910292302117213 0.081673390304735097 -0.045023731266616414 -0.037476230569575962 -0.026197938381878113 0.011304503912106157 -0.051860336419194943 0.015955694542243715 -0.028467592823186089 0.045901426066245352 -0.041421155331701764 0.088959903464031723 0.068810418598128087 0.033067657701347189 0.054326085824715466 0.035573171855321564
leaf_count=27 30 54 57 23 28 25 21 27 53 31 66 64 47 65 33 57 197 38 656 24 30 41 28 35 41 24 33 23 38 96
internal_value=0 0.489991 0.567071 0.407962 1.01312 1.77773 0.645336 0.1663 -0.429799 0.0122064 0.370078 0.872067 0.0407317 0.838037 0.482484 0.973729 -0.453138 -0.349217 -0.466491 1.4253 -0.168682 1.11747 0.147387 0.420401 -0.0241362 2.7018 0.513707 -0.400934 1.67225 0.422247
internal_count=2012 967 890 656 234 76 158 420 107 84 313 124 189 236 147 90 1045 848 686 89 58 100 162 123 76 51 97 77 59 124
shrinkage=0.05


Tree=32
num_leaves=31
num_cat=0
split_feature=16 117 81 156 134 107 1 160 130 77 57 60 107 104 138 18 135 16 82 145 96 3 137 21 109 136 139 71 71 130
split_gain=403.185 65.7851 53.8619 56.374 67.8041 119.482 58.4717 52.6254 52.1236 56.2893 48.1088 67.5679 54.2928 44.0267 49.3668 43.8432 45.261 56.9853 49.9171 43.3862 44.3307 42.4682 41.8409 40.6694 51.3261 40.6154 44.7739 39.965 43.7965 39.4764
threshold=1.6363916944843659 1.5739007500000002 5.7005000000000008 3.0000000000000013 -0.11705703665343815 4.6297000000000006 1.8997873352539931 2.0615213240186375e-16 0.9728290088421615 76.500000000000014 75035.227074188078 74335.317386576076 4.344850000000001 -1.3626321921654759e-06 -0.0042886000068991159 2.5634375582410631 -0.48601572017954225 1.6499158227684025 3.0750000000000006 4.5777557814693894 4.605500000000001 0.48304589153978789 -0.027028816563228805 0.05736826652138332 3.9135000000000004 0.17822165929107461 0.0023250076599389928 4.4376500000000005 4.2324000000000011 0.99301304126450773
decision_type=2 2 2 2 2 2 2 2 2 2 2 2 2 2 2 2 2 2 2 2 2 2 2 2 2 2 2 2 2 2
left_child=1 2 3 4 5 29 7 13 -8 10 11 -10 -13 21 -15 16 17 -2 25 -20 -21 -5 -4 27 -25 -19 -27 28 -6 -1
right_child=15 -3 22 6 23 -7 8 -9 9 -11 -12 12 -14 14 -16 -17 -18 18 19 20 -22 -23 -24 24 -26 26 -28 -29 -30 -31
leaf_value=0.18310251146554948 0.042758527411132174 0.098796696854489191 0.012036538508352047 -0.059768092268911589 -0.013240401518177587 -0.0051007261127233514 -0.057817835087577513 0.067825251826267127 0.071024814496437702 -0.045433561727404592 0.045586747657104687 -0.048509672040289102 0.0097786485038901857 -0.0089791610115958799 0.070736537766284677 -0.042772544469911286 -0.025445667792797045 -0.031157933743227097 -0.048854413126258461 0.059465927306724634 -0.020137611244588276 0.028974735142233282 -0.062751938798464843 0.11795243871482937 0.026022057475674217 0.10379526459357956 0.0029196977319026537 -0.040839335659984502 0.079589331895112997 0.093001816505866669
leaf_count=20 59 28 45 28 27 25 30 87 33 40 104 55 146 31 52 197 534 21 94 23 73 26 32 22 49 22 22 32 24 31
internal_value=0 0.465491 0.420451 0.492033 0.915949 1.68884 0.337759 0.748266 0.112383 0.213077 0.345828 0.0943136 -0.123418 0.362012 0.819264 -0.430481 -0.331756 -0.0304763 -0.235391 -0.494173 -0.0213186 -0.340801 -0.380888 0.534523 1.09015 0.52105 1.06715 0.0592276 0.608884 2.56671
internal_count=2012 967 939 862 230 76 632 224 408 378 338 234 201 137 83 1045 848 314 255 190 96 54 77 154 71 65 44 83 51 51
shrinkage=0.05


Tree=33
num_leaves=31
num_cat=0
split_feature=16 117 56 146 165 61 56 140 62 65 156 112 58 139 21 18 135 16 82 145 96 136 139 115 2 9 131 167 21 141
split_gain=363.874 59.371 52.5616 65.8393 62.38 45.4481 45.8811 66.5606 47.2983 74.5343 48.0567 44.7773 59.5034 46.9838 44.3299 39.5685 40.8481 51.4292 45.0502 39.1561 40.0084 36.6554 40.4084 35.6845 41.6189 37.6578 35.6099 41.391 46.5756 38.824
threshold=1.6363916944843659 1.5739007500000002 2.9679238327787982 4.9405782449150513 964.62192991804602 8.7576094883694662 3.1601228156563193 0.0016511668805705363 -65.499999999999986 4.9005437868278277 0.99999999999999989 -7.6098280447826369e-07 0.078121849096003573 0.0015136838441467363 0.07486541264907691 2.5634375582410631 -0.48601572017954225 1.6499158227684025 3.0750000000000006 4.5777557814693894 4.605500000000001 0.17822165929107461 0.0023250076599389928 15.692669792577279 1.2292725943055138 25.244675950038062 0.99091687255842631 -10286.957990568622 0.018846390289539196 -0.00075854036569882716
decision_type=2 2 2 2 2 2 2 2 2 2 2 2 2 2 2 2 2 2 2 2 2 2 2 2 2 2 2 2 2 2
left_child=1 2 23 4 -4 6 7 -6 9 -8 -10 13 14 -12 -13 16 17 -2 21 -20 -21 -19 -23 24 -1 -25 27 28 -7 -30
right_child=15 -3 3 -5 5 26 8 -9 10 -11 11 12 -14 -15 -16 -17 -18 18 19 20 -22 22 -24 25 -26 -27 -28 -29 29 -31
leaf_value=0.037760091166426785 0.040620600454256695 0.093856863038880495 -0.056781678966113504 -0.06194290774084428 -0.0509391007753901 -0.054782864389320222 0.11777608314529063 0.049084332482568153 0.09028418844391127 0.034184251795522869 0.10248392453560462 -0.00023089181631803514 0.060827769440948032 0.013195849462028812 -0.076710218191146859 -0.040633917029304106 -0.024173384501637144 -0.0296000368538357 -0.046411691968666118 0.05649263181764147 -0.019130730107171489 0.098605500728907919 0.0027737127617001537 -0.037122230523695739 0.09420926279491848 0.039444564606639601 -0.032606045192663087 0.037954165094039025 0.073943206667900094 -0.013384551246251378
leaf_count=119 59 28 28 28 39 36 40 29 24 80 26 90 32 34 24 197 534 21 94 23 73 22 22 26 45 42 57 85 20 35
internal_value=0 0.442217 0.399429 0.263899 0.325868 0.388728 0.585997 -0.165641 0.732029 1.24096 0.466498 0.310476 0.0115977 1.03775 -0.326636 -0.408957 -0.315168 -0.0289525 -0.223621 -0.469464 -0.0202527 0.494998 1.01379 0.812445 1.06498 0.203381 0.034831 0.25731 -0.21138 0.36742
internal_count=2012 967 939 707 679 651 418 68 350 120 230 206 146 60 114 1045 848 314 255 190 96 65 44 232 164 68 233 176 91 55
shrinkage=0.05


Tree=34
num_leaves=31
num_cat=0
split_feature=16 117 56 106 1 165 112 1 77 140 3 21 23 134 168 81 131 88 55 98 71 164 56 72 125 130 58 79 47 87
split_gain=328.397 53.5824 47.5255 57.4184 48.0775 53.5832 52.957 54.6036 52.168 45.0528 43.4342 49.5586 43.4037 42.9926 47.3965 42.7365 41.3555 38.9477 38.5484 57.4609 37.7542 38.7937 44.7062 70.2685 66.7977 44.1781 37.378 36.7871 35.744 37.9989
threshold=1.6363916944843659 1.5739007500000002 2.912051316736147 5.4775000000000009 1.8968740887838893 964.62192991804602 -7.2371567558771874e-07 1.8859126879755783 105.50000000000001 0.0061946861199897721 0.51639777949228904 0.051856167597823112 -0.013225171332362678 -0.0952052126205888 -6.9530941983080234 5.2925000000000013 0.99236536386176166 0.71011333333333349 2.2336920348263569 3.3753297769758563 4.0135000000000014 93.363036707867707 3.6231110733159899 0.28500000000000009 0.96692648427693129 0.99166251229341484 0.0094225303080374533 0.22877570563567148 75087.798001631294 -31.499999999999996
decision_type=2 2 2 2 2 2 2 2 2 2 2 2 2 2 2 2 2 2 2 2 2 2 2 2 2 2 2 2 2 2
left_child=1 2 9 4 6 -6 -4 -8 10 13 11 12 -7 14 -1 -13 -14 20 19 -12 -2 22 23 24 -22 -24 -19 -15 29 -27
right_child=17 -3 3 -5 5 8 7 -9 -10 -11 18 15 16 27 -16 -17 -18 26 -20 -21 21 -23 25 -25 -26 28 -28 -29 -30 -31
leaf_value=0.12257117125494728 0.02504591828061117 0.089164019535694805 0.070009133335504986 -0.046821278816481175 -0.070802571092333108 0.061934326383574261 0.0046725015606611008 0.08567398202419281 -0.066054039962944538 -0.027345581039447675 0.005001696695884069 0.09786121179867123 -0.023099304691899615 -0.025505058289955147 0.048432680826988962 0.031727840338441497 0.05544322255466666 -0.01435834690865532 0.0115633993848162 -0.096677271959682315 -0.084438476863282708 0.04212909983471036 -0.085107400058171689 0.085341749675571926 0.0079574464190698847 0.028308219733563341 0.03088785910019369 0.048077693876878519 -0.051469917413933822 -0.02734777974474463
leaf_count=29 37 28 74 38 21 29 124 25 21 22 33 36 83 29 84 76 21 148 129 24 27 20 39 20 71 33 66 41 150 434
internal_value=0 0.420106 0.379457 0.260563 0.325916 0.145453 0.708692 0.365267 0.218001 0.805156 0.292991 0.56959 0.156866 0.967699 1.34919 1.0597 -0.144795 -0.38851 -0.0713462 -0.75621 -0.486479 -0.532491 -0.568022 -0.0013602 -0.349971 -0.669952 -0.00807819 0.351868 -0.604708 -0.468298
internal_count=2012 967 939 734 696 473 223 149 452 205 431 245 133 183 113 112 104 1045 186 57 831 794 774 118 98 656 214 70 617 467
shrinkage=0.05


Tree=35
num_leaves=31
num_cat=0
split_feature=18 18 21 60 4 165 96 140 134 21 1 67 100 86 3 160 47 140 88 146 86 38 58 97 103 137 59 139 65 97
split_gain=317.724 91.3136 57.6867 58.0266 56.7 54.683 68.6512 52.7544 78.959 48.4059 48.0195 57.9949 45.8421 44.7795 43.7279 41.266 40.6562 49.4106 48.9275 36.3637 75.2021 37.0901 54.2004 53.8259 35.3338 36.9585 34.514 37.4413 34.293 46.0302
threshold=2.4863668676140227 2.3709308575563299 0.060588841056242591 74425.97302136528 3.1879529864590963 1097.9318795920424 4.548960000000001 0.0059436293708375783 -0.10641170015708733 0.10464835368869228 1.8666396070560627 8.0350000000000019 4.5671140939597333e-06 5.0895000000000001 0.42163702135478065 -8.7008326469610123e-16 74917.255916620183 -0.00058314647201870655 0.69594666666666682 4.3147381090012091 4.440500000000001 8.2443582113063769 0.034723726486573993 4.591870000000001 -1.0000666711114082e-05 -0.14682037006811768 3.0615051463089631 -0.0023590521980206805 4.6770227545915404 4.4650700000000008
decision_type=2 2 2 2 2 2 2 2 2 2 2 2 2 2 2 2 2 2 2 2 2 2 2 2 2 2 2 2 2 2
left_child=1 7 4 -4 15 6 -3 9 -9 13 -11 -12 19 14 -1 -2 -16 -18 -19 20 -7 22 23 28 25 -6 -24 -28 29 -21
right_child=2 5 3 -5 24 12 -8 8 -10 10 11 -13 -14 -15 16 -17 17 18 -20 21 -22 -23 26 -25 -26 -27 27 -29 -30 -31
leaf_value=0.12008365884423255 -0.035902049781923948 -0.11424656089395285 -0.026028586145151744 0.087554685884843705 0.051106213442981246 -0.03726947050421469 0.0079745093429530109 -0.066033763579886273 0.063236869962531181 0.070659754833636387 -0.070319846194858357 0.032500335871009159 0.076770816743373882 0.11636114965503415 -0.0097480933392240163 0.048983428409186812 0.019243289904440183 0.044689326640218498 0.12763765691779555 -0.0097972242651801367 0.050559096595501167 0.045686530304730549 0.00063282351375708724 -0.063544790067200402 -0.037534815759764951 -0.020040789946165097 0.062153465216742615 0.0077199236051562958 -0.024352298128297149 0.079821905688099243
leaf_count=20 22 20 22 23 20 31 27 27 21 26 24 32 26 30 31 41 57 40 32 38 114 49 234 53 501 209 59 68 92 23
internal_value=0 0.345189 -0.460901 0.640502 -0.523401 0.167119 -0.880689 0.781983 -0.189557 0.941688 0.290119 -0.231309 0.229695 1.19611 1.00759 0.386818 0.833332 1.08044 1.63111 0.185084 0.635639 0.0790277 0.00689291 -0.402396 -0.601955 -0.276542 0.240448 0.660159 -0.101543 0.479872
internal_count=2012 1174 838 45 793 834 47 340 48 292 82 56 787 210 180 63 160 129 72 761 145 616 567 206 730 229 361 127 153 61
shrinkage=0.05


Tree=36
num_leaves=31
num_cat=0
split_feature=0 21 4 1 0 126 160 165 117 160 168 126 140 98 7 80 89 135 1 65 45 28 13 170 18 81 139 101 134 18
split_gain=288.694 84.2779 86.1747 61.6051 57.2592 58.3708 40.1384 58.7355 46.029 49.9241 41.223 40.8033 38.325 37.7269 36.4916 48.0149 46.5004 35.5661 41.2507 53.6977 47.3158 45.8401 40.7995 37.1398 36.1483 34.1861 55.0422 43.0282 46.0787 56.6404
threshold=2.2920812297196851 0.061361418846037595 3.1879529864590963 1.9470516431287122 2.2140734432536413 0.19666672326658888 5.6995001311103511e-16 1021.0677441235957 1.2089708000000003 1.9281287677586086e-15 2.1540660550310404 0.47377717673124004 -0.0055312572832523941 3.8552973781660578 2.5877143902651194 74554.22378165905 3.6505000000000005 -0.40538127599604928 1.877552135100619 4.4192477033687423 5.4447766666666686 11.745000000000003 4.7177583333333342 19905.017782931998 2.5634375582410631 5.6445000000000007 0.0029828480979356017 1.0573512917738569e-05 -0.14324880881488294 2.3826392289164748
decision_type=2 2 2 2 2 2 2 2 2 2 2 2 2 2 2 2 2 2 2 2 2 2 2 2 2 2 2 2 2 2
left_child=4 2 13 -3 -1 -6 7 -7 9 10 -8 12 -9 -2 25 16 -16 18 21 20 -20 -4 -19 -21 -25 26 27 28 -14 -30
right_child=1 3 17 -5 5 6 8 11 -10 -11 -12 -13 14 -15 15 -17 -18 22 19 23 -22 -23 -24 24 -26 -27 -28 -29 29 -31
